tree
version=v4
num_class=1
num_tree_per_iteration=1
label_index=0
max_feature_idx=67
objective=binary sigmoid:1
feature_names=surface_glicko_rating_diff a_surface_glicko_rating b_surface_glicko_rating a_surface_glicko_rd b_surface_glicko_rd surface_point_glicko_rating_diff a_surface_point_glicko_rating b_surface_point_glicko_rating a_surface_point_glicko_rd b_surface_point_glicko_rd surface_game_glicko_rating_diff a_surface_game_glicko_rating b_surface_game_glicko_rating a_surface_game_glicko_rd b_surface_game_glicko_rd surface_set_glicko_rating_diff a_surface_set_glicko_rating b_surface_set_glicko_rating a_surface_set_glicko_rd b_surface_set_glicko_rd surface_service_glicko_rating_diff a_surface_service_glicko_rating b_surface_return_glicko_rating a_surface_service_glicko_rd b_surface_return_glicko_rd surface_return_glicko_rating_diff a_surface_return_glicko_rating b_surface_service_glicko_rating a_surface_return_glicko_rd b_surface_service_glicko_rd surface_tiebreak_glicko_rating_diff a_surface_tiebreak_glicko_rating b_surface_tiebreak_glicko_rating a_surface_tiebreak_glicko_rd b_surface_tiebreak_glicko_rd surface_ace_glicko_rating_diff a_surface_ace_glicko_rating b_surface_return_ace_glicko_rating a_surface_ace_glicko_rd b_surface_return_ace_glicko_rd surface_return_ace_glicko_rating_diff a_surface_return_ace_glicko_rating b_surface_ace_glicko_rating a_surface_return_ace_glicko_rd b_surface_ace_glicko_rd surface_first_won_glicko_rating_diff a_surface_first_won_glicko_rating b_surface_return_first_won_glicko_rating a_surface_first_won_glicko_rd b_surface_return_first_won_glicko_rd surface_return_first_won_glicko_rating_diff a_surface_return_first_won_glicko_rating b_surface_first_won_glicko_rating a_surface_return_first_won_glicko_rd b_surface_first_won_glicko_rd surface_second_won_glicko_rating_diff a_surface_second_won_glicko_rating b_surface_return_second_won_glicko_rating a_surface_second_won_glicko_rd b_surface_return_second_won_glicko_rd surface_return_second_won_glicko_rating_diff a_surface_return_second_won_glicko_rating b_surface_second_won_glicko_rating a_surface_return_second_won_glicko_rd b_surface_second_won_glicko_rd surface_Clay surface_Grass surface_Hard
feature_infos=[-1064.6861447183965:1008.0909801081112] [1227.7987573342309:2717.0784100465544] [1270.4279938159166:2747.1020924714589] [63.375322675013201:149.7954993407383] [63.128501955216322:149.22143329051073] [-91.825941869871727:97.928289898806042] [1465.2994284521235:1616.194767859017] [1454.4247381069929:1617.8812236601375] [58.72023552278182:142.22631310757492] [58.471608039674607:137.76180388506685] [-206.53421801790569:214.24487454640095] [1432.1256959825755:1752.0706920458715] [1388.6493045926702:1750.8464791102056] [59.407128677391718:142.52696354768275] [59.169869459239344:138.64994055858062] [-810.33397057728826:735.44268888062697] [1324.2120205012206:2400.9998159983161] [1264.4119259346785:2395.6757181590028] [62.608150200159152:154.16877122670564] [62.437406062266405:148.96313855949344] [-18764.266912149986:1162.2311428947744] [-16910.502814600775:2756.1608551074351] [1086.3182381794709:10210.542038688423] [67.099008334473822:376.65461533658521] [70.364881489899403:349.14284150608728] [-1079.7590922166437:19887.891893889489] [1117.9903552965382:10210.542038688423] [-18017.170795378031:2761.0645576637262] [68.807459124684755:349.115422478109] [67.042286304908217:375.87341565364977] [-683.45111140694303:694.12137959397933] [1025.0842776808013:2072.9818249918944] [1025.0842776808013:2035.1797843447837] [63.030702867654803:350.1590443715483] [63.10041942092127:350.1590443715483] [-765.68405186390567:8054.9249617760588] [909.99470156179643:9387.1923085701383] [801.61038397938592:1846.9676847380092] [61.431679878824625:235.37756577128189] [62.548158305237088:188.69719946917331] [-8120.8431380306838:842.66181094685157] [755.62987960188957:1854.5299730331544] [919.06120716359237:9387.1923085701383] [62.671083344182826:174.50956879289396] [61.263844387972647:235.13196477310987] [-108.15968736373748:109.84317953096432] [1415.0713328731017:1586.257245976386] [1448.2380271890083:1568.2300844128602] [59.552665798876482:146.78203771941756] [59.384451903882692:146.57494110491265] [-95.082409739198283:93.881401004992753] [1463.757559862009:1568.2300844128602] [1438.4420801757578:1585.1152092134446] [59.342133985652758:144.55064770123414] [59.569302444237771:148.05771702911713] [-127.59659387750526:119.6566450661312] [1441.9331535445101:1621.8330572049867] [1443.8781871996955:1619.9858692804155] [56.864358252848128:110.47526737181596] [56.843484949794217:350.1590443715483] [-127.59659387750526:119.6566450661312] [1441.9331535445101:1621.8330572049867] [1443.8781871996955:1619.9858692804155] [56.864358252848128:350.1590443715483] [56.843484949794217:111.89782394487835] [0:1] [0:1] [0:1]
tree_sizes=3350 3396 3384 3409 3382 3375 3374 3398 3395 3394 3408 3409 3395 3385 3369 3416

Tree=0
num_leaves=31
num_cat=0
split_feature=10 12 23 48 6 31 39 8 21 12 37 65 38 33 35 61 34 11 0 57 46 32 8 46 24 67 32 31 54 41
split_gain=33.6351 26.2462 11.9281 11.4834 13.9912 17.9262 10.5514 10.0778 9.6438 8.45992 8.39505 11.3471 12.5861 14.9613 12.2982 10.2305 11.4762 10.1322 12.2379 7.91359 7.69141 8.82584 7.42504 12.0852 7.42021 7.35731 10.7106 9.85809 9.51665 12.2896
threshold=84.517338331519582 1653.8451959711044 79.627127572376537 60.938646946141681 1573.7167859452727 1851.8518304392401 65.146947870317391 60.498872215591618 2096.4664708018304 1496.0624265041292 1481.3020510470424 1.0000000180025095e-35 63.436384503306392 66.735195582382673 18.325542248493324 1548.5810069453466 66.440996535134317 1601.6534293234386 234.51562795389717 1550.6503502042185 1558.7367163784738 1869.0286192614496 60.614163338898585 1526.8612006889869 94.386995345398489 1.0000000180025095e-35 1453.5266855633022 1351.5191581879096 61.150582674522575 1555.1415203556837
decision_type=2 2 2 2 2 2 2 2 2 2 2 2 2 2 2 2 2 2 2 2 2 2 2 2 2 2 2 2 2 2
left_child=1 3 20 7 5 9 -4 8 10 -5 17 12 13 14 -12 -13 -17 -1 -19 22 21 -3 23 -9 -6 26 -11 -28 29 -27
right_child=-2 2 6 4 24 -7 -8 19 -10 25 11 15 -14 -15 -16 16 -18 18 -20 -21 -22 -23 -24 -25 -26 28 27 -29 -30 -31
leaf_value=-0.63141868938381118 -0.63607321147277152 -0.62516301169624866 -0.57407497724782064 -0.5493549605792265 -0.61253894140783405 -0.55094659143112801 -0.64986491846252148 -0.48649548962194433 -0.53497699170055446 -0.56691310325972333 -0.5917321320111022 -0.5261799449524196 -0.63384932079615663 -0.65369269327134472 -0.48649548962194428 -0.54800965354964315 -0.6549908082065109 -0.51069508488698911 -0.60739326058375198 -0.49744292557517883 -0.56412276274488016 -0.55218010534135153 -0.61618050014487669 -0.60014030094599824 -0.65955495660869323 -0.60764711417107331 -0.54592442765378901 -0.60197328177380549 -0.60904545810136379 -0.57011807268641057
leaf_weight=4.7956434935331371 89.518678545951843 44.530975297093391 5.0240074694156638 7.0792832523584357 16.898934215307236 16.213842287659645 53.43717035651207 4.567279517650606 6.3941913247108451 24.434945419430733 7.0792832523584384 7.3076472282409695 37.223328068852425 5.0240074694156638 4.5672795176506042 4.7956434935331327 5.2523714452981949 8.6778310835361463 5.252371445298194 4.5672795176506034 7.5360112041234961 4.5672795176506034 5.9374633729457846 4.7956434935331345 16.670570239424706 51.381894573569298 7.9927391558885565 424.7569951415062 701.30576993525028 37.908419996500015
leaf_count=21 392 195 22 31 74 71 234 20 28 107 31 32 163 22 20 21 23 38 23 20 33 20 26 21 73 225 35 1860 3071 166
internal_value=-0.606281 -0.604544 -0.627509 -0.602684 -0.604026 -0.603184 -0.643352 -0.587625 -0.59431 -0.603859 -0.598526 -0.606356 -0.617679 -0.581573 -0.550463 -0.571194 -0.603932 -0.568735 -0.547155 -0.5552 -0.611155 -0.618374 -0.572441 -0.544704 -0.635887 -0.604168 -0.59912 -0.600938 -0.607088 -0.591714
internal_weight=0 1535.98 115.095 1420.88 1304.64 1271.07 58.4612 116.237 96.3696 1254.86 89.9754 71.2496 53.8939 16.6706 11.6466 17.3557 10.048 18.7258 13.9302 19.8677 56.6343 49.0983 15.3004 9.36292 33.5695 1247.78 457.185 432.75 790.596 89.2903
internal_count=7118 6726 504 6222 5713 5566 256 509 422 5495 394 312 236 73 51 76 44 82 61 87 248 215 67 41 147 5464 2002 1895 3462 391
is_linear=0
shrinkage=1


Tree=1
num_leaves=31
num_cat=0
split_feature=5 12 20 58 6 31 20 37 16 3 20 34 45 29 46 65 31 3 20 4 18 37 13 19 52 63 13 19 28 20
split_gain=32.7392 24.2872 11.4112 11.0384 11.8995 13.003 8.46407 11.8036 10.3882 8.29532 8.02677 8.16059 7.93658 12.9378 8.71795 8.99145 10.9142 9.34566 13.5466 11.5365 12.5579 14.3966 11.4909 9.70003 9.43981 9.03264 11.0409 9.39101 9.05004 12.6673
threshold=37.856922713438628 1653.8451959711044 -8029.4093308580887 58.790060562080129 1573.7167859452727 1851.8518304392401 -1207.070054640976 1561.4094809140056 1745.0831411881882 66.332615725322611 205.04412665337398 73.530439680337153 61.543000190381811 91.592941521689312 1551.704602173133 1.0000000180025095e-35 1351.5191581879096 66.14233549792084 -33.670270376996989 65.449371469691684 64.496950902595003 1480.0110640956234 61.682103483750318 65.472888359326305 1529.3113087729905 70.779530975234664 77.091464902559707 66.589318122745368 79.471827195522408 15.781171316718202
decision_type=2 2 2 2 2 2 2 2 2 2 2 2 2 2 2 2 2 2 2 2 2 2 2 2 2 2 2 2 2 2
left_child=1 3 -3 6 5 12 7 -1 -8 -9 11 -10 14 -14 15 17 -17 18 19 24 22 -22 -21 -23 -5 26 28 -27 -18 -30
right_child=-2 2 -4 4 -6 -7 8 9 10 -11 -12 -13 13 -15 -16 16 25 -19 -20 20 21 23 -24 -25 -26 27 -28 -29 29 -31
leaf_value=-0.068962426468222746 -0.027136788082177482 -0.047904613499845324 -0.011267855069950974 0.069846517253157464 -0.028683780963122005 0.048140721857016018 -0.047395760019684277 -0.033455584192542263 0.022688224546352553 0.056086212955932024 -0.032500856742199248 0.05979685333671908 -0.0076402205877124391 0.10860297905681977 -0.019517428546256196 0.071783898992695383 -0.0067592942080129661 -0.0025881016636074335 0.053482190887187989 0.0093307888330840354 -0.024639273838846589 0.0019086307911240835 -0.02412530025988123 0.060121620481405881 -0.0023257159945490875 0.0087011486437181384 -0.060698694642155132 0.089465526187765904 0.010320312651828326 0.063775466016418564
leaf_weight=6.360643923282626 104.05982960760593 28.216396316885948 86.132913246750832 11.886836171150209 30.328042358160019 15.761264413595198 5.0218116343021384 4.5634693652391416 80.677488014101982 5.9707412123680115 5.5107839554548255 18.147990629076958 5.0251351892948133 4.5710688531398773 44.999472200870514 6.9662853479385367 77.101553216576576 663.96769407391548 16.442214384675026 48.450228288769722 11.411743223667143 10.733934432268141 54.574333399534225 21.468729317188263 7.3211226612329474 7.5478241741657239 5.9518351554870597 6.8801042437553406 217.59699718654156 11.677429541945456
leaf_count=28 459 125 379 52 134 68 22 20 352 26 24 79 22 20 197 30 337 2907 72 212 50 47 239 94 32 33 26 30 951 51
internal_value=0 0.00185199 -0.0203082 0.00365309 0.00226253 0.00301316 0.0177585 -0.0151787 0.022847 0.0172963 0.0262279 0.0295027 0.00243703 0.0477312 0.00208221 0.00290593 0.00985627 0.000165055 0.0101931 0.0059014 0.00112863 0.0236171 -0.00839162 0.0407178 0.042338 0.00853601 0.00674926 0.0472145 0.00805954 0.0130429
internal_weight=0 1521.27 114.349 1406.92 1280.66 1250.34 126.253 16.8949 109.358 10.5342 104.336 98.8255 1234.57 9.5962 1224.98 1179.98 333.722 846.257 182.289 165.847 146.639 43.6144 103.025 32.2027 19.208 326.756 312.328 14.4279 306.376 229.274
internal_count=7118 6659 504 6155 5604 5470 551 74 477 46 455 431 5402 42 5360 5163 1458 3705 798 726 642 191 451 141 84 1428 1365 63 1339 1002
is_linear=0
shrinkage=0.05


Tree=2
num_leaves=31
num_cat=0
split_feature=5 12 23 58 11 31 39 58 20 41 59 58 26 4 20 36 4 18 35 7 28 18 58 57 5 11 46 22 54 31
split_gain=29.7852 22.0255 10.6486 9.89004 10.8246 10.6363 9.53116 7.98763 11.4724 11.223 8.01993 7.88224 13.3074 10.2216 9.29256 9.25733 9.45424 8.88603 8.67018 10.8575 10.6541 8.88291 11.3751 8.37939 8.18722 8.17984 8.17128 13.497 8.11063 7.91138
threshold=37.856922713438628 1653.8451959711044 79.627127572376537 58.790060562080129 1656.210689004138 1851.8518304392401 65.146947870317391 58.619537100335315 -371.71849243999026 1704.2593165644548 58.063516575898532 68.303977607555353 1697.1653480260975 95.512637723804616 -2362.7070479560375 1935.9094686503379 65.569901011385198 64.93578933562749 -207.76368021260495 1555.1579319169412 76.434829674503519 64.368588329836456 59.478031889233996 1539.5100770843894 9.7216875665328661 1545.4538442271801 1481.5964909038123 1564.477696362193 61.481459559154452 1803.4812344766497
decision_type=2 2 2 2 2 2 2 2 2 2 2 2 2 2 2 2 2 2 2 2 2 2 2 2 2 2 2 2 2 2
left_child=1 3 -3 7 5 11 -4 8 10 -10 -1 12 13 14 -5 16 18 23 28 20 -20 -22 -23 -17 25 -24 -13 -28 -14 -29
right_child=-2 2 6 4 -6 -7 -8 -9 9 -11 -12 26 15 -15 -16 17 -18 -19 19 -21 21 22 24 -25 -26 -27 27 29 -30 -31
leaf_value=-0.060741880453157954 -0.026004309947665338 -0.003980045689605651 0.030967287241701277 -0.055709380701325542 -0.02609250578033739 0.044388584525277802 -0.040936528949566779 0.045294238452482913 0.033959959313305747 -0.041230642493409013 0.0011372294632125306 0.038195875756950208 0.028571676602547509 0.056905530597735114 -0.012210848814175369 -0.022526422459944111 0.00220249240756839 -0.038752312404423048 0.080129331184206398 0.083908608287222561 0.049910610092101772 -0.047963846277965731 0.055053396611984079 0.059233900389426497 0.049643261975799179 -0.006642239391180165 0.074068768980487532 -0.0030662936124871134 -0.035342678785250395 0.064792242182335202
leaf_weight=5.9483419507741919 103.18474121391773 56.314195185899734 5.0545414686202994 13.926896154880522 33.062779992818832 15.254200354218481 52.254193648695946 20.57785826921463 51.084642320871353 5.4967637956142417 43.741741672158241 28.449708729982376 8.0118022710084933 4.8230635076761237 103.69982884824276 7.3055827468633634 852.35644815862179 24.821930378675461 6.6517054587602606 7.1135463565587989 14.053081393241881 8.4670092463493329 6.4105276912450782 5.4877921640872955 12.586068555712698 33.178576827049255 6.9012272357940665 71.174231871962547 13.046269863843916 4.5710538029670706
leaf_count=26 459 248 22 61 147 65 234 89 221 24 191 124 35 21 454 32 3728 109 29 31 61 37 28 24 55 145 30 311 57 20
internal_value=0 0.00175495 -0.0194214 0.00346359 0.0021452 0.00289311 -0.0345947 0.0167812 0.0112601 0.0266554 -0.00627025 0.00237976 0.00112179 -0.0144358 -0.017361 0.00302779 0.00397937 -0.0213055 0.0178084 0.0246723 0.0194923 0.0140925 0.00579208 0.0125451 0.0145156 0.00334792 0.0150838 0.00712786 -0.0110257 0.00102881
internal_weight=0 1521.83 113.623 1408.2 1281.35 1248.29 57.3087 126.849 106.271 56.5814 49.6901 1233.04 1121.94 122.45 117.627 999.49 961.875 37.6153 109.519 88.4605 81.347 74.6953 60.6422 12.7934 52.1752 39.5891 111.096 82.6465 21.0581 75.7453
internal_count=7118 6659 504 6155 5604 5457 256 551 462 245 217 5392 4907 536 515 4371 4206 165 478 386 355 326 265 56 228 173 485 361 92 331
is_linear=0
shrinkage=0.05


Tree=3
num_leaves=31
num_cat=0
split_feature=5 12 20 48 29 14 31 16 37 54 20 46 46 29 12 23 20 57 55 64 25 21 57 47 39 54 28 21 1 52
split_gain=27.1995 19.6449 10.1214 8.26932 11.2319 15.6959 12.1824 11.3756 9.8381 12.409 9.34998 12.0659 10.2176 11.3709 11.1201 9.70432 10.3118 9.2988 16.9946 12.3699 16.1139 11.8914 10.986 10.9789 12.6465 12.1555 10.899 10.2482 10.2336 13.0608
threshold=40.621098875139531 1653.8451959711044 -8029.4093308580887 60.938646946141681 78.588982970568722 61.898370186189403 1851.8518304392401 2033.6529393492679 1525.6406680819521 62.001354190748323 -1942.5861031871043 1490.5035935273661 1549.4170405927537 69.923792279949026 1611.387624329855 86.640527076281572 -1256.8858963415205 1526.4137456459864 -24.811294386299206 60.405958281540258 773.99158332663671 565.09754947478018 1514.1239713167799 1531.6185883916062 82.898468863423446 64.011527366304477 188.34578074832876 814.77869272509781 1771.3256723392221 1517.1891067384502
decision_type=2 2 2 2 2 2 2 2 2 2 2 2 2 2 2 2 2 2 2 2 2 2 2 2 2 2 2 2 2 2
left_child=1 3 -3 -1 5 10 7 17 9 -7 -5 -12 13 14 -13 -15 -17 19 -19 -6 21 -21 26 24 25 -20 -22 -23 -25 -30
right_child=-2 2 -4 4 6 8 -8 -9 -10 -11 11 12 -14 15 -16 16 -18 18 23 20 22 27 -24 28 -26 -27 -28 -29 29 -31
leaf_value=0.015793768335865644 -0.027682535346991874 -0.044996344523773851 -0.010093043306609798 -0.015901887111644503 -0.015687102697681119 -0.062851320109378092 0.051064542909805923 -0.043482745383116868 -0.02835486659531903 0.0097058395104851706 0.065199110140538405 0.1180328774320189 -0.028752781070855962 0.016997778575502744 0.012716978965358384 0.035996749042010272 -0.018197809777364245 -0.0047413388330895334 0.016709727846333851 -0.0084049274293986811 0.0019442121310265107 0.082414369421820205 -0.017354052684281997 0.093545912207422754 0.073588325492348422 -0.012265717912666119 0.078528447683136091 0.019719348114009633 0.050523440030576218 -0.0077435126437041925
leaf_weight=117.54243531823158 84.201258257031441 27.441122338175774 85.444289654493332 53.547138020396233 97.173869371414185 6.8581579476594916 14.071532279253004 12.34683310985565 90.885778352618217 41.861232712864876 8.7324481159448606 4.5938937067985517 19.900587156414986 82.555158346891403 5.516112819314003 10.551056846976278 52.211563035845757 124.56332011520863 169.92257289588451 39.107211917638779 138.97698174417019 6.8739107549190512 95.774489119648933 7.3136751055717459 8.2571583390235883 45.992042064666748 4.8063225597143164 125.91772292554379 26.549024477601051 15.080627873539923
leaf_count=509 378 125 379 234 425 30 60 55 398 183 38 20 88 361 24 46 228 545 743 171 607 30 419 32 36 201 21 550 116 66
internal_value=0 0.00150168 -0.0185776 0.00308956 0.00194959 -0.0053308 0.00489393 0.00418671 -0.0186368 -0.000507927 0.00248708 0.00783682 0.00497982 0.00929886 0.0605716 0.00573173 -0.00908713 0.00483612 0.0105638 0.000357849 0.00414719 0.0158281 -0.00423464 0.0175443 0.0128601 0.0105377 0.00450423 0.0229647 0.0389989 0.0294158
internal_weight=0 1540.37 112.885 1427.48 1309.94 377.213 932.727 918.656 139.605 48.7194 237.608 184.061 175.328 155.428 10.11 145.318 62.7626 906.309 397.678 508.631 411.457 171.899 239.558 273.115 224.172 215.915 143.783 132.792 48.9433 41.6297
internal_count=7118 6740 504 6236 5727 1650 4077 4017 611 213 1039 805 767 679 44 635 274 3962 1739 2223 1798 751 1047 1194 980 944 628 580 214 182
is_linear=0
shrinkage=0.05


Tree=4
num_leaves=31
num_cat=0
split_feature=5 12 46 65 36 43 3 20 18 59 34 45 34 34 48 33 18 44 24 19 40 50 44 24 63 63 18 3 47 22
split_gain=24.9207 18.1377 9.9473 8.81887 11.1078 9.599 9.75068 9.72956 14.3171 9.43527 11.4111 10.48 11.4653 9.88736 9.41429 11.1237 14.1455 13.1773 10.7603 9.92179 8.40272 14.2566 8.86982 8.38469 8.32125 11.1564 10.7128 8.25473 7.83634 14.5212
threshold=37.856922713438628 1653.8451959711044 1558.7367163784738 1.0000000180025095e-35 1267.641165089545 129.77489057136776 66.090735846092159 -407.53798076319066 64.453296729539971 61.585665545345648 69.620583800739482 -2.7806791501135417 67.929664945392247 67.958706680993515 60.873122641314517 91.354014665068817 67.076930814224895 71.963749146440179 79.048950954145482 66.945150342119334 162.05721546721955 12.33942190959033 64.704270311971712 86.549877173829898 71.680146884869359 67.041365620786408 102.2966878105439 65.949982873411116 1529.9741636047145 2127.639877515955
decision_type=2 2 2 2 2 2 2 2 2 2 2 2 2 2 2 2 2 2 2 2 2 2 2 2 2 2 2 2 2 2
left_child=1 3 -3 5 -5 6 7 8 9 10 11 13 -13 -1 -6 16 27 19 -19 -18 21 22 -9 -12 25 -17 -26 -16 29 -10
right_child=-2 2 -4 4 14 -7 -8 20 28 -11 23 12 -14 -15 15 24 17 18 -20 -21 -22 -23 -24 -25 26 -27 -28 -29 -30 -31
leaf_value=0.018031119617444691 -0.023995492095345936 -0.022197090363921687 0.032259164113284958 0.047002132588069179 0.036773493339652533 0.072473976058576653 -0.0023463920769686702 0.051487897004424688 0.042180753012771355 -0.037997193879418967 0.09640083255419063 -0.053370122822961823 0.031510520797041579 -0.048101104871906074 -0.0074430876509077627 0.038909938791861193 -0.016238433674928006 -0.040014517720386722 0.043174770585999889 -0.063847153800080755 -0.014482534490640672 0.07252104783522749 0.0073586945336397216 0.012173063148395709 0.12189813721889474 -0.023281207745855934 0.016300666564740478 0.013690208874057988 0.06878182435579995 -0.033153921770172144
leaf_weight=32.33708181977272 101.5602915585041 103.04649691283703 9.1287968009710294 18.715665504336357 25.712107881903648 4.6279134750366202 779.52273261547089 15.00187663733959 17.472998008131984 21.827659398317337 4.5901609808206549 18.90908116102219 5.0384969115257254 6.8489617258310309 62.470224842429161 20.93751792609692 41.743469700217247 5.4447457045316723 13.587613701820372 14.831866398453711 13.343244060873984 14.845422834157942 47.253433242440224 8.2929596006870252 4.9391146898269636 10.99965927004814 4.6753357350826263 177.49125343561172 8.8059158623218519 10.090719416737555
leaf_count=141 459 464 40 81 110 20 3410 65 76 96 20 83 22 30 272 91 183 24 59 65 58 64 205 36 21 48 20 773 38 44
internal_value=0 0.00158511 -0.0177655 0.00312419 0.00939101 0.000629728 0.000298623 0.00947635 0.000934607 -0.00902174 -0.000701649 -0.0094527 -0.0355115 0.00647249 0.0075523 0.00544842 0.00224633 -0.0166127 0.0193761 -0.0287196 0.0221518 0.0284919 0.0179927 0.0421828 0.0297671 0.0174903 0.070548 0.00818849 0.0277199 0.0146017
internal_weight=0 1522.53 112.175 1410.36 401.549 1008.81 1004.18 224.658 134.214 97.8444 76.0167 63.1336 23.9476 39.186 382.833 357.121 315.569 75.6077 19.0324 56.5753 90.444 77.1007 62.2553 12.8831 41.5516 31.9372 9.61445 239.961 36.3696 27.5637
internal_count=7118 6659 504 6155 1747 4408 4388 978 586 428 332 276 105 171 1666 1556 1376 331 83 248 392 334 270 56 180 139 41 1045 158 120
is_linear=0
shrinkage=0.05


Tree=5
num_leaves=31
num_cat=0
split_feature=5 12 23 39 58 41 29 14 58 39 30 34 47 31 16 57 55 46 62 57 34 58 41 31 16 16 19 58 53 3
split_gain=22.7635 16.1696 9.41596 8.84625 7.54412 9.60599 8.60871 15.5556 9.78109 13.6763 9.75642 11.4048 13.6 8.83245 10.0365 11.0899 25.8343 11.7165 11.4589 14.9249 10.9336 9.32239 10.6487 8.9626 9.9668 9.51156 13.1068 8.4497 9.94847 10.1611
threshold=40.621098875139531 1653.8451959711044 79.627127572376537 65.383832446129574 59.120903700302968 1724.2847087857758 78.588982970568722 61.898370186189403 59.638847020806544 65.843748914704122 -305.15580759082667 67.900918929416164 1511.3455385996783 1851.8518304392401 2033.6529393492679 1532.4092361518954 -23.626468579075659 1536.142960456684 1549.0591079914232 1534.3580365611067 69.382842432150383 77.114715750681881 1552.9822100915862 1777.3847682666731 1840.5615687318107 1920.6962413985182 64.965021242572178 60.238073739181182 62.476957515995558 66.611684083870884
decision_type=2 2 2 2 2 2 2 2 2 2 2 2 2 2 2 2 2 2 2 2 2 2 2 2 2 2 2 2 2 2
left_child=1 4 -3 -4 5 -1 7 8 9 -6 11 -8 -13 14 15 21 -17 18 19 20 -18 -12 -23 24 -19 26 -26 -10 29 -29
right_child=-2 2 3 -5 6 -7 10 -9 27 -11 13 12 -14 -15 -16 16 17 23 -20 -21 -22 22 -24 -25 25 -27 -28 28 -30 -31
leaf_value=0.014614376481032212 -0.025568293477739663 -0.0024579429445201126 0.020035602701396139 -0.0392159823440014 0.072149574256225577 -0.040709415313890017 0.10000481198788023 -0.018772642885987241 -0.021970410376360966 0.00021227148508608874 -0.0022006244803860569 0.064780367851169168 -0.020679655406572184 0.043176181058194353 -0.042238157145827737 -0.0079261530819941424 0.093560093075477371 -0.036371163592707804 0.057280340326089633 0.013338364544232645 0.019132317129007505 0.058031611528603748 -0.019071174118179945 -0.054599456463687593 0.11811198174063942 -0.0097301467183888019 0.013036745741068707 0.048757117886064766 -0.0030478402781971324 -0.0035222919927226579
leaf_weight=177.88108839094639 82.728395730257034 55.75860957801342 7.239882990717887 48.493000581860542 11.586152121424677 8.2082410901784879 5.3160614818334606 132.45443043112755 38.53104954957962 15.373704120516775 537.50675290822983 8.3432893902063388 10.531940311193464 13.548159599304197 12.362338557839392 108.71866266429424 11.328058391809465 8.4781980067491549 29.806433826684952 87.597345039248466 8.7425971329212171 13.477136969566347 6.706516131758689 6.6174007207155219 5.08497002720833 9.5986215621232969 7.1280263215303421 21.7558813393116 116.37740463018417 16.226394563913345
leaf_count=768 378 248 32 224 50 36 23 583 168 67 2349 36 46 57 56 476 49 37 129 381 38 58 29 29 22 42 31 95 510 71
internal_value=0 0.00135442 -0.0169851 -0.031519 0.00278499 0.0121741 0.00137957 -0.00523683 0.00291815 0.0311277 0.00399604 0.035315 0.0170957 0.00312187 0.0024858 0.00314339 0.011203 0.0231292 0.0298444 0.0222492 0.06114 -0.00094793 0.0324123 -0.00188425 0.00963242 0.0275141 0.0567856 -0.00102464 0.00420382 0.0264228
internal_weight=0 1540.78 111.491 55.7329 1429.29 186.089 1243.2 352.305 219.851 26.9599 890.893 24.1913 18.8752 866.701 853.153 840.791 283.1 174.382 137.474 107.668 20.0707 557.69 20.1837 36.9072 30.2898 21.8116 12.213 192.891 154.36 37.9823
internal_count=7118 6740 504 256 6236 804 5432 1544 961 117 3888 105 82 3783 3726 3670 1234 758 597 468 87 2436 87 161 132 95 53 844 676 166
is_linear=0
shrinkage=0.05


Tree=6
num_leaves=31
num_cat=0
split_feature=5 12 20 6 43 18 50 57 32 39 20 54 35 35 63 52 19 45 52 29 29 38 42 43 43 3 34 33 32 50
split_gain=20.7829 14.9292 8.91722 8.44044 8.5425 9.95115 11.6453 9.1984 10.9654 8.29831 11.8246 10.5232 10.6664 10.3694 10.3418 10.5211 10.1722 10.0979 9.71953 8.94767 8.17746 12.6113 7.78246 7.70043 18.555 9.03845 8.37573 10.4324 7.65131 8.87532
threshold=37.856922713438628 1653.8451959711044 -8029.4093308580887 1586.116957394453 103.1384870664955 68.657805620546739 -56.825213306504445 1492.6813570410984 1553.0782545998632 65.352834006417353 -3452.3111150448553 62.525932878879566 89.955448008909016 20.872252710640627 61.345755480953009 1504.9390356691149 65.703960449379537 -58.07768026055043 1519.1134974027289 319.24781576670154 71.648390129692885 75.008788188119738 1509.692995465479 67.19289855199392 66.504369459832489 67.385592695121503 67.360379786944577 69.42811021233527 1589.6520566694001 16.527554839121652
decision_type=2 2 2 2 2 2 2 2 2 2 2 2 2 2 2 2 2 2 2 2 2 2 2 2 2 2 2 2 2 2
left_child=1 3 -3 4 5 6 -1 8 -7 10 22 12 13 14 15 -12 -13 -11 -15 -19 21 -9 -8 24 26 -25 27 -17 -14 -30
right_child=-2 2 -4 -5 -6 7 9 20 -10 17 11 16 28 18 -16 23 -18 19 -20 -21 -22 -23 -24 25 -26 -27 -28 -29 29 -31
leaf_value=-0.036281392711272085 -0.022105593658255537 -0.041586377938460622 -0.0083044235323210258 -0.039638205343343891 0.029022272851188049 -0.017675997056509001 0.011181109403509373 -0.012313982433120436 0.073856824759198747 0.057441017701992725 -0.0397291240077422 0.088709540099989673 0.05065943510762231 0.017166533290295896 0.05002998921264637 0.045643176583883172 0.009526304404379151 0.0019087092885251324 0.078984430068095926 0.03690866414115538 -0.010207272071733461 0.097282144485109273 -0.047773679574685375 0.08155088316927267 -0.070682138389360327 -0.00035252591946799628 -0.023794268624550415 -0.025015087025077726 -0.0014257273460187778 -0.062881534560588745
leaf_weight=17.098772779107094 99.961516976356506 26.432124331593513 84.353720933198929 11.61121806502342 31.236587718129158 5.7598694711923581 10.599579885601999 6.1580312699079496 7.5751081556081772 8.4933682233095151 10.366133391857145 9.8904091566801089 5.7897645831108084 11.517096653580667 17.202050998806953 24.403005421161655 6.8754254132509223 853.55394712090492 14.196162924170492 18.659808903932571 239.89860197901726 4.5749835669994354 11.862735509872435 8.1034842878580076 6.8926823586225501 5.7647233605384818 9.2025456428527814 6.6467937827110282 41.23614239692688 6.8509083837270728
leaf_count=75 459 125 379 53 134 25 46 27 33 37 45 43 25 50 75 105 30 3719 61 81 1050 20 52 35 30 25 40 29 180 30
internal_value=0 0.00142929 -0.0162451 0.002816 0.003168 0.00257816 0.00466136 -0.00614401 0.0343204 0.00530474 0.0143026 0.0184634 0.0146975 0.023343 0.0152289 0.00684203 0.0562376 0.00318581 0.0512959 0.00265748 -0.00829694 0.0344017 -0.0199539 0.0147545 0.00512044 0.0475054 0.0181006 0.0305174 -0.00364314 -0.0101813
internal_weight=0 1522.81 110.786 1412.02 1400.41 1369.17 1105.21 263.967 13.335 1088.11 207.4 184.937 168.171 114.295 88.5814 71.3794 16.7658 880.707 25.7133 872.214 250.632 10.733 22.4623 61.0132 47.145 13.8682 40.2523 31.0498 53.8768 48.0871
internal_count=7118 6659 504 6155 6102 5968 4813 1155 58 4738 901 803 730 495 384 309 73 3837 111 3800 1097 47 98 264 204 60 174 134 235 210
is_linear=0
shrinkage=0.05


Tree=7
num_leaves=31
num_cat=0
split_feature=5 64 33 39 29 21 37 49 58 0 20 10 55 57 31 10 3 47 33 38 29 38 55 0 47 15 13 0 30 17
split_gain=19.0496 13.8771 8.85623 11.6203 8.55232 12.7469 12.4182 12.0732 11.7512 11.3726 10.6663 9.08744 12.9745 11.5017 10.8026 10.9318 10.3811 10.4952 10.4193 10.1983 9.81842 9.70571 9.85863 9.66374 9.3619 9.56967 14.5292 9.167 10.4591 8.83002
threshold=40.621098875139531 85.178222499459579 65.980077450787675 100.30386299518595 78.588982970568722 84.467560252878357 1416.508052652395 61.771964058128496 58.028617692901427 222.2595182096226 34.121605069999994 26.670550685540778 -31.338270581175603 1532.7046451266353 1450.4181858653615 20.141267675663588 64.749362777828836 1528.2093455963748 65.28679439458115 63.247152721841665 313.49120119470058 95.987356304988936 -27.256279979571328 33.754081227810623 1518.1615427652707 87.121810873576365 61.449458293026026 84.382190229698168 13.319354383893712 1689.0879172057403
decision_type=2 2 2 2 2 2 2 2 2 2 2 2 2 2 2 2 2 2 2 2 2 2 2 2 2 2 2 2 2 2
left_child=1 4 3 -3 5 -1 -7 -8 -9 -10 11 12 -6 21 -15 16 -16 18 -18 -20 24 22 -14 -24 25 26 -13 28 -26 -21
right_child=-2 2 -4 -5 10 6 7 8 9 -11 -12 20 13 14 15 -17 17 -19 19 29 -22 -23 23 -25 27 -27 -28 -29 -30 -31
leaf_value=-0.025932787795841607 -0.023610257343794128 0.05727538548227952 -0.042168270220046586 -0.045420490272435457 -0.0085794356029080809 0.040428417691526046 0.0050681278647743888 0.057217417747455292 -0.011383734092206466 -0.063069960945985409 0.021707433408481011 0.051344044045309602 0.060871415494070338 0.08710623365508581 -0.038902363245562198 0.05817169519624054 -0.067669195659060211 0.03064441518940831 0.081442519577689554 0.066831761401387718 0.041333784809335972 0.034246814969183095 -0.0060332436069647014 0.01254475181075769 -0.02033190725414704 0.0047364013709830987 -0.038305183237152686 -0.028801838670172126 0.075392074975566659 0.0015598307499764888
leaf_weight=56.109830126166344 81.308147683739662 6.0215606242418271 29.219412952661514 5.0770481377840042 121.32937201857567 17.70337887108326 230.94188095629215 5.8331440389156333 151.82600566744804 11.444922357797621 83.365128546953201 5.3497678488492957 6.8627881705760947 5.6521178334951392 8.9447054415941221 14.898139372467993 4.6108656227588645 73.604814365506172 4.6578740775585166 5.5202755630016318 11.176607951521872 24.505106121301651 205.7303120046854 106.09714005887508 6.9087950587272626 154.97034367918968 29.120206713676453 64.07407134771347 4.8616098463535309 84.409941494464874
leaf_count=248 378 27 133 23 535 77 1009 25 672 51 362 23 30 24 39 64 20 319 20 24 48 105 900 462 30 674 127 282 21 366
internal_value=0 0.00122178 -0.0277257 0.0102973 0.00199959 -0.00355663 -0.000551186 -0.00236467 -0.0125155 -0.0150068 0.00456411 0.00304902 0.00620898 0.00949824 0.0189547 0.0169959 0.0136207 0.0163394 0.00572516 0.0093029 -0.00457278 0.00392404 0.00159242 0.000287791 -0.00650685 -0.000563631 -0.0243916 -0.0213515 0.0192056 0.00556648
internal_weight=0 1540.83 40.318 11.0986 1500.51 473.859 417.749 400.046 169.104 163.271 1026.65 943.285 666.823 545.494 202.299 196.647 181.748 172.804 99.199 94.5881 276.461 343.195 318.69 311.827 265.285 189.44 34.47 75.8445 11.7704 89.9302
internal_count=7118 6740 183 50 6557 2082 1834 1757 748 723 4475 4113 2908 2373 876 852 788 749 430 410 1205 1497 1392 1362 1157 824 150 333 51 390
is_linear=0
shrinkage=0.05


Tree=8
num_leaves=31
num_cat=0
split_feature=10 12 46 31 24 67 28 44 32 9 41 52 25 50 38 3 44 14 35 38 4 53 22 47 47 3 44 7 2 3
split_gain=17.2814 12.6982 8.7311 7.42217 10.3639 7.15781 10.353 11.777 14.6014 14.1067 11.7204 10.1171 9.73603 11.1611 9.04599 12.5716 10.671 12.0194 14.9668 11.0507 10.2975 9.79468 10.2354 9.17248 14.5059 9.16254 8.85518 8.77997 8.7902 8.73923
threshold=84.517338331519582 1653.8451959711044 1562.9700035403923 1851.8518304392401 105.38691574306691 1.0000000180025095e-35 79.264546743120462 76.178924145886683 1538.1776770558565 62.155540238476284 1666.3266090175578 1534.3661994050892 182.00862168556628 -30.969628032500392 67.381629859359307 72.055513890562949 64.035572029417295 61.424528610758124 -232.41743559775304 90.473303723024671 66.157844013953465 64.928044597787533 1548.282724308373 1515.046413737083 1529.1170433119989 66.090735846092159 63.305120660786422 1532.9911539616944 2031.8155917774886 65.825619861700787
decision_type=2 2 2 2 2 2 2 2 2 2 2 2 2 2 2 2 2 2 2 2 2 2 2 2 2 2 2 2 2 2
left_child=1 3 -3 5 -5 6 10 -8 -9 -10 11 12 13 -1 15 21 17 18 -16 20 -20 22 25 -24 -25 -7 -19 29 -29 -14
right_child=-2 2 -4 4 -6 14 7 8 9 -11 -12 -13 27 -15 16 -17 -18 26 19 -21 -22 -23 23 24 -26 -27 -28 28 -30 -31
leaf_value=-0.026814289807996602 -0.022106410661034883 -0.018508949590516823 0.044988924243570094 0.045998168013968201 -0.031874947053174778 0.019046684851322104 0.006149014134993005 0.063966606410839885 0.037891911574510266 -0.010453184714932621 0.071436913147750566 -0.037594912437043125 -0.037518153471241662 0.055883946721493376 0.098010192194614307 -0.051213849406220993 -0.0096064369623697736 -0.04269449068641331 0.033826434384157611 0.080107413867217814 -0.045393374890821125 0.065491683268151302 0.013250990321416021 -0.011219255195797216 0.01453416806931191 -0.062910212467212109 0.0095991166648787124 -0.046925275292216753 0.029126595877851394 0.01621601092456431
leaf_weight=5.9304652959108379 84.018439084291458 104.06612722575665 5.7107373028993598 19.886092856526378 5.4417477101087561 5.0994649082422248 313.50309638679028 20.529827862977982 32.11094705760479 28.464573532342911 4.6440547108650199 25.094600439071655 9.8750669211149198 13.075209140777586 7.3692408353090313 10.093770533800123 350.77692778408527 11.593425080180166 8.4881378263235145 5.0509857684373847 7.9385870695114127 6.6378437280654898 210.6943756788969 140.41043157875538 89.551379710435867 10.294906005263327 26.830834835767746 21.250731080770496 4.6266336292028418 32.371681541204453
leaf_count=26 392 479 25 84 24 22 1362 88 139 123 20 110 43 57 32 45 1539 51 37 22 35 29 917 613 388 45 117 93 20 141
internal_value=0 0.00118129 -0.0152057 0.00244135 0.0292669 0.00195684 0.0066712 0.0105425 0.027525 0.0151744 -0.00640029 -0.00962134 -0.00156456 0.0300791 -0.000749945 0.00398792 -0.00610813 0.0121333 0.0365254 0.0154293 -0.00445833 0.00519218 0.00431451 0.00571458 -0.0011904 -0.0357616 -0.00617899 -0.0103927 -0.0333279 0.00365579
internal_weight=0 1537.41 109.777 1427.64 25.3278 1402.31 511.477 394.608 81.1053 60.5755 116.868 112.224 87.1298 19.0057 890.83 472.782 418.048 67.2712 28.847 21.4777 16.4267 462.688 456.051 440.656 229.962 15.3944 38.4243 68.1241 25.8774 42.2467
internal_count=7118 6726 504 6222 108 6114 2222 1712 350 262 510 490 380 83 3892 2059 1833 294 126 94 72 2014 1985 1918 1001 67 168 297 113 184
is_linear=0
shrinkage=0.05


Tree=9
num_leaves=31
num_cat=0
split_feature=5 64 33 39 29 21 37 28 49 37 0 24 2 62 57 35 65 38 4 55 28 62 31 55 5 56 43 47 49 8
split_gain=16.1201 12.0471 8.07456 10.3787 7.83534 11.8089 10.8499 10.7022 9.14445 14.557 10.5459 10.8845 12.381 8.91351 11.8326 8.7736 8.41735 13.5799 10.9908 9.33971 9.60356 8.79771 10.6537 10.8689 15.7696 10.4674 8.75352 8.54395 12.9016 17.1335
threshold=37.856922713438628 85.178222499459579 65.980077450787675 100.30386299518595 78.588982970568722 84.467560252878357 1505.4865484811721 74.732158725139442 62.473435043909092 1425.6209372717074 225.31393595073408 82.204179522266671 1924.7116770398607 1542.768426928387 1545.0425518783179 -55.117532941046299 1.0000000180025095e-35 78.364215938804037 65.83537657647345 -41.034233673695319 88.689987858580153 1532.6939021356939 1430.5505044904187 -23.229493349383116 18.868215371916452 1488.5138085671024 67.602810060982719 1515.3139993039119 61.14008793155427 61.743451066256029
decision_type=2 2 2 2 2 2 2 2 2 2 2 2 2 2 2 2 2 2 2 2 2 2 2 2 2 2 2 2 2 2
left_child=1 4 3 -3 5 -1 7 -7 10 -10 11 12 -9 -8 -15 -13 19 -18 -19 20 26 25 -23 -24 -25 -21 -6 -27 29 -29
right_child=-2 2 -4 -5 16 6 13 8 9 -11 -12 15 -14 14 -16 -17 17 18 -20 21 -22 22 23 24 -26 27 -28 28 -30 -31
leaf_value=-0.024987638280041018 -0.019702169894977747 0.05381614253898203 -0.040102535597104222 -0.043437059462915428 0.03611235448819769 -0.056847338169749011 -0.014121062939698156 0.022205285050106272 0.053077990394412577 -0.029666523128903208 -0.041871525925818907 0.071495332022576435 0.088669973253350076 0.049573697109976805 -0.00079758187560177154 -0.0065614331716241717 0.006467905842085073 -0.018158576694248699 0.044011209402671843 0.0404184795833199 -0.045467450932981435 0.081751628611260202 -0.0087044912371644894 0.023578416609899525 -0.016370527171073072 0.0021669751973757054 -0.025076299328428316 -0.025056406964629508 -0.017977542665274307 0.095895382135977092
leaf_weight=55.687721773982048 97.828068524599075 6.1156876385211927 28.458594664931297 4.9749262481927872 10.190857127308847 4.7990637719631186 139.86761480569839 12.782963290810587 7.6075448393821743 17.641482159495354 4.4555622339248648 4.6394900381565121 15.505856454372404 12.470194965600966 179.17940206825733 16.066716000437737 236.22919256985188 8.4272318631410581 45.44776776432991 14.720761701464651 20.765699580311775 5.2002780735492697 60.650664463639259 131.99126948416233 30.390820071101189 303.21708513796329 13.70602512359619 5.7080118954181653 119.96427501738071 6.0115958452224731
leaf_count=248 459 27 132 23 45 21 614 55 33 77 20 20 67 54 792 70 1024 37 195 64 92 22 267 568 134 1319 61 25 527 26
internal_value=0 0.00123614 -0.0259989 0.0101912 0.0019623 -0.00336774 -0.000466741 0.0156421 0.0200624 -0.00473556 0.0317765 0.038474 0.0586364 -0.00452404 0.00247996 0.0109282 0.00443989 0.0116341 0.0342865 0.0015513 -0.0205954 0.0030105 0.0110055 0.00935602 0.0161017 -0.00104787 0.00101768 -0.00245145 -0.0130859 0.0369861
internal_weight=0 1522.87 39.5492 11.0906 1483.33 470.704 415.016 83.4987 78.6996 25.249 53.4506 48.995 28.2888 331.517 191.65 20.7062 1012.62 290.104 53.875 722.517 44.6626 677.855 228.233 223.033 162.382 449.622 23.8969 434.901 131.684 11.7196
internal_count=7118 6659 182 50 6477 2071 1823 363 342 110 232 212 122 1460 846 90 4406 1256 232 3150 198 2952 991 969 702 1961 106 1897 578 51
is_linear=0
shrinkage=0.05


Tree=10
num_leaves=31
num_cat=0
split_feature=5 17 23 4 45 30 65 36 43 36 3 18 24 40 37 36 30 20 50 18 33 18 23 52 44 15 12 34 10 7
split_gain=14.7359 11.3532 10.2286 7.50845 6.48137 10.3984 6.35341 9.73875 7.69325 7.84349 7.5287 8.77308 9.34118 9.45579 9.22771 9.20008 7.89369 8.2142 14.0234 8.27316 7.49199 14.5065 10.1589 9.93734 7.9351 7.79867 7.97887 9.72768 9.21918 14.6607
threshold=40.621098875139531 2055.2291449620461 79.627127572376537 72.487502534307296 -7.5956912853804388 -85.542143425374647 1.0000000180025095e-35 1267.641165089545 129.77489057136776 1227.0738493440394 66.090735846092159 65.039612087192936 85.752761734033754 -159.00816838115472 1630.2870939559918 1455.2863772115463 -77.146268930697588 -484.98275015662131 20.332900635468608 64.496950902595003 91.354014665068817 67.076930814224895 297.01781472363967 1542.7063314904342 75.060189271272421 -259.60845029914304 1527.2303157473923 84.522715012208891 -14.057069559909221 1538.0936457084738
decision_type=2 2 2 2 2 2 2 2 2 2 2 2 2 2 2 2 2 2 2 2 2 2 2 2 2 2 2 2 2 2
left_child=1 6 3 -3 5 -5 8 -8 9 -1 11 12 16 -14 15 -15 -11 18 19 -18 21 22 25 24 -23 -9 -27 28 29 -28
right_child=-2 2 -4 4 -6 -7 7 20 -10 10 -12 -13 13 14 -16 -17 17 -19 -20 -21 -22 23 -24 -25 -26 26 27 -29 -30 -31
leaf_value=-0.027002424810709927 -0.021039670335930964 -0.030576009862419814 -0.036076846247350094 0.033820106616171734 0.052919705043250401 -0.040437038247887122 0.041737191635055293 -0.04498776765378959 0.063260269336651201 -0.0084682989941527505 -0.0019583486083473538 0.069945268293485449 -0.037268547138762952 0.020291470550477718 0.031872512827234876 -0.017281418051096006 -0.030207079338008966 0.034595671363102112 0.08050507728882722 0.043134173391080416 0.025441782237375355 -0.029556444714570584 -0.065693474603724433 0.024907263037655586 0.022512766448248192 -0.025404925692892891 0.077327020239732841 0.041541486190925597 0.0022056674828762482 0.0149277452869543
leaf_weight=26.847572952508926 79.369972705841064 13.37299172580242 38.060437917709351 10.141268178820612 8.0211163163185137 8.8099888712167722 19.524311989545822 6.3203035891056052 4.7784182131290427 23.653317734599113 782.81044515967369 5.635575219988822 17.332619100809097 23.840671792626381 21.325651988387108 51.457295477390289 18.007357463240631 59.299174636602402 4.6722182631492606 4.8891629874706259 42.37479642033577 59.271082058548927 4.5185781866312018 12.805620804429052 8.3474328815937024 14.083806976675985 10.886361494660376 27.134454503655434 142.70411536097527 69.559523642063141
leaf_count=118 378 60 182 46 35 40 83 28 20 103 3432 24 76 104 93 224 79 254 20 21 181 262 20 57 36 61 47 116 616 302
internal_value=0 0.00105253 -0.0174833 5.72878e-05 0.0152454 -0.000700275 0.00204653 0.00725978 -3.732e-05 -0.000328213 0.000378788 0.00832938 0.00678249 -0.00326224 0.00283791 -0.00538518 0.0171394 0.0241122 0.00156255 -0.0145463 0.00556848 0.0032005 0.00865953 -0.01548 -0.0231286 0.0099007 0.0112129 0.0132735 0.00983614 0.0233719
internal_weight=0 1540.49 78.4058 40.3454 26.9724 18.9513 1462.08 417.53 1044.55 1039.77 1012.92 230.113 224.477 113.956 96.6236 75.298 110.521 86.8679 27.5687 22.8965 398.006 355.631 275.207 80.4241 67.6185 270.689 264.368 250.284 223.15 80.4459
internal_count=7118 6740 363 181 121 86 6377 1809 4568 4548 4430 998 974 497 421 328 477 374 120 100 1726 1545 1190 355 298 1170 1142 1081 965 349
is_linear=0
shrinkage=0.05


Tree=11
num_leaves=31
num_cat=0
split_feature=5 64 31 31 33 39 29 20 62 34 37 20 37 38 25 19 49 29 41 20 29 25 58 5 47 55 57 55 8 54
split_gain=13.4094 10.7466 7.70065 8.73917 7.46586 9.30778 6.86727 10.7486 10.2285 14.2508 12.7616 12.7319 11.3462 10.7327 10.0881 9.11259 10.0226 8.92154 8.29947 8.29151 8.62944 9.3807 10.4874 8.54483 12.5189 10.0022 11.8905 10.313 9.95284 13.413
threshold=40.621098875139531 85.178222499459579 1851.8518304392401 1894.0957958102715 65.980077450787675 100.30386299518595 79.636350182625975 -2441.7671847529805 1542.768426928387 66.346445752907741 1435.5144156650438 -1354.9997990359445 1650.0551416951569 64.451035244965752 210.61359173438953 64.816537870499886 62.44108534604468 71.648390129692885 1540.9800092041489 15.781171316718202 86.913460816573505 773.99158332663671 59.338696300897283 17.341679570555133 1519.9338627944687 -31.338270581175603 1532.7046451266353 -27.256279979571328 61.214481304309217 61.150582674522575
decision_type=2 2 2 2 2 2 2 2 2 2 2 2 2 2 2 2 2 2 2 2 2 2 2 2 2 2 2 2 2 2
left_child=1 2 6 -4 5 -3 7 -1 10 12 13 18 -10 -9 -15 -13 17 -17 -11 23 -21 -22 -23 25 -25 -8 27 -27 -29 -30
right_child=-2 4 3 -5 -6 -7 19 8 9 11 -12 15 -14 14 -16 16 -18 -19 -20 20 21 22 -24 24 -26 26 -28 28 29 -31
leaf_value=-0.017681020134592731 -0.020162926872687864 0.050561654032924425 0.045826101863878851 -0.009362556003363609 -0.038560917390152147 -0.041776061074166919 -0.0092269568336455221 0.068976401371179538 0.034640651035484471 -0.0073748709688038639 -0.011321444620089849 0.02270454984436826 -0.00030709583298725997 0.035911512402759097 -0.039931212750376893 0.01408210816123163 0.029131645525789313 -0.045660907396998879 0.068825114285908137 -0.009230476826958392 0.044305150886397721 0.071289395279161866 -0.0094291586110827989 -0.00034122663632536266 -0.031222504212376562 0.060247803439790873 0.017127434261006113 0.02652392675862561 0.051601418867761331 -0.0035379668128736261
leaf_weight=106.49347235262394 78.697649613022804 6.1993665099143964 20.179870054125789 11.129131898283957 28.097515344619751 4.8755010068416595 107.56653590500355 9.2549196630716342 62.636018976569176 6.3986746072769156 196.85409413278103 11.780230671167372 36.910948842763901 9.9809202551841754 7.8195859640836707 7.5788589268922797 7.0472565889358512 35.610784709453583 8.0929768830537778 20.928230166435242 36.500853940844536 4.9279246181249645 21.937980189919472 147.83317741751671 42.182603076100349 7.4824691265821448 203.15347418189049 34.524952784180641 11.41670176386833 324.90166722238064
leaf_count=480 378 27 87 48 133 23 477 39 272 28 865 51 162 43 34 33 31 158 35 91 156 21 96 642 188 32 872 149 49 1418
internal_value=0 0.000996983 0.00167164 0.0262087 -0.0248567 0.00991172 0.00114897 -0.00356462 0.000193965 0.00921127 -0.00689617 -0.00701515 0.0216824 0.025302 0.00259455 -0.0168749 -0.026156 -0.0351773 0.0351796 0.00362702 0.0186067 0.0278005 0.00537678 0.00219059 -0.00719672 0.00477929 0.00737028 0.00213088 0.000958259 -0.0016662
internal_weight=0 1540.3 1501.12 31.309 39.1724 11.0749 1469.82 506.459 399.965 176.056 223.91 76.5088 99.547 27.0554 17.8005 62.0171 50.2369 43.1896 14.4917 963.357 84.295 63.3668 26.8659 879.062 190.016 689.046 581.479 378.326 370.843 336.318
internal_count=7118 6740 6557 135 183 50 6422 2231 1751 770 981 336 434 116 77 273 222 191 63 4191 364 273 117 3827 830 2997 2520 1648 1616 1467
is_linear=0
shrinkage=0.05


Tree=12
num_leaves=31
num_cat=0
split_feature=5 17 46 45 6 58 50 26 40 23 52 20 52 39 22 42 6 44 29 29 19 22 42 18 41 39 20 42 2 37
split_gain=12.3235 9.8709 9.3188 6.93507 6.74334 7.23636 12.8907 12.0008 11.1721 11.1295 10.1162 9.99482 9.10583 7.87285 7.55217 7.25428 9.44288 6.6686 6.49881 10.8932 11.3174 13.5277 13.8939 16.2449 10.4189 9.50389 9.08131 9.62735 8.65454 11.7539
threshold=37.856922713438628 2055.2291449620461 1544.3487263501754 -1.3479894552012863 1593.2528455318654 68.303977607555353 19.273910647246229 1697.1653480260975 -117.21342344805667 69.438165714881492 1484.2414444208709 -2362.7070479560375 1463.7517248198972 86.517892085861632 2110.8265602557135 1654.2428691307875 1518.9917560312931 65.001583215865352 78.697978091098591 73.604897605862959 65.786893633539975 1605.6706323503788 1726.7525725772753 67.544774362895069 1588.0106236035774 68.041147515964852 -3616.0430266724693 1460.5637079515598 2012.2435392193117 1588.5446610695587
decision_type=2 2 2 2 2 2 2 2 2 2 2 2 2 2 2 2 2 2 2 2 2 2 2 2 2 2 2 2 2 2
left_child=1 4 -3 -2 5 7 8 11 14 -8 -11 -1 -9 -13 15 -7 -17 -5 19 26 21 -21 24 -24 25 -23 -14 -28 -20 -30
right_child=3 2 -4 17 -6 6 9 12 -10 10 -12 13 18 -15 -16 16 -18 -19 28 20 -22 22 23 -25 -26 -27 27 -29 29 -31
leaf_value=-0.050165425021303035 0.034037038492471673 -0.027379542550052552 0.010884712666225416 -0.049730280538945043 -0.049657578750748416 -0.06380214753097907 0.058697986331369911 -0.05143077643292196 0.03324302502872778 0.02783687498030863 -0.03888177654457968 -0.01140543289571987 -0.017206050366870403 0.048308322468278493 0.036724074144286231 0.05554533514464606 -0.026716157704163902 -0.014487054411852468 0.0039571861569013675 -0.059726538614085604 -0.023683716053466336 -0.0033628308808601815 0.045184268612803336 -0.040360602974535781 -0.028809034865605161 0.0502568420714469 0.072493903852474478 0.010231931541344549 -0.0032886942866401114 0.039063190287823367
leaf_weight=16.317771524190903 6.125909909605979 55.088502481579781 22.374024167656898 16.436847314238548 6.2916357368230811 6.2673150897026124 4.7763934731483451 7.738393783569335 70.579160004854202 7.4283101260662106 24.160615757107735 102.55912731587887 29.868377715349197 5.8337785899639121 8.7045951485633832 5.1339224129915264 10.885532230138777 73.181733936071396 718.7284519225359 9.0083781629800779 86.30292896926403 45.676310956478119 30.20174552500248 6.7990578114986411 33.904218688607216 10.089508563280104 6.5412400215864173 122.13112996518612 26.885638177394867 41.934338003396988
leaf_count=74 29 263 100 79 29 27 21 34 304 32 108 451 134 25 38 22 48 351 3116 40 384 200 131 30 149 44 28 531 116 180
internal_value=0 0.00106105 -0.0163274 -0.0174327 0.00199336 0.00221927 0.0131086 0.00106432 0.0222546 -0.0124366 -0.0231925 -0.0136837 0.00262855 -0.0081916 -0.00277026 -0.0181957 -0.000352956 -0.020951 0.00298669 -0.00237869 -0.00952809 -0.000523973 0.0036863 0.029465 -0.00695085 0.00633838 0.00763161 0.0133971 0.0055791 0.0225177
internal_weight=0 1522.21 77.4625 95.7445 1444.75 1438.46 137.936 1300.52 101.571 36.3653 31.5889 124.711 1175.81 108.393 30.9914 22.2868 16.0195 89.6186 1168.07 380.523 221.982 135.679 126.671 37.0008 89.67 55.7658 158.541 128.672 787.548 68.82
internal_count=7118 6659 363 459 6296 6267 600 5667 439 161 140 550 5117 476 135 97 70 430 5083 1671 978 594 554 161 393 244 693 559 3412 296
is_linear=0
shrinkage=0.05


Tree=13
num_leaves=31
num_cat=0
split_feature=10 64 12 47 52 32 24 15 18 57 60 34 3 31 30 3 47 58 51 17 58 24 3 43 1 41 52 60 55 23
split_gain=11.3582 8.90481 7.17803 7.93299 7.83293 6.86591 7.80833 8.64674 6.42961 6.80221 6.97073 7.86991 6.1954 8.60596 8.54585 8.66984 12.9302 8.22968 12.8201 12.6938 8.79399 9.46196 8.02006 9.67289 7.99087 7.89648 11.0662 7.53168 11.1415 10.6669
threshold=84.517338331519582 89.209251356508688 1496.0624265041292 1473.9602595125041 1465.7155306043137 1444.1231016266577 87.556418004812002 70.799239797588044 64.67511679604182 1498.2951038618733 7.2029942783344731 146.63061311681639 66.632047344792639 1502.6405203059119 -268.69390823575901 66.572394343415596 1522.5093595564153 59.154782073436564 1522.3401878579318 1722.4959641075541 58.364206355351023 111.54583386394349 72.183618995394781 73.989278405820812 1916.4684635468927 1535.1338755828936 1508.4811659526038 -17.93467091349498 11.040814949459447 292.72580612486263
decision_type=2 2 2 2 2 2 2 2 2 2 2 2 2 2 2 2 2 2 2 2 2 2 2 2 2 2 2 2 2 2
left_child=1 2 -1 -4 -5 6 7 -6 -8 -10 -11 -12 14 22 -7 27 24 18 25 -20 -21 -22 -14 -24 -17 26 -15 -16 29 -29
right_child=-2 -3 3 4 5 12 8 -9 9 10 11 -13 13 17 15 16 -18 -19 19 20 21 -23 23 -25 -26 -27 -28 28 -30 -31
leaf_value=0.051077838288366165 -0.018287519391241774 -0.030676523922587656 -0.06645226527385549 -0.037529657481992176 0.003492587430764295 -0.04756438720164749 -0.042063674493177716 0.084498961348809812 -0.025903983391371593 0.0056525299251519012 0.019379774284368451 0.10340718043879993 0.030190773081603874 0.066902564014419547 -0.0051871023547589287 -0.028745997164847593 0.099351387073817757 -0.0047628499004765167 -0.060178179170927916 -0.015070185507220259 0.03714570850670508 -0.028166148842833107 -0.036117141089684605 0.010674227710553492 0.057906987850083559 0.056562036571446761 -0.024548197854336803 0.020333962009350452 -0.00052036155919685039 -0.055765364144786549
leaf_weight=7.2324885427951804 80.965565264225006 21.970422029495239 4.3275614678859702 12.849134773015974 5.513551026582717 7.396165892481803 5.5072892904281607 8.1839869618415815 7.4308762401342383 14.642932027578356 6.0578300803899747 5.1602157652378082 38.69564014673233 5.1097555309534064 124.07059895992279 6.1523613631725329 6.1797601133584967 754.64077778160572 8.2638170123100263 27.381260648369789 26.039399728178978 7.0459996908903113 13.531356811523436 60.108884423971176 4.687644436955452 19.252802565693855 9.3814353048801404 163.32984644174576 151.14096900820732 4.7384431362152091
leaf_count=31 392 106 19 57 24 34 24 35 32 63 26 22 169 22 546 27 27 3323 36 119 112 31 60 261 20 82 41 703 653 21
internal_value=0 0.00092695 0.00138555 0.00114703 0.00134174 0.00167703 0.0194378 0.0518922 0.00798023 0.0162587 0.0283737 0.0580317 0.00102825 -0.00125195 0.00575471 0.00661145 0.0416316 -0.00295742 0.0103381 -0.00205366 0.00589007 0.0232366 0.0117607 0.00207634 0.00872616 0.0355778 0.00769836 0.00526685 0.0093301 0.0181885
internal_weight=0 1536.02 1514.05 1506.82 1502.49 1489.64 52.4967 13.6975 38.7991 33.2919 25.861 11.218 1437.15 969.451 467.696 460.3 17.0198 857.115 102.474 68.7305 60.4667 33.0854 112.336 73.6402 10.84 33.744 14.4912 443.28 319.209 168.068
internal_count=7118 6726 6620 6589 6570 6513 226 59 167 143 111 48 6287 4256 2031 1997 74 3766 443 298 262 143 490 321 47 145 63 1923 1377 724
is_linear=0
shrinkage=0.05


Tree=14
num_leaves=31
num_cat=0
split_feature=15 0 24 49 12 29 27 55 55 58 3 8 18 31 33 41 57 26 26 30 19 45 24 44 29 20 44 23 50 15
split_gain=10.5633 8.76467 8.87053 8.15742 7.92804 9.05758 8.34799 8.04905 7.96001 9.31508 7.4042 6.2438 9.50265 10.144 9.29408 8.79076 9.85175 8.22041 11.7009 11.0308 10.4493 8.00229 7.92183 8.12776 7.89516 7.61662 7.35852 7.13403 6.93156 6.77741
threshold=247.90843753765685 -463.45732221533757 106.74648921666891 64.355910581188141 1542.0920091454657 179.83940226522469 1359.2579415683369 49.439350084136557 32.412093055302542 60.406489171145346 65.7958028039629 79.077275379071679 68.77457856059543 1443.5492490724357 156.82895624867311 1554.0269559863402 1490.0212398108376 1924.5936361366541 1735.1679305393243 -70.329284718295852 67.650743986309166 11.424841570980449 84.267434412191051 66.244248428086578 330.99747686825771 -546.04615226219471 65.847283165065733 159.92627470938265 -56.825213306504445 -37.808403883806925
decision_type=2 2 2 2 2 2 2 2 2 2 2 2 2 2 2 2 2 2 2 2 2 2 2 2 2 2 2 2 2 2
left_child=1 2 -1 -2 5 -5 -6 -8 -7 -10 -4 12 13 -3 -13 16 -14 18 -17 27 26 -19 25 -24 28 -16 -21 -20 -15 -25
right_child=3 11 10 4 6 8 7 -9 9 -11 -12 14 15 24 22 17 -18 21 19 20 -22 -23 23 29 -26 -27 -28 -29 -30 -31
leaf_value=0.025102261539571465 -0.025595451794593979 0.049790891106986389 0.0215122438406046 -0.041699275466028467 0.069409237062701773 -0.050422196563670134 0.040741918085128039 -0.049798661266974631 0.070998603860172996 -0.0080441056840324619 -0.042380253021639724 0.039264003674203636 0.046482771737702343 -0.029469968074002359 0.047545421548264799 -0.011154692960810201 -0.01909078182779176 -0.023839353190053127 0.1212222432174134 0.022866061229388709 0.069397088346541666 0.020212757305225731 0.033520851035248593 -0.073370734743113578 0.039031262890523256 -0.028049684577572655 -0.064432602818546986 0.042969584817335038 0.0024780797998367747 -0.0010369839333861132
leaf_weight=8.3276543468236905 68.587817490100861 11.434188053011892 5.3731513172388068 15.368201300501822 7.2233741134405163 4.2920140624046352 5.2825311124324781 4.5854996740818024 6.6548367440700522 8.4732394814491254 29.047337502241135 27.087755158543587 5.9889296740293494 17.240046411752701 11.421419620513918 19.009050771594048 131.42177367210388 34.40557199716568 5.0250495821237582 5.0025291591882688 5.0650213211774817 14.719615936279295 4.729537025094035 7.66604769229889 14.572294697165487 4.7045913636684409 4.664787694811821 6.9282830506563187 1116.304682135582 5.6067831218242619
leaf_count=37 326 49 26 71 33 20 25 22 32 40 140 116 26 77 48 84 581 154 22 22 22 67 20 33 62 20 21 30 4868 24
internal_value=0 0.00111096 -0.0212033 -0.0142796 0.000680544 -0.0130196 0.0285663 -0.00133069 0.00967615 0.0267268 -0.0324064 0.00176746 0.00108006 0.002929 0.0173959 -0.00815186 -0.0162328 0.00355887 0.0188235 0.0401779 0.0112217 -0.0106398 3.9097e-05 -0.0227603 0.0024623 0.0254914 -0.0192583 0.0758661 0.00199218 -0.0428151
internal_weight=0 1495.75 42.7481 120.468 51.8797 34.7883 17.0914 9.86803 19.4201 15.1281 34.4205 1453 1391.78 1159.55 61.2161 232.231 137.411 94.8199 45.6947 26.6857 14.7323 49.1252 34.1284 18.0024 1148.12 16.126 9.66732 11.9533 1133.54 13.2728
internal_count=7118 6549 203 569 243 163 80 47 92 72 166 6346 6085 5056 261 1029 607 422 201 117 65 221 145 77 5007 68 43 52 4945 57
is_linear=0
shrinkage=0.05


Tree=15
num_leaves=31
num_cat=0
split_feature=10 64 29 21 20 0 42 37 56 20 28 58 49 43 37 46 46 44 3 40 27 10 17 50 43 47 47 27 47 44
split_gain=9.77301 8.00945 6.34086 10.3206 8.19089 8.06315 8.50916 8.34021 10.8792 9.08477 8.12969 7.61627 7.43424 7.79744 8.05618 11.2241 12.1346 9.58891 9.3191 10.1522 11.4097 9.05404 10.544 10.486 11.863 10.8546 8.687 12.1496 10.8258 12.0988
threshold=84.517338331519582 89.209251356508688 79.636350182625975 84.467560252878357 34.121605069999994 238.50468130290224 1353.2758086591657 1505.4865484811721 1556.6852265065397 179.69609541476828 74.732158725139442 67.634609928316095 60.521093505318369 65.109371819395918 1447.7847775355419 1535.3438906784866 1531.8948139483064 105.31259527161815 74.585921304414157 -195.11049765642039 2132.6945320230425 -108.6908974154412 1778.053803462451 -4.2527650748830856 75.009275548730471 1511.5040907666894 1515.046413737083 -4143.9670830230498 1525.355078556976 73.226610984471634
decision_type=2 2 2 2 2 2 2 2 2 2 2 2 2 2 2 2 2 2 2 2 2 2 2 2 2 2 2 2 2 2
left_child=1 2 3 11 12 6 -5 8 10 -9 -8 -1 -4 -14 -15 16 17 21 19 -17 -21 -16 26 24 -24 -25 -23 -28 29 -29
right_child=-2 -3 4 5 -6 -7 7 9 -10 -11 -12 -13 13 14 15 18 -18 -19 -20 20 -22 22 23 25 -26 -27 27 28 -30 -31
leaf_value=-0.028669164845932089 -0.017077527544760909 -0.02935330125311747 0.041787353859551964 0.060058941598438137 0.018728653269266322 -0.024219266420548353 -0.055722994653321659 -0.002020611237387795 0.063014213113433012 -0.060834137540006189 0.011856198818957539 0.028240890443762802 -0.010991366324086973 -0.0080947436071247339 -0.043918712048702596 -0.078125303346954597 0.040152129263012822 0.048517993646649001 -0.062446102583414979 -0.0070413869385073649 0.062601216018515246 0.0076620798834959357 -0.0052919344751173525 0.10286204614306355 0.0477868851563229 0.025912622763360441 -0.05200898948332533 -0.020959192620606078 0.019833363647678133 0.034391100807807093
leaf_weight=54.257402256131172 79.978841409087181 21.640527129173279 11.749380201101301 6.0564979165792456 82.563103973865509 33.586602985858917 4.7363404631614676 333.78781996667385 10.056274458765982 6.6977310329675666 73.684950515627861 6.5934344083070746 105.75440403819084 126.30421361327171 9.0783472508192045 4.5663970261812201 28.451991677284241 13.333238944411276 7.886465072631835 73.552960306406021 6.3922875970602027 237.36150047183037 58.910964041948318 4.907254382967948 12.816905677318571 69.341453865170479 14.217751473188398 69.9322809278965 35.837538823485374 11.495816573500631
leaf_count=247 392 106 50 26 356 153 21 1476 43 30 318 29 458 549 44 20 123 58 36 321 28 1028 257 21 55 298 63 307 155 50
internal_value=0 0.000850065 0.00128181 -0.00313061 0.00365488 -0.000615044 0.00120737 0.000376448 0.0140532 -0.00317754 0.00777468 -0.0225027 0.00227496 0.00175342 0.00347172 0.00569165 0.00833071 0.00664544 -0.0104654 -0.00561462 -0.00147288 0.00557978 0.00645264 0.0178269 0.00419261 0.0309984 0.00195107 -0.00835879 -0.00306647 -0.013145
internal_weight=0 1535.55 1513.91 529.457 984.454 468.606 435.02 428.963 88.4776 340.486 78.4213 60.8508 901.891 890.142 784.387 658.083 565.685 537.233 92.3981 84.5116 79.9452 523.9 514.821 145.977 71.7279 74.2487 368.845 131.483 117.266 81.4281
internal_count=7118 6726 6620 2343 4277 2067 1914 1888 382 1506 339 276 3921 3871 3413 2864 2459 2336 405 369 349 2278 2234 631 312 319 1603 575 512 357
is_linear=0
shrinkage=0.05


end of trees

feature_importances:
surface_service_glicko_rating_diff=23
b_surface_service_glicko_rd=17
a_surface_glicko_rd=16
a_surface_tiebreak_glicko_rating=16
a_surface_second_won_glicko_rd=16
surface_point_glicko_rating_diff=14
b_surface_return_first_won_glicko_rating=14
b_surface_game_glicko_rating=13
a_surface_set_glicko_rd=13
b_surface_return_ace_glicko_rating=13
a_surface_first_won_glicko_rating=12
b_surface_return_second_won_glicko_rating=12
b_surface_tiebreak_glicko_rd=11
b_surface_return_ace_glicko_rd=11
b_surface_ace_glicko_rd=11
surface_second_won_glicko_rating_diff=11
b_surface_return_glicko_rd=10
b_surface_first_won_glicko_rating=10
a_surface_service_glicko_rd=9
a_surface_tiebreak_glicko_rd=9
a_surface_return_ace_glicko_rating=9
a_surface_return_ace_glicko_rd=9
surface_game_glicko_rating_diff=8
b_surface_set_glicko_rd=8
a_surface_ace_glicko_rd=8
surface_return_first_won_glicko_rating_diff=8
surface_glicko_rating_diff=7
a_surface_return_glicko_rd=7
b_surface_glicko_rd=6
a_surface_service_glicko_rating=6
surface_tiebreak_glicko_rating_diff=6
b_surface_tiebreak_glicko_rating=6
surface_ace_glicko_rating_diff=6
surface_first_won_glicko_rating_diff=6
b_surface_return_first_won_glicko_rd=6
b_surface_first_won_glicko_rd=6
b_surface_second_won_glicko_rd=6
a_surface_point_glicko_rating=5
a_surface_point_glicko_rd=5
surface_set_glicko_rating_diff=5
a_surface_set_glicko_rating=5
b_surface_set_glicko_rating=5
b_surface_return_glicko_rating=5
a_surface_ace_glicko_rating=5
b_surface_ace_glicko_rating=5
surface_Clay=5
surface_return_glicko_rating_diff=4
a_surface_return_glicko_rating=4
surface_return_ace_glicko_rating_diff=4
b_surface_second_won_glicko_rating=4
a_surface_return_second_won_glicko_rd=4
b_surface_glicko_rating=3
b_surface_point_glicko_rating=3
a_surface_game_glicko_rating=3
a_surface_game_glicko_rd=3
b_surface_game_glicko_rd=3
b_surface_service_glicko_rating=3
a_surface_first_won_glicko_rd=3
a_surface_glicko_rating=2
a_surface_return_first_won_glicko_rd=2
a_surface_second_won_glicko_rating=2
b_surface_return_second_won_glicko_rd=2
surface_return_second_won_glicko_rating_diff=2
surface_Hard=2
b_surface_point_glicko_rd=1
a_surface_return_first_won_glicko_rating=1
a_surface_return_second_won_glicko_rating=1

parameters:
[boosting: gbdt]
[objective: binary]
[metric: binary_logloss]
[tree_learner: serial]
[device_type: cpu]
[data_sample_strategy: bagging]
[data: ]
[valid: ]
[num_iterations: 300]
[learning_rate: 0.05]
[num_leaves: 31]
[num_threads: 0]
[seed: 0]
[deterministic: 0]
[force_col_wise: 0]
[force_row_wise: 0]
[histogram_pool_size: -1]
[max_depth: -1]
[min_data_in_leaf: 20]
[min_sum_hessian_in_leaf: 0.001]
[bagging_fraction: 1]
[pos_bagging_fraction: 1]
[neg_bagging_fraction: 1]
[bagging_freq: 10]
[bagging_seed: 3]
[feature_fraction: 0.9]
[feature_fraction_bynode: 1]
[feature_fraction_seed: 2]
[extra_trees: 0]
[extra_seed: 6]
[early_stopping_round: 0]
[early_stopping_min_delta: 0]
[first_metric_only: 0]
[max_delta_step: 0]
[lambda_l1: 0]
[lambda_l2: 0]
[linear_lambda: 0]
[min_gain_to_split: 0]
[drop_rate: 0.1]
[max_drop: 50]
[skip_drop: 0.5]
[xgboost_dart_mode: 0]
[uniform_drop: 0]
[drop_seed: 4]
[top_rate: 0.2]
[other_rate: 0.1]
[min_data_per_group: 100]
[max_cat_threshold: 32]
[cat_l2: 10]
[cat_smooth: 10]
[max_cat_to_onehot: 4]
[top_k: 20]
[monotone_constraints: ]
[monotone_constraints_method: basic]
[monotone_penalty: 0]
[feature_contri: ]
[forcedsplits_filename: ]
[refit_decay_rate: 0.9]
[cegb_tradeoff: 1]
[cegb_penalty_split: 0]
[cegb_penalty_feature_lazy: ]
[cegb_penalty_feature_coupled: ]
[path_smooth: 0]
[interaction_constraints: ]
[verbosity: -1]
[saved_feature_importance_type: 0]
[use_quantized_grad: 0]
[num_grad_quant_bins: 4]
[quant_train_renew_leaf: 0]
[stochastic_rounding: 1]
[linear_tree: 0]
[max_bin: 255]
[max_bin_by_feature: ]
[min_data_in_bin: 3]
[bin_construct_sample_cnt: 200000]
[data_random_seed: 1]
[is_enable_sparse: 1]
[enable_bundle: 1]
[use_missing: 1]
[zero_as_missing: 0]
[feature_pre_filter: 0]
[pre_partition: 0]
[two_round: 0]
[header: 0]
[label_column: ]
[weight_column: ]
[group_column: ]
[ignore_column: ]
[categorical_feature: ]
[forcedbins_filename: ]
[precise_float_parser: 0]
[parser_config_file: ]
[objective_seed: 5]
[num_class: 1]
[is_unbalance: 0]
[scale_pos_weight: 1]
[sigmoid: 1]
[boost_from_average: 1]
[reg_sqrt: 0]
[alpha: 0.9]
[fair_c: 1]
[poisson_max_delta_step: 0.7]
[tweedie_variance_power: 1.5]
[lambdarank_truncation_level: 30]
[lambdarank_norm: 1]
[label_gain: ]
[lambdarank_position_bias_regularization: 0]
[eval_at: ]
[multi_error_top_k: 1]
[auc_mu_weights: ]
[num_machines: 1]
[local_listen_port: 12400]
[time_out: 120]
[machine_list_filename: ]
[machines: ]
[gpu_platform_id: -1]
[gpu_device_id: -1]
[gpu_use_dp: 0]
[num_gpu: 1]

end of parameters

pandas_categorical:[]
