tree
version=v4
num_class=1
num_tree_per_iteration=1
label_index=0
max_feature_idx=144
objective=binary sigmoid:1
feature_names=best_of tourney_level tourney_round a_player_age a_player_rank a_player_rank_points b_player_age b_player_rank b_player_rank_points rank_diff rank_points_diff age_diff glicko_rating_diff a_glicko_rating b_glicko_rating a_glicko_rd b_glicko_rd point_glicko_rating_diff a_point_glicko_rating b_point_glicko_rating a_point_glicko_rd b_point_glicko_rd game_glicko_rating_diff a_game_glicko_rating b_game_glicko_rating a_game_glicko_rd b_game_glicko_rd set_glicko_rating_diff a_set_glicko_rating b_set_glicko_rating a_set_glicko_rd b_set_glicko_rd service_glicko_rating_diff a_service_glicko_rating b_return_glicko_rating a_service_glicko_rd b_return_glicko_rd return_glicko_rating_diff a_return_glicko_rating b_service_glicko_rating a_return_glicko_rd b_service_glicko_rd tiebreak_glicko_rating_diff a_tiebreak_glicko_rating b_tiebreak_glicko_rating a_tiebreak_glicko_rd b_tiebreak_glicko_rd ace_glicko_rating_diff a_ace_glicko_rating b_return_ace_glicko_rating a_ace_glicko_rd b_return_ace_glicko_rd return_ace_glicko_rating_diff a_return_ace_glicko_rating b_ace_glicko_rating a_return_ace_glicko_rd b_ace_glicko_rd first_won_glicko_rating_diff a_first_won_glicko_rating b_return_first_won_glicko_rating a_first_won_glicko_rd b_return_first_won_glicko_rd return_first_won_glicko_rating_diff a_return_first_won_glicko_rating b_first_won_glicko_rating a_return_first_won_glicko_rd b_first_won_glicko_rd second_won_glicko_rating_diff a_second_won_glicko_rating b_return_second_won_glicko_rating a_second_won_glicko_rd b_return_second_won_glicko_rd return_second_won_glicko_rating_diff a_return_second_won_glicko_rating b_second_won_glicko_rating a_return_second_won_glicko_rd b_second_won_glicko_rd surface_glicko_rating_diff a_surface_glicko_rating b_surface_glicko_rating a_surface_glicko_rd b_surface_glicko_rd surface_point_glicko_rating_diff a_surface_point_glicko_rating b_surface_point_glicko_rating a_surface_point_glicko_rd b_surface_point_glicko_rd surface_game_glicko_rating_diff a_surface_game_glicko_rating b_surface_game_glicko_rating a_surface_game_glicko_rd b_surface_game_glicko_rd surface_set_glicko_rating_diff a_surface_set_glicko_rating b_surface_set_glicko_rating a_surface_set_glicko_rd b_surface_set_glicko_rd surface_service_glicko_rating_diff a_surface_service_glicko_rating b_surface_return_glicko_rating a_surface_service_glicko_rd b_surface_return_glicko_rd surface_return_glicko_rating_diff a_surface_return_glicko_rating b_surface_service_glicko_rating a_surface_return_glicko_rd b_surface_service_glicko_rd surface_tiebreak_glicko_rating_diff a_surface_tiebreak_glicko_rating b_surface_tiebreak_glicko_rating a_surface_tiebreak_glicko_rd b_surface_tiebreak_glicko_rd surface_ace_glicko_rating_diff a_surface_ace_glicko_rating b_surface_return_ace_glicko_rating a_surface_ace_glicko_rd b_surface_return_ace_glicko_rd surface_return_ace_glicko_rating_diff a_surface_return_ace_glicko_rating b_surface_ace_glicko_rating a_surface_return_ace_glicko_rd b_surface_ace_glicko_rd surface_first_won_glicko_rating_diff a_surface_first_won_glicko_rating b_surface_return_first_won_glicko_rating a_surface_first_won_glicko_rd b_surface_return_first_won_glicko_rd surface_return_first_won_glicko_rating_diff a_surface_return_first_won_glicko_rating b_surface_first_won_glicko_rating a_surface_return_first_won_glicko_rd b_surface_first_won_glicko_rd surface_second_won_glicko_rating_diff a_surface_second_won_glicko_rating b_surface_return_second_won_glicko_rating a_surface_second_won_glicko_rd b_surface_return_second_won_glicko_rd surface_return_second_won_glicko_rating_diff a_surface_return_second_won_glicko_rating b_surface_second_won_glicko_rating a_surface_return_second_won_glicko_rd b_surface_second_won_glicko_rd surface_Clay surface_Grass surface_Hard
feature_infos=[5:5] [6:6] [0.75:1] [18:38] [1:861] [20:16950] [18:39] [1:715] [30:16950] [-686:853] [-16070:15875] [-15:18] [-771.84927006853991:808.5492828130798] [1474.1895544225529:2531.2263557032902] [1396.1756074718282:2545.5478724543591] [63.932309935330878:120.94304348277224] [63.984512017683976:107.56315025376701] [-73.99963844006993:92.759398177986441] [1484.8736567023791:1605.4615777038191] [1487.3325811077241:1607.4057103959617] [60.310198457711216:110.81306594196646] [60.193396741700141:98.205354866461064] [-166.87001270370251:192.41947624210616] [1479.6769277104345:1724.5674358338129] [1467.8762883278578:1729.6882641867924] [60.746613538155778:111.75894591842982] [60.934426735017986:98.801942684853458] [-574.36807650117839:588.73920475380487] [1508.9647096354636:2254.1864491881379] [1356.6387433614025:2262.7628500394221] [63.107865808627132:118.61217714469578] [63.193740766439475:103.22547407122534] [-13742.213583198123:802.58091689182561] [-4497.3531145357774:2390.1929071987497] [1240.8736276986554:9838.9768046766676] [67.619731030136066:318.20928595369037] [69.96348551917005:319.80038806912336] [-827.6077396688604:13523.893444490031] [1202.403392769012:9838.9768046766676] [-4758.0192002688746:2391.3433978910025] [70.958387614743714:319.80038806912336] [68.104798153147613:311.02329204264714] [-533.47698852059898:526.53041648767339] [1122.7960867116533:1874.3670832838432] [1122.7960867116533:1909.7538102069184] [63.721751476664672:238.48684762127783] [63.655292943665827:228.11911882251869] [-517.85530598930541:7639.8986515949082] [1096.3725510168165:9106.9633718050118] [1190.745358662864:1788.1319024841073] [62.113005549806232:222.09493931958667] [64.077840870180452:109.2107813536944] [-7965.2169706783734:540.60966517759994] [1204.0843649274198:1787.2119290776943] [1163.0489123060063:9430.3724625280047] [63.93159498987427:114.25783060875288] [62.771542892464772:222.27586584415209] [-84.972955037416796:75.499778198748345] [1452.1697621880187:1578.2286888778999] [1473.7423373266445:1562.7510857930929] [60.836757285355191:111.11808088902404] [60.837856704450601:97.920848976369115] [-90.663554732987222:90.01357602859116] [1473.1257985905081:1562.7510857930929] [1459.12207140501:1578.2286888778999] [60.69364107365206:110.67174533512032] [61.024884036034074:98.13273860585052] [-83.586043330352595:95.683521391981458] [1468.4381581372047:1601.8662499474503] [1464.8663868043752:1601.8662499474503] [58.481207734161657:87.638909347896828] [58.533122745543615:87.638909347896828] [-83.586043330352595:95.683521391981458] [1468.4381581372047:1601.8662499474503] [1464.8663868043752:1601.8662499474503] [58.481207734161657:87.638909347896828] [58.533122745543615:87.638909347896828] [-709.232845026738:823.77665996152746] [1412.0749508928686:2482.2769276342751] [1369.9717677780743:2497.7181135669248] [65.758497016038376:124.97431458964336] [65.940554324205721:124.94913032892374] [-78.765844600770833:94.819102098052099] [1486.0129396665134:1603.4188590337385] [1482.3959508258431:1605.6408193107657] [61.373640276022883:116.51281860352459] [61.39511725579883:120.2169332608198] [-162.88846444806811:190.78344363227393] [1470.9715579223223:1719.8000159017631] [1464.5122735800128:1724.5473048595104] [61.620496472304701:117.38402621051252] [62.160676213705528:120.89349744405358] [-541.53168331835127:603.85951405328183] [1404.9796409227388:2240.4141864807698] [1355.9460139441269:2245.8707727089277] [64.298275799093432:125.18754566829324] [64.870538018405085:124.263075685088] [-12039.149273230414:882.80657242392954] [-6015.4782512382235:2414.8422242954612] [1179.9441002045553:9732.1619857146725] [71.017529757926198:336.77004097604015] [70.563770058650022:319.069275705942] [-686.19205817671445:12046.304662290782] [1190.9889647251905:9732.1619857146725] [-5718.5693763243735:2402.2105889566519] [70.745382654608434:319.069275705942] [71.551366258257659:336.93978065234558] [-678.38834251511093:666.64939592333894] [1138.3135771107625:1977.3889628228496] [1138.3135771107625:1983.7396491287727] [65.901945998737332:292.91109942149149] [65.485727186762603:266.76607820891115] [-548.42020030385515:7519.0934045262638] [1067.0108853709994:8944.1830960733478] [1209.1016960079537:1775.8983224947119] [63.091874200137291:237.92340887908591] [65.180249416507991:152.24306325882063] [-7618.2021385326807:537.21428235814233] [1242.5423903828575:1784.8910774337746] [1147.636523979158:8944.1830960733478] [64.405091726931872:135.59473765004924] [63.457847195261543:245.17315884048776] [-77.132352887546858:72.085302251945222] [1442.7911339617783:1577.6873368176648] [1475.7133215972094:1564.0583550783529] [61.569536742717212:116.84923312482201] [62.064614400034351:119.2612331397888] [-79.063471064548366:90.005979775533433] [1473.0509570597139:1562.8069434262279] [1459.1641694146308:1578.0357083782551] [61.616200357959386:116.44262872863401] [62.104956652739013:121.29312621079856] [-101.258738311177:111.90918162415984] [1467.411532596906:1613.1267711090784] [1466.3639111454311:1613.1267711090784] [59.874872756275586:87.776514656993626] [59.90464146433731:88.729840587713866] [-101.258738311177:111.90918162415984] [1467.411532596906:1613.1267711090784] [1466.3639111454311:1613.1267711090784] [59.874872756275586:87.776514656993626] [59.90464146433731:88.729840587713866] [0:1] [0:1] [0:1]
tree_sizes=3300 3369 3356 3366 3371 3364 3369 3371 3362 3360 3370 3369 3388 3374 3370 3374 3377 3372 3376 3389 3371 3381 3380 3382 3372 3386 3379 3373 3374 3368 3382 3374 3374 3372 3371 3367 3375 3386 3383 3388 3389 3378 3385 3376 3380 3380

Tree=0
num_leaves=31
num_cat=0
split_feature=12 17 82 11 55 86 68 49 105 12 17 37 106 47 100 22 114 30 56 110 56 22 82 133 50 47 97 16 12 113
split_gain=271.655 46.7028 34.4606 17.2437 18.0373 14.4067 10.9953 11.1988 9.25184 12.3726 8.19973 8.39087 9.01713 7.7645 8.91571 11.1011 6.95801 6.90621 6.81144 8.37591 8.17923 6.41932 6.98119 5.9574 5.45028 5.13117 4.97469 12.1553 3.67801 4.16735
threshold=-3.2032261366036887 -24.202089860283873 25.136325595888483 4.5000000000000009 74.481175197929858 63.450457971771762 1527.2475728647835 1476.2101882198544 97.561401365635007 -116.79568324319007 25.663554537829445 951.99181209575931 86.843107063438296 85.720334039890091 142.44931539654394 -24.662612507017567 1624.5751426854749 66.242918976766489 65.756037588792097 83.875365332358797 74.70890332545882 11.461443492422861 15.950849316829137 1535.978613183094 96.820505277496977 -184.3095038148999 -957.378950666886 69.836284086488135 280.98963009382823 1639.0254625299747
decision_type=2 2 2 2 2 2 2 2 2 2 2 2 2 2 2 2 2 2 2 2 2 2 2 2 2 2 2 2 2 2
left_child=1 26 3 4 10 -3 7 -7 -8 -10 11 12 17 14 15 -9 -14 -2 -13 -20 -21 -5 -23 -11 28 -16 -1 -28 29 -4
right_child=2 5 24 21 -6 6 8 13 9 23 -12 18 16 -15 25 -17 -18 -19 19 20 -22 22 -24 -25 -26 -27 27 -29 -30 -31
leaf_value=0.0012505922721604557 0.070502824799372379 0.015230941571189996 0.1288116246884439 0.036610834863849591 0.061392074816704952 0.034760651790446323 0.019007281419078245 0.019342459512086088 0.03250433096922288 0.14885527465031217 0.18352537188165205 0.058658849821904752 0.17701183054912725 0.15687273463505957 0.092733054757080893 0.11185161318224759 0.11258581281455049 0.15076419369429966 0.16388801212171344 0.13075133274926987 0.048637024840970572 0.1316750032544251 0.055318241494926673 0.0796135747820398 0.12726980546060787 0.15687273463505957 0.0055645004548279947 0.098746149745641401 0.18470800063844289 0.18203097113892186
leaf_weight=43.155811235308647 5.4880222380161268 11.225500032305716 7.4836666882038099 6.2363889068365124 8.232033357024191 6.4858444631099692 11.474955588579176 6.4858444631099701 10.227677807211874 4.9891111254692104 9.2298555821180326 4.9891111254692104 20.954266726970676 6.2363889068365088 6.2363889068365097 6.4858444631099754 5.2385666817426673 5.2385666817426682 7.9825778007507351 7.7331222444772703 4.9891111254692078 6.9847555756568891 5.2385666817426682 8.232033357024191 6.4858444631099692 6.2363889068365079 11.72441114485264 4.9891111254692069 35.422688990831375 7.2342111319303513
leaf_count=173 22 45 30 25 33 26 46 26 41 20 37 20 84 25 25 26 21 21 32 31 20 28 21 33 26 25 47 20 142 29
internal_value=0.0934012 0.0439902 0.139317 0.121454 0.131497 0.0679691 0.0760688 0.0946195 0.0557955 0.0737982 0.139529 0.133044 0.148314 0.106874 0.0946195 0.065597 0.164127 0.1097 0.111103 0.12374 0.0985496 0.0778899 0.0989507 0.105743 0.1704 0.124803 0.01022 0.0333799 0.175979 0.15497
internal_weight=0 144.185 155.161 98.5349 80.0752 84.316 73.0905 38.1667 34.9238 23.4488 71.8432 62.6133 36.9194 31.6809 25.4445 12.9717 26.1928 10.7266 25.6939 20.7048 12.7222 18.4597 12.2233 13.2211 56.6264 12.4728 59.8693 16.7135 50.1406 14.7179
internal_count=1200 578 622 395 321 338 293 153 140 94 288 251 148 127 102 52 105 43 103 83 51 74 49 53 227 50 240 67 201 59
is_linear=0
shrinkage=1


Tree=1
num_leaves=31
num_cat=0
split_feature=17 27 17 9 86 54 41 109 22 120 95 55 46 68 49 5 65 105 63 103 101 113 103 89 26 121 35 51 97 31
split_gain=246.002 38.8187 31.1814 15.9703 11.8726 10.6058 9.50633 9.2025 8.64423 13.4133 10.3871 9.06626 8.55731 8.53194 10.7851 8.46154 8.41312 7.6135 7.76825 6.68808 7.28401 7.6437 5.90456 5.77643 6.41359 5.06014 4.74011 4.5702 4.46461 9.98087
threshold=-5.9505056957908655 220.37344227769032 -24.202089860283873 -13.499999999999998 63.450457971771762 1400.8636469518544 94.318137083890392 1610.4528760720207 11.588552186021049 72.638449183978992 74.777754052501578 67.205229000257461 74.778507439696497 1527.2475728647835 1476.2101882198544 962.50000000000011 67.318129326538113 93.82413826733783 1508.3866286982454 2181.7052524190062 118.24391635069237 1580.0789512126105 2217.7996895393712 1557.460219589093 62.348938741430366 90.582626130375857 91.666840666855919 67.502768025184238 -957.378950666886 67.268112131781706
decision_type=2 2 2 2 2 2 2 2 2 2 2 2 2 2 2 2 2 2 2 2 2 2 2 2 2 2 2 2 2 2
left_child=2 3 28 12 -4 -5 8 -8 9 11 -10 -7 23 14 -6 17 19 -16 -19 20 26 -22 25 -2 -25 -15 -14 -26 -1 -30
right_child=1 -3 4 5 13 6 7 -9 10 -11 -12 -13 16 22 15 -17 -18 18 -20 -21 21 -23 -24 24 27 -27 -28 -29 29 -31
leaf_value=-0.087345799089085407 0.08856208398251178 0.079483275193286893 -0.080326633088138866 0.050875805472872154 -0.066983712670108359 -0.0039601030623834556 -0.087822249498367658 0.0041717384273398323 0.067690429963795762 0.034131966222512848 -0.020126764078329112 -0.093831722693975439 0.084316345478814989 -0.076881191612967789 -0.050814637263716003 0.065583011719159715 -0.029265573125437289 0.055820994497488889 -0.014513329199266199 -0.0099044474411883604 0.055312740535526386 -0.030226301627206797 -0.0030227764243623413 0.086059258735101882 -0.0025120843567020094 -0.017978972898615098 0.030086831817123672 0.055355938913430686 -0.082993135507415952 0.00027254794484106123
leaf_weight=43.249981954693794 11.428954198956491 44.150301858782768 9.7491386383771879 10.214264467358587 5.7482468932867041 5.4870630502700823 5.9866068959236127 4.9797748923301697 9.4559932351112348 8.2202137559652311 5.229469269514083 5.7437209784984589 11.431232020258909 11.993224382400518 6.4810052961111131 5.2264662384986869 5.9863181859254828 6.473939627408984 9.974124073982237 6.7209189832210532 5.2211408615112287 5.2254533022642136 6.491704434156417 6.221483767032626 7.2200185060501081 5.2389316111803046 6.2232917696237555 6.4688614904880524 11.499304398894312 5.2384359687566748
leaf_count=173 46 178 39 41 23 22 24 20 38 33 21 23 46 48 26 21 24 26 40 27 21 21 26 25 29 21 25 26 46 21
internal_value=0 0.0390777 -0.052641 0.0250823 -0.0292973 0.00487016 -0.00554855 -0.0460483 0.00746203 -0.0144003 0.0364189 -0.0499228 0.0405794 -0.0206645 -0.0045711 0.00817109 0.0254891 -0.00491542 0.0131702 0.0349021 0.0456184 0.0125256 -0.0436635 0.0602292 0.0439655 -0.0589737 0.0652002 0.0248342 -0.0788601 -0.0569333
internal_weight=0 171.615 127.365 127.465 67.3768 55.3171 45.1028 10.9664 34.1365 19.451 14.6855 11.2308 72.1477 57.6276 33.9038 28.1555 40.8084 22.9291 16.4481 34.822 28.1011 10.4466 23.7239 31.3393 19.9104 17.2322 17.6545 13.6889 59.9877 16.7377
internal_count=1200 690 510 512 270 222 181 44 137 78 59 45 290 231 136 113 164 92 66 140 113 42 95 126 80 69 71 55 240 67
is_linear=0
shrinkage=0.05


Tree=2
num_leaves=31
num_cat=0
split_feature=17 82 82 9 29 19 49 114 69 52 134 6 50 135 47 86 6 121 42 52 110 68 114 23 93 17 50 49 16 12
split_gain=222.611 37.2641 28.7844 14.417 11.4652 11.0588 8.86008 8.51937 9.41805 8.76574 8.60525 8.47324 11.7706 6.79177 6.38526 6.02743 7.23399 10.459 7.86039 9.80236 5.96311 5.6243 5.56567 5.22593 7.35025 5.22367 4.92879 4.36439 3.44597 3.11932
threshold=-5.9505056957908655 25.136325595888483 -16.836965208887019 -13.499999999999998 1799.0352292699633 1521.3866192667958 1465.951184992454 1594.20854459221 1537.4488633744747 49.610408874221896 1528.2518719244702 30.500000000000004 77.861003080822101 63.524283738549563 -181.28658083067589 63.450457971771762 25.500000000000004 92.884098229654867 -14.450778157826219 31.673076305832868 84.272295691154213 1518.3321085602845 1509.0079653746541 1572.9090850413347 1727.0229578107553 -14.217724858090035 96.820505277496977 1518.4771819105024 69.092274839814891 280.98963009382823
decision_type=2 2 2 2 2 2 2 2 2 2 2 2 2 2 2 2 2 2 2 2 2 2 2 2 2 2 2 2 2 2
left_child=2 3 4 11 14 -5 -7 8 -8 -10 -9 12 20 -12 -1 -4 21 18 19 -18 22 -17 -2 -22 -25 -23 29 -6 -13 -3
right_child=1 26 15 5 27 6 7 10 9 -11 13 28 -14 -15 -16 16 17 -19 -20 -21 23 25 -24 24 -26 -27 -28 -29 -30 -31
leaf_value=-0.071155805882867379 0.025232773842593301 0.056705346322118037 -0.069571218460270173 0.06284784028664904 -0.039591236133123431 -0.066650643074174301 0.061129235362161388 -0.075789758097958987 0.039675610527803939 -0.047052460267756002 -0.035525517347312706 0.081884939534781293 -0.03421161208059087 0.034334930166780922 0.00054704501877146725 -0.00068156056644876734 -0.023370052051493985 0.061673204844996644 -0.051001193855756355 0.065507147562034698 -0.017115530620085178 -0.09928795233936405 0.085241446288559217 0.082343301784116557 0.0097160199794708527 -0.028632568479579696 0.029629925394008823 -0.082108061331454013 0.035869475452048466 0.08423671627923901
leaf_weight=4.9912193566560736 6.6909283101558676 14.588895827531813 5.4940187335014334 6.4613856077194205 6.7382496595382682 5.4845739752054206 9.189739719033243 5.4874852597713497 5.471897751092909 6.2312148362398148 7.2214697301387769 11.85026176273823 6.968094438314437 6.713261142373085 8.2154945135116559 5.7251098752021816 8.2272431850433367 5.7300254553556433 8.730377063155176 4.9803418070077887 6.7158266305923489 4.9969436228275308 9.1451236009597761 5.4469323456287375 9.6655279994010908 5.4899256825447056 6.4430942088365546 57.906869113445282 6.1958170831203452 34.901038125157356
leaf_count=20 27 59 22 26 27 22 37 22 22 25 29 48 28 27 33 23 33 23 35 20 27 20 37 22 39 22 26 232 25 142
internal_value=0 0.0372936 -0.0500638 0.0210052 -0.0690036 0.00161229 -0.00702678 0.00108462 0.0232457 -0.00650195 -0.0227545 0.0371749 0.0254852 -0.00186922 -0.0265516 -0.0201999 -0.0140183 0.00152184 -0.0141892 0.0101439 0.0365295 -0.0405397 0.059887 0.0195839 0.0358928 -0.0622995 0.0707654 -0.0776763 0.0660863 0.0761209
internal_weight=0 170.873 127.226 114.94 77.8518 52.261 45.7996 40.3151 20.8929 11.7031 19.4222 62.6785 44.6324 13.9347 13.2067 49.374 43.88 27.668 21.938 13.2076 37.6643 16.212 15.8361 21.8283 15.1125 10.4869 55.933 64.6451 18.0461 49.4899
internal_count=1200 690 510 463 312 210 184 162 84 47 78 253 180 56 53 198 176 111 88 53 152 65 64 88 61 42 227 259 73 201
is_linear=0
shrinkage=0.05


Tree=3
num_leaves=31
num_cat=0
split_feature=12 17 82 11 55 125 49 47 100 54 33 17 114 53 111 110 99 110 36 17 22 86 90 127 63 104 62 108 47 79
split_gain=202.191 34.7723 27.0222 14.2866 15.2407 12.3472 7.46329 9.2766 11.73 9.64587 8.64245 6.84829 6.93675 10.6909 5.9976 6.70794 6.16248 6.06185 5.80826 6.59527 5.69513 5.27975 10.6609 4.88541 4.6125 4.44369 5.19962 4.54837 3.70948 3.46032
threshold=-3.2032261366036887 -24.202089860283873 25.136325595888483 4.5000000000000009 74.481175197929858 67.290570956598074 1433.8440300600548 -184.3095038148999 142.44931539654394 1460.4976503615567 599.82748493713291 25.663554537829445 1631.4309354054219 1578.5061550005707 101.81439417660981 84.272295691154213 1881.7777672481816 71.927497550973683 101.56491821166001 8.5266099101795607 -26.537572406616729 63.796467521780457 65.047651174023244 9.3901815246952101 1511.3826229675751 1682.2898408442959 -14.523567662558092 1780.0292967912126 -75.705641572141175 1724.7593913708454
decision_type=2 2 2 2 2 2 2 2 2 2 2 2 2 2 2 2 2 2 2 2 2 2 2 2 2 2 2 2 2 2
left_child=1 25 3 4 11 21 -7 10 9 -9 -8 12 14 -14 15 17 -17 -2 19 -5 -11 -3 -23 -19 -4 26 -1 -27 -10 -16
right_child=2 5 24 18 -6 6 7 8 28 20 -12 -13 13 -15 29 16 -18 23 -20 -21 -22 22 -24 -25 -26 27 -28 -29 -30 -31
leaf_value=-0.021577653424828716 0.00073016300912094872 -0.074242338629230395 0.023017652170612763 -0.035715422328510667 -0.031012023882679287 -0.063337256414440948 0.0088031297664128046 0.043255323648970959 0.08378277736058222 -0.055050130691463563 -0.069251111988482592 0.08153014456086638 -0.050670903557884589 0.045202775935247269 0.045473375056952502 0.035936413156987951 -0.03395027694837164 0.088740834453710629 -0.058652044289317952 0.035902630384174877 0.0021365624839067422 0.015560094093028685 -0.064223084691857377 0.02894855131264051 0.072552673164212197 -0.084682454956409067 -0.084506052218622715 -0.034041956986707082 0.026123121466356616 0.088856527953969852
leaf_weight=8.2085363417863828 4.9418361932039323 11.705535098910334 5.1849276125431052 5.97934338450432 8.2274706512689573 5.4890696406364432 6.2297368198633185 6.7096979171037701 5.4543920308351517 8.9707201123237592 8.2332883924245817 9.0393307805061323 5.4775547385215742 6.1978638768196106 9.875736743211748 6.4073665589094144 6.2129383534193039 8.5988983958959562 5.4754243195056906 6.9522674083709717 8.4589106142520922 7.2207096964120892 9.9661054164171201 5.6681582331657401 50.196629852056503 40.997407898306847 5.4700957387685767 4.9717644006013861 5.7089720666408521 8.5980603098869306
leaf_count=33 20 47 21 24 33 22 25 27 22 36 33 37 22 25 40 26 25 35 22 28 34 29 40 23 206 165 22 20 23 35
internal_value=0 -0.0425574 0.0400157 0.0241931 0.0334103 -0.0218563 -0.00800658 -0.0019037 0.0119137 -0.00768605 -0.0356304 0.0408737 0.0349441 0.000223376 0.0430028 0.0298497 0.0015314 0.048455 -0.0154884 0.00278774 -0.0272964 -0.0483431 -0.0307037 0.064986 0.0679151 -0.071761 -0.0467428 -0.0792055 0.0542955 0.0656647
internal_weight=0 143.795 153.034 97.6522 79.2452 84.1471 55.2548 49.7657 35.3027 24.1393 14.463 71.0177 61.9784 11.6754 50.303 31.8292 12.6203 19.2089 18.407 12.9316 17.4296 28.8924 17.1868 14.2671 55.3816 59.6478 13.6786 45.9692 11.1634 18.4738
internal_count=1200 578 622 395 321 338 222 200 142 97 58 288 251 47 204 129 51 78 74 52 70 116 69 58 227 240 55 185 45 75
is_linear=0
shrinkage=0.05


Tree=4
num_leaves=31
num_cat=0
split_feature=12 22 27 135 104 11 122 67 10 22 62 30 68 117 85 121 11 24 69 22 89 9 110 120 22 127 103 36 11 118
split_gain=183.575 31.9192 25.0772 13.1257 13.0665 10.8844 10.6673 8.03344 8.34477 7.11575 6.78956 7.46632 6.3757 5.79725 5.17268 5.30765 5.87776 4.67884 7.6819 7.53243 6.60766 5.29934 5.43799 4.71646 4.61422 4.55585 4.45045 5.45423 4.11377 3.33811
threshold=-3.2032261366036887 -43.784783941888797 220.37344227769032 63.494842129948061 1682.2898408442959 4.5000000000000009 -26.001028973045546 -18.30637028029582 -280.49999999999994 11.461443492422861 -4.877559628201765 67.185925693138486 1526.5322162807772 -58.940623281165237 95.755563265435327 96.594656542999317 -2.4999999999999996 1548.0395305384375 1507.4395588708337 39.967482979830386 1555.4868978915658 -4.4999999999999991 95.169252328900356 68.836114163087629 39.967482979830386 -9.3437202955245748 1944.7792137118483 96.007586188260362 -2.4999999999999996 1615.022358443747
decision_type=2 2 2 2 2 2 2 2 2 2 2 2 2 2 2 2 2 2 2 2 2 2 2 2 2 2 2 2 2 2
left_child=1 4 5 12 6 7 -1 -2 -9 -7 14 -12 13 -3 15 16 -5 18 28 -20 -19 22 23 -22 -11 -8 -14 -28 -10 -24
right_child=2 3 -4 10 -6 9 25 8 17 24 11 -13 26 -15 -16 -17 -18 20 19 -21 21 -23 29 -25 -26 -27 27 -29 -30 -31
leaf_value=-0.068857044700328024 -0.025017560880997165 0.025045964591714844 0.070769979277320025 0.019011816783584233 -0.077607374764769241 -0.050549784519351486 0.030512777601560754 -0.025131168568065979 0.018290058936102492 0.036654999822496356 0.074332940692274835 0.0031691710346548607 -0.092866464226216597 -0.049550936254087151 -0.060678949785061533 0.039561271755572676 -0.047445424105020305 0.077381038113952527 -0.039990589906226393 0.04043026948411977 0.01049792472063207 0.081998122599664366 -0.029430594668497009 0.060790091688799022 -0.015836883875279251 -0.032096840803793387 -0.0026999404477810627 -0.069319784165568193 0.079247396777039902 0.028809721845363692
leaf_weight=10.157807022333147 5.4463090747594824 5.4680761098861694 42.741314917802811 5.7084724456071889 51.091453045606613 6.2350363284349468 6.2098146677017212 4.9563345909118643 4.9089349806308746 8.9107119888067263 5.4428080171346691 11.417511165142058 6.4524495154619244 4.9732816219329852 4.9726065248250952 5.2141835093498221 7.9755543023347872 15.586729809641836 6.6965879499912244 5.1514685451984406 6.886913716793063 5.9077132791280773 4.9348632544279081 14.428860351443289 7.8965778350830069 5.460465192794798 5.226822301745413 7.4534460306167603 6.3454563021659869 4.9065322875976562
leaf_count=41 22 22 178 23 207 25 25 20 20 36 22 46 26 20 20 21 32 64 27 21 28 24 20 59 32 22 21 30 26 20
internal_value=0 -0.0405959 0.0383018 -0.016557 -0.063773 0.0255935 -0.0313917 0.0337571 0.0377232 -0.0049307 0.00185205 0.0261421 -0.0419109 -0.010485 -0.0153044 -0.00336515 -0.0197219 0.0418355 0.0230764 -0.00502405 0.0500666 0.0385802 0.0303477 0.0445412 0.0119927 0.00121805 -0.0590611 -0.041859 0.0526591 -0.000394266
internal_weight=0 143.225 151.94 70.3052 72.9195 109.199 21.8281 86.1567 80.7104 23.0423 40.7311 16.8603 29.5741 10.4414 23.8708 18.8982 13.684 75.7541 23.1024 11.8481 52.6516 37.0649 31.1572 21.3158 16.8073 11.6703 19.1327 12.6803 11.2544 9.8414
internal_count=1200 578 622 283 295 444 88 351 329 93 164 68 119 42 96 76 55 309 94 48 215 151 127 87 68 47 77 51 46 40
is_linear=0
shrinkage=0.05


Tree=5
num_leaves=31
num_cat=0
split_feature=17 82 82 11 40 127 29 55 20 71 114 62 101 49 36 36 55 11 115 77 26 71 107 50 115 28 12 113 96 64
split_gain=167.295 29.6232 22.6754 12.0046 10.8491 10.712 8.90487 7.84629 6.7293 7.8751 6.43409 5.98277 6.21148 7.45321 5.58508 5.5255 6.97187 5.45176 10.5872 6.97733 6.75392 6.23281 4.46326 4.389 4.04947 4.8378 2.80745 3.85775 2.23978 2.17202
threshold=-5.9505056957908655 25.136325595888483 -16.836965208887019 4.5000000000000009 121.32367004919067 -17.845104729474652 1799.0352292699633 66.433708707694208 63.243955812365535 61.818852164271519 1551.5469844630204 5.5680795081055985 120.66093239354184 1528.2984900785457 91.480380462285908 101.10429651298229 68.522212459631234 2.5000000000000004 85.493672739464884 -119.97672940074959 62.714674598014277 61.516316659059093 -4.9007411787863466 96.820505277496977 66.546256196044894 1731.4398036889663 280.98963009382823 1639.0254625299747 90.223841064036733 1533.1979592076557
decision_type=2 2 2 2 2 2 2 2 2 2 2 2 2 2 2 2 2 2 2 2 2 2 2 2 2 2 2 2 2 2
left_child=2 3 6 4 5 10 14 -5 24 -10 -2 -6 13 -13 -1 16 -9 19 -19 -4 -21 -22 29 26 -7 -26 27 -3 -27 -8
right_child=1 23 17 7 11 8 22 15 9 -11 -12 12 -14 -15 -16 -17 -18 18 -20 20 21 -23 -24 -25 25 28 -28 -29 -30 -31
leaf_value=-0.048499354661041924 0.038082675975727849 0.024357710338413153 0.031352505777177235 0.040926434086258102 -0.039230697991024154 0.016437172233314024 -0.059839942418490923 -0.044726790779376011 -0.014711543111467934 0.052549609950484903 -0.030246814407397439 0.033875969184185534 0.059800571624780842 -0.050073098488964476 0.018769857586076358 -0.068245859696555541 0.034830340248646528 -0.070575419890667096 0.0097173435846857892 -0.052860200228921232 0.034342273591165026 -0.03477750483993463 -0.033137293816835708 0.024102545721392678 0.027457960308097464 0.083155367377769018 0.076286863796624638 0.076405535109959358 0.045230636768777366 -0.080589353781226669
leaf_weight=8.1832061409950239 5.8476794213056555 7.2869289517402631 9.4113473445177096 4.9427932351827648 7.6922781467437771 4.8479869216680518 19.358766570687294 6.2054895907640475 8.1587868034839648 9.3263257592916471 8.3854963779449445 5.3923572897911054 5.1203550696372977 5.1873726695775986 4.953268587589263 6.2166921198368064 4.9507819265127182 10.650983646512033 6.6806228011846533 9.1899929493665713 7.1926197409629804 5.9674876630306244 7.8753231465816489 6.3419750332832328 6.5801319777965572 19.829428985714916 33.475403398275375 6.9611307084560394 4.8442280441522589 36.190000429749489
leaf_count=33 24 30 38 20 31 20 79 25 33 38 34 22 21 21 20 25 20 43 27 37 29 24 32 26 27 82 142 29 20 148
internal_value=0 0.0327205 -0.0435948 0.0182139 0.026256 0.0363834 -0.0606034 -0.0146572 0.0466245 0.0211647 -0.00217374 -0.0031057 0.0145938 -0.0072853 -0.0231347 -0.0304714 -0.00942198 -0.01707 -0.0396259 -0.00476171 -0.019969 0.00299972 -0.068364 0.0631818 0.0589554 0.0655507 0.0683751 0.0497866 0.0757095 -0.0733582
internal_weight=0 167.594 125.654 113.528 91.2124 67.8201 76.5606 22.3158 53.5869 17.4851 14.2332 23.3924 15.7001 10.5797 13.1365 17.373 11.1563 49.0931 17.3316 31.7614 22.3501 13.1601 63.4241 54.0654 36.1018 31.2538 47.7235 14.2481 24.6737 55.5488
internal_count=1200 690 510 463 373 278 312 90 220 71 58 95 64 43 53 70 45 198 70 128 90 53 259 227 149 129 201 59 102 227
is_linear=0
shrinkage=0.05


Tree=6
num_leaves=31
num_cat=0
split_feature=12 17 82 11 55 135 87 120 127 68 15 121 49 111 111 102 22 37 45 65 51 103 106 100 50 133 107 99 31 117
split_gain=152.27 27.2656 21.9259 10.9373 13.1222 10.3503 9.5975 7.4573 6.7926 6.75995 8.59809 10.4116 6.65919 6.26209 6.34872 6.09995 7.90861 11.1271 5.85842 5.65102 8.09719 5.38904 4.75185 4.24577 4.13718 4.11205 3.79832 3.74106 11.3181 3.32101
threshold=-3.2032261366036887 -24.202089860283873 25.136325595888483 4.5000000000000009 74.481175197929858 61.462582176260177 0.86797723104632507 69.676577749380513 12.213312620263084 1527.2475728647835 66.764291440956967 92.422331092492541 1476.2101882198544 73.686541975152508 81.11623937434949 141.65808845059647 42.013535328361179 951.99181209575931 73.487752832801888 62.241084955607285 69.035605727182315 1839.3745532688324 84.774361150911645 128.56053101940893 96.820505277496977 1534.4695675549513 138.21424986268747 2555.4307198367305 68.138415462875386 -157.00467567039365
decision_type=2 2 2 2 2 2 2 2 2 2 2 2 2 2 2 2 2 2 2 2 2 2 2 2 2 2 2 2 2 2
left_child=1 27 3 4 15 -3 9 -5 -8 12 -11 18 -7 -14 -15 -2 17 22 -12 -19 -21 23 -17 -16 -4 -9 -24 28 29 -1
right_child=2 5 24 7 -6 6 8 25 -10 10 11 -13 13 14 21 16 -18 19 -20 20 -22 -23 26 -25 -26 -27 -28 -29 -30 -31
leaf_value=-0.085158861512872455 -0.012620199649573708 -0.081313871351147496 0.066082164624082437 0.030921785339531101 -0.030597881374480301 -0.053850594475913907 0.062526599222472029 -0.012343357360079264 -0.015479136396738672 -0.079657195268862502 -0.0052526236210248527 0.040611278349654126 -0.040290511874973539 0.060875249987959248 -0.01012380481322687 0.011701219373089376 0.0721970307514192 -0.038603556770544167 -0.064059418346140026 0.052912599725625092 -0.017954845147555226 -0.036188847505194931 0.077148864614044119 0.054618682797048249 0.022985222390247598 -0.071521766713472268 0.030785355386039666 -0.075855027139855633 0.018318535318168069 -0.047507597493254033
leaf_weight=10.891178071498874 5.8578175753355017 6.1383182853460303 46.932191669940948 6.1859864890575436 8.2172773927450162 5.9707186073064795 6.4165099263191205 7.1850896477699262 4.9388314634561539 8.858505919575693 7.165974944829947 5.1914242208003989 6.1828048229217556 5.9353587627410915 4.9540270268917102 5.6434535980224636 15.180988594889639 5.665813788771632 10.354912027716635 8.5293820351362246 7.6421027332544318 6.2074507921934119 14.839228793978693 5.1802958548069 6.3183600306510916 4.9630618095397949 6.2900211364030829 29.634487837553024 4.9411980360746375 12.669793426990509
leaf_count=45 24 25 201 25 33 24 26 29 20 36 29 21 25 24 20 23 64 23 42 35 31 25 62 21 26 20 26 123 20 52
internal_value=0 -0.0371254 0.0352275 0.0209789 0.0291597 -0.0188194 -0.0138605 -0.0137652 0.0285992 -0.0211655 -0.0378762 -0.0215803 -0.00584281 0.00422892 0.0165849 0.0362099 0.0406939 0.0308555 -0.0400077 0.00436769 0.019423 0.000498529 0.0524604 0.0229702 0.0609686 -0.0365204 0.0633468 -0.0634161 -0.050483 -0.0649121
internal_weight=0 141.632 149.451 96.2002 77.8661 83.4951 77.3568 18.3341 11.3553 66.0015 31.5708 22.7123 34.4307 28.4599 22.2771 69.6488 63.791 48.61 17.5209 21.8373 16.1715 16.3418 26.7727 10.1343 53.2506 12.1482 21.1292 58.1367 28.5022 23.561
internal_count=1200 578 622 395 321 338 313 74 46 267 128 92 139 115 90 288 264 200 71 89 66 66 111 41 227 49 88 240 117 97
is_linear=0
shrinkage=0.05


Tree=7
num_leaves=31
num_cat=0
split_feature=17 82 82 11 114 11 53 19 54 55 55 12 37 52 107 53 36 11 115 52 128 33 50 52 68 129 64 12 113 136
split_gain=139.021 25.4406 19.7164 9.96609 9.94201 9.99426 7.74979 7.65579 7.32297 6.93208 6.87768 5.93617 8.10037 7.52555 5.67931 5.22375 6.03674 4.91492 9.57117 6.41345 6.58096 5.92165 3.90905 3.3703 3.34598 2.86584 4.12103 2.80383 3.6845 2.32635
threshold=-5.9505056957908655 25.136325595888483 -16.836965208887019 4.5000000000000009 1628.1879720489706 -2.4999999999999996 1579.8544421299678 1544.9275941866567 1535.1613911032841 66.433708707694208 74.481175197929858 60.728389929211183 917.26531233971878 -145.38653426323091 -4.9007411787863466 1498.4747506299902 95.824869403046989 2.5000000000000004 85.493672739464884 -69.169438988391775 1510.640069044749 1126.1018133388504 96.820505277496977 1.0000000180025095e-35 1523.0548034803185 1514.0497957023463 1523.142574316458 280.98963009382823 1639.0254625299747 63.607047160571824
decision_type=2 2 2 2 2 2 2 2 2 2 2 2 2 2 2 2 2 2 2 2 2 2 2 2 2 2 2 2 2 2
left_child=2 3 7 4 10 -6 -7 8 -1 -5 11 12 13 -2 -9 -11 -17 19 -19 20 -4 -21 27 -23 -13 -26 -27 28 -3 -28
right_child=1 22 17 9 5 6 -8 14 -10 15 -12 24 -14 -15 -16 16 -18 18 -20 21 -22 23 -24 -25 25 26 29 -29 -30 -31
leaf_value=0.024843341162124843 -0.0062574584104528016 0.020206314174495126 -0.0060920260056049891 0.039143963285644359 0.039190726439385024 -0.080564384142262371 0.0015776283332732356 -0.069764590926587225 -0.050922420492432979 0.011084348553870041 -0.012095723768253682 0.016747402593278782 -0.027543689594672734 0.062483628059168496 -0.026290842506565146 -0.013531251990925164 -0.085711939091348097 -0.066445060728567332 0.010151626002611103 0.016339293660422752 0.069431546909384842 -0.072273566138729137 0.021921703805418066 -0.020060290277210072 0.069865797239709829 0.0017893480502522222 0.035235361726573773 0.072029242800116633 0.071712186786585683 0.080785939577504018
leaf_weight=5.156578615307807 6.3718662708997771 7.1662886291742307 6.8916906118392962 4.9133921563625362 6.8275502920150783 5.4328134506940824 6.0904710590839386 52.765650540590286 8.3589844703674299 5.6975472122430828 7.7170262634754172 6.4901147186756125 6.9011638760566703 10.61319063603878 8.7595810294151288 6.1822309494018537 5.4505157470703125 10.531048476696016 6.656034678220748 6.9056858420372036 4.9607275277376175 5.1712252944707853 6.2942724525928488 7.6816183179616928 17.630425915122032 4.7847115695476559 5.8114893734455091 32.206409692764282 6.7358570694923401 5.4146496504545212
leaf_count=21 26 30 28 20 28 22 25 221 34 23 31 27 28 44 36 25 22 43 27 28 20 21 26 31 75 20 24 142 29 23
internal_value=0 0.0301147 -0.0400016 0.0166939 0.0240945 -0.00874653 -0.0371494 -0.0560898 -0.0220156 -0.0132777 0.0324957 0.037871 0.0181358 0.0366957 -0.0635751 -0.02814 -0.0473515 -0.0152614 -0.0367815 -0.00356072 0.0255177 -0.0210038 0.0588829 -0.0410678 0.0496174 0.0559587 0.0406449 0.0639285 0.0451619 0.0572056
internal_weight=0 164.732 123.839 112.329 90.0855 18.3508 11.5233 75.0408 13.5156 22.2437 71.7346 64.0176 23.8862 16.9851 61.5252 17.3303 11.6327 48.798 17.1871 31.6109 11.8524 19.7585 52.4028 12.8528 40.1314 33.6413 16.0109 46.1086 13.9021 11.2261
internal_count=1200 690 510 463 373 75 47 312 55 90 298 267 98 70 257 70 47 198 70 128 48 80 227 52 169 142 67 201 59 47
is_linear=0
shrinkage=0.05


Tree=8
num_leaves=31
num_cat=0
split_feature=17 27 17 10 131 127 16 124 35 111 111 37 11 25 117 53 127 109 111 17 57 63 96 107 67 97 16 50 114 68
split_gain=126.718 23.5679 17.7778 9.61322 7.92243 7.53974 9.81053 8.78802 7.40126 7.57679 7.38221 7.28547 9.76285 8.14104 7.28219 7.01264 6.76584 7.78206 6.36537 5.30103 5.1854 5.05378 4.94146 4.78296 5.37332 3.78296 9.17976 2.89563 5.19021 1.88711
threshold=-5.9505056957908655 220.37344227769032 -24.202089860283873 -621.99999999999989 63.691784488265675 -10.413642367073406 69.590436206756266 1508.6766001014241 249.77794687111322 82.724797244280822 74.303300844946705 844.52752012139842 2.5000000000000004 62.219820659229441 -59.938867469446556 1436.7218841114834 24.325665152940136 1593.3931776148277 90.203308850452729 -9.568000018275141 2.405544355798384 1517.0408826151931 69.965134260214057 87.111642140653103 19.37773715514459 -957.378950666886 69.836284086488135 74.837048475210636 1572.0303215856222 1506.4217646051397
decision_type=2 2 2 2 2 2 2 2 2 2 2 2 2 2 2 2 2 2 2 2 2 2 2 2 2 2 2 2 2 2
left_child=2 3 25 -2 -4 6 7 -5 9 10 14 12 -7 22 -6 -11 17 -15 -17 21 -19 -20 -13 24 -18 29 -27 -3 -29 -1
right_child=1 27 4 5 8 11 -8 -9 -10 15 -12 13 -14 16 -16 18 23 20 19 -21 -22 -23 -24 -25 -26 26 -28 28 -30 -31
leaf_value=-0.041001827558971887 -0.03220606522572949 0.07314341894329944 -0.070272334461680686 0.058343236485078491 0.016192040331431578 0.064979474301876644 -0.042672994151161443 -0.013206592147822681 0.044085028816566549 0.016034585042509455 0.0405705286620218 0.020260097094326093 0.0031215742562473595 -0.029353083930389674 -0.067201746525662298 -0.088078465113650611 -0.010819915370678902 0.0011555245578104417 0.0088748793892728765 -0.075949367415816885 0.057425219538155353 -0.04454305412846727 -0.044093849152082101 0.07654919585962533 0.063061570475138565 -0.063553974059102222 0.018409103891342704 0.066722669563324788 0.0063052130938500775 -0.071479851963927019
leaf_weight=5.9507079869508734 8.8172011822462064 24.247215881943703 7.1924876719713202 8.2241147011518532 5.6644895821809769 23.271849259734154 9.3288837373256666 8.9748467952012998 4.9105202108621588 5.88720479607582 8.3649631291627866 5.0524518340826017 8.7870713621377927 8.0572129040956515 4.8670530021190661 6.3482481986284283 4.8840492665767687 7.8121948987245586 8.6450243890285545 5.188118800520896 8.6028288006782514 9.0764361917972547 7.2824984192848206 9.2012792974710447 4.9605372250080109 11.101786240935327 4.9345404505729666 10.135768875479696 5.474682390689849 34.663331508636475
leaf_count=25 36 109 30 34 23 99 38 37 20 24 34 21 36 33 20 26 20 32 35 21 36 37 30 39 21 47 20 45 24 148
internal_value=0 0.0289079 -0.0383381 0.0181002 -0.0207316 0.0219761 -0.00138711 0.0210068 -0.0146874 -0.0200278 0.00550452 0.0290261 0.0480248 0.0181211 -0.0223476 -0.0337558 0.028284 0.0108916 -0.0437745 -0.0314979 0.0306455 -0.0184843 -0.0177342 0.0506317 0.0264078 -0.0588953 -0.0383331 0.06233 0.0455339 -0.0670143
internal_weight=0 163.115 122.795 123.257 66.1445 114.44 26.5278 17.199 58.9521 54.0415 18.8965 87.912 32.0589 55.8531 10.5315 35.145 43.5181 24.4722 29.2578 22.9096 16.415 17.7215 12.335 19.0459 9.84459 56.6504 16.0363 39.8577 15.6105 40.614
internal_count=1200 690 510 512 270 476 109 71 240 220 77 367 135 232 43 143 181 101 119 93 68 72 51 80 41 240 67 178 69 173
is_linear=0
shrinkage=0.05


Tree=9
num_leaves=31
num_cat=0
split_feature=12 24 27 122 62 10 67 49 105 114 11 101 15 5 127 37 6 47 17 22 21 104 29 11 33 101 63 71 113 53
split_gain=115.875 20.0764 19.6213 8.78105 7.6163 7.1771 7.56898 6.90775 6.66344 8.34793 5.79154 6.44115 5.74616 5.60524 5.47059 5.21144 6.26615 5.57099 5.59523 10.2339 5.06821 4.10728 5.18487 3.818 3.55658 3.83007 3.21676 2.85298 2.71635 2.35332
threshold=-19.168737090810961 1593.1913216677683 220.37344227769032 -0.43125401446286554 -46.464484677710281 -337.99999999999994 -12.977279720489376 1433.8440300600548 94.123174810854053 1548.8259409685593 5.5000000000000009 114.05728624200869 70.440211926154817 756.50000000000011 -21.564230035901229 951.99181209575931 25.500000000000004 95.464339429059706 16.873303981807116 21.477117270033435 61.789310979459792 1682.2898408442959 1853.1212444427936 -1.4999999999999998 1831.7793869318527 88.079415222334532 1508.2581295723344 60.320894688381422 1379.3819703457439 1541.5164714662349
decision_type=2 2 2 2 2 2 2 2 2 2 2 2 2 2 2 2 2 2 2 2 2 2 2 2 2 2 2 2 2 2
left_child=1 7 5 21 -5 -2 -7 -1 13 23 14 -12 -11 -9 -8 16 -16 18 19 -17 -6 22 29 -10 25 -23 -18 -4 -20 -3
right_child=2 3 27 4 20 6 10 8 9 12 11 -13 -14 -15 15 17 26 -19 28 -21 -22 24 -24 -25 -26 -27 -28 -29 -30 -31
leaf_value=-0.05655354141603891 -0.02399190063215784 -0.039128063781729457 0.023875113240773252 -0.063595893865707118 -0.028256956745432778 -0.020780423665705289 -0.0067441162647930916 -0.070995370481821071 0.081866416177427723 0.02521969234273699 0.027502099405999254 -0.041072457726505744 -0.03471899744673889 0.002243592734842531 0.01337838653860054 0.049310560002359172 0.031103113854405236 -0.010542175229160563 0.03473801783569537 -0.028866138645961582 0.028874942594474953 -0.027874609478422033 -0.0094368450949415539 0.021614020573766674 -0.029631483183406235 -0.075999110194272149 0.073995456130259679 0.06550196400509313 0.079697271529418412 -0.084879510449346843
leaf_weight=5.8542340546846381 8.8055589348077756 6.0273539274930972 4.6765660494565955 7.12526707351208 8.1919180750846845 8.9942128807306272 8.0291887819766981 4.8900207877159101 4.9244514554738998 7.3292172700166729 7.8141440451145154 6.0955657362937927 8.7989332377910596 5.6090660244226456 8.1006077975034696 9.7026748806238228 5.6853310912847546 8.8006694912910444 6.3127663731574994 7.3631633371114722 7.3779930919408789 4.67841513454914 8.9029128700494748 5.6410392671823519 6.168865129351615 35.555904433131218 18.910817429423332 34.348798379302025 7.1815414726734161 5.2665963172912598
leaf_count=24 36 25 21 30 34 37 33 20 20 30 32 25 36 23 34 40 24 37 27 30 30 20 37 23 26 154 82 157 31 22
internal_value=0 -0.034117 0.0299896 -0.0476383 -0.0207787 0.0193344 0.0230387 -0.00606869 0.00187775 0.0151505 0.0272316 -0.0025489 -0.00748068 -0.031868 0.032404 0.0367662 0.0515195 0.0245107 0.0346052 0.0155807 -0.00118431 -0.0567912 -0.0379703 0.049697 -0.064983 -0.0704032 0.064081 0.0605137 0.0586649 -0.0604629
internal_weight=0 132.342 150.822 89.2952 22.6952 111.796 102.991 43.047 37.1927 26.6936 93.9965 13.9097 16.1282 10.4991 80.0868 72.0576 32.6968 39.3608 30.5601 17.0658 15.5699 66.6 20.1969 10.5655 46.4032 40.2343 24.5961 39.0254 13.4943 11.294
internal_count=1200 554 646 378 94 468 432 176 152 109 395 57 66 43 338 305 140 165 128 70 64 284 84 43 200 174 106 178 58 47
is_linear=0
shrinkage=0.05


Tree=10
num_leaves=31
num_cat=0
split_feature=17 17 27 11 40 86 127 107 49 47 100 58 68 52 40 49 47 33 118 52 51 54 41 56 59 97 16 50 114 71
split_gain=106.117 19.2359 17.9958 8.19172 8.531 8.05149 6.8402 6.45243 6.4442 8.44348 9.23934 8.13036 6.38524 6.65071 6.15662 9.64823 6.12046 5.62313 4.89295 4.85261 4.51426 3.93045 3.53114 6.08067 4.15875 3.43924 8.32113 2.86784 4.94951 2.61259
threshold=-0.67115118076742408 -24.202089860283873 220.37344227769032 4.5000000000000009 121.32367004919067 63.450457971771762 -19.364479979143194 90.211367211572011 1467.2863764731098 -184.3095038148999 142.44931539654394 1512.4617744556572 1528.3814640304902 -5.4828512024868123 261.80396503430575 1598.1782309646126 -70.689568499527908 1825.3157920336268 1575.6197378124418 -69.169438988391775 67.926943040800424 1539.7632860931456 93.081856787530683 66.634598519934869 1517.9532671038332 -957.378950666886 69.836284086488135 74.837048475210636 1572.0303215856222 63.13630394007911
decision_type=2 2 2 2 2 2 2 2 2 2 2 2 2 2 2 2 2 2 2 2 2 2 2 2 2 2 2 2 2 2
left_child=1 25 3 4 6 -3 17 21 -7 20 11 -11 19 -14 15 18 -12 -2 -6 -13 -10 -5 -8 -24 29 -1 -27 -4 -29 -25
right_child=2 5 27 7 14 8 22 -9 9 10 16 12 13 -15 -16 -17 -18 -19 -20 -21 -22 -23 23 24 -26 26 -28 28 -30 -31
leaf_value=-0.062959342336874571 -0.039834238902395659 -0.057970040889721665 0.069867036239104605 -0.051063941665162364 0.043799130436882244 -0.052906447103644672 0.059920776747572062 0.026602636252861578 -0.061501501880972767 -0.060602802728920484 0.07419112366800279 0.065721335012753387 -0.052697840021770685 0.023629588100244642 0.044325563422851988 -0.068087000083513816 0.0048421371489428232 0.036295767853650095 -0.019138167697935377 0.0023398583704103055 -0.010330288395496226 -0.00056089640739380268 -0.019111830005030684 0.067959660931893096 0.0029646089461446297 -0.059851061281839535 0.018592953429296361 0.063140512248978445 0.00334348309349104 0.031868585833833896
leaf_weight=39.191782727837563 4.897127762436865 10.139742538332937 23.093726977705956 7.8409972637891787 5.9305195659399086 7.8182611912488928 20.185308992862701 9.2338522374629957 8.0470365583896655 5.8875902295112637 7.0202264487743378 5.3919306546449643 6.9420656561851501 4.8463279008865339 6.1556146740913382 5.5969139337539664 5.8185939937829954 4.8058392703533173 6.443229466676712 6.864544957876209 9.2806930094957334 7.573796808719635 4.7353946715593365 11.857254207134252 5.2848663926124564 10.789365962147711 4.9233099073171607 9.7141557335853559 5.3754774630069724 8.6886602342128736
leaf_count=173 20 43 109 32 25 32 88 38 33 24 29 22 29 20 26 23 24 20 27 28 38 31 20 51 22 47 20 45 24 37
internal_value=0 -0.0323597 0.029243 0.0189141 0.0263058 -0.0164097 0.0363373 -0.00645048 -0.010205 -0.00464994 0.00727872 -0.00794097 0.00495373 -0.0213189 0.00116943 -0.0136131 0.0427619 -0.00212736 0.0110266 0.030223 -0.0340943 -0.0262501 0.0436912 0.0329736 0.0425221 -0.0550357 -0.0352719 0.0587905 0.0418386 0.0526971
internal_weight=0 132.961 147.413 109.229 84.5807 78.057 60.4545 24.6486 67.9173 60.099 42.7713 29.9325 24.0449 11.7884 24.1263 17.9707 12.8388 9.70297 12.3737 12.2565 17.3277 15.4148 50.7515 30.5662 25.8308 54.9045 15.7127 38.1834 15.0896 20.5459
internal_count=1200 562 638 460 359 322 258 101 279 247 176 123 99 49 101 75 53 40 52 50 71 63 218 130 110 240 67 178 69 88
is_linear=0
shrinkage=0.05


Tree=11
num_leaves=31
num_cat=0
split_feature=17 22 82 104 40 122 11 105 127 11 40 11 20 52 117 69 49 103 55 87 33 127 119 50 9 37 37 85 134 71
split_gain=96.9036 18.1042 17.2936 9.73251 9.47037 9.10972 8.71926 7.98691 6.52427 6.01664 6.00237 6.18538 7.57938 5.49076 8.03082 5.62529 5.41851 5.25006 4.93482 4.63855 4.34822 4.32084 5.54599 3.71252 3.62109 6.53849 8.87128 3.521 2.95948 3.34517
threshold=-0.67115118076742408 -43.784783941888797 25.136325595888483 1682.2898408442959 121.32367004919067 -26.001028973045546 4.5000000000000009 95.492307603224887 -17.845104729474652 -2.4999999999999996 139.59906103794538 -3.4999999999999996 61.444214147535519 17.465410108075393 -204.52128411872442 1543.7373608976611 1599.1073696878416 1973.3219432252833 68.673785154338177 25.461458970748485 1825.3157920336268 4.7034643485221759 1683.8262589132664 96.820505277496977 -58.499999999999993 951.99181209575931 1298.8791770739779 64.607977713367333 1528.656777622406 60.733197020758631
decision_type=2 2 2 2 2 2 2 2 2 2 2 2 2 2 2 2 2 2 2 2 2 2 2 2 2 2 2 2 2 2
left_child=1 3 4 5 6 -1 8 18 20 21 -6 -12 -13 14 -11 -15 -7 -8 27 -14 -2 22 -9 -4 -10 28 -27 -3 -26 -30
right_child=2 7 23 -5 10 16 17 9 24 13 11 12 19 15 -16 -17 -18 -19 -20 -21 -22 -23 -24 -25 25 26 -28 -29 29 -31
leaf_value=-0.056867863889360021 -0.030839295786989181 -0.019562354219006459 0.057588161667977755 -0.062088655352589908 -0.054130946001814666 0.041464174259416335 -0.031158618521162001 0.081185028824265301 0.07002817912423466 0.015609415612961839 0.053501680934774302 -0.058536609032100943 0.04408045817810452 0.049494174759696419 -0.062514820762241491 -0.020816327597103314 -0.027907460668688995 0.030832622335046252 -0.0046857274539119373 -0.0216841274515664 0.034129853262884084 -0.013426069963508262 0.0090264732942860453 0.015878237537818498 0.069098134136614725 -0.042219257640248108 0.041057924209103827 -0.07051656711970862 0.059773117849808502 0.0017679564644198929
leaf_weight=9.5723011046648043 5.6175815016031247 5.1998979151248959 42.711968824267387 46.162025764584541 5.8465875983238247 6.0885195881128293 9.3771230578422529 5.0843773633241636 9.6788746714591962 5.1318758726119986 4.7273441255092683 5.6114539206027976 5.6988197863101941 5.3378860801458341 9.1626996845006961 6.0907119065523148 5.2351967394351959 5.3720806539058676 8.2917341589927656 5.0636864900588989 4.7554922848939896 4.873272404074668 5.5909888446331024 6.0964259058237067 11.94114036858082 5.3120622038841239 8.0355037152767164 9.7425187230110151 5.2275481373071653 4.7386834174394608
leaf_count=41 23 22 201 207 24 25 38 21 44 21 20 23 24 22 38 25 22 22 34 21 20 20 23 26 53 22 34 41 23 20
internal_value=0 -0.0310815 0.0281032 -0.0492728 0.0158889 -0.020961 0.0255783 -0.0121704 0.0346876 0.0010303 -0.00930058 0.00312068 -0.0114249 -0.0138121 -0.0344675 0.0120232 0.00939218 -0.00857964 -0.0356193 0.0131387 -0.00105446 0.0255851 0.0433936 0.0523784 0.0429387 0.0355015 0.00791528 -0.0527847 0.0523091 0.0321932
internal_weight=0 131.564 145.812 67.058 97.004 20.896 70.0561 64.506 55.3069 41.2718 26.9479 21.1013 16.374 25.7232 14.2946 11.4286 11.3237 14.7492 23.2342 10.7625 10.3731 15.5486 10.6754 48.8084 44.9338 35.2549 13.3476 14.9424 21.9074 9.96623
internal_count=1200 562 638 295 411 88 299 267 239 170 112 88 68 106 59 47 47 60 97 45 43 64 44 227 196 152 56 63 96 43
is_linear=0
shrinkage=0.05


Tree=12
num_leaves=31
num_cat=0
split_feature=17 22 27 104 122 105 11 40 127 107 42 40 36 128 49 11 52 49 53 45 54 44 108 27 122 14 108 50 114 35
split_gain=88.5419 16.8521 16.3269 9.18453 8.35307 7.26248 6.91695 7.27417 5.85423 5.68961 5.65987 6.29733 15.3147 5.56871 7.29175 5.22407 5.48779 4.89273 4.55272 4.32376 3.52146 3.38636 4.54444 4.16594 3.32179 3.12614 2.89258 2.80047 4.67093 2.77713
threshold=-0.67115118076742408 -43.784783941888797 220.37344227769032 1682.2898408442959 -26.001028973045546 95.492307603224887 4.5000000000000009 121.32367004919067 -19.364479979143194 90.211367211572011 -28.411121846297416 261.80396503430575 94.611399386180764 1522.9583458492923 1478.5550492683362 -2.4999999999999996 -1.0000000180025095e-35 1599.1073696878416 1445.9511322748597 72.174122615178433 1539.7632860931456 1557.4853476265082 1738.6632255067341 113.73643649916882 4.7276237552747498 1872.7723372142241 1780.0292967912126 74.837048475210636 1572.0303215856222 101.31921293161541
decision_type=2 2 2 2 2 2 2 2 2 2 2 2 2 2 2 2 2 2 2 2 2 2 2 2 2 2 2 2 2 2
left_child=1 3 6 4 -1 18 7 8 25 20 -9 12 -12 14 -7 -16 -17 -6 -3 -15 -8 23 29 -10 -20 -2 -5 -4 -29 -23
right_child=2 5 27 26 17 13 9 10 21 -11 11 -13 -14 19 15 16 -18 -19 24 -21 -22 22 -24 -25 -26 -27 -28 28 -30 -31
leaf_value=-0.054768776609352733 -0.030314498858849334 0.0030907422600881668 0.067216026287653829 -0.064446035432338164 0.039336505000447282 -0.034119519273005168 -0.048235175316284462 -0.044647561979668335 -0.0061164097730022913 0.025068844603788745 0.040424448683662059 0.061462417096739587 -0.067790503018609158 0.0024671092274707691 0.061807189839015911 -0.018227889565769356 0.045421372070571814 -0.026658426151685274 -0.067276218193009607 -0.053405295502856026 -0.00034701816488643094 0.066459338868866596 0.013350219902133321 0.050513998754990533 -0.022858723994295317 0.026536173506586703 -0.022198926779139577 0.060289211289009853 0.0014304746802332095 0.031120407723790273
leaf_weight=9.4454541057348269 4.8651482313871366 6.0763387233018902 21.928567305207253 40.722387164831161 6.0967117547988874 6.0871845632791546 7.8130593448877352 5.3183912485837963 7.3911785334348661 9.1681304425001127 7.9725458323955554 5.0551616698503485 5.5422540158033371 7.0892194956541044 7.41405160725117 7.7082914113998431 6.0401063412427867 5.2071843296289444 9.3728236258029956 6.768751248717308 7.5471461266279221 21.422011718153957 7.3877126276493064 5.7927375286817551 7.6405481547117224 4.8076566159725189 4.4992967844009391 9.2941849678754789 5.2887933254241934 7.5078494995832434
leaf_count=41 20 25 109 187 25 25 32 22 31 38 34 22 23 29 31 32 25 22 40 28 31 97 32 26 32 20 20 45 24 32
internal_value=0 -0.0298585 0.0270328 -0.0476055 -0.0200637 -0.0116211 0.0172286 0.0241178 0.0335191 -0.00610106 0.000829812 0.0138544 -0.00395318 0.000982705 0.0141064 0.0279781 0.00973525 0.00893568 -0.0340602 -0.0248231 -0.0247056 0.040471 0.0483504 0.0187658 -0.0473287 -0.00205811 -0.0602427 0.0559236 0.038943 0.0572882
internal_weight=0 130.168 144.103 65.971 20.7494 64.1973 107.591 83.0626 59.1743 24.5283 23.8884 18.57 13.5148 41.1076 27.2496 21.1624 13.7484 11.3039 23.0897 13.858 15.3602 49.5015 36.3176 13.1839 17.0134 9.6728 45.2217 36.5115 14.583 28.9299
internal_count=1200 562 638 295 88 267 460 359 258 101 101 79 57 170 113 88 57 47 97 57 63 218 161 57 72 40 207 178 69 129
is_linear=0
shrinkage=0.05


Tree=13
num_leaves=31
num_cat=0
split_feature=12 22 27 104 30 135 122 60 105 42 83 104 10 136 107 52 128 114 104 96 8 123 77 105 49 121 37 108 71 106
split_gain=83.0591 22.6955 9.76297 8.68504 8.23905 7.85528 7.6669 6.19208 5.60583 8.10593 7.96777 6.36758 5.95546 7.02607 5.92759 7.33616 5.78079 5.24925 5.46295 5.21857 5.00553 9.34768 5.19785 4.62444 4.42087 3.89755 4.6589 2.76556 2.76462 2.59233
threshold=56.024984106234804 -43.784783941888797 220.37344227769032 1682.2898408442959 71.866936709007504 61.51345049400836 -26.001028973045546 62.029378589348219 95.492307603224887 87.86657200722108 1525.5275070996929 1882.3813676973539 -728.99999999999989 62.322493802709161 -98.958069010172707 1.0000000180025095e-35 1523.8639659165697 1506.4826949413268 1535.4502838727897 69.965134260214057 680.00000000000011 1527.6089721978162 125.71223657655207 119.63588318454798 1599.1073696878416 67.83374402218351 2928.672850559115 1780.0292967912126 60.320894688381422 96.775339103004782
decision_type=2 2 2 2 2 2 2 2 2 2 2 2 2 2 2 2 2 2 2 2 2 2 2 2 2 2 2 2 2 2
left_child=1 3 4 6 7 -3 29 17 10 11 -7 14 -12 -14 23 19 -17 -2 -19 -16 21 22 -9 -10 -8 -22 -27 -5 -4 -1
right_child=2 5 28 27 -6 8 24 20 9 -11 12 -13 13 -15 15 16 -18 18 -20 -21 25 -23 -24 -25 -26 26 -28 -29 -30 -31
leaf_value=-0.026698637786298031 -0.037805994690372199 -0.05434527783894591 0.017384839354491265 -0.062715842640890335 -0.02440816031345221 -0.05899639102525165 0.037348944383067316 0.00079204304165813504 -0.032682581037183245 -0.051900870724579842 -0.041705287595504188 -0.026346191673177179 0.054854212308044138 -0.01634174240073703 0.047020466401941852 0.079771074965295813 0.015173880269987375 0.059454945089037398 -0.012848342054262472 -0.018873933902135445 0.0086313641173448186 -0.038826826468425557 0.061277956464129174 0.026997885444431841 -0.02546779169354578 0.065808062794027788 0.010877988829075995 -0.021233814478134806 0.059729671924477673 -0.079463589006227131
leaf_weight=4.7067035287618655 5.5897696912288692 8.1846839636564237 4.3974880725145331 39.77759838104248 8.2380359470844251 9.269342705607416 6.0999909043312055 5.8093761056661632 7.4756188541650719 5.3847138285636893 6.7910318821668652 8.6460595875978452 6.2427813261747342 7.7888011634349823 4.8189049214124733 9.941425755620001 5.315007045865058 5.0720793753862363 5.3872894048690796 7.9807908982038498 5.0472582131624213 5.4291997700929633 9.1401603519916517 5.7368068695068359 5.1788275986909866 22.671366572380069 4.6522512733936301 4.4693859964609137 31.220063835382462 4.6054761707782745
leaf_count=21 24 35 21 187 34 39 25 25 31 22 29 36 26 33 20 42 22 23 23 33 22 23 41 24 22 100 20 20 157 20
internal_value=0 -0.0233064 0.0328543 -0.0460422 0.0228458 -0.00755296 -0.0192169 0.028504 -0.00306796 0.00638241 -0.0204347 0.0126699 -0.00326864 0.015334 0.0208441 0.0338481 0.0572668 0.00130946 0.0222138 0.00593438 0.036778 0.0173658 0.0377732 -0.00676945 0.00850576 0.0489987 0.0564554 -0.0585257 0.0545016 -0.0527943
internal_weight=0 158.414 112.654 64.838 77.0368 93.576 20.591 68.7988 85.3913 55.2993 30.092 49.9146 20.8226 14.0316 41.2686 28.0561 15.2564 16.0491 10.4594 12.7997 52.7496 20.3787 14.9495 13.2124 11.2788 32.3709 27.3236 44.247 35.6176 9.31218
internal_count=1200 687 513 295 335 392 88 301 357 230 127 208 88 59 172 117 64 70 46 53 231 89 66 55 47 142 120 207 178 41
is_linear=0
shrinkage=0.05


Tree=14
num_leaves=31
num_cat=0
split_feature=12 22 27 104 30 127 135 60 105 42 83 109 127 10 116 79 77 25 93 114 104 122 84 69 106 69 121 43 101 113
split_gain=75.9619 21.1105 9.30635 8.22267 7.50829 7.21101 7.16104 5.69504 5.0851 7.34088 7.23666 5.82173 5.65066 5.41473 6.38987 4.78955 5.01958 5.0703 5.3398 4.73542 5.03748 4.42592 4.24759 6.5498 4.32111 3.15339 3.0588 2.83468 2.80764 5.0061
threshold=56.024984106234804 -43.784783941888797 220.37344227769032 1682.2898408442959 71.866936709007504 -17.845104729474652 61.51345049400836 62.029378589348219 95.492307603224887 87.86657200722108 1525.5275070996929 1683.0063902735108 -19.811069346728683 -728.99999999999989 72.267675851469548 1577.8050178096344 132.460139307849 62.874227439855325 1722.820330939147 1506.4826949413268 1535.4502838727897 -14.837838109212155 1535.1866210042019 1554.0134342683041 85.123620110727657 1524.9573254209915 71.504647615335145 1819.7590014659215 107.21684979909328 1623.7983914974734
decision_type=2 2 2 2 2 2 2 2 2 2 2 2 2 2 2 2 2 2 2 2 2 2 2 2 2 2 2 2 2 2
left_child=1 3 4 5 7 -1 -3 19 10 11 -8 12 -10 -12 -15 -9 17 25 -19 -2 -21 -14 -13 24 -24 -17 -7 -4 -18 -30
right_child=2 6 27 -5 -6 26 8 15 9 -11 13 22 21 14 -16 16 28 18 -20 20 -22 -23 23 -25 -26 -27 -28 -29 29 -31
leaf_value=0.018863627422724894 -0.035689259459247454 -0.052086039580393872 0.05859888134432148 -0.056910968970711677 -0.023159283916031601 -0.069342510476001165 -0.056361052166851035 -0.013262792291036175 -0.017945149044490176 -0.049434313229806459 -0.039958845415106643 -0.036997641483996084 0.015281662240419189 0.043599118828236472 -0.024735697171372421 0.015740055203617872 0.071839071917463151 0.034443212891803902 -0.032827065903406456 0.057543137257940559 -0.012181694259896181 0.063081598973475858 0.0028137926080516774 -0.029896544066759276 0.065782981760048764 0.070033628378556631 -0.01962670799139718 0.015967443084510986 0.068301873512810349 0.0030640530420805428
leaf_weight=7.9327640086412456 5.6243055164814022 8.1144998073577863 30.272745162248611 43.253949612379074 8.2478926777839643 5.6447671949863416 9.2188829034566897 4.6170736849308005 5.0164231657981864 5.3710472583770743 6.7348931282758739 7.2864130437374142 8.8161789327859896 8.0610898137092573 5.943081021308898 4.5638347715139407 12.885468080639841 5.8287016749382001 5.972978413105011 4.9808950126171094 5.3977283388376236 10.744865253567697 5.8067485541105288 6.8834937065839759 5.1326116770505905 6.4596834629774094 6.8462685197591782 4.4757864028215399 6.352387994527815 5.4751978069543839
leaf_count=34 24 35 156 207 34 25 39 20 21 22 29 30 37 34 25 20 59 25 25 23 23 46 24 29 21 29 29 22 29 24
internal_value=0 -0.0223782 0.0316545 -0.0445646 0.0218979 -0.0184173 -0.00720826 0.0273503 -0.00292481 0.0060954 -0.0195025 0.0120981 0.0293972 -0.00311819 0.0145992 0.0353562 0.0400783 0.0231724 0.00039688 0.00125824 0.0212806 0.0415381 -0.00483468 0.00831431 0.0323582 0.0475556 -0.0420936 0.0531077 0.0556927 0.0381021
internal_weight=0 156.808 111.155 63.6777 76.4061 20.4238 93.1302 68.1583 85.0157 55.0578 29.9579 49.6867 24.5775 20.7391 14.0042 52.1553 47.5383 22.8252 11.8017 16.0029 10.3786 19.561 25.1093 17.8229 10.9394 11.0235 12.491 34.7485 24.7131 11.8276
internal_count=1200 687 513 295 335 88 392 301 357 230 127 208 104 88 59 231 211 99 50 70 46 83 104 74 45 49 54 178 112 53
is_linear=0
shrinkage=0.05


Tree=15
num_leaves=31
num_cat=0
split_feature=12 17 27 39 135 58 100 58 39 29 45 67 80 99 59 42 85 6 54 57 130 105 37 58 49 127 13 45 98 97
split_gain=69.4959 19.3146 8.86246 7.99787 6.75189 5.93935 11.3019 7.73177 6.34626 5.67555 6.37983 7.13802 7.50669 5.25169 5.20538 6.24651 6.67835 5.4854 4.97337 4.96087 4.92652 4.8073 4.07388 10.2161 3.76869 3.76865 3.38637 3.36959 3.33297 3.33185
threshold=56.024984106234804 -24.202089860283873 220.37344227769032 -114.57148059567974 61.51345049400836 1510.2679389647026 142.44931539654394 1486.2358180873377 1459.5612017933915 1961.4795701044629 68.131261485729922 2.5820113976891439 71.322467872564417 1791.1313390481853 1513.1877091826016 -14.450778157826219 65.446805448002152 25.500000000000004 1556.6426999068951 -5.2559191655025179 64.095989358532776 98.602137028867006 862.13174694548604 1525.5847435063713 1518.4771819105024 -10.413642367073406 2399.4092803345879 66.984818880573997 1394.743536299605 -957.378950666886
decision_type=2 2 2 2 2 2 2 2 2 2 2 2 2 2 2 2 2 2 2 2 2 2 2 2 2 2 2 2 2 2
left_child=1 29 14 -3 -5 6 24 -8 -9 10 27 12 -12 -14 17 -16 20 18 -2 -15 -17 -21 -18 -24 -6 -19 -4 -7 -13 -1
right_child=2 3 26 4 5 9 7 8 -10 -11 11 28 13 19 15 16 22 25 -20 21 -22 -23 23 -25 -26 -27 -28 -29 -30 -31
leaf_value=-0.055345837430010238 -0.021982601413418453 0.054143182362598019 0.057460242745969441 -0.055127846007616756 -0.025150761470345347 0.014205316301489346 -0.04073761061130407 0.054563931617492824 -0.0098470881017029173 -0.040044023248067946 -0.054771674234385663 0.067690790314797702 -0.042109005083644652 -0.024091719904252736 -0.045910187800516589 0.010957143191890303 0.032958139490758827 0.015229227324782128 0.036770586131586527 0.0018134311846250497 0.069611241524197218 0.070259494233609998 0.019416628873545838 -0.078291308044636201 -0.080535742320883327 0.057538734298669528 0.0078656896768798043 0.073328172632374719 0.0085187466666351297 -0.026999313171915302
leaf_weight=35.407371148467064 7.0436745136976224 4.741199627518653 29.999681562185287 8.4345595538616163 4.7957258075475684 4.6739797145128232 8.8545664399862307 6.6908223479986182 8.9256925433874112 6.9263353496789923 7.9363771975040462 4.5084873139858228 4.9442161172628429 4.9144386351108524 4.8581642955541602 7.2889538705348986 4.3634522408246985 7.1726042032241848 7.3712417632341385 4.9912033081054688 7.0355344116687775 5.278149351477623 5.9832349419593793 4.8388368189334869 8.542802542448042 19.770948201417923 3.8880611807107917 4.9751761108636856 5.0402700901031494 14.657756194472311
leaf_count=173 30 20 159 37 20 20 37 28 38 30 34 20 21 21 20 32 20 31 32 21 32 22 26 20 36 92 19 21 21 67
internal_value=0 -0.0214845 0.0305173 -0.00931632 -0.0123121 -0.00838667 -0.0235957 -0.00341335 0.0177495 0.00222532 0.00841993 -0.000884553 -0.0135898 0.00264795 0.0210066 0.00662607 0.015275 0.0329566 0.00806155 0.0172219 0.0397654 0.0369927 -0.00782675 -0.0242712 -0.0606227 0.0462756 0.0517701 0.0446895 0.0364571 -0.0470467
internal_weight=0 155.239 109.614 105.174 100.433 91.9982 37.8096 24.4711 15.6165 54.1886 47.2623 37.6131 28.0644 20.128 75.7266 34.3682 29.51 41.3585 14.4149 15.1838 14.3245 10.2694 15.1855 10.8221 13.3385 26.9436 33.8877 9.64916 9.54876 50.0651
internal_count=1200 687 513 447 427 390 159 103 66 231 201 160 119 85 335 150 130 185 62 64 64 43 66 46 56 123 178 41 41 240
is_linear=0
shrinkage=0.05


Tree=16
num_leaves=31
num_cat=0
split_feature=12 22 82 104 122 55 130 67 6 100 118 95 80 90 98 41 127 93 55 70 6 50 123 77 40 50 100 106 112 41
split_gain=63.5986 18.1627 8.60092 7.89471 6.90927 6.46051 6.04909 5.8406 5.80911 5.41437 9.67852 9.43186 5.26735 5.92744 6.00255 10.7042 7.61742 6.81735 4.56128 5.78725 5.6493 4.51834 4.0635 4.70552 4.76945 3.88733 2.66969 2.42585 2.2315 2.17902
threshold=56.024984106234804 -43.784783941888797 25.136325595888483 1682.2898408442959 -26.001028973045546 74.354608862492924 72.890598421013294 -23.277409152924289 30.500000000000004 142.44931539654394 1599.3549785186581 104.86413430932932 76.510838211992251 64.247470307973842 1619.3236739207148 80.377163870130971 13.291364059716445 1675.4230040069117 65.306075193761558 60.319771512617756 26.500000000000004 69.037773558802115 1537.3009038233188 123.6378201313013 94.268321751009566 96.820505277496977 85.021526556666188 96.775339103004782 -24.453813595276866 241.91613638926907
decision_type=2 2 2 2 2 2 2 2 2 2 2 2 2 2 2 2 2 2 2 2 2 2 2 2 2 2 2 2 2 2
left_child=1 3 5 4 27 8 12 -8 18 10 -9 -11 13 -3 15 28 17 -17 -2 20 -20 -6 23 24 -21 29 -10 -1 -15 -4
right_child=2 6 25 -5 21 -7 7 9 26 11 -12 -13 -14 14 -16 16 -18 -19 19 22 -22 -23 -24 -25 -26 -27 -28 -29 -30 -31
leaf_value=-0.023159930376715977 0.063412769643766465 -0.049302954991512729 0.056439988471092897 -0.054155435575118996 -0.025250994038285558 -0.028820670950070532 -0.035560559670411857 -0.038326232958858397 0.025393436809943971 0.072647108468969712 0.041279300198759167 -0.0056972290601311915 -0.058698332122348075 -0.065993602147238151 0.034013611454450032 -0.0049097958303667769 -0.024714110966858983 0.077384253881037632 -0.061311311382129863 0.037983099279631921 0.014455093491928282 0.038869621292612004 -0.011465286021735847 0.056455868743643944 -0.024010020920621669 0.0084535325391054926 0.070284879868378766 -0.075185671941252932 -0.023492097647365418 0.016090569062183025
leaf_weight=4.5783830583095568 4.2895371168851844 8.4835191667079908 33.996842160820961 41.410587787628174 4.9467776119708997 6.6514232605695716 6.1514350771903983 8.6515076756477374 5.6476281136274329 8.8201330155134183 6.8345981687307349 6.8061818182468405 6.6968881338834754 7.5369888693094254 8.4908231496810895 4.6115202754735964 8.2368546277284604 5.5398858487606049 5.0128487050533277 6.9732522219419533 4.8315424919128418 6.1794299483299255 7.6434964835643759 9.9301334023475629 5.5894503593444824 5.7860370129346839 8.0077688843011838 4.3881302028894424 5.2324114590883273 3.7112788259983054
leaf_count=21 20 37 179 207 21 27 26 36 26 37 29 29 28 32 36 20 35 24 21 31 21 26 33 46 24 26 40 20 23 19
internal_value=0 -0.0206378 0.029426 -0.0416772 -0.0159599 0.0178498 -0.0065868 0.00895721 0.0232088 0.0177591 -0.00319333 0.0385235 -0.0171511 -0.0113704 -0.00325405 -0.0134099 0.011012 0.0400002 0.0144149 0.00915787 -0.0241258 0.0103612 0.0200304 0.0307332 0.0104009 0.0466134 0.0517186 -0.0486209 -0.0485781 0.0524687
internal_weight=0 153.596 108.071 61.5033 20.0927 64.5771 92.0927 37.2639 57.9257 31.1124 15.4861 15.6263 54.8289 48.132 39.6485 31.1577 18.3883 10.1514 44.2703 39.9807 9.84439 11.1262 30.1363 22.4928 12.5627 43.4942 13.6554 8.96651 12.7694 37.7081
internal_count=1200 687 513 295 88 289 392 157 262 131 65 66 235 207 170 134 79 44 196 176 42 47 134 101 55 224 66 41 55 198
is_linear=0
shrinkage=0.05


Tree=17
num_leaves=31
num_cat=0
split_feature=9 82 93 39 123 101 103 127 32 6 81 16 88 112 13 103 19 36 107 16 16 99 99 99 108 90 34 107 20 68
split_gain=58.5226 19.9474 9.7179 7.57257 6.72681 9.49104 6.11889 5.8326 6.29218 5.52149 7.23511 7.03066 6.51293 5.24532 6.81779 6.12426 4.8391 5.55278 4.59606 4.39017 5.63527 4.12996 4.95672 7.5144 7.37349 3.13556 4.77149 2.88599 2.57711 2.10253
threshold=-13.499999999999998 -15.824845612082752 1836.8697880829429 386.19677456578114 1537.8663515231319 112.94063911311727 2167.1275553411588 -14.478529494661073 -757.90151245158802 26.500000000000004 94.4859093226369 65.806912976370356 1643.2000551820699 -67.009838636583467 1756.5763294888034 2453.064142635651 1544.9275941866567 91.480380462285908 -4.9007411787863466 69.9505589309464 67.115021578280107 2194.212895920849 1761.5087909265524 1860.9404187197254 1684.8566124684532 63.761480753512039 1874.1504184381422 5.0198344474630412 61.163489452353076 1552.9439582473722
decision_type=2 2 2 2 2 2 2 2 2 2 2 2 2 2 2 2 2 2 2 2 2 2 2 2 2 2 2 2 2 2
left_child=2 16 4 -3 6 -6 7 -1 -9 12 11 -11 21 14 -13 -16 17 -2 29 20 27 22 -5 -24 -25 26 -4 -15 -27 -18
right_child=1 3 25 9 5 -7 -8 8 -10 10 -12 13 -14 19 15 -17 18 -19 -20 -21 -22 -23 23 24 -26 28 -28 -29 -30 -31
leaf_value=-0.0061212389869650941 -0.036325313422161491 0.054187641701754302 0.054818128248827827 -0.061770025296231768 0.022929952563336457 -0.072505791572438721 -0.014298399978587379 0.001803886864486225 0.055307970512560291 -0.058249249368892211 0.059120132035510413 0.025233847420165212 0.032179065727737398 0.031307657284101814 -0.085315342056193497 -0.0064313938693340766 -0.056723080504406331 0.031297930722386784 -0.012000608148557027 -0.017289760362283146 0.061567447199204928 -0.07185372006283175 0.033832300033836422 -0.06216692529938344 0.014673415251105418 0.030140662844133373 -0.0092032472083473319 -0.021655140007899719 0.064470615894781078 -0.025433999058370745
leaf_weight=7.5801857113838151 8.6281571239232999 5.3308060169219962 6.5120126605033857 6.1408644616603913 5.8657281994819623 4.6866029351949692 8.25288277864456 7.1635580360889426 23.591409996151931 5.1157739162445059 5.2205223888158789 5.5811055898666337 4.7481839358806601 5.3768741041421979 4.6881186217069608 5.1780538409948349 39.280806362628937 4.6835317909717551 8.3061521351337415 6.4742704927921286 8.1712066829204542 5.0956712365150443 6.4644555747509029 7.9648327231407148 5.1346762180328369 7.1078680157661465 5.2620494216680527 4.9309497326612473 23.676559597253799 6.2190792113542548
leaf_count=32 38 23 34 26 26 20 37 31 113 22 23 24 21 24 20 22 197 20 38 28 36 22 27 34 22 36 26 21 126 31
internal_value=0 -0.0188165 0.0300629 -0.00364562 0.0165908 -0.0194559 0.0247555 0.0331632 0.0428456 -0.00721861 0.00336853 -0.00302593 -0.0223291 0.0039668 -0.0189313 -0.0439148 -0.0395249 -0.012533 -0.0462027 0.0181418 0.0305556 -0.0307321 -0.0225802 -0.010279 -0.0320475 0.0481508 0.0262058 0.00597186 0.0565441 -0.0524464
internal_weight=0 158.734 99.6989 91.6164 57.1404 10.5523 46.588 38.3352 30.755 86.2856 50.7369 45.5164 35.5487 40.4006 15.4473 9.86617 67.1177 13.3117 53.806 24.9533 18.479 30.8005 25.7048 19.564 13.0995 42.5585 11.7741 10.3078 30.7844 45.4999
internal_count=1200 719 481 395 259 46 213 176 144 372 220 197 152 175 66 42 324 58 266 109 81 131 109 83 56 222 60 45 162 228
is_linear=0
shrinkage=0.05


Tree=18
num_leaves=31
num_cat=0
split_feature=9 82 93 54 123 101 47 103 127 32 91 34 34 107 106 102 59 8 45 122 135 59 55 70 3 134 41 68 90 34
split_gain=53.592 18.4435 9.17562 7.03052 6.13134 8.53846 5.90426 5.6161 5.40167 5.90403 4.77344 4.97505 7.18549 8.45143 4.67717 4.25174 7.81845 5.904 7.79526 5.54262 7.79483 5.13916 4.53938 5.47162 4.09462 4.08167 4.07104 3.10342 3.0159 4.45265
threshold=-13.499999999999998 -15.824845612082752 1836.8697880829429 1397.1738728687994 1537.8663515231319 112.94063911311727 -96.901937143945688 2167.1275553411588 -14.478529494661073 -757.90151245158802 63.764633985487528 3034.2555739774639 2046.3502385498368 -38.047506833968775 168.07036230780417 537.27810220309891 1509.5706622287987 1332.5000000000002 67.744483325489682 3.9478621887275271 68.944338986212031 1524.2949941353079 66.64904162990932 61.109474223981039 29.500000000000004 1523.2168306718618 74.813393717915019 1552.9439582473722 63.761480753512039 1874.1504184381422
decision_type=2 2 2 2 2 2 2 2 2 2 2 2 2 2 2 2 2 2 2 2 2 2 2 2 2 2 2 2 2 2
left_child=2 10 4 6 7 -6 -3 8 -1 -10 -2 12 -12 26 15 19 -17 -18 -19 21 22 25 -21 -24 -20 -5 -14 -13 29 -4
right_child=1 3 28 14 5 -7 -8 -9 9 -11 11 27 13 -15 -16 16 17 18 24 20 -22 -23 23 -25 -26 -27 -28 -29 -30 -31
leaf_value=-0.0058133956043096126 -0.064929603644378636 -0.011389628891934098 0.053423290266826684 -0.050692798740017475 0.021908598903037733 -0.06863763607735239 0.054370998057083335 -0.013546955052196963 0.0017141138540663304 0.053672795327135037 -0.046171174023862255 -0.061795207165665382 -0.059382911875595079 0.055188016905650332 -0.049786572633472193 0.068711693885389794 -0.048682242913942742 -0.045042166288671762 0.046574001969692816 0.017441252243408027 0.046029600466348207 -0.076216592448241569 -0.07846731166975271 -0.0097270989254160493 -0.0084768658065357272 0.014886614589605683 0.00031034412271311755 -0.01825109892223218 0.055217079391762292 -0.0087139089612040116
leaf_weight=7.5824495851993516 13.335641071200369 5.6056158989667884 6.3520253151655179 4.6160936802625638 5.8330720365047437 4.7027147710323334 8.7275618314743024 8.2745594382286054 7.1618430316448203 23.107030183076866 13.697688773274423 15.476450666785242 4.3516354858875301 5.2620573639869681 6.5853151232004157 4.5760754942894009 5.3990481197834042 4.8269575685262707 9.987407907843588 6.0134727507829728 6.364652842283248 5.9597644358873358 4.6350075006484968 7.710991844534874 5.1038478612899771 4.882166400551796 8.3117451965808851 5.5625740587711325 29.970383524894714 5.2792140543460846
leaf_count=32 69 24 34 20 26 20 38 37 31 113 63 81 22 23 28 21 23 21 44 26 27 27 20 33 22 21 38 28 162 26
internal_value=0 -0.0180848 0.0289992 -0.00348957 0.0159073 -0.0185073 0.0286524 0.023768 0.0319253 0.041379 -0.038208 -0.0314412 -0.0189061 0.0019285 -0.00949912 -0.00571312 0.00856594 -0.00230536 0.0102656 -0.016336 -0.00165253 -0.0398212 -0.0181824 -0.035534 0.0279559 -0.0169846 -0.0202026 -0.0502824 0.0468304 0.0252203
internal_weight=0 156.992 98.2633 90.994 56.6617 10.5358 14.3332 46.1259 37.8513 30.2689 65.9978 52.6622 31.6231 17.9254 76.6608 70.0755 29.8933 25.3173 19.9182 40.1821 24.7241 15.458 18.3595 12.346 15.0913 9.49826 12.6634 21.039 41.6016 11.6312
internal_count=1200 719 481 395 259 46 62 213 176 144 324 255 146 83 333 305 131 110 87 174 106 68 79 53 66 41 60 109 222 60
is_linear=0
shrinkage=0.05


Tree=19
num_leaves=31
num_cat=0
split_feature=9 82 93 39 123 101 110 46 111 6 121 68 13 57 91 36 34 107 41 57 119 118 81 104 44 122 64 100 11 103
split_gain=49.0872 17.0851 8.65648 6.71666 5.59064 7.69872 5.38256 5.59524 5.16077 5.02743 7.43857 5.71439 4.64541 5.8892 4.60312 5.24036 7.24913 5.68073 4.8192 4.42704 5.51262 4.55238 5.54552 4.12791 3.87204 4.80902 5.42098 4.18362 3.55639 4.71678
threshold=-13.499999999999998 -15.824845612082752 1836.8697880829429 386.19677456578114 1537.8663515231319 112.94063911311727 80.015166292810122 74.292802014005829 95.09120120680744 26.500000000000004 92.884098229654867 1569.3314821627189 1879.3445761936084 -0.60015318906471282 63.764633985487528 129.21795668911042 2046.3502385498368 -38.047506833968775 74.813393717915019 -5.2559191655025179 1457.1664983680823 1627.3730233727142 69.538997117022646 1502.0551550595371 1725.3200112828335 1.4181225488125622 1518.6598098602674 142.44931539654394 1.0000000180025095e-35 2062.6832799013123
decision_type=2 2 2 2 2 2 2 2 2 2 2 2 2 2 2 2 2 2 2 2 2 2 2 2 2 2 2 2 2 2
left_child=2 14 4 -3 6 -6 -1 23 -9 11 19 24 13 -10 -2 16 -16 18 -18 28 -21 22 -22 -8 25 27 -27 -5 29 -11
right_child=1 3 -4 9 5 -7 7 8 12 10 -12 -13 -14 -15 15 -17 17 -19 -20 20 21 -23 -24 -25 -26 26 -28 -29 -30 -31
leaf_value=0.05069384988359308 -0.06366355484005834 0.051573592032683357 0.045546573257670503 -0.065415936149861909 0.020931846184883116 -0.065124579921707074 0.074916277120136585 -0.050529891657511129 0.032590590453160519 -0.040290074574767333 0.04279937435963127 0.028683947853337291 0.058501101489016119 -0.032631084194787045 -0.044002906803811255 -0.048709201400242028 -0.057630630330929883 0.049726050417731565 0.010337463582757639 0.051218685813690983 0.023983331440773262 0.038908331413892799 -0.041562202513099986 0.013028071163430233 -0.067294870592057354 -0.037422438727157364 0.032179028139387139 -0.0082195643952401309 -0.064024055234800648 0.023849075161062591
leaf_weight=12.559497952461241 12.931078612804411 5.2456765770912162 40.664294108748436 7.6660257130861336 5.8008394390344602 4.7083859443664551 5.022953122854231 4.4096686244010952 6.2542643845081312 6.4258843064308149 9.6841771155595762 4.9250577986240378 3.8516672849655142 7.7497998327016866 13.317605718970301 22.188569977879524 4.0618217587471026 5.0571011900901786 7.2863480448722839 5.5569231361150804 4.9037765115499523 4.4161438643932334 9.4372645914554578 5.8119148313999176 5.5106938481330863 4.8476849943399412 6.6151264309883118 5.4843069761991501 4.5050785094499579 5.1747162938117981
leaf_count=62 69 23 222 33 26 20 24 19 28 28 43 22 20 34 62 117 21 22 33 25 21 20 41 26 24 21 28 24 20 22
internal_value=0 -0.0173865 0.0279766 -0.00333812 0.0152567 -0.0176235 0.0228245 0.0122498 -0.00209058 -0.00672085 0.00344034 -0.0212467 0.00987204 -0.00350285 -0.0369716 -0.0303227 -0.0165969 0.00565103 -0.0139902 -0.00598969 0.0074779 -0.00548056 -0.0191496 0.0417189 -0.0294101 -0.020928 0.00274419 -0.0415624 -0.0263212 -0.0116793
internal_weight=0 155.241 96.8333 90.3985 56.169 10.5092 45.6598 33.1003 22.2654 85.1529 50.104 35.0489 17.8557 14.0041 64.8425 51.9114 29.7229 16.4053 11.3482 40.4198 24.3141 18.7572 14.341 10.8349 30.1238 24.6131 11.4628 13.1503 16.1057 11.6006
internal_count=1200 719 481 395 259 46 213 151 101 372 220 152 82 62 324 255 138 76 54 177 107 82 62 50 130 106 49 57 70 50
is_linear=0
shrinkage=0.05


Tree=20
num_leaves=31
num_cat=0
split_feature=12 22 27 104 127 30 135 60 8 115 48 3 105 45 42 55 22 104 127 52 3 110 72 131 13 128 52 39 121 108
split_gain=45.027 14.0533 7.45991 6.86163 6.43679 5.98007 5.34551 5.19734 5.01765 5.33898 6.95487 4.56083 4.29216 5.9571 5.86752 5.07793 6.40414 4.64779 5.52525 6.67691 5.07698 5.11817 6.821 3.86694 3.50473 3.43716 3.08301 2.94274 2.8175 2.78683
threshold=56.024984106234804 -43.784783941888797 220.37344227769032 1682.2898408442959 -17.845104729474652 71.486137784233719 61.51345049400836 62.029378589348219 680.00000000000011 68.200751395185918 1565.4861538820633 27.500000000000004 95.492307603224887 74.396793799303097 87.86657200722108 68.673785154338177 4.3622542743869426 837.05815299034896 18.90404711403551 -2.5467836177266459 29.500000000000004 149.30309951056333 4.0325532024024833 65.018449092242292 2399.4092803345879 1524.7428526362016 134.11462319031799 1457.1505123114061 71.504647615335145 1780.0292967912126
decision_type=2 2 2 2 2 2 2 2 2 2 2 2 2 2 2 2 2 2 2 2 2 2 2 2 2 2 2 2 2 2
left_child=1 3 5 4 -1 7 -3 11 9 -9 -11 -2 13 15 17 16 -8 -14 19 20 21 22 -19 -10 -4 -21 -25 -13 -6 -5
right_child=2 6 24 29 28 -7 12 8 23 10 -12 27 14 -15 -16 -17 -18 18 -20 25 -22 -23 -24 26 -26 -27 -28 -29 -30 -31
leaf_value=0.022624024819511222 -0.037166307067353417 -0.045400014808948341 0.052777736382428997 -0.05422831336280784 -0.063685023041366431 -0.021875866384444099 -0.041407316079444673 0.058958760786382403 0.012295005742710944 0.029550264832094428 -0.039812769727491648 -0.0096002110424204291 0.059482761752640639 -0.049874447652379694 -0.043639554439186795 0.04203868716590043 0.027984741571371447 -0.0012992694660942021 -0.039128671545822891 0.062019515971226485 -0.040891597958672227 -0.033850225686027163 0.070888513548917773 0.066295241135863117 0.00020749652057733189 0.0091475956880068092 0.025473657970137925 0.047031303409272772 -0.014449074934269425 -0.010270417846181913
leaf_weight=7.6880555003881481 6.0134408324956885 7.6207595467567435 26.434934392571453 33.654643014073372 5.2025638222694379 8.7719391286373121 9.2323137819767052 4.2977795451879528 7.548013940453532 7.3588439375162107 7.1012409776449203 4.5648545473813993 4.700367182493209 9.385603651404379 5.2031832933425894 5.0035278648138037 5.1963239163160315 8.3415582478046435 5.6168463081121436 8.3833265453577059 6.1186096221208564 4.6143506765365592 5.3847821205854407 15.134824782609941 3.6024502366781226 4.8535287380218497 6.6608304530382147 4.6109901070594788 6.5812149494886398 4.0382319688796988
leaf_count=34 27 35 159 187 25 37 42 22 34 35 31 21 21 41 22 21 23 36 24 37 26 20 23 74 19 21 32 22 29 20
internal_value=0 -0.0176955 0.0255391 -0.0370682 -0.0129666 0.0168134 -0.00534327 0.0221756 0.0302272 0.0100293 -0.00451341 -0.00332208 -0.00162211 -0.017164 0.00679411 -0.00136505 -0.0164165 0.0122596 0.00713488 0.0140283 -0.00145201 0.0117054 0.0270197 0.0431386 0.0464729 0.0426331 0.05382 0.0188579 -0.0361869 -0.0495189
internal_weight=0 146.82 102.1 57.1647 19.4718 72.0628 89.6551 63.2908 48.1015 18.7579 14.4601 15.1893 82.0343 28.8178 53.2166 19.4322 14.4286 48.0134 43.313 37.6962 24.4593 18.3407 13.7263 29.3437 30.0374 13.2369 21.7957 9.17584 11.7838 37.6929
internal_count=1200 687 513 295 88 335 392 298 228 88 66 70 357 127 230 86 65 208 187 163 105 79 59 140 178 58 106 43 54 207
is_linear=0
shrinkage=0.05


Tree=21
num_leaves=31
num_cat=0
split_feature=9 17 93 54 49 47 50 114 37 113 54 18 66 83 36 105 64 101 67 118 136 34 63 105 122 122 67 20 113 114
split_gain=41.5708 14.9416 7.91682 7.6073 5.45619 5.29626 4.75558 5.71637 5.81069 8.17323 6.41654 5.48563 4.69801 4.54776 5.52019 4.16807 5.47674 3.85323 3.78286 4.76617 3.8021 5.73644 5.85145 3.76601 3.72256 3.45706 3.27994 3.04859 3.1601 4.24616
threshold=-13.499999999999998 -24.202089860283873 1836.8697880829429 1389.3184552713744 1433.8440300600548 -96.901937143945688 65.397807876783332 1444.0669856032384 690.84310722895975 1324.3685950683837 1365.9543626086636 1546.4899186859868 61.7701683160793 1574.7673519413584 96.007586188260362 125.39161575176396 1531.0880094293263 118.24391635069237 1.1969354276756123 1588.4119440747297 65.92232161255771 1898.5860564682807 1511.619904558708 97.349035938188777 3.4851832321598981 -4.8587845510163552 -16.515416586724424 61.646474434844727 1637.2507198970861 1572.0303215856222
decision_type=2 2 2 2 2 2 2 2 2 2 2 2 2 2 2 2 2 2 2 2 2 2 2 2 2 2 2 2 2 2
left_child=2 25 6 5 -5 -3 11 -8 17 -10 -11 -1 24 14 18 16 -16 -9 20 23 21 -14 -23 -20 -6 26 -2 28 29 -4
right_child=1 3 27 4 12 -7 7 8 9 10 -12 -13 13 -15 15 -17 -18 -19 19 -21 -22 22 -24 -25 -26 -27 -28 -29 -30 -31
leaf_value=0.053444689439743433 -0.052787323458006387 -0.0064668655817124408 0.034241892088523761 -0.05181588855532792 -0.06981946961717958 0.055470758382660558 0.045780033735306862 0.033578656199496661 0.027882587465081633 -0.0078695838246173513 -0.085629133458872714 -0.0065417629208916334 -0.060899190448692658 0.043008827724468797 0.014188198572770145 -0.054903176716413919 -0.048630532573345264 -0.021294148783180311 0.0046084217606784167 -0.022057894344705939 0.021906628371474321 0.030891613321434461 -0.035879106568466018 0.056138923482503378 -0.0136099548688566 -0.010344701744634519 -0.0068800796817249142 0.058092618232175236 0.053991353638016541 -0.028912429379925626
leaf_weight=12.454365938901903 31.833900481462479 6.1594348698854446 8.2726317793130892 7.6198744326829901 4.9524304121732694 7.8504275381565076 6.6408087164163581 10.41608275473118 4.724074274301528 4.7795419394969922 5.9626777768135071 5.4917141348123542 5.9956337213516298 5.0230532884597769 8.8808081895113009 8.2070056051015836 5.6943642050027838 4.617519959807395 6.0633479207754162 4.9437956362962714 7.3633688688278189 6.6869362294673902 6.4423882216215134 8.5388071238994581 7.2686471790075302 7.7286333739757529 4.4326105117797843 18.525532856583595 8.2492862939834577 3.9239630401134482
leaf_count=63 177 27 46 34 23 35 31 48 23 22 25 27 26 23 39 37 27 20 27 22 32 29 29 38 33 39 22 108 48 20
internal_value=0 -0.0161544 0.0261548 -0.00612418 -0.0112633 0.0282399 0.0139538 0.00374187 -0.00541119 -0.0269278 -0.0510315 0.0350881 -0.00767275 -0.00292011 -0.00627256 -0.0264026 -0.0103544 0.0167247 0.0036897 0.0203752 -0.00862265 -0.0203768 -0.00187191 0.0347416 -0.0363881 -0.0407062 -0.0471764 0.0434012 0.0300896 0.0139235
internal_weight=0 151.685 94.0582 107.69 93.6805 14.0099 55.0868 37.1407 30.4999 15.4663 10.7422 17.9461 86.0606 73.8395 68.8165 22.7822 14.5752 15.0336 46.0343 19.546 26.4883 19.125 13.1293 14.6022 12.2211 43.9951 36.2665 38.9714 20.4459 12.1966
internal_count=1200 719 481 481 419 62 259 169 138 70 47 90 385 329 306 103 66 68 203 87 116 84 58 65 56 238 199 222 114 66
is_linear=0
shrinkage=0.05


Tree=22
num_leaves=31
num_cat=0
split_feature=27 17 17 135 30 60 30 122 46 50 85 101 135 47 100 35 54 49 113 132 80 110 108 12 92 22 17 36 50 32
split_gain=38.4293 12.4731 6.82289 6.29459 4.84102 4.21361 5.69488 5.33455 4.53275 5.15419 4.16899 4.94343 4.82678 6.31474 9.01975 7.34598 7.34887 6.49292 4.77321 4.68397 4.48952 4.78824 4.66663 3.78969 3.37565 5.32067 4.20491 3.19302 4.30451 3.14867
threshold=44.425214615044418 -24.202089860283873 29.037479423328367 61.51345049400836 73.034435647382637 62.029378589348219 64.866446086607695 24.58395715019947 69.089714012347727 78.392376028563362 64.825375364856868 99.582155864610698 62.585677177807817 -184.3095038148999 142.44931539654394 76.447008455292362 1622.155716441194 1500.3685663044305 1334.4421155130592 -0.88659364864940915 73.217138184740847 110.58429434885019 1630.8838943711323 -105.11132547508019 142.96459074501595 20.003585416663672 14.206971070535248 83.403353271157343 74.837048475210636 -2130.426771119282
decision_type=2 2 2 2 2 2 2 2 2 2 2 2 2 2 2 2 2 2 2 2 2 2 2 2 2 2 2 2 2 2
left_child=1 29 4 -3 5 7 -7 -2 -8 24 11 -5 19 18 15 16 -15 -16 -14 -12 22 -22 -17 -23 25 -10 -27 28 -4 -1
right_child=2 3 27 10 -6 6 8 -9 9 -11 12 -13 13 14 17 20 -18 -19 -20 -21 21 23 -24 -25 -26 26 -28 -29 -30 -31
leaf_value=-0.051025457327043715 -0.029449164975033457 -0.048842073205407177 0.054573530127192904 0.05862590466867932 -0.03040777169540956 0.064859515365244744 0.049740908700606566 0.036460477052931803 0.05021440420582976 -0.035209236294156877 -0.071076235214385483 -0.0059365028750301627 -0.0032465224517260055 0.073802804557290394 0.0028557598587958168 -0.031812744719430894 -0.012408385343315167 0.063059855581091881 -0.056824046394835938 -0.0042414623296521334 -0.068186601169497277 -0.045594803711621945 0.040798767788651664 0.017821873760030544 0.044954150684406294 -0.0474198945151015 0.01171634937704516 0.053092683269305607 -0.015586488593749739 -0.024018861656089827
leaf_weight=23.764458402991295 8.5609965026378614 8.1562634259462339 4.148815646767618 5.6277096867561323 5.3818277865648261 7.8624547719955435 8.9419229179620725 4.7864540815353385 4.9596471786499121 5.3700416088104239 5.4150683134794235 6.2661187350749969 8.5583154559135384 4.6442843824625069 8.4275010079145449 4.2445376217365283 5.2846662402153015 9.5572862029075605 8.0834384858608228 5.0815192162990552 7.3527888059616116 4.7818843126296953 4.6225728690624237 4.6433207541704205 8.2790364921092969 4.857547312974928 7.8862697631120682 22.854022800922394 4.6213266551494598 19.772156864404678
leaf_count=138 39 39 25 25 23 40 43 23 23 24 25 28 38 21 36 20 23 43 37 23 32 21 21 20 44 21 37 141 25 102
internal_value=0 -0.016397 0.0241138 -0.00673299 0.0150657 0.0190448 0.0259347 -0.00581368 0.0183395 0.00938366 -0.00302364 0.024612 -0.00709681 -0.00236831 0.00599083 -0.00859857 0.0279171 0.0348488 -0.0292709 -0.0387207 -0.0227362 -0.0379448 0.00604085 -0.0143526 0.0186001 0.00627559 -0.0108246 0.0432507 0.0176035 -0.0387604
internal_weight=0 144.284 98.5104 100.747 66.8862 61.5044 48.1569 13.3475 40.2945 31.3525 92.591 11.8938 80.6972 70.2006 53.5588 35.5741 9.92895 17.9848 16.6418 10.4966 25.6451 16.778 8.86711 9.42521 25.9825 17.7035 12.7438 31.6242 8.77014 43.5366
internal_count=1200 692 508 452 317 294 232 62 192 149 413 53 360 312 237 158 44 79 75 48 114 73 41 41 125 81 58 191 50 240
is_linear=0
shrinkage=0.05


Tree=23
num_leaves=31
num_cat=0
split_feature=77 82 22 6 77 104 127 87 105 117 43 45 117 109 45 115 128 11 108 110 108 10 122 11 84 77 109 33 63 67
split_gain=35.3992 9.67477 8.46531 7.92463 6.61361 5.92354 6.51552 5.65728 4.8663 4.59684 4.46813 4.79113 4.99101 4.71736 4.20673 3.93912 4.15988 3.85786 3.75862 3.55746 3.27132 3.09598 2.97702 2.94775 2.94284 2.92154 2.90438 2.87319 2.86684 2.88168
threshold=-24.968346523096439 25.136325595888483 -43.784783941888797 31.500000000000004 -55.044351322519667 1682.2898408442959 -19.364479979143194 47.105450020343149 97.561401365635007 -265.19614186670248 1761.9177346297158 71.289818995189293 54.283148100671163 1610.4528760720207 66.161637882907669 111.01295839401429 1526.2371278215005 2.5000000000000004 1633.4916908502189 69.682912516332536 1780.0292967912126 -582.49999999999989 -4.5043967545201431 -5.4999999999999991 1536.9145386005046 150.86986336403996 1665.5500469433571 1353.6365178441058 1518.9730418940603 -11.585014475872752
decision_type=2 2 2 2 2 2 2 2 2 2 2 2 2 2 2 2 2 2 2 2 2 2 2 2 2 2 2 2 2 2
left_child=2 3 5 7 8 6 -1 9 18 -2 11 14 17 -14 -11 16 28 27 -4 -3 -7 -20 -16 -21 25 -24 -8 -13 29 -10
right_child=1 19 4 -5 -6 20 26 -9 15 10 -12 12 13 -15 22 -17 -18 -19 21 23 -22 -23 24 -25 -26 -27 -28 -29 -30 -31
leaf_value=0.025001437370174365 -0.040743253935140222 -0.0017259337330762532 -0.045161145418420756 0.041382860439841233 -0.040648104314616448 -0.052731847101913545 -0.064767200274611858 -0.046894813646054107 -0.0011018875151352419 -0.015058868328957553 -0.029014071707667212 0.013817238806612817 -0.048244247023590363 0.010104253522120367 0.0070838446934651288 -0.029081738089831579 -0.01327753712499264 -0.015810683869124327 -0.02498017738745318 0.0026243334692051968 -0.0028849089244743428 0.030602173180526177 0.016757309121534916 0.04983718084657221 0.07623531107796519 0.066660085241935688 -0.011960956608393598 0.068229885232188384 0.068461684856744129 0.047390512243932238
leaf_weight=7.1373937875032452 4.8923133164644232 4.7358835190534583 7.8122781515121487 15.585350736975668 11.980114251375197 31.017916351556778 4.9484913647174817 5.4361015707254401 6.272761464118962 4.83580453693867 6.7671759426593772 5.5318154841661471 7.7415909916162473 6.2691891193389893 6.6787506341934231 4.3701338022947303 5.9449533969163886 5.1233383268117896 5.3467971980571756 3.7203954160213462 3.682172253727912 4.7142630666494343 8.9557323455810565 29.685487702488899 5.6239044964313498 4.3611932396888724 5.4957586079835892 4.3212256878614426 4.7139228135347357 5.9883916378021285
leaf_count=32 21 25 36 78 54 186 24 25 28 22 29 25 34 28 31 20 26 22 25 21 19 21 43 181 26 24 26 20 22 26
internal_value=0 0.0176528 -0.0209233 0.00888499 -0.00762113 -0.0354626 -0.0118185 0.0022675 0.00113964 0.0060262 0.00948205 0.0138646 -0.000685617 -0.0221359 0.0277134 0.014422 0.0227168 0.0193817 -0.0191407 0.0388296 -0.0474424 0.00106378 0.0357868 0.0445791 0.0459078 0.0331001 -0.0369806 0.0376809 0.0353226 0.022582
internal_weight=0 130.265 109.425 92.1235 57.1436 52.2817 17.5816 76.5381 45.1635 71.102 66.2097 59.4425 28.9872 14.0108 30.4554 27.2902 22.92 14.9764 17.8733 38.1418 34.7001 10.0611 25.6196 33.4059 18.9408 13.3169 10.4442 9.85304 16.9751 12.2612
internal_count=1200 655 545 428 258 287 82 350 204 325 304 275 129 62 146 122 102 67 82 227 205 46 124 202 93 67 50 45 76 54
is_linear=0
shrinkage=0.05


Tree=24
num_leaves=31
num_cat=0
split_feature=9 82 92 61 61 39 46 91 57 64 114 11 112 125 45 135 50 64 55 46 20 40 28 120 53 52 39 79 43 138
split_gain=32.7485 12.2842 6.94259 5.59766 6.72718 5.28352 5.1634 4.50099 4.57342 4.6895 4.97848 4.39713 5.29983 6.25725 10.3295 5.00577 5.43529 4.08731 4.0783 4.89101 4.06093 3.81199 4.76789 4.93589 3.63674 3.41149 3.93375 3.34754 3.29013 3.32366
threshold=-13.499999999999998 -15.824845612082752 140.43867237029795 62.905099938454164 63.223433213145945 386.19677456578114 74.778507439696497 63.764633985487528 -18.90612726553854 1536.3242614658664 1524.8192180727935 3.5000000000000004 -77.439839141437105 65.378520231377252 79.036618062295446 63.266858495568698 65.438192115602803 1512.7447998717264 67.170167908240145 115.99013730799412 68.859236639652849 87.022723157158978 1703.1997367987462 75.126345399339371 1555.1725752510972 108.92018755237872 1590.3327020305787 1577.8050178096344 1776.3683348497955 1582.4747451401695
decision_type=2 2 2 2 2 2 2 2 2 2 2 2 2 2 2 2 2 2 2 2 2 2 2 2 2 2 2 2 2 2
left_child=2 7 3 -1 -5 -3 -6 -2 25 -10 -11 12 13 -7 -15 16 -14 -17 -8 24 -16 -13 -23 -24 -20 26 -9 -4 -29 -30
right_child=1 5 27 4 6 11 18 8 9 10 -12 21 15 14 20 17 -18 -19 19 -21 -22 22 23 -25 -26 -27 -28 28 29 -31
leaf_value=0.045422865071203071 -0.060181970878747132 0.047245195908249576 0.0007384819429992898 -0.058225512697071768 0.042727650238715741 0.034191266439028922 0.02457537317184106 0.012680079562904987 0.020525583354165558 0.016635427908313384 -0.048998785272773258 -0.05451823176633247 0.038838977142622723 -0.0661045974773527 0.041417231703200719 -0.0041916003094260553 -0.024050161343264435 0.04625439096921246 -0.065111093214470672 0.024909538904716033 -0.024862529110157794 0.02979782994890667 -0.067222767653128332 0.001825347865054387 -0.0074893529760766166 -0.065502325671678394 -0.040813576335858477 0.051871094481875095 -0.0061104074607184955 0.05189344446336594
leaf_weight=9.1022210717201215 11.488878190517424 5.0114510953426352 5.2897469699382773 4.1622462272644034 8.5323561877012235 4.7796043008565929 8.9121737480163592 4.6389389336109188 8.5439406633377128 4.3305955231189719 8.6803359985351545 7.1775539666414288 4.7923408746719387 9.6268982887268084 4.5690379440784437 5.7404417395591762 12.136221021413801 13.361673250794409 5.4383258372545225 4.6928411871194831 4.6762889474630356 4.988579809665679 4.7538737505674344 5.6814724206924438 5.5153906345367432 8.44592237472534 13.26090633869171 28.408993497490883 5.7877279222011548 4.3079383373260498
leaf_count=46 69 23 29 18 41 21 45 21 41 20 48 33 22 44 20 26 55 62 23 22 20 22 22 25 25 49 76 172 33 27
internal_value=0 -0.0145333 0.0237591 0.0102724 0.00168396 -0.00259868 0.00921946 -0.0320758 -0.0253346 -0.00825406 -0.0271529 -0.00563438 0.00147844 -0.0169115 -0.0298539 0.0135503 -0.00624675 0.0310947 -0.00242217 -0.0177998 0.00789291 -0.0244168 -0.0104091 -0.0296299 -0.0360975 -0.0393092 -0.0269501 0.0380345 0.0431583 0.0186405
internal_weight=0 146.685 90.15 46.3556 37.2533 87.2954 33.0911 59.3895 47.9006 21.5549 13.0109 82.284 59.6825 23.6518 18.8722 36.0307 16.9286 19.1021 24.5587 15.6466 9.24533 22.6015 15.4239 10.4353 10.9537 26.3458 17.8998 43.7944 38.5047 10.0957
internal_count=1200 719 481 220 174 395 156 324 255 109 68 372 270 105 84 165 77 88 115 70 40 102 69 47 48 146 97 261 232 60
is_linear=0
shrinkage=0.05


Tree=25
num_leaves=31
num_cat=0
split_feature=12 17 27 136 30 60 114 8 123 77 39 104 37 114 11 77 115 70 77 107 38 7 132 131 96 13 122 52 67 8
split_gain=30.0644 10.1183 6.22872 4.98564 4.7397 4.54875 4.41078 4.24211 5.87239 4.40157 4.21011 4.18567 4.10798 8.27968 5.05772 5.64183 5.55669 5.03111 4.30881 4.23229 5.54189 4.16453 3.52173 3.44325 3.37696 3.36801 3.06683 2.80173 2.72087 2.61241
threshold=56.024984106234804 -24.202089860283873 220.37344227769032 60.87932568003874 71.486137784233719 62.029378589348219 1506.4826949413268 680.00000000000011 1527.6089721978162 125.71223657655207 -114.57148059567974 1535.4502838727897 951.99181209575931 1630.1254325671205 1.5000000000000002 -31.136806794228729 96.755886173581331 60.727986001081668 13.668916623739849 -30.062977484921017 2024.6309828447936 26.500000000000004 5.0306826284308963 65.018449092242292 69.086090920131127 2399.4092803345879 -4.8587845510163552 134.11462319031799 -16.515416586724424 1034.0000000000002
decision_type=2 2 2 2 2 2 2 2 2 2 2 2 2 2 2 2 2 2 2 2 2 2 2 2 2 2 2 2 2 2
left_child=1 26 4 -3 5 6 -2 8 9 -7 -5 -8 14 -14 15 19 17 -16 -17 20 24 -21 -20 -9 -12 -4 28 -25 -1 -19
right_child=2 3 25 10 -6 7 11 23 -10 -11 12 -13 13 -15 16 18 -18 29 22 21 -22 -23 -24 27 -26 -27 -28 -29 -30 -31
leaf_value=-0.047677730401486373 -0.041985590094711471 -0.054326151663453462 0.048947358294058163 0.044480416300393247 -0.020996431924461892 -0.0088304292989571914 0.050619691687668493 0.0094323702172421312 -0.037709253811983368 0.050520381907911804 0.0034050233541801154 -0.016279891058349868 -0.059902593158760148 0.012572752344050362 0.0083834563462719079 0.066636392787741722 0.027348096949967954 -0.080170330763290498 -0.013559547830262733 0.0029823349381587379 -0.034827079021606519 -0.052527582195618885 0.046656814991164086 0.062109025989114997 0.051133966040734148 -0.0041414316950779398 -0.0065098124090276367 0.021822836420775607 -0.0056585337292674003 -0.033014882557926915
leaf_weight=29.117398053407669 5.3018535226583472 5.0765954554080954 23.277244627475742 4.3680155277252188 8.6197132766246778 5.3772919774055499 4.398698076605795 7.2924197018146542 5.1150980293750754 7.4544762820005417 7.6122116744518262 4.9909626096487045 9.1440626680851 6.9251324981451026 5.2660090923309388 5.9323009848594657 4.8739481121301642 4.5352464616298667 5.5637251585721952 6.7311333566904086 4.8708175122737876 6.7843440920114517 4.3083400577306747 13.832160547375681 7.221958264708519 3.4273791909217826 7.3759404420852652 6.2729189544916144 4.4400610923767081 8.3349126726388914
leaf_count=178 24 26 159 20 37 25 23 34 23 40 35 23 40 32 24 27 21 20 25 31 23 31 21 74 32 19 39 32 23 39
internal_value=0 -0.0148376 0.0216443 -0.00608265 0.0136746 0.0186525 -0.00552653 0.0264865 0.00759089 0.0256488 -0.00343414 0.01506 -0.00580965 -0.0286688 -0.000710332 0.00836635 -0.0200489 -0.0327865 0.0329579 -0.00333288 0.0114474 -0.0248819 0.0127199 0.0388641 0.0266417 0.0421337 -0.0357017 0.0495395 -0.0421181 -0.0496317
internal_weight=0 138.482 95.3602 97.5488 68.6556 60.0359 14.6915 45.3444 17.9469 12.8318 92.4722 9.38966 88.1041 16.0692 72.0349 49.0248 23.0101 18.1362 15.8044 33.2205 19.705 13.5155 9.87207 27.3975 14.8342 26.7046 40.9334 20.1051 33.5575 12.8702
internal_count=1200 687 513 447 335 298 70 228 88 65 421 46 401 72 329 225 104 83 73 152 90 62 46 140 67 178 240 106 201 59
is_linear=0
shrinkage=0.05


Tree=26
num_leaves=31
num_cat=0
split_feature=9 82 93 54 47 98 144 50 48 103 31 49 59 25 119 111 42 41 91 36 34 107 41 100 57 69 90 133 88 45
split_gain=27.9576 10.676 6.31624 5.62456 4.90466 4.76275 7.59065 4.89176 4.84994 6.27495 4.61555 4.59153 5.26649 5.96644 5.41769 6.13793 4.98504 4.3741 3.93591 4.27721 7.02322 5.21797 4.34451 3.75018 4.60816 3.17136 4.46463 3.40426 4.19866 3.02943
threshold=-13.499999999999998 -16.836965208887019 1836.8697880829429 1397.1738728687994 -96.901937143945688 1677.5818338172974 1.0000000180025095e-35 65.397807876783332 1360.3081483210717 2085.1378835762466 64.1154455310744 1458.2116148948314 1513.0121486840055 62.139895311777387 1615.3639179220211 78.607717792717878 -36.931845656068155 152.81375348519711 63.764633985487528 129.21795668911042 2046.3502385498368 -38.047506833968775 74.813393717915019 144.7964579221709 12.320966499819635 1521.9719948398886 63.761480753512039 1573.9693248186784 1659.3953600225739 67.582605930446675
decision_type=2 2 2 2 2 2 2 2 2 2 2 2 2 2 2 2 2 2 2 2 2 2 2 2 2 2 2 2 2 2
left_child=2 18 5 4 -3 7 -7 -1 -9 17 -5 -12 23 -14 15 -15 -16 -10 -2 20 -20 22 -22 24 -13 -4 -27 -28 -29 -21
right_child=1 3 25 10 -6 6 -8 8 9 -11 11 12 13 14 16 -17 -18 -19 19 29 21 -23 -24 -25 -26 26 27 28 -30 -31
leaf_value=0.042204590469206049 -0.058445790713243066 -0.010815624101863708 0.057853153820325909 -0.057026210072716237 0.049546601973560554 0.024936336370687387 -0.059054585101434437 0.041098110173232387 0.027923121422807069 -0.056489578675816526 -0.041757736667359283 -0.02564364147702344 -0.05001734865383306 0.018689781908361701 -0.012729730503593684 -0.035198490407985318 0.044601339480364356 -0.03000047035287436 -0.040559694177580333 -0.0039254149160996982 -0.052852699401062991 0.056848260641373188 0.016156308729143844 0.058725280572045818 0.040592396102215177 -0.0061473418802208803 0.064777190697365802 -0.01869166549120135 0.060770985376858558 -0.05351567176528868
leaf_weight=14.701869912445543 10.499364376068113 5.5097309947013846 13.413005188107489 4.5672353059053412 8.6462786644697172 5.2250274270772916 5.5444937944412231 7.3339294195175198 10.182436034083368 4.7658081948757163 7.6308714449405661 5.3222071975469571 7.4862457364797583 8.0760011076927203 6.3720194399356833 15.285292431712149 9.3632215410470945 4.7936237305402747 11.44984044134617 3.9191406369209316 3.5254604965448362 4.4582676440477362 6.4595448821783066 5.269132897257804 5.1832402795553207 6.9376374632120159 7.9153275191783887 3.7615291625261307 2.9787951409816742 14.378379717469214
leaf_count=80 67 25 93 21 40 26 25 37 48 21 35 25 35 37 29 70 43 22 58 23 21 20 31 24 24 38 48 22 21 91
