tree
version=v4
num_class=1
num_tree_per_iteration=1
label_index=0
max_feature_idx=136
objective=binary sigmoid:1
feature_names=best_of tourney_round a_player_rank b_player_rank glicko_rating_diff a_glicko_rating b_glicko_rating a_glicko_rd b_glicko_rd point_glicko_rating_diff a_point_glicko_rating b_point_glicko_rating a_point_glicko_rd b_point_glicko_rd game_glicko_rating_diff a_game_glicko_rating b_game_glicko_rating a_game_glicko_rd b_game_glicko_rd set_glicko_rating_diff a_set_glicko_rating b_set_glicko_rating a_set_glicko_rd b_set_glicko_rd service_glicko_rating_diff a_service_glicko_rating b_return_glicko_rating a_service_glicko_rd b_return_glicko_rd return_glicko_rating_diff a_return_glicko_rating b_service_glicko_rating a_return_glicko_rd b_service_glicko_rd tiebreak_glicko_rating_diff a_tiebreak_glicko_rating b_tiebreak_glicko_rating a_tiebreak_glicko_rd b_tiebreak_glicko_rd ace_glicko_rating_diff a_ace_glicko_rating b_return_ace_glicko_rating a_ace_glicko_rd b_return_ace_glicko_rd return_ace_glicko_rating_diff a_return_ace_glicko_rating b_ace_glicko_rating a_return_ace_glicko_rd b_ace_glicko_rd first_won_glicko_rating_diff a_first_won_glicko_rating b_return_first_won_glicko_rating a_first_won_glicko_rd b_return_first_won_glicko_rd return_first_won_glicko_rating_diff a_return_first_won_glicko_rating b_first_won_glicko_rating a_return_first_won_glicko_rd b_first_won_glicko_rd second_won_glicko_rating_diff a_second_won_glicko_rating b_return_second_won_glicko_rating a_second_won_glicko_rd b_return_second_won_glicko_rd return_second_won_glicko_rating_diff a_return_second_won_glicko_rating b_second_won_glicko_rating a_return_second_won_glicko_rd b_second_won_glicko_rd surface_glicko_rating_diff a_surface_glicko_rating b_surface_glicko_rating a_surface_glicko_rd b_surface_glicko_rd surface_point_glicko_rating_diff a_surface_point_glicko_rating b_surface_point_glicko_rating a_surface_point_glicko_rd b_surface_point_glicko_rd surface_game_glicko_rating_diff a_surface_game_glicko_rating b_surface_game_glicko_rating a_surface_game_glicko_rd b_surface_game_glicko_rd surface_set_glicko_rating_diff a_surface_set_glicko_rating b_surface_set_glicko_rating a_surface_set_glicko_rd b_surface_set_glicko_rd surface_service_glicko_rating_diff a_surface_service_glicko_rating b_surface_return_glicko_rating a_surface_service_glicko_rd b_surface_return_glicko_rd surface_return_glicko_rating_diff a_surface_return_glicko_rating b_surface_service_glicko_rating a_surface_return_glicko_rd b_surface_service_glicko_rd surface_tiebreak_glicko_rating_diff a_surface_tiebreak_glicko_rating b_surface_tiebreak_glicko_rating a_surface_tiebreak_glicko_rd b_surface_tiebreak_glicko_rd surface_ace_glicko_rating_diff a_surface_ace_glicko_rating b_surface_return_ace_glicko_rating a_surface_ace_glicko_rd b_surface_return_ace_glicko_rd surface_return_ace_glicko_rating_diff a_surface_return_ace_glicko_rating b_surface_ace_glicko_rating a_surface_return_ace_glicko_rd b_surface_ace_glicko_rd surface_first_won_glicko_rating_diff a_surface_first_won_glicko_rating b_surface_return_first_won_glicko_rating a_surface_first_won_glicko_rd b_surface_return_first_won_glicko_rd surface_return_first_won_glicko_rating_diff a_surface_return_first_won_glicko_rating b_surface_first_won_glicko_rating a_surface_return_first_won_glicko_rd b_surface_first_won_glicko_rd surface_second_won_glicko_rating_diff a_surface_second_won_glicko_rating b_surface_return_second_won_glicko_rating a_surface_second_won_glicko_rd b_surface_return_second_won_glicko_rd surface_return_second_won_glicko_rating_diff a_surface_return_second_won_glicko_rating b_surface_second_won_glicko_rating a_surface_return_second_won_glicko_rd b_surface_second_won_glicko_rd surface_Clay surface_Grass surface_Hard
feature_infos=[3:3] [0.75:1] [1:1045] [1:1042] [-910.58869516961875:978.38968330104035] [1344.9742063877491:2539.7171585181873] [1345.6942719034578:2553.672094305979] [65.115131658994216:150.73501551703384] [65.095118408099808:151.83815154868134] [-98.311873111012801:92.500050340461257] [1465.4459370066431:1604.5766896099328] [1474.1480109604331:1607.7226805487965] [61.080137831016891:138.1913100631717] [60.966762456923028:137.23503950987779] [-199.53881798153952:206.86825176139268] [1432.1975841144244:1725.326239011498] [1450.0608643692619:1730.6294335875164] [61.965877953213798:139.2388392627258] [61.895149207950269:137.70092979597399] [-663.27334287223039:760.0258236906825] [1314.1206542229502:2273.5999166407191] [1298.5280354526551:2274.7753413204164] [64.152077016107313:147.33072812114457] [64.227523552334858:143.68777444193026] [-13602.544130755254:895.95931431077747] [-5099.633493690616:2382.6299835559348] [1216.9203666831943:9838.9768046766676] [69.173127889801549:329.54992553744461] [70.999574747420994:321.48090549604603] [-942.31136471859145:14414.723219644313] [1189.5527882879981:9838.9768046766676] [-5527.8285136833338:2378.7356255576892] [70.90233242328479:321.53634505540913] [69.664464187209063:333.05565850989206] [-620.59158500185276:525.30961074337847] [1124.5826578032063:1895.8398372226384] [1136.4510293396338:1879.2355449792208] [64.558853491467104:350.1590443715483] [64.530876477093841:261.05793774566638] [-676.88548727920534:7759.8854905797425] [960.54878184868119:9114.1525056169303] [998.63515686709877:1816.1830768472512] [63.078547995058194:223.59117719945723] [64.546368416303437:164.86491278264054] [-7762.1910114753591:811.14703038455491] [1007.477576045378:1815.2862341944776] [958.54729367563834:9114.1525056169303] [64.778662325976484:163.45276754408621] [63.164552660484951:223.82584370766889] [-108.25940788673211:85.469040045007432] [1417.1698393308204:1578.2286888778999] [1463.0963776908231:1562.7510857930929] [61.963648837363536:138.3881341578535] [61.787849046626853:137.35525161710629] [-98.806914589692497:92.945950163205239] [1456.518477754443:1562.7510857930929] [1428.600647301861:1578.2286888778999] [61.878789454862627:138.67705812248911] [61.885696369388512:137.29742365707003] [-97.01398887286156:96.204363152315864] [1458.9695356214947:1602.7771770892234] [1459.645906012255:1598.5171132220171] [59.73454924856371:104.12435937513648] [59.67046749341165:104.03410649272207] [-97.01398887286156:96.204363152315864] [1458.9695356214947:1602.7771770892234] [1459.645906012255:1598.5171132220171] [59.73454924856371:104.12435937513648] [59.67046749341165:104.03410649272207] [-868.99342995396682:918.22247413097205] [1241.3769944942037:2540.6740790504373] [1244.3585691976891:2505.3714067164055] [66.659976737133178:149.52198544287225] [66.50236916755712:149.75977776854205] [-94.138236449131682:94.156535700838958] [1456.0570549706893:1608.1793221352636] [1461.4874237531774:1608.7868113779509] [62.124218338814259:139.12973430182174] [61.934885594193638:144.93074597997906] [-213.85430186978829:210.79761268039988] [1411.0560165153995:1734.4081565924037] [1425.1818834111562:1739.1716296579684] [62.915039796480151:139.85945314705489] [62.837452817571851:145.52766800093784] [-642.36663847470686:698.10702019159544] [1257.1480084021796:2282.3171288733092] [1231.8473975172935:2290.716943039497] [65.343873686789578:151.71260871256652] [65.366354483804713:149.71851279328541] [-12556.611577358941:964.13519160670785] [-6757.7449577755669:2396.3215743224391] [957.43536573558038:9732.1619857146725] [69.796903802279829:338.18189745731934] [71.74877755834828:320.98753627604015] [-825.14526475248613:14383.697676274627] [980.37202473927402:9732.1619857146725] [-6370.0761539923342:2400.3253783355754] [71.363632423937688:321.04315309751433] [69.876157413521327:339.2369555770681] [-670.36540249449035:677.02793098170696] [1143.9772785187763:1989.1129827111508] [1143.9772785187763:1989.1129827111508] [65.995809999127047:350.1590443715483] [65.962455240576418:350.1590443715483] [-716.15763217127869:7587.0010806987739] [954.36058320478105:8944.1830960733478] [971.06026775898079:1823.3177830160005] [63.977314793750416:238.30913871979919] [65.639554468688388:195.26844959564568] [-7455.7616246740772:810.83229322264924] [824.01640280433173:1842.2378974114472] [952.44797590112159:8944.1830960733478] [65.835241711953771:191.98156496320289] [64.146009910907964:239.1907473201513] [-111.73020449720887:93.161895692770713] [1407.7464095173211:1578.9320616606828] [1453.6458327860785:1578.5771037912789] [62.798583750947152:140.6451554101335] [62.419416953436972:141.65638744942589] [-93.645497037711039:92.653136983521122] [1455.1440744012509:1578.5771037912789] [1421.6087105612478:1578.5517096273029] [62.667293717931678:139.99745376706883] [62.578523271162943:146.39543803339612] [-106.07217926713427:115.02252962880677] [1452.7015806462598:1613.1267711090784] [1447.5289817167272:1613.1267711090784] [60.53041589702444:108.5689740126729] [60.529484325436989:108.95253608714479] [-106.07217926713427:115.02252962880677] [1452.7015806462598:1613.1267711090784] [1447.5289817167272:1613.1267711090784] [60.53041589702444:108.5689740126729] [60.529484325436989:108.95253608714479] [0:1] [0:1] [0:1]
tree_sizes=3355 3403

Tree=0
num_leaves=31
num_cat=0
split_feature=79 74 24 2 27 109 98 22 33 31 98 121 20 75 5 103 17 78 31 41 19 56 132 94 124 69 56 12 2 63
split_gain=25.2988 22.7126 11.6966 10.7576 14.4757 16.2338 12.924 12.9047 12.2603 11.6885 11.4743 11.1684 11.0762 13.5769 12.5698 11.9593 10.9454 14.2868 10.7858 10.3482 9.98092 15.5925 10.0546 9.88968 9.85857 11.8234 11.0766 11.6011 9.64542 9.5895
threshold=99.333913057795499 -38.728196953687863 393.60380236912982 6.5000000000000009 73.986182667415179 22.009623362281221 102.76894190395095 66.054829394153685 72.714248783801082 1910.2636845658346 74.292478604391661 1556.4589574468971 1760.7449121559596 1559.1565929110766 1825.9453085336788 79.476933203679721 62.99950664075994 63.355301429600587 1805.5458456740664 1672.0836856708781 50.211044088482033 1523.9847419332189 63.801947302475234 140.96957048386699 24.08119409347751 79.353743164602875 1511.7785890984353 63.543220211327487 61.500000000000007 67.80628169253788
decision_type=2 2 2 2 2 2 2 2 2 2 2 2 2 2 2 2 2 2 2 2 2 2 2 2 2 2 2 2 2 2
left_child=1 -1 3 11 5 23 8 29 9 10 -6 -3 14 24 15 -9 -10 -18 -12 -17 -19 28 -23 -5 25 -14 -27 -28 -22 -8
right_child=-2 2 -4 4 6 -7 7 12 16 -11 18 -13 13 -15 -16 19 17 20 -20 -21 21 22 -24 -25 -26 26 27 -29 -30 -31
leaf_value=-0.67262633640556135 -0.68469432878779568 -0.67037498133123208 -0.59019210445319914 -0.63922861217938143 -0.68289125604516032 -0.64478727594328145 -0.62666070476392155 -0.58826452285109787 -0.68807889690050039 -0.5686966490115849 -0.59905897982286493 -0.59220730340085048 -0.68361096995503579 -0.58860873385147305 -0.59468979485810203 -0.64060359459536564 -0.59019210445319914 -0.65814350304775537 -0.68289125604516032 -0.68449062028932806 -0.66398151249528137 -0.62819299889462421 -0.55368144116633977 -0.59074976957078817 -0.69013890138320455 -0.65296255880281384 -0.53319076279106148 -0.6425872770921337 -0.59652558686010326 -0.56925642649704367
leaf_weight=72.178750038146973 42.856132835149765 57.743000030517578 10.150136724114416 14.886867195367811 9.9245781302452105 51.652917996048927 69.92316409945488 10.375695317983626 22.781417980790138 7.4434335976839057 16.9168945401907 4.9622890651226035 18.94692188501358 6.3156406283378592 15.563542976975439 245.1821915358305 9.0223437547683698 262.09908607602119 4.9622890651226035 14.210191413760183 32.931554704904556 11.052371099591257 7.668992191553115 35.863816425204277 25.713679701089859 22.781417980790138 4.7367304712533933 4.9622890651226044 6.3156406283378592 8.1201093792915326
leaf_count=320 190 256 45 66 44 229 310 46 101 33 75 22 84 28 69 1087 40 1162 22 63 146 49 34 159 114 101 21 22 28 36
internal_value=-0.647015 -0.645527 -0.643597 -0.644137 -0.6428 -0.625054 -0.644969 -0.639159 -0.651606 -0.625099 -0.6383 -0.664189 -0.643068 -0.65909 -0.638382 -0.640902 -0.654562 -0.652242 -0.618072 -0.643008 -0.653991 -0.635217 -0.59767 -0.60497 -0.664861 -0.652221 -0.633911 -0.589161 -0.653127 -0.620688
internal_weight=0 1085.39 1013.21 1003.06 940.354 102.404 837.95 446.832 391.119 39.2472 31.8038 62.7053 368.788 83.4567 285.332 269.768 351.871 329.09 21.8792 259.392 320.068 57.9686 18.7214 50.7507 77.141 51.4274 32.4804 9.69902 39.2472 78.0433
internal_count=5002 4812 4492 4447 4169 454 3715 1981 1734 174 141 278 1635 370 1265 1196 1560 1459 97 1150 1419 257 83 225 342 228 144 43 174 346
is_linear=0
shrinkage=1


Tree=1
num_leaves=31
num_cat=0
split_feature=79 74 24 103 21 119 2 92 34 34 103 94 38 38 22 49 22 93 25 35 21 85 116 35 59 81 69 11 99 59
split_gain=23.1055 20.6328 10.3506 9.95141 16.68 11.008 10.8483 12.9024 9.94899 16.977 11.2351 13.2228 11.2602 15.9453 9.92859 12.4245 14.9401 13.1199 14.4143 12.6825 11.5157 11.392 12.0164 10.9669 10.7847 9.67522 10.1852 13.9536 12.5294 10.2099
threshold=99.333913057795499 -38.728196953687863 393.60380236912982 68.752171192015211 1813.9519966670989 -52.505573343489793 6.5000000000000009 73.836397025441428 -105.33450795794577 -80.92501271004879 165.70734142019143 906.86853596073661 72.699704690863697 82.682804552964384 66.101279745155097 26.72064584717123 66.283299921217392 97.960577123888712 1713.2738262008886 1663.2998798793521 1568.8112210305605 1847.0388582846147 1547.2352006298695 1700.5993383724481 8.2031572671214708 1522.760323938056 -9.7417086924167489 1541.2338780865921 -133.47723016862423 6.4286830704446638
decision_type=2 2 2 2 2 2 2 2 2 2 2 2 2 2 2 2 2 2 2 2 2 2 2 2 2 2 2 2 2 2
left_child=1 -1 3 4 -3 -5 -7 -8 10 -10 12 -12 -9 -14 20 16 -16 19 -19 24 -11 22 -18 -21 -17 -22 28 29 -27 -28
right_child=-2 2 -4 5 -6 6 7 8 9 14 11 -13 13 -15 15 17 21 18 -20 23 25 -23 -24 -25 -26 26 27 -29 -30 -31
leaf_value=-0.024535314510286111 -0.036242602725852079 -0.02328340652970733 0.053045631300195933 -0.035835913637348671 0.098880784180474926 -0.017375511903277414 0.045765218334816643 0.022897019123817881 -0.026505149778129442 0.082551337049023593 0.096926954471728208 -0.0060177640747612763 -0.025562459372114862 0.023776081161413675 -0.036567360410298587 0.054499981215424098 0.00093514428559740939 0.039475531687181722 -0.021867029110438717 0.12031054859479789 -0.051211410341494026 -0.024531409967660248 0.077490416406400947 0.041714468600258237 -0.033405118816140597 0.056160057594901218 -0.0058648323746173323 0.080055722214986524 -0.01165434557488699 0.032479897860994915
leaf_weight=71.592483520507812 42.34068363904953 4.7316041290760023 10.324520543217657 18.675543382763863 6.8237965852022171 61.68328058719635 18.374048411846161 83.717965930700302 52.322534263134003 5.9409096837043753 8.3659950494766218 4.9737608581781378 38.549661114811897 28.469267576932907 31.56220780313015 6.1085431128740302 365.49028889834881 14.679840356111525 27.547351807355881 6.3464973270893124 5.8952526301145545 45.38262665271759 5.1987262368202201 14.762208729982374 8.1367867738008481 7.9173980504274359 28.304156586527824 10.207510083913801 48.751964628696442 44.897032022476196
leaf_count=320 190 21 45 83 30 275 81 371 232 26 37 22 171 126 140 27 1620 65 122 28 26 201 23 65 36 35 125 45 216 198
internal_value=0 0.00140664 0.00323799 0.0027257 0.0488581 0.00218847 0.00291786 0.00429055 0.00343769 0.000935443 0.0145622 0.0585438 0.01067 -0.00460372 0.00305581 -0.000200374 -0.00340191 0.0182721 -0.000541931 0.0407437 0.0143134 -0.000886055 0.00200879 0.065345 0.00428949 0.0115363 0.014177 0.0252902 -0.00217985 0.0176534
internal_weight=0 1085.73 1014.14 1003.82 11.5554 992.261 973.586 911.903 893.528 729.452 164.077 13.3398 150.737 67.0189 677.129 525.215 447.634 77.5812 42.2272 35.354 151.914 416.072 370.689 21.1087 14.2453 145.973 140.078 83.4087 56.6694 73.2012
internal_count=5002 4812 4492 4447 51 4396 4313 4038 3957 3230 727 59 668 297 2998 2327 1984 343 187 156 671 1844 1643 93 63 645 619 368 251 323
is_linear=0
shrinkage=0.05


end of trees

feature_importances:
a_player_rank=3
a_set_glicko_rd=3
b_surface_tiebreak_glicko_rd=3
b_set_glicko_rating=2
service_glicko_rating_diff=2
b_service_glicko_rating=2
tiebreak_glicko_rating_diff=2
a_tiebreak_glicko_rating=2
b_tiebreak_glicko_rd=2
b_first_won_glicko_rating=2
second_won_glicko_rating_diff=2
surface_glicko_rating_diff=2
surface_point_glicko_rating_diff=2
surface_game_glicko_rating_diff=2
surface_return_glicko_rating_diff=2
b_surface_service_glicko_rd=2
a_glicko_rating=1
b_point_glicko_rating=1
a_point_glicko_rd=1
a_game_glicko_rd=1
set_glicko_rating_diff=1
a_set_glicko_rating=1
a_service_glicko_rating=1
a_service_glicko_rd=1
b_service_glicko_rd=1
b_return_ace_glicko_rating=1
first_won_glicko_rating_diff=1
b_return_second_won_glicko_rd=1
a_surface_point_glicko_rating=1
b_surface_point_glicko_rd=1
b_surface_game_glicko_rating=1
a_surface_set_glicko_rating=1
a_surface_service_glicko_rd=1
b_surface_return_glicko_rd=1
surface_tiebreak_glicko_rating_diff=1
surface_return_ace_glicko_rating_diff=1
b_surface_return_first_won_glicko_rating=1
surface_return_first_won_glicko_rating_diff=1
b_surface_first_won_glicko_rating=1
surface_second_won_glicko_rating_diff=1
a_surface_return_second_won_glicko_rd=1

parameters:
[boosting: gbdt]
[objective: binary]
[metric: binary_logloss]
[tree_learner: serial]
[device_type: cpu]
[data_sample_strategy: bagging]
[data: ]
[valid: ]
[num_iterations: 300]
[learning_rate: 0.05]
[num_leaves: 31]
[num_threads: 0]
[seed: 0]
[deterministic: 0]
[force_col_wise: 0]
[force_row_wise: 0]
[histogram_pool_size: -1]
[max_depth: -1]
[min_data_in_leaf: 20]
[min_sum_hessian_in_leaf: 0.001]
[bagging_fraction: 1]
[pos_bagging_fraction: 1]
[neg_bagging_fraction: 1]
[bagging_freq: 10]
[bagging_seed: 3]
[feature_fraction: 0.9]
[feature_fraction_bynode: 1]
[feature_fraction_seed: 2]
[extra_trees: 0]
[extra_seed: 6]
[early_stopping_round: 0]
[early_stopping_min_delta: 0]
[first_metric_only: 0]
[max_delta_step: 0]
[lambda_l1: 0]
[lambda_l2: 0]
[linear_lambda: 0]
[min_gain_to_split: 0]
[drop_rate: 0.1]
[max_drop: 50]
[skip_drop: 0.5]
[xgboost_dart_mode: 0]
[uniform_drop: 0]
[drop_seed: 4]
[top_rate: 0.2]
[other_rate: 0.1]
[min_data_per_group: 100]
[max_cat_threshold: 32]
[cat_l2: 10]
[cat_smooth: 10]
[max_cat_to_onehot: 4]
[top_k: 20]
[monotone_constraints: ]
[monotone_constraints_method: basic]
[monotone_penalty: 0]
[feature_contri: ]
[forcedsplits_filename: ]
[refit_decay_rate: 0.9]
[cegb_tradeoff: 1]
[cegb_penalty_split: 0]
[cegb_penalty_feature_lazy: ]
[cegb_penalty_feature_coupled: ]
[path_smooth: 0]
[interaction_constraints: ]
[verbosity: -1]
[saved_feature_importance_type: 0]
[use_quantized_grad: 0]
[num_grad_quant_bins: 4]
[quant_train_renew_leaf: 0]
[stochastic_rounding: 1]
[linear_tree: 0]
[max_bin: 255]
[max_bin_by_feature: ]
[min_data_in_bin: 3]
[bin_construct_sample_cnt: 200000]
[data_random_seed: 1]
[is_enable_sparse: 1]
[enable_bundle: 1]
[use_missing: 1]
[zero_as_missing: 0]
[feature_pre_filter: 0]
[pre_partition: 0]
[two_round: 0]
[header: 0]
[label_column: ]
[weight_column: ]
[group_column: ]
[ignore_column: ]
[categorical_feature: ]
[forcedbins_filename: ]
[precise_float_parser: 0]
[parser_config_file: ]
[objective_seed: 5]
[num_class: 1]
[is_unbalance: 0]
[scale_pos_weight: 1]
[sigmoid: 1]
[boost_from_average: 1]
[reg_sqrt: 0]
[alpha: 0.9]
[fair_c: 1]
[poisson_max_delta_step: 0.7]
[tweedie_variance_power: 1.5]
[lambdarank_truncation_level: 30]
[lambdarank_norm: 1]
[label_gain: ]
[lambdarank_position_bias_regularization: 0]
[eval_at: ]
[multi_error_top_k: 1]
[auc_mu_weights: ]
[num_machines: 1]
[local_listen_port: 12400]
[time_out: 120]
[machine_list_filename: ]
[machines: ]
[gpu_platform_id: -1]
[gpu_device_id: -1]
[gpu_use_dp: 0]
[num_gpu: 1]

end of parameters

pandas_categorical:[]
