tree
version=v4
num_class=1
num_tree_per_iteration=1
label_index=0
max_feature_idx=138
objective=binary sigmoid:1
feature_names=best_of tourney_round a_player_age a_player_rank b_player_age b_player_rank glicko_rating_diff a_glicko_rating b_glicko_rating a_glicko_rd b_glicko_rd point_glicko_rating_diff a_point_glicko_rating b_point_glicko_rating a_point_glicko_rd b_point_glicko_rd game_glicko_rating_diff a_game_glicko_rating b_game_glicko_rating a_game_glicko_rd b_game_glicko_rd set_glicko_rating_diff a_set_glicko_rating b_set_glicko_rating a_set_glicko_rd b_set_glicko_rd service_glicko_rating_diff a_service_glicko_rating b_return_glicko_rating a_service_glicko_rd b_return_glicko_rd return_glicko_rating_diff a_return_glicko_rating b_service_glicko_rating a_return_glicko_rd b_service_glicko_rd tiebreak_glicko_rating_diff a_tiebreak_glicko_rating b_tiebreak_glicko_rating a_tiebreak_glicko_rd b_tiebreak_glicko_rd ace_glicko_rating_diff a_ace_glicko_rating b_return_ace_glicko_rating a_ace_glicko_rd b_return_ace_glicko_rd return_ace_glicko_rating_diff a_return_ace_glicko_rating b_ace_glicko_rating a_return_ace_glicko_rd b_ace_glicko_rd first_won_glicko_rating_diff a_first_won_glicko_rating b_return_first_won_glicko_rating a_first_won_glicko_rd b_return_first_won_glicko_rd return_first_won_glicko_rating_diff a_return_first_won_glicko_rating b_first_won_glicko_rating a_return_first_won_glicko_rd b_first_won_glicko_rd second_won_glicko_rating_diff a_second_won_glicko_rating b_return_second_won_glicko_rating a_second_won_glicko_rd b_return_second_won_glicko_rd return_second_won_glicko_rating_diff a_return_second_won_glicko_rating b_second_won_glicko_rating a_return_second_won_glicko_rd b_second_won_glicko_rd surface_glicko_rating_diff a_surface_glicko_rating b_surface_glicko_rating a_surface_glicko_rd b_surface_glicko_rd surface_point_glicko_rating_diff a_surface_point_glicko_rating b_surface_point_glicko_rating a_surface_point_glicko_rd b_surface_point_glicko_rd surface_game_glicko_rating_diff a_surface_game_glicko_rating b_surface_game_glicko_rating a_surface_game_glicko_rd b_surface_game_glicko_rd surface_set_glicko_rating_diff a_surface_set_glicko_rating b_surface_set_glicko_rating a_surface_set_glicko_rd b_surface_set_glicko_rd surface_service_glicko_rating_diff a_surface_service_glicko_rating b_surface_return_glicko_rating a_surface_service_glicko_rd b_surface_return_glicko_rd surface_return_glicko_rating_diff a_surface_return_glicko_rating b_surface_service_glicko_rating a_surface_return_glicko_rd b_surface_service_glicko_rd surface_tiebreak_glicko_rating_diff a_surface_tiebreak_glicko_rating b_surface_tiebreak_glicko_rating a_surface_tiebreak_glicko_rd b_surface_tiebreak_glicko_rd surface_ace_glicko_rating_diff a_surface_ace_glicko_rating b_surface_return_ace_glicko_rating a_surface_ace_glicko_rd b_surface_return_ace_glicko_rd surface_return_ace_glicko_rating_diff a_surface_return_ace_glicko_rating b_surface_ace_glicko_rating a_surface_return_ace_glicko_rd b_surface_ace_glicko_rd surface_first_won_glicko_rating_diff a_surface_first_won_glicko_rating b_surface_return_first_won_glicko_rating a_surface_first_won_glicko_rd b_surface_return_first_won_glicko_rd surface_return_first_won_glicko_rating_diff a_surface_return_first_won_glicko_rating b_surface_first_won_glicko_rating a_surface_return_first_won_glicko_rd b_surface_first_won_glicko_rd surface_second_won_glicko_rating_diff a_surface_second_won_glicko_rating b_surface_return_second_won_glicko_rating a_surface_second_won_glicko_rd b_surface_return_second_won_glicko_rd surface_return_second_won_glicko_rating_diff a_surface_return_second_won_glicko_rating b_surface_second_won_glicko_rating a_surface_return_second_won_glicko_rd b_surface_second_won_glicko_rd surface_Clay surface_Grass surface_Hard
feature_infos=[3:3] [0.75:1] [18:37] [1:1045] [18:37] [1:1751] [-910.58869516961875:908.56272889145384] [1366.2262964017768:2544.2118400053873] [1400.2768712567056:2553.9053094623869] [65.258074862734063:124.30333498128118] [65.095118408099808:121.59201637972332] [-98.311873111012801:91.45675967420334] [1487.0026592332683:1605.163171895402] [1486.2187887612019:1607.9150717017701] [61.201483635371858:110.72903963559992] [61.368464354837954:116.84006573562628] [-199.53881798153952:194.73000376844561] [1470.8746964114266:1725.8681526285447] [1468.6939518349477:1731.6308310282031] [61.965877953213798:111.2663513271452] [62.016067518935351:117.34388754497566] [-663.27334287223039:667.14439593470524] [1386.9720341774776:2279.3265802949691] [1411.641555712956:2272.1648028595687] [64.227523552334858:120.5280166564885] [64.152077016107313:119.70054857483768] [-13686.535162957378:817.1723089034424] [-5236.1947912240803:2369.2411622660434] [1218.4513616059487:9838.9768046766676] [69.173127889801549:312.02196486425163] [71.758141433494984:320.22883717050377] [-803.14971911324756:13216.108494544344] [1232.747012314547:9838.9768046766676] [-5448.2572361154407:2385.1774284756848] [71.665594650927844:320.22027380639844] [69.23033359843582:304.0151023511342] [-488.32040601350241:620.59158500185276] [1139.7030702926108:1868.2984081571176] [1136.4510293396338:1879.2355449792208] [64.674911183254196:243.86328779304776] [64.668917743242133:245.4504976733744] [-721.70774587928713:7556.5219695185806] [960.54878184868119:9054.2629069511768] [994.42836128268198:1813.9542827228245] [63.509706844907534:222.09479699787241] [64.809556438735683:124.5618454580006] [-7660.8003386175678:811.14703038455491] [1007.477576045378:1815.2862341944776] [966.2086302049014:9054.2629069511768] [64.874944961158405:118.75776112632532] [63.591681682821147:222.08841033367057] [-97.718205167769838:77.365999131234503] [1453.7203942196566:1578.2286888778999] [1465.8466949828403:1562.7510857930929] [62.010820289478858:110.69486732914972] [61.976733666672231:117.38757175587222] [-83.52985354761654:108.25940788673211] [1472.7760932012238:1562.7510857930929] [1454.4916779063608:1578.2286888778999] [61.872667958544312:110.79278004354948] [62.112055271880941:117.18151388214731] [-95.045563052342246:94.136750073711482] [1470.5777545837936:1598.5171132220171] [1469.224139223677:1602.7771770892234] [59.765658693513537:91.337520783988396] [59.908381889607185:92.014425374604244] [-95.045563052342246:94.136750073711482] [1470.5777545837936:1598.5171132220171] [1469.224139223677:1602.7771770892234] [59.765658693513537:91.337520783988396] [59.908381889607185:92.014425374604244] [-868.99342995396682:915.08814518724284] [1358.0258412199714:2539.0685868808378] [1343.6294826761884:2536.5505640060078] [66.521676260459188:124.73716707699521] [66.50236916755712:124.98162562380158] [-95.302478182813033:93.164241508442714] [1479.3920374832469:1608.7868113779509] [1478.2835146773905:1608.1793221352636] [62.179611288597307:116.23632317657749] [62.24606513082162:121.94653964850288] [-213.85430186978829:209.45556896217636] [1444.7980321918965:1738.5244400601223] [1445.5753218187613:1738.2654783083451] [62.802274328009759:116.63998266794977] [62.900080584227162:122.14383004995724] [-665.24305246560516:701.93550467471209] [1371.758526731486:2290.716943039497] [1363.328468016128:2280.3332984613371] [65.343873686789578:123.28266810646964] [65.366354483804713:125.21339400715571] [-14383.697676274627:793.40340111355908] [-6523.2752725604569:2400.3253783355754] [1174.6867346523914:9732.1619857146725] [69.796903802279829:338.00699057598018] [72.222428314631557:319.53810114372124] [-834.53302084724601:9672.0063684667766] [1198.3916515154622:9732.1619857146725] [-6244.5135779852244:2396.3215743224391] [72.129197365835253:319.49941684271676] [70.354779741303275:304.70801420946111] [-626.78558475598447:562.36708514552606] [1128.714704336079:1948.7718204313617] [1128.714704336079:1989.1129827111508] [66.139245838025644:292.63732508635508] [67.003737661707675:293.96145230731662] [-734.70221595918304:7462.9967769860086] [954.36058320478105:8921.5536109995483] [1027.3758412417139:1842.2378974114472] [64.600525091851253:237.13683956281679] [66.050241059030157:183.63611411222516] [-7381.2915223304199:765.47609348363449] [824.01640280433173:1821.9486563491755] [957.90908257919318:8921.5536109995483] [65.639554468688388:158.07115389748608] [64.56616543338005:239.1907473201513] [-101.43080344555187:93.645497037711039] [1443.8602317059094:1578.9320616606828] [1453.6458327860785:1578.5771037912789] [62.581576539796096:116.46870467512944] [62.419416953436972:121.98834568327852] [-84.190631049153581:90.593736385868397] [1455.054528367561:1578.5771037912789] [1441.5286806370725:1578.5517096273029] [62.440457666424237:116.01028233114978] [62.578523271162943:121.91916835273965] [-111.75950617058538:104.32653586000949] [1446.6661607364381:1613.1267711090784] [1457.0620458206979:1613.1267711090784] [60.529484325436989:93.726906148753159] [60.809811258572282:95.996865911866436] [-111.75950617058538:104.32653586000949] [1446.6661607364381:1613.1267711090784] [1457.0620458206979:1613.1267711090784] [60.529484325436989:93.726906148753159] [60.809811258572282:95.996865911866436] [0:1] [0:1] [0:1]
tree_sizes=3355 3382 3392 3395 3388 3413 3402 3394 3403 3408

Tree=0
num_leaves=31
num_cat=0
split_feature=42 76 56 71 11 73 117 3 74 35 104 39 91 107 21 37 15 86 23 121 82 117 21 51 18 57 46 95 35 42
split_gain=40.1488 24.844 28.1249 16.8837 13.2693 12.0713 11.6926 11.5683 14.3271 15.76 11.4487 23.0344 11.4329 11.3534 14.512 14.4478 12.1153 10.6561 10.8946 10.1131 9.78551 9.59249 9.72182 12.7084 9.51847 9.4316 11.7959 9.41517 9.78508 11.9271
threshold=1757.1690839094397 -38.117401396350481 23.808143263463993 34.179127367559779 23.301669144546512 1502.3623789481305 1531.9829315117947 1.5000000000000002 72.690854411079428 82.311892614578412 74.061966834861593 70.001554053472816 -192.82779691307084 1657.8626354381158 99.942089851496362 1558.5026120480304 64.508395264674434 27.624690803492516 1653.4419521415095 35.040635075035659 1496.0364004847199 1530.8200006141317 4.4435071316742105 5.2002394520126254 1596.627267064049 1536.4504750453032 21.487245548752075 84.15180772949752 76.539806176956361 1543.0953526593828
decision_type=2 2 2 2 2 2 2 2 2 2 2 2 2 2 2 2 2 2 2 2 2 2 2 2 2 2 2 2 2 2
left_child=1 6 3 20 -2 -5 24 -7 17 25 -4 12 -12 14 15 -13 -17 -9 -19 -15 -3 -22 23 -23 -1 -10 -27 28 29 -20
right_child=4 2 10 5 -6 7 -8 8 9 -11 11 13 -14 19 -16 16 -18 18 27 -21 21 22 -24 -25 -26 26 -28 -29 -30 -31
leaf_value=-0.14539635466622214 -0.13306460969272768 -0.11129375128273128 -0.22108467345281499 -0.21310005255991726 -0.17308461224821917 -0.21349499079763049 -0.12957061528357092 -0.099357840098509467 -0.08145397332217677 -0.15093730764417743 -0.12381580096260683 -0.21670601038251625 -0.1860553688904249 -0.19023037321326791 -0.22108467345281499 -0.19621014069175607 -0.12841493535845927 -0.14162270593116372 -0.11949969022188379 -0.11572309332375108 -0.17517751877721127 -0.16296368259337568 -0.19192464066550624 -0.10455573690454155 -0.21640102887513224 -0.15807645401749895 -0.079910536531113602 -0.18758096643075525 -0.10074693321046632 -0.22546333652311373
leaf_weight=5.2130267322063437 97.309832334518433 6.7024629414081565 22.838021874427795 8.4401385188102704 26.313373029232025 7.4471810460090628 4.9647873640060416 6.2059842050075522 15.639080196619032 73.478852987289429 20.852106928825378 17.128516405820847 11.419010937213896 10.674292832612993 45.676043748855591 11.667250305414202 15.142601460218428 30.285202920436859 4.9647873640060443 7.9436597824096671 347.53511548042297 23.582739979028702 11.667250305414198 15.39084082841873 49.896113008260727 14.646122723817827 7.1989416778087607 54.860900372266769 7.1989416778087607 5.7095054686069489
leaf_count=21 392 27 92 34 106 30 20 25 63 296 84 69 46 43 184 47 61 122 20 32 1400 95 47 62 201 59 29 221 29 23
internal_value=-0.168235 -0.172047 -0.16973 -0.16501 -0.141583 -0.154383 -0.203063 -0.152205 -0.150133 -0.137479 -0.188251 -0.182914 -0.145839 -0.193969 -0.20135 -0.180836 -0.157918 -0.162988 -0.166821 -0.158441 -0.171207 -0.172215 -0.151885 -0.139898 -0.209684 -0.111096 -0.132317 -0.177313 -0.145796 -0.176178
internal_weight=0 864.369 804.296 640.954 123.623 236.076 60.0739 227.636 220.188 110.963 163.342 140.503 32.2711 108.232 89.6144 43.9384 26.8099 109.225 103.019 18.618 404.878 398.176 50.6408 38.9736 55.1091 37.4841 21.8451 72.7341 17.8732 10.6743
internal_count=3980 3482 3240 2582 498 951 242 917 887 447 658 566 130 436 361 177 108 440 415 75 1631 1604 204 157 222 151 88 293 72 43
is_linear=0
shrinkage=1


Tree=1
num_leaves=31
num_cat=0
split_feature=42 76 56 71 11 115 117 75 104 39 32 93 3 114 88 95 91 100 35 122 122 44 61 110 99 26 11 113 115 135
split_gain=36.1745 22.5138 25.4412 15.2208 11.9225 11.7653 10.5922 10.5103 10.4192 20.8321 11.624 10.6599 10.3233 12.5129 10.9661 13.567 10.2802 9.8419 10.0888 12.4034 14.0423 9.70022 10.8423 9.62527 9.22937 11.6663 9.13795 8.81513 12.0514 10.5139
threshold=1757.1690839094397 -38.117401396350481 23.808143263463993 34.179127367559779 23.301669144546512 209.5327061754621 1531.9829315117947 108.81603916791404 74.061966834861593 70.001554053472816 1876.2209664426725 1956.2340873378591 1.5000000000000002 71.570254882108955 1635.364353877874 124.07436286251622 -192.82779691307084 131.50688321448644 83.163243803670198 1532.0836569676105 1521.9255363587019 70.644280032055931 3.7451333638903184 96.713701135114874 93.586212820487461 -634.22009934735399 22.88722848520138 1437.215398934268 68.496038809974593 61.705521938696442
decision_type=2 2 2 2 2 2 2 2 2 2 2 2 2 2 2 2 2 2 2 2 2 2 2 2 2 2 2 2 2 2
left_child=1 6 3 27 -2 7 -1 12 -4 16 11 -11 -5 -14 15 21 26 18 -16 20 -20 22 -15 -6 25 -12 -10 -3 29 -29
right_child=4 2 8 5 23 -7 -8 -9 9 10 24 -13 13 14 17 -17 -18 -19 19 -21 -22 -23 -24 -25 -26 -27 -28 28 -30 -31
leaf_value=-0.03954016466077339 0.033321105053753089 -0.016446637691699982 -0.050471895021767015 -0.043187353772762699 -0.020088446297517212 0.087318702085610753 0.03662276838996071 -0.023062587665261741 -6.7363593365196575e-05 -0.02967654122078205 0.064087820719227737 0.057511552034468776 0.00051039814292605176 -0.016218588326939325 0.045247013284250508 -0.072674312694114493 -0.016956836778212418 0.067341795844326896 -0.010295349125691763 -0.050918354519175507 0.06449121701099747 -0.020112706877541658 0.057721194585716964 0.054493331989693285 -0.03664452504064767 -0.038249818984369542 0.067981236391358876 0.037643669383545214 0.0063544638825797518 -0.024403379467390098
leaf_weight=54.888617411255836 97.567472577095032 91.820452287793159 22.7212233543396 7.4151822924613944 20.843501508235935 5.2280643284320822 4.9790728092193595 20.117793008685112 7.969417572021487 6.4440721571445447 5.4533493518829346 7.6883770674467087 74.222807988524437 7.2024746388196972 36.587628424167633 4.9693407714366904 11.401048630475996 19.636999696493149 13.916924566030504 7.2027211636304846 11.43315716087818 12.417526185512541 15.909861907362936 5.4590122997760764 82.666087090969086 5.6911552399396879 12.95030355453491 7.6951676309108725 244.68586766719818 60.549382835626602
leaf_count=222 392 370 92 30 84 21 20 81 32 26 22 31 299 29 147 20 46 79 56 29 46 50 64 22 334 23 52 31 986 244
internal_value=0 -0.00362555 -0.00142292 0.00306198 0.025267 0.0131465 -0.0332058 0.011468 -0.0190618 -0.0139737 -0.0245177 0.0177558 0.0147617 0.0168732 0.0262678 0.00470698 0.0212407 0.0361035 0.0272314 0.00698274 0.0234342 0.0155298 0.0346794 -0.00460921 -0.0308862 0.0118271 0.042058 -0.00282452 0.0011725 -0.017407
internal_weight=0 863.864 803.996 641.011 123.87 236.26 59.8677 231.032 162.985 140.264 107.943 14.1324 210.915 203.499 129.277 40.4992 32.3208 88.7774 69.1404 32.5528 25.3501 35.5299 23.1123 26.3025 93.8106 11.1445 20.9197 404.751 312.93 68.2446
internal_count=3980 3482 3240 2582 498 951 242 930 658 566 436 57 849 819 520 163 130 357 278 131 102 143 93 106 379 45 84 1631 1261 275
is_linear=0
shrinkage=0.05


Tree=2
num_leaves=31
num_cat=0
split_feature=107 30 11 76 80 18 50 126 56 41 57 55 72 123 83 72 77 25 4 84 118 94 28 7 31 56 36 103 31 45
split_gain=28.8255 22.5722 18.6809 14.5911 14.0652 16.0222 13.9992 13.6516 13.1288 12.2308 11.4362 11.2993 10.3191 10.7074 14.2347 10.8482 12.4476 10.2523 10.12 9.92458 12.1208 11.2682 9.89242 9.51997 9.47977 13.0553 9.44121 9.207 15.0802 9.17222
threshold=1688.8974079527181 91.966912244507043 48.003137895335961 -36.322429471961406 68.809200799541301 1520.991723392028 78.974701387805851 12.166514875021678 26.633405305611522 12.248839848241348 1518.3450875429387 62.925277673353634 1798.6146941199811 1511.4506394084713 1568.3237458223339 1755.6195897423465 1512.574359918377 65.514644390105033 26.500000000000004 65.750714096487215 1513.1012565941735 83.688981586262742 1823.7233934812691 1724.5361170988162 783.99644701435329 18.911823498404832 -148.34821637985212 1536.3385966259991 1254.6631473671202 68.345700603673492
decision_type=2 2 2 2 2 2 2 2 2 2 2 2 2 2 2 2 2 2 2 2 2 2 2 2 2 2 2 2 2 2
left_child=1 2 4 18 12 -6 17 9 -5 -2 -10 -9 13 -1 23 16 -16 -7 -3 20 -14 -21 -18 -15 -23 -26 -19 28 -28 -20
right_child=7 3 -4 8 5 6 -8 11 10 -11 -12 -13 19 14 15 -17 22 26 29 21 -22 24 -24 -25 25 -27 27 -29 -30 -31
leaf_value=-0.035331894840007295 -0.026467492029543033 -0.072649812538726141 -0.055169797596718889 -0.0037522593178994142 -0.041751719369434538 0.075870090421453443 0.057192639889773536 0.06405771303606482 0.0023920765052246377 0.02917401566218731 -0.040288912684896927 -0.0077822430709970948 -0.025078866534875885 -0.0051973293172553258 -0.047392292300415501 -0.051657934090135305 -0.027269597414778884 0.055420691010578553 -0.067416376076548643 0.069150350478971764 0.028760044257025909 -0.0072803762649358075 0.024617006293683658 0.062537801110740199 0.099699078949393102 -0.01017548841677357 0.044173297872439114 -0.0020509149615167816 -0.029822248298296827 -0.0095638350723870804
leaf_weight=35.450108096003532 10.667301684617994 15.023254826664923 13.060555934906004 241.3865522891283 11.135570347309111 6.4691061079502097 22.13983154296875 5.9760980159044257 22.289245143532753 133.19564172625542 53.0478904992342 65.073126435279846 29.76113885641098 9.1840622723102587 12.619680553674696 14.883941128849981 13.145299091935156 11.167650714516638 9.1150672137737256 11.682701110839842 16.114281430840492 21.610416024923325 30.499820530414581 11.920164763927458 5.9643902927637082 4.9449867606163025 30.295507103204727 82.896872729063034 8.910701781511305 27.585891082882881
leaf_count=143 43 61 53 973 45 26 89 24 90 535 215 262 120 37 51 60 53 45 37 47 65 87 123 48 24 20 122 334 36 112
internal_value=0 -0.00451106 0.00365359 -0.0134603 0.00561949 0.0162618 0.0202525 0.0161923 -0.00943936 0.0250483 -0.0276613 -0.00173963 -0.00283525 -0.0119762 -0.00300124 -0.0136981 -0.00365643 0.0143998 -0.0380821 0.0101238 -0.00616732 0.0270314 0.00898949 0.0330611 0.0119003 0.0498953 0.011416 0.0073913 0.0273558 -0.0239321
internal_weight=0 772.305 403.857 368.448 390.796 173.015 161.88 214.912 316.724 143.863 75.3371 71.0492 217.781 127.703 92.253 71.1487 56.2648 139.74 51.7242 90.0779 45.8754 44.2025 43.6451 21.1042 32.5198 10.9094 133.271 122.103 39.2062 36.701
internal_count=3980 3116 1628 1488 1575 697 652 864 1278 578 305 286 878 515 372 287 227 563 210 363 185 178 176 85 131 44 537 492 158 149
is_linear=0
shrinkage=0.05


Tree=3
num_leaves=31
num_cat=0
split_feature=42 66 56 71 117 13 44 21 52 100 94 3 35 23 25 81 80 53 37 37 104 123 105 111 100 83 82 108 118 108
split_gain=29.9411 18.8833 20.1606 14.1151 13.5136 16.3419 11.5313 11.4477 10.8671 10.5215 13.0083 11.7777 14.5613 16.7354 11.2912 10.1441 10.3834 9.76302 9.71718 9.63919 11.5044 9.60887 9.36703 9.27531 9.93477 9.02987 9.15869 9.19917 16.7648 11.7083
threshold=1757.1690839094397 -47.194433291462694 23.808143263463993 34.179127367559779 1530.8200006141317 1561.0564485460682 65.969421049939143 4.4435071316742105 1532.8184004320158 170.67868853407077 76.351753059885297 1.5000000000000002 82.678066308347255 1708.870680256606 66.022084858162557 45.236100183912534 77.508250029000934 1512.3743841853759 1802.2368185204907 1558.5026120480304 74.319739954259191 1513.04139800496 81.257051116392446 186.96577749491169 137.94080567679208 1628.2627196090541 1496.0364004847199 1559.5076536224365 1488.1504816223817 1570.1611048869006
decision_type=2 2 2 2 2 2 2 2 2 2 2 2 2 2 2 2 2 2 2 2 2 2 2 2 2 2 2 2 2 2
left_child=1 6 3 4 5 25 -1 -6 -2 10 14 -12 -13 -14 -5 16 -10 -11 19 -4 -21 -18 -8 24 -15 26 -3 28 -28 -29
right_child=8 2 18 9 7 -7 22 -9 15 17 11 12 13 23 -16 -17 21 -19 -20 20 -22 -23 -24 -25 -26 -27 27 29 -30 -31
leaf_value=0.024658876963604484 -0.035464180623135493 0.043027512699971099 -0.044312460525864135 0.028552758283819799 0.033775597610001394 -0.040869018409085439 -0.068343269181652108 -0.022634184922814993 0.026925325466953167 -0.0307417512890194 -0.040733015200952606 0.043032923166270276 0.025462836074051864 -0.046121554442699782 -0.051321511454070039 -0.00078417025281239921 0.023975635459472164 0.02055662761979038 -0.063710928260189634 -0.043296810315089904 -0.0023130042984559496 0.10429846287822878 -0.021528725799542348 0.044880249193705785 0.025966387987909331 0.062147716700328863 0.071728347435255177 0.045395269101577262 -0.017402410108514618 -0.001573934985034625
leaf_weight=7.4031229615211478 7.4816073626279822 9.9282028377056104 22.382265284657478 6.9568161666393307 39.555039539933205 31.562792330980301 19.65582300722599 11.64073224365711 75.121302857995033 24.531540259718895 7.3658921122550955 62.544324889779091 75.855258986353874 20.592592522501953 12.155080229043959 26.073455020785332 6.2396659404039374 14.913766324520109 10.523014530539511 20.324035957455635 108.7153548002243 9.2327619045972806 23.412390246987343 4.98518382012844 6.2239164710044852 5.2008496075868598 5.4655117690563193 14.614231228828428 151.94872395694256 144.038529753685
leaf_count=30 30 40 91 28 159 128 80 47 301 99 30 251 305 83 49 105 25 60 43 83 440 37 95 20 25 21 22 59 613 581
internal_value=0 -0.0033105 -0.00146604 0.00246618 -0.00309828 -0.0064921 -0.0329856 0.0209493 0.0229519 0.0122214 0.016948 0.0211667 0.0238455 0.0126985 -0.0222469 0.026698 0.0346076 -0.0113465 -0.0172508 -0.014022 -0.00876806 0.0719062 -0.0428943 -0.0177479 -0.0293905 -0.003216 -0.00425879 -0.00574414 -0.0143077 0.00275261
internal_weight=0 862.495 812.024 650.079 413.955 362.759 50.4713 51.1958 124.149 236.124 196.679 177.567 170.201 107.657 19.1119 116.667 90.5937 39.4453 161.945 151.422 129.039 15.4724 43.0682 31.8017 26.8165 331.196 325.995 316.067 157.414 158.653
internal_count=3980 3482 3277 2620 1670 1464 205 206 498 950 791 714 684 433 77 468 363 159 657 614 523 62 175 128 108 1336 1315 1275 635 640
is_linear=0
shrinkage=0.05


Tree=4
num_leaves=31
num_cat=0
split_feature=42 61 121 115 11 34 98 19 91 115 6 130 50 71 44 52 21 81 118 127 81 65 41 14 100 64 19 53 10 7
split_gain=27.0146 17.1379 18.4811 13.529 12.1388 11.0117 10.6094 17.9889 12.3471 11.7062 13.225 12.9639 13.0089 11.8862 10.4819 9.80601 9.49858 10.2703 9.29013 11.7138 9.13893 8.90815 13.5474 11.3359 9.84053 9.03136 9.46668 8.78644 8.67246 8.66091
threshold=1757.1690839094397 -47.194433291462694 44.581216023835971 217.33310696903024 -48.377199533510058 91.869126887809287 758.2563945567282 63.262063166198729 -1505.2794052985384 68.955516554743994 243.60615994089494 61.705521938696442 66.445429946103488 9.4183197850027245 65.969421049939143 1532.8184004320158 7.7780512249197509 10.431492520849021 1488.1504816223817 1538.4720866210093 45.236100183912534 61.851308976559331 254.35374837388557 63.21869679366683 78.782903983838565 60.784719581970656 63.169702925413247 1505.9957032492637 67.796712350998888 1861.0091297431293
decision_type=2 2 2 2 2 2 2 2 2 2 2 2 2 2 2 2 2 2 2 2 2 2 2 2 2 2 2 2 2 2
left_child=1 14 3 4 -3 -4 7 -6 -9 10 11 12 -8 -13 -1 -2 -15 -18 19 -11 21 22 -17 -24 -25 -23 -27 -10 -19 -26
right_child=15 2 5 -5 6 -7 9 8 27 18 -12 13 -14 16 -16 20 17 28 -20 -21 -22 25 23 24 29 26 -28 -29 -30 -31
leaf_value=0.023364436697575808 -0.033758417029726442 -0.065444672030031542 0.031442069204242355 0.070920616112153764 0.051656868285801454 -0.043260315755962356 0.068910245808713008 0.026830789081044689 -0.066008103652039088 0.065522227021039256 -0.058472723449304626 -0.023269116769533388 -0.026493266248895059 0.072839239887424898 -0.040999157100591016 0.080368216740936901 -0.062797222300739905 0.048054847287178779 0.0043992004815661253 -0.01869623542502975 -0.00074500926702965244 -0.010764586759060682 0.032045093950522713 -0.079434826381709733 0.051921588908201033 0.10233966209542603 0.043719727233072478 -0.022313937906534315 -0.025208823180899176 -0.032515745845429087
leaf_weight=7.4220979660749427 7.4670230448245993 7.0708974450826636 5.6879456341266623 6.7388169616460791 8.6734957545995695 37.176696091890335 10.436322122812269 10.143620446324347 15.016407355666159 13.433775618672373 13.242721170186995 70.975841924548149 5.4334343820810309 5.7104108184576061 42.814624801278114 6.9963582307100287 4.9654049128294018 10.187847226858141 524.6058679074049 5.9607974141836158 26.071859404444695 5.7452622652053824 18.484747171401978 5.4965219199657467 4.9974123388528806 8.7409187108278257 32.477015346288681 49.210087865591049 6.692893534898757 7.7413385361433029
leaf_count=30 30 29 23 27 35 152 42 41 61 54 54 287 22 23 175 28 20 41 2116 24 105 23 74 22 20 35 130 199 27 31
internal_value=0 -0.00315036 -0.00139568 0.000386512 -0.00023746 -0.0333476 0.000373485 -0.0164861 -0.0244334 0.00245804 -0.0111691 -0.00569344 0.0362463 -0.0124483 -0.0314899 0.0217911 0.0154222 0.000413887 0.00565553 0.0396382 0.0253439 0.0328448 0.0166019 0.0044523 -0.023518 0.0479649 0.056151 -0.0325298 0.0190072 0.000609023
internal_weight=0 861.6 811.363 768.499 761.76 42.8646 754.689 83.0436 74.3701 671.645 127.645 114.402 15.8698 98.5324 50.2367 124.218 27.5566 21.8461 544 19.3946 116.751 90.6796 43.7164 36.72 18.2353 46.9632 41.2179 64.2265 16.8807 12.7388
internal_count=3980 3482 3277 3102 3075 175 3046 336 301 2710 516 462 64 398 205 498 111 88 2194 78 468 363 175 147 73 188 165 260 68 51
is_linear=0
shrinkage=0.05


Tree=5
num_leaves=31
num_cat=0
split_feature=42 76 121 115 34 88 85 39 22 4 12 118 41 92 42 129 3 65 16 118 115 4 41 9 91 117 76 97 2 72
split_gain=24.3905 15.9108 16.9776 12.15 10.0079 9.81723 10.8791 10.5465 11.8836 9.82078 9.71338 9.86092 11.2451 10.3221 10.1327 9.49927 9.1899 9.18287 9.14257 9.48418 9.1114 9.62314 8.95621 8.87007 8.86295 8.65612 8.65042 11.539 10.2615 8.76989
threshold=1757.1690839094397 -38.117401396350481 44.581216023835971 217.33310696903024 91.869126887809287 1550.8618570249955 67.27751465125489 69.652490132189982 1828.4468740842074 29.500000000000004 1549.5431441808798 1489.3774725030951 -100.08336609481317 1410.7042179957032 1629.9374179828712 64.244348470343709 115.50000000000001 60.926129424572892 41.791158520511893 1513.9329038736817 77.22426112768953 27.500000000000004 187.96292117195495 66.713519324583956 -259.41835375517559 1531.9829315117947 29.1832480528841 3796.5093465808013 26.500000000000004 2044.4344337018447
decision_type=2 2 2 2 2 2 2 2 2 2 2 2 2 2 2 2 2 2 2 2 2 2 2 2 2 2 2 2 2 2
left_child=1 25 3 5 -4 22 16 9 10 -8 11 -9 23 20 15 -15 17 -7 -2 -20 -14 -22 -3 -13 -16 -1 27 28 -19 -30
right_child=18 2 4 -5 -6 6 7 8 -10 -11 -12 12 13 14 24 -17 -18 26 19 -21 21 -23 -24 -25 -26 -27 -28 -29 29 -31
leaf_value=-0.033914657983019292 0.028201950468038407 -0.042337021253232812 0.029787607765332749 0.067439213236157966 -0.041376782253361777 0.020045271048647579 0.036495904181585555 0.051964722628056584 -0.023465125211351454 -0.0061282432895464287 0.075160951868978254 -0.038992298255405157 0.00090506744115271111 -0.0087732281645368816 0.0039172627172634582 0.034130648516795009 -0.040233753559215005 0.0049960658291426235 0.010675966077525835 -0.060051785664907459 -0.045410411226215613 -0.0017463877770957589 0.029055747121114396 0.017167748045931488 -0.061691750907828427 0.034976579661192601 -0.041044538436014688 0.040635998555951063 -0.014302064039958155 -0.075493699420192031
leaf_weight=53.891815692186356 95.139597550034523 23.138195738196377 5.703256130218505 6.7324525117874137 36.931843832135201 34.465320855379105 47.698441460728645 10.717110320925711 38.577200546860695 18.855878412723541 4.9805546104907981 7.440515309572219 44.903754696249962 19.592112824320793 13.895901188254358 37.778621464967728 18.779693081974983 89.161358118057251 23.08540561795235 5.9643818736076346 34.656986549496651 19.843535035848618 5.4224343597888938 127.72002044320107 8.1761078685522062 4.9811373502016059 17.854449883103371 13.107706874608992 109.60613937675953 6.1857601255178443
leaf_count=222 381 94 23 27 152 139 192 43 156 76 20 30 181 79 56 152 76 360 93 24 140 80 22 515 33 20 73 53 443 25
internal_value=0 -0.00299744 -0.00115558 0.000568351 -0.0318572 -2.98817e-05 0.00110437 0.00610247 0.00279225 0.0244198 0.00586449 0.00480164 0.00319196 -0.00503359 0.00840301 0.019479 -0.00641173 -0.00406257 0.0207055 -0.00384556 -0.015772 -0.0295124 -0.0287826 0.0140762 -0.0203862 -0.0280859 -0.00758453 -0.00484488 -0.00775359 -0.017571
internal_weight=0 860.798 801.925 759.29 42.6351 752.558 723.997 434.837 368.282 66.5543 329.705 324.725 314.008 178.847 79.4427 57.3707 289.16 270.381 124.189 29.0498 99.4043 54.5005 28.5606 135.161 22.072 58.873 235.915 218.061 204.953 115.792
internal_count=3980 3482 3240 3065 175 3038 2922 1753 1485 268 1329 1309 1266 721 320 231 1169 1093 498 117 401 220 116 545 89 242 954 881 828 468
is_linear=0
shrinkage=0.05


Tree=6
num_leaves=31
num_cat=0
split_feature=42 30 121 80 123 123 81 12 6 103 52 72 104 102 57 102 121 52 45 32 90 88 130 45 49 10 80 123 16 110
split_gain=22.0185 15.0409 15.0632 15.4498 11.6654 11.2046 9.61462 9.11217 9.10593 12.7744 11.4153 10.7238 10.0281 12.0878 9.01458 8.94196 12.0074 8.88074 8.86604 16.3882 9.0939 9.07518 9.58423 8.5108 8.39282 8.24192 8.23128 12.0434 10.4777 9.5592
threshold=1757.1690839094397 91.966912244507043 27.930198662019055 68.809200799541301 1514.3888128894296 1515.3576581965924 -62.937404246627345 1516.9501745780924 -135.11875406779663 1632.5597660820836 1534.1004708763155 1657.053566934904 85.033439246813572 1784.233364131082 1511.438338219639 1705.7753592599595 4.8065674224208133 1532.8184004320158 69.547473147850624 1796.0809106247746 69.349744737016707 1745.6560755226417 62.788337330034054 69.334151001044248 69.248931648635576 69.839692181722782 77.508250029000934 1512.2891961575476 52.768456371888767 82.589264469385768
decision_type=2 2 2 2 2 2 2 2 2 2 2 2 2 2 2 2 2 2 2 2 2 2 2 2 2 2 2 2 2 2
left_child=1 2 3 4 -1 -6 -3 23 9 24 14 -10 15 -14 -11 -13 -17 -2 20 -20 21 22 -9 -7 -8 -21 28 -28 29 -19
right_child=17 6 -4 -5 5 7 8 18 11 10 -12 12 13 -15 -16 16 -18 26 19 25 -22 -23 -24 -25 -26 -27 27 -29 -30 -31
leaf_value=-0.020690230095528596 -0.033218925768504041 -0.025591189190771798 -0.021951072215978803 0.018008228116225804 0.069595975920802217 -0.048798262410810062 -0.0015800506031354994 0.065853160236356553 -0.043339124825665154 0.011143556288076749 0.050421555153209091 -0.03812303036953122 0.0048457414912712196 -0.042776080074292594 -0.035489270175434594 0.046207156196353495 -0.018954362321464923 0.027868715912177572 0.057953637412152287 -0.04482004331955225 0.037374212202837945 -0.0062692557253379057 -0.00081232132750739909 0.023184739261384701 0.06274234749596129 0.026326628772027957 0.020157305997829503 0.091101919581116728 -0.026653916032686461 -0.036569650308216149
leaf_weight=60.287570014595985 7.46026886999607 77.899822890758514 51.637860655784607 172.67965279519558 6.4514003843069068 14.762429371476175 7.6953309178352383 10.672220706939699 22.626346945762634 18.552424967288971 7.9523843973875037 40.486735954880714 138.71132692694664 14.74137009680271 23.478461802005768 8.9372601062059385 33.834808140993118 73.175178349018097 6.2180315405130377 22.48743994534016 30.057892993092537 53.251047864556313 10.895363017916678 5.6886419355869284 14.872723817825316 4.9703176766633979 14.957448318600656 9.9690890163183195 12.379549652338026 6.2466726303100577
leaf_count=244 30 320 211 695 26 60 31 43 92 75 32 164 561 60 95 36 138 293 25 91 121 215 44 23 60 20 60 40 50 25
internal_value=0 -0.00285263 0.00345754 0.00675065 -0.00186074 0.00500025 -0.00978292 0.00237935 -0.00607246 0.00958589 -0.00451195 -0.010453 -0.00730952 0.000270971 -0.0149055 -0.021281 -0.00533881 0.01967 0.00697798 -0.0153427 0.0141452 0.00481303 0.0321756 -0.0287756 0.0408095 -0.0319413 0.0230502 0.0485308 0.0161315 0.0228005
internal_weight=0 859.849 450.06 398.422 225.742 165.455 409.789 159.003 331.889 72.5513 49.9833 259.338 236.712 153.453 42.0309 83.2588 42.7721 124.188 138.552 33.6758 104.877 74.8186 21.5676 20.4511 22.5681 27.4578 116.728 24.9265 91.8014 79.4219
internal_count=3980 3482 1818 1607 912 668 1664 642 1344 293 202 1051 959 621 170 338 174 498 559 136 423 302 87 83 91 111 468 100 368 318
is_linear=0
shrinkage=0.05


Tree=7
num_leaves=31
num_cat=0
split_feature=117 133 81 121 71 75 34 31 61 129 111 58 56 129 126 61 24 42 44 72 57 119 31 41 26 78 81 28 44 111
split_gain=21.5087 21.0363 17.553 13.2803 11.3307 14.8707 12.0604 12.5469 13.1941 11.121 11.13 10.8833 9.131 11.1436 9.55485 9.12004 9.02674 9.38143 8.99741 8.58535 8.53002 8.45545 8.27084 15.2689 17.5278 12.4885 14.3062 10.9749 10.8237 10.3959
threshold=1531.9829315117947 1556.2359780035213 56.454706574452651 28.899852801028832 75.382814325030054 108.81603916791404 84.212980236843279 1370.433053935137 -8.7165797516664707 63.027351948916497 -385.53120978757573 1528.7396761233565 27.371591472301365 63.550605408785309 23.989836252516401 13.730135213055975 65.346764045190426 1626.5078097451753 83.391379762842021 1841.5585223429375 1535.5622586138265 66.990831628986243 598.52567894716742 -86.315051184477497 -298.44281814774268 1532.7365718418498 -52.083370595966919 2645.6773253786205 75.439409042786949 165.58629937205242
decision_type=2 2 2 2 2 2 2 2 2 2 2 2 2 2 2 2 2 2 2 2 2 2 2 2 2 2 2 2 2 2
left_child=1 3 9 4 20 6 -6 8 -8 19 -11 -9 13 -4 -14 -7 -3 -18 -16 -2 22 -12 25 29 -25 26 -1 28 -27 -24
right_child=2 16 12 -5 5 15 7 11 -10 10 21 -13 14 -15 18 -17 17 -19 -20 -21 -22 -23 23 24 -26 27 -28 -29 -30 -31
leaf_value=0.089155992173690732 -0.038131185102098356 0.032854345708547547 -0.020041717103289752 -0.02083588477670564 0.053356132146728644 0.0080171959456199673 -0.030777960863807071 -0.044003179975656954 0.033424679086551556 0.072964210321033882 0.056650178943987044 0.037362156479477 0.033280339488844929 0.029442677509180722 -0.050654979697826424 -0.067314577303844825 -0.026534626256166257 -0.08197574161553968 0.013908809630680589 0.009914143213441081 0.042922417497603081 0.017723216324927186 -0.0099949357530924807 -0.047627063159277547 0.021741988697896304 -0.0035291209671215414 0.010558105117612135 0.0463687628784617 -0.035653705194594106 0.03717633180512913
leaf_weight=6.2214325815439215 10.669028192758558 5.6673535555601111 21.209368124604225 78.129970505833626 23.0997274518013 7.919376969337466 9.434450685977934 14.813348367810251 52.715951412916183 11.954071044921873 15.915499538183211 5.6878303289413443 5.6679822504520407 24.541447475552559 25.652512803673744 8.154979467391966 71.632877737283707 8.5400470495223981 6.8335566073656073 72.362714067101479 9.9128056615591031 112.96286006271839 44.367456644773483 45.405079931020737 11.390584647655485 131.05926704406738 83.396773189306259 9.1304667890071851 32.778430953621864 15.853743970394133
leaf_count=25 43 23 86 320 93 32 38 60 212 48 64 23 23 99 106 33 295 35 28 291 40 454 179 184 46 530 336 37 133 64
internal_value=0 -0.00500398 0.010944 -0.00163641 0.00129716 0.0146059 0.0214165 0.01249 0.0236787 0.0182543 0.0268113 -0.0214292 -0.00856035 0.00650248 -0.0266223 -0.0302008 -0.0281293 -0.0324402 -0.0370738 0.00374064 -0.0028653 0.0225304 -0.00406098 -0.0151168 -0.0337148 0.000865855 0.0160145 -0.00698295 -0.00995617 0.0024233
internal_weight=0 675.312 307.769 589.472 511.342 121.826 105.751 82.6516 62.1504 223.864 140.832 20.5012 83.9049 45.7508 38.1541 16.0744 85.8403 80.1729 32.4861 83.0317 389.516 128.878 379.603 117.017 56.7957 262.586 89.6182 172.968 163.838 60.2212
internal_count=3980 2738 1242 2385 2065 491 426 333 250 900 566 83 342 185 157 65 353 330 134 334 1574 518 1534 473 230 1061 361 700 663 243
is_linear=0
shrinkage=0.05


Tree=8
num_leaves=31
num_cat=0
split_feature=117 128 11 114 31 113 99 36 82 57 45 98 10 123 48 23 108 65 114 115 20 15 45 107 45 129 74 43 115 36
split_gain=19.4308 19.0991 15.9047 13.7529 12.9737 12.2092 12.3111 10.0175 9.88193 12.7867 13.377 11.4421 9.91672 9.45994 9.18403 8.6408 9.00868 9.27501 8.63201 8.84632 9.80618 11.9388 11.8241 14.0453 13.172 12.2341 11.6516 12.4609 11.5326 11.1911
threshold=1531.9829315117947 1556.2359780035213 27.494409492680123 77.684751223995207 -294.06365995419077 1408.7884041604418 99.473822024177323 165.41781853756234 1496.0364004847199 1498.0031174988455 67.964303336390813 1276.0254550231541 68.999060882276495 1512.1639089383095 1347.5777112059261 1583.4110352736959 1579.67369482001 61.307199784798456 118.22490643265569 68.496038809974593 69.679043030450401 66.118396643862425 69.480828842634267 1520.2997358973266 69.263608771043167 77.630491565604174 79.413737597665218 1535.03500829619 71.154340637823495 -13.765193892420937
decision_type=2 2 2 2 2 2 2 2 2 2 2 2 2 2 2 2 2 2 2 2 2 2 2 2 2 2 2 2 2 2
left_child=1 5 3 4 -2 6 -1 -6 -7 10 -10 -12 -13 14 -5 -4 -17 -18 19 -11 21 22 24 28 25 26 -21 -28 -24 -22
right_child=2 -3 15 13 7 8 -8 -9 9 18 11 12 -14 -15 -16 16 17 -19 -20 20 29 -23 23 -25 -26 -27 27 -29 -30 -31
leaf_value=0.0024457562860956679 0.063261663889798259 -0.026855132392569703 0.036100638720711717 0.058104870057133731 0.0018435993599716744 0.057798613326718887 -0.028097010919717814 0.058671070542805563 -0.071583655500045029 -0.012373330957800674 -0.048971796561522909 0.061918862391310163 -0.019165559195125338 0.046199815786212461 -0.017523006289597132 -0.028272588227557866 0.068730839719158762 -0.006705220636214035 -0.061741937087313993 0.016559556613910727 0.016014582353226774 0.034722803990890359 -0.059867925057960986 0.020805533004660912 0.068567556982257291 0.065914716277774191 -0.04146797172227322 0.009660081905382787 -0.0081106600961387831 -0.032203766019249985
leaf_weight=58.405096039175987 10.223698779940603 85.433983966708183 9.3493087440729123 5.7308419495821026 138.99786810576916 7.8967660814523688 75.827830940485001 8.2132159918546659 11.524859413504599 63.9969362616539 9.6160406321287173 7.4394537359476072 7.6465776711702347 52.47598797082901 13.402088597416876 45.157966613769531 5.2004999965429333 18.822741895914078 4.9499927759170523 104.95799043774605 20.273986712098122 46.135411858558655 16.290354833006859 24.57465223968029 10.433151319622992 9.4211970716714841 21.500301629304886 26.736336961388588 31.719040378928185 29.605159983038902
leaf_count=237 41 353 38 23 559 32 310 33 47 260 39 30 31 211 54 185 21 77 20 423 82 186 66 99 42 38 87 108 128 120
internal_value=0 -0.00476253 0.0104022 0.0170598 0.00879668 -0.00155775 -0.0148078 0.00501412 0.00235365 0.00137376 -0.0271018 -0.00634859 0.02082 0.0352264 0.00512963 -0.00901551 -0.0151126 0.00962502 0.00388618 0.00468702 0.00788274 0.0113852 0.00700186 -0.00993666 0.0141066 0.0106125 0.00721147 -0.013129 -0.0256727 -0.0126048
internal_weight=0 674.385 307.574 229.044 157.435 588.951 134.233 147.211 454.718 446.821 36.2269 24.7021 15.086 71.6089 19.1329 78.5305 69.1812 24.0232 410.595 405.645 341.648 291.768 245.633 72.584 173.049 162.616 153.195 48.2366 48.0094 49.8791
internal_count=3980 2738 1242 921 633 2385 547 592 1838 1806 147 100 61 288 77 321 283 98 1659 1639 1379 1177 991 293 698 656 618 195 194 202
is_linear=0
shrinkage=0.05


Tree=9
num_leaves=31
num_cat=0
split_feature=117 128 56 48 114 31 58 9 42 34 71 101 88 71 95 32 61 8 72 109 82 53 18 38 11 26 40 103 17 47
split_gain=17.5564 17.4102 15.0433 12.9388 12.5749 11.8121 10.7759 10.0587 10.9066 9.67844 14.7463 9.65038 9.08938 9.9211 13.7542 10.5304 11.3528 9.41799 9.39729 9.95465 9.52697 8.80408 9.5166 11.1545 9.44243 12.0633 11.4622 10.8232 9.44374 9.40819
threshold=1531.9829315117947 1551.8074055091324 25.577473573287538 1411.5565127745315 77.684751223995207 -294.06365995419077 1479.2072018644928 72.563498088102804 1572.8196545418357 81.443051184371384 -243.78382448981731 63.109922794068673 1550.8618570249955 20.077192350719432 125.58046025622804 2454.3126793995589 -8.9030822132904159 1864.6033980559182 1856.2326710465234 71.560632216791234 1496.0364004847199 1524.3243178269129 1599.6344011422275 1721.1751012373259 -2.7603254016969454 -492.70190377211549 79.160078666920057 1522.88868313837 1531.4355887956933 1473.580178387396
decision_type=2 2 2 2 2 2 2 2 2 2 2 2 2 2 2 2 2 2 2 2 2 2 2 2 2 2 2 2 2 2
left_child=1 3 4 9 5 -2 -4 8 -3 11 -11 -1 -5 18 15 16 -15 -17 20 -20 -14 22 24 -24 26 -26 28 -27 -22 -23
right_child=2 7 6 12 -6 -7 -8 -9 -10 10 -12 -13 13 14 -16 17 -18 -19 19 -21 21 29 23 -25 25 27 -28 -29 -30 -31
leaf_value=-0.0070030173562091432 0.060266597179429872 -0.0054878420680781002 0.056956914243307288 -0.037225253323783784 0.032828142772307049 0.0047692226918632508 -0.018093254122108229 -0.053005157400003639 -0.049097355207224774 0.058969963340690261 -0.023603348362904342 0.065543603770306338 0.05150035510272704 -0.011616866377864743 -0.020220393946034344 -0.01710670716972626 0.036486627265825917 0.041614809648181025 -0.0096940784058273596 0.061892347056290223 -0.036579816426561829 -0.022222969840280136 -0.069361451565802881 0.018647399683838797 -0.053272660510474593 0.055825572803684775 0.034472617890160456 -0.019041212984620363 0.0019883597617001265 0.02752872703497013
leaf_weight=13.575844272971155 10.195838958024977 64.425563648343086 5.2141046971082678 13.438822254538534 73.335459768772125 160.78717036545277 57.833976686000824 22.326339244842529 18.441099375486374 5.6758803129196158 114.06671726703644 6.9210341125726691 7.4213171601295462 14.406069353222845 24.209240198135376 27.03186771273613 82.552864998579025 9.1358478963375074 8.4336299449205416 11.448779925704001 20.439797386527061 13.292106479406355 13.199851527810099 4.9505733102560034 21.689389929175377 5.9683046042919186 20.822110012173653 25.254675522446632 71.019139409065247 33.328097194433212
leaf_count=55 41 266 21 55 295 647 238 93 76 23 466 28 30 58 98 110 332 37 34 46 83 54 54 20 88 24 84 102 287 135
internal_value=0 -0.00453279 0.00988832 -0.00107401 0.0155075 0.00807857 -0.0118866 -0.0232181 -0.0151927 -0.0142548 -0.0196893 0.0174933 0.00324443 0.0045562 0.0144466 0.0207508 0.0293395 -0.00227384 -0.0014924 0.0315271 -0.00425798 -0.00605739 -0.0109907 -0.0453568 -0.00721474 -0.0246284 0.000991443 -0.00473035 -0.00663109 0.0133438
internal_weight=0 673.475 307.367 568.282 244.318 170.983 63.0481 105.193 82.8667 140.239 119.743 20.4969 428.042 414.604 157.336 133.127 96.9589 36.1677 257.268 19.8824 237.385 229.964 183.344 18.1504 165.193 52.9124 112.281 31.223 91.4589 46.6202
internal_count=3980 2738 1242 2303 983 688 259 435 342 572 489 83 1731 1676 635 537 390 147 1041 80 961 931 742 74 668 214 454 126 370 189
is_linear=0
shrinkage=0.05


end of trees

feature_importances:
a_ace_glicko_rating=10
b_surface_ace_glicko_rd=8
a_surface_first_won_glicko_rating=8
point_glicko_rating_diff=7
return_first_won_glicko_rating_diff=7
surface_glicko_rating_diff=7
return_glicko_rating_diff=6
b_return_ace_glicko_rd=6
a_surface_glicko_rating=6
surface_game_glicko_rating_diff=6
surface_return_first_won_glicko_rating_diff=6
b_surface_first_won_glicko_rating=6
ace_glicko_rating_diff=5
a_ace_glicko_rd=5
a_return_first_won_glicko_rating=5
second_won_glicko_rating_diff=5
surface_point_glicko_rating_diff=5
b_surface_return_first_won_glicko_rating=5
a_player_rank=4
set_glicko_rating_diff=4
a_return_glicko_rd=4
b_service_glicko_rd=4
a_first_won_glicko_rating=4
b_surface_point_glicko_rd=4
a_surface_game_glicko_rating=4
b_surface_set_glicko_rating=4
surface_service_glicko_rating_diff=4
b_surface_service_glicko_rd=4
a_surface_tiebreak_glicko_rd=4
a_surface_return_ace_glicko_rd=4
a_surface_second_won_glicko_rd=4
b_player_age=3
b_glicko_rd=3
b_game_glicko_rating=3
b_set_glicko_rating=3
service_glicko_rating_diff=3
a_return_glicko_rating=3
tiebreak_glicko_rating_diff=3
a_tiebreak_glicko_rating=3
a_tiebreak_glicko_rd=3
b_return_first_won_glicko_rating=3
b_return_second_won_glicko_rd=3
b_surface_return_glicko_rd=3
b_surface_tiebreak_glicko_rating=3
a_surface_ace_glicko_rating=3
b_surface_return_ace_glicko_rating=3
surface_return_ace_glicko_rating_diff=3
glicko_rating_diff=2
a_glicko_rating=2
a_glicko_rd=2
a_point_glicko_rating=2
b_point_glicko_rd=2
game_glicko_rating_diff=2
a_game_glicko_rd=2
b_set_glicko_rd=2
b_return_glicko_rating=2
b_return_glicko_rd=2
b_ace_glicko_rating=2
b_ace_glicko_rd=2
b_first_won_glicko_rating=2
a_surface_glicko_rd=2
b_surface_glicko_rd=2
b_surface_game_glicko_rating=2
a_surface_service_glicko_rd=2
b_surface_service_glicko_rating=2
a_surface_return_glicko_rd=2
a_surface_tiebreak_glicko_rating=2
b_surface_return_ace_glicko_rd=2
b_surface_ace_glicko_rating=2
a_surface_return_first_won_glicko_rating=2
surface_second_won_glicko_rating_diff=2
b_surface_return_second_won_glicko_rating=2
b_surface_return_second_won_glicko_rd=2
a_player_age=1
b_glicko_rating=1
b_point_glicko_rating=1
a_point_glicko_rd=1
a_game_glicko_rating=1
b_game_glicko_rd=1
a_set_glicko_rating=1
a_set_glicko_rd=1
b_tiebreak_glicko_rating=1
b_tiebreak_glicko_rd=1
b_return_ace_glicko_rating=1
return_ace_glicko_rating_diff=1
a_return_ace_glicko_rating=1
a_return_ace_glicko_rd=1
first_won_glicko_rating_diff=1
b_return_first_won_glicko_rd=1
a_second_won_glicko_rd=1
return_second_won_glicko_rating_diff=1
b_surface_glicko_rating=1
a_surface_point_glicko_rating=1
b_surface_point_glicko_rating=1
a_surface_game_glicko_rd=1
b_surface_game_glicko_rd=1
surface_set_glicko_rating_diff=1
b_surface_set_glicko_rd=1
a_surface_service_glicko_rating=1
b_surface_return_glicko_rating=1
a_surface_return_glicko_rating=1
surface_tiebreak_glicko_rating_diff=1
b_surface_tiebreak_glicko_rd=1
a_surface_ace_glicko_rd=1
a_surface_first_won_glicko_rd=1
a_surface_second_won_glicko_rating=1
b_surface_second_won_glicko_rating=1
b_surface_second_won_glicko_rd=1

parameters:
[boosting: gbdt]
[objective: binary]
[metric: binary_logloss]
[tree_learner: serial]
[device_type: cpu]
[data_sample_strategy: bagging]
[data: ]
[valid: ]
[num_iterations: 300]
[learning_rate: 0.05]
[num_leaves: 31]
[num_threads: 0]
[seed: 0]
[deterministic: 0]
[force_col_wise: 0]
[force_row_wise: 0]
[histogram_pool_size: -1]
[max_depth: -1]
[min_data_in_leaf: 20]
[min_sum_hessian_in_leaf: 0.001]
[bagging_fraction: 1]
[pos_bagging_fraction: 1]
[neg_bagging_fraction: 1]
[bagging_freq: 10]
[bagging_seed: 3]
[feature_fraction: 0.9]
[feature_fraction_bynode: 1]
[feature_fraction_seed: 2]
[extra_trees: 0]
[extra_seed: 6]
[early_stopping_round: 0]
[early_stopping_min_delta: 0]
[first_metric_only: 0]
[max_delta_step: 0]
[lambda_l1: 0]
[lambda_l2: 0]
[linear_lambda: 0]
[min_gain_to_split: 0]
[drop_rate: 0.1]
[max_drop: 50]
[skip_drop: 0.5]
[xgboost_dart_mode: 0]
[uniform_drop: 0]
[drop_seed: 4]
[top_rate: 0.2]
[other_rate: 0.1]
[min_data_per_group: 100]
[max_cat_threshold: 32]
[cat_l2: 10]
[cat_smooth: 10]
[max_cat_to_onehot: 4]
[top_k: 20]
[monotone_constraints: ]
[monotone_constraints_method: basic]
[monotone_penalty: 0]
[feature_contri: ]
[forcedsplits_filename: ]
[refit_decay_rate: 0.9]
[cegb_tradeoff: 1]
[cegb_penalty_split: 0]
[cegb_penalty_feature_lazy: ]
[cegb_penalty_feature_coupled: ]
[path_smooth: 0]
[interaction_constraints: ]
[verbosity: -1]
[saved_feature_importance_type: 0]
[use_quantized_grad: 0]
[num_grad_quant_bins: 4]
[quant_train_renew_leaf: 0]
[stochastic_rounding: 1]
[linear_tree: 0]
[max_bin: 255]
[max_bin_by_feature: ]
[min_data_in_bin: 3]
[bin_construct_sample_cnt: 200000]
[data_random_seed: 1]
[is_enable_sparse: 1]
[enable_bundle: 1]
[use_missing: 1]
[zero_as_missing: 0]
[feature_pre_filter: 0]
[pre_partition: 0]
[two_round: 0]
[header: 0]
[label_column: ]
[weight_column: ]
[group_column: ]
[ignore_column: ]
[categorical_feature: ]
[forcedbins_filename: ]
[precise_float_parser: 0]
[parser_config_file: ]
[objective_seed: 5]
[num_class: 1]
[is_unbalance: 0]
[scale_pos_weight: 1]
[sigmoid: 1]
[boost_from_average: 1]
[reg_sqrt: 0]
[alpha: 0.9]
[fair_c: 1]
[poisson_max_delta_step: 0.7]
[tweedie_variance_power: 1.5]
[lambdarank_truncation_level: 30]
[lambdarank_norm: 1]
[label_gain: ]
[lambdarank_position_bias_regularization: 0]
[eval_at: ]
[multi_error_top_k: 1]
[auc_mu_weights: ]
[num_machines: 1]
[local_listen_port: 12400]
[time_out: 120]
[machine_list_filename: ]
[machines: ]
[gpu_platform_id: -1]
[gpu_device_id: -1]
[gpu_use_dp: 0]
[num_gpu: 1]

end of parameters

pandas_categorical:[]
