tree
version=v4
num_class=1
num_tree_per_iteration=1
label_index=0
max_feature_idx=114
objective=binary sigmoid:1
feature_names=best_of match_num a_player_rank b_player_rank glicko_rating_diff_high glicko_rating_diff_low a_glicko_rating b_glicko_rating a_glicko_rd b_glicko_rd point_glicko_rating_diff_high point_glicko_rating_diff_low a_point_glicko_rating b_point_glicko_rating game_glicko_rating_diff_high game_glicko_rating_diff_low a_game_glicko_rating b_game_glicko_rating set_glicko_rating_diff_high set_glicko_rating_diff_low a_set_glicko_rating b_set_glicko_rating service_glicko_rating_diff_high service_glicko_rating_diff_low a_service_glicko_rating b_return_glicko_rating return_glicko_rating_diff_high return_glicko_rating_diff_low a_return_glicko_rating b_service_glicko_rating tiebreak_glicko_rating_diff_high tiebreak_glicko_rating_diff_low a_tiebreak_glicko_rating b_tiebreak_glicko_rating ace_glicko_rating_diff_high ace_glicko_rating_diff_low a_ace_glicko_rating b_return_ace_glicko_rating return_ace_glicko_rating_diff_high return_ace_glicko_rating_diff_low a_return_ace_glicko_rating b_ace_glicko_rating first_won_glicko_rating_diff_high first_won_glicko_rating_diff_low a_first_won_glicko_rating b_return_first_won_glicko_rating return_first_won_glicko_rating_diff_high return_first_won_glicko_rating_diff_low a_return_first_won_glicko_rating b_first_won_glicko_rating second_won_glicko_rating_diff_high second_won_glicko_rating_diff_low a_second_won_glicko_rating b_return_second_won_glicko_rating return_second_won_glicko_rating_diff_high return_second_won_glicko_rating_diff_low a_return_second_won_glicko_rating b_second_won_glicko_rating surface_glicko_rating_diff_high surface_glicko_rating_diff_low a_surface_glicko_rating b_surface_glicko_rating a_surface_glicko_rd b_surface_glicko_rd surface_point_glicko_rating_diff_high surface_point_glicko_rating_diff_low a_surface_point_glicko_rating b_surface_point_glicko_rating surface_game_glicko_rating_diff_high surface_game_glicko_rating_diff_low a_surface_game_glicko_rating b_surface_game_glicko_rating surface_set_glicko_rating_diff_high surface_set_glicko_rating_diff_low a_surface_set_glicko_rating b_surface_set_glicko_rating surface_service_glicko_rating_diff_high surface_service_glicko_rating_diff_low a_surface_service_glicko_rating b_surface_return_glicko_rating surface_return_glicko_rating_diff_high surface_return_glicko_rating_diff_low a_surface_return_glicko_rating b_surface_service_glicko_rating surface_tiebreak_glicko_rating_diff_high surface_tiebreak_glicko_rating_diff_low a_surface_tiebreak_glicko_rating b_surface_tiebreak_glicko_rating surface_ace_glicko_rating_diff_high surface_ace_glicko_rating_diff_low a_surface_ace_glicko_rating b_surface_return_ace_glicko_rating surface_return_ace_glicko_rating_diff_high surface_return_ace_glicko_rating_diff_low a_surface_return_ace_glicko_rating b_surface_ace_glicko_rating surface_first_won_glicko_rating_diff_high surface_first_won_glicko_rating_diff_low a_surface_first_won_glicko_rating b_surface_return_first_won_glicko_rating surface_return_first_won_glicko_rating_diff_high surface_return_first_won_glicko_rating_diff_low a_surface_return_first_won_glicko_rating b_surface_first_won_glicko_rating surface_second_won_glicko_rating_diff_high surface_second_won_glicko_rating_diff_low a_surface_second_won_glicko_rating b_surface_return_second_won_glicko_rating surface_return_second_won_glicko_rating_diff_high surface_return_second_won_glicko_rating_diff_low a_surface_return_second_won_glicko_rating b_surface_second_won_glicko_rating surface_Clay surface_Grass surface_Hard
feature_infos=[3:5] [1:701] [1:1751] [1:1753] [-1203.3132534917663:827.08370495897611] [-895.87797562871174:1215.3359077524242] [1245.9217164110216:2717.531432504265] [1227.7963498960689:2749.2341541975647] [62.979949405679506:149.80177509640703] [62.919016416745592:149.50296659821674] [-282.7816866611106:-29.361097468609387] [20.750962814096283:260.11291219514419] [1446.5642759604991:1616.8967179976937] [1465.5539420690741:1619.6678865096796] [-404.62674410734098:70.646926030449094] [-85.62587898722245:346.79997850928407] [1375.1375155306462:1752.1166745355636] [1433.7625234188265:1756.8886308022429] [-900.50968682269081:599.58136304634922] [-612.67203279471391:916.57965476557115] [1243.8235048270169:2396.7564588583709] [1302.3375206477758:2400.22209957832] [-20328.49416805974:963.28807519630402] [-19446.646754104124:1308.183915966089] [-17999.889263107681:2742.1420084338456] [849.45232649912202:10203.258803930559] [-1250.0510621750036:20155.375770123643] [-908.535972625216:21023.925854341294] [830.81484554173437:10203.258803930559] [-18569.298674879043:2759.9125200262238] [-1225.8881081710042:450.75739322894719] [-548.01318977678693:1073.7524737813951] [1025.0822221319049:2073.1377706282278] [1025.0822221319049:2066.7168449129763] [-1155.4108044702805:-257.83020333419881] [-666.20621301689744:146.3905553560312] [921.53926012250486:1541.7922614489669] [1549.610512239964:1875.2824860281853] [-164.93757025813011:636.20080415889652] [221.56242190655553:1089.4907981878778] [1524.734116901833:1878.5927805893305] [918.48235789497801:1546.026659559898] [-190.36807918097929:233.28774573905616] [114.85597560229394:558.0980255414413] [1461.6021794560984:1772.8045645617592] [1350.8919591976637:1563.5340319579941] [-546.62025850318901:-138.23356710602343] [-238.54275811702539:223.62628436622504] [1311.7268953644077:1541.030393503172] [1458.9030317273384:1776.7854765638192] [-272.87876901703703:-9.3037294426071639] [8.1770781697321127:283.09033378608797] [1420.1518107413815:1622.9632930592177] [1450.7808304451255:1619.6592438445509] [-272.87876901703703:-9.3037294426071639] [8.1770781697321127:283.09033378608797] [1420.1518107413815:1622.9632930592177] [1450.7808304451255:1619.6592438445509] [-1203.3132534917663:827.08370495897611] [-895.87797562871174:1215.3359077524242] [1245.9217164110216:2717.531432504265] [1227.7963498960689:2749.2341541975647] [62.979949405679506:149.80177509640703] [62.919016416745592:149.50296659821674] [-282.7816866611106:-29.361097468609387] [20.750962814096283:260.11291219514419] [1446.5642759604991:1616.8967179976937] [1465.5539420690741:1619.6678865096796] [-404.62674410734098:70.646926030449094] [-85.62587898722245:346.79997850928407] [1375.1375155306462:1752.1166745355636] [1433.7625234188265:1756.8886308022429] [-900.50968682269081:599.58136304634922] [-612.67203279471391:916.57965476557115] [1243.8235048270169:2396.7564588583709] [1302.3375206477758:2400.22209957832] [-20328.49416805974:963.28807519630402] [-19446.646754104124:1308.183915966089] [-17999.889263107681:2742.1420084338456] [849.45232649912202:10203.258803930559] [-1250.0510621750036:20155.375770123643] [-908.535972625216:21023.925854341294] [830.81484554173437:10203.258803930559] [-18569.298674879043:2759.9125200262238] [-1225.8881081710042:450.75739322894719] [-548.01318977678693:1073.7524737813951] [1025.0822221319049:2073.1377706282278] [1025.0822221319049:2066.7168449129763] [-1155.4108044702805:-257.83020333419881] [-666.20621301689744:146.3905553560312] [921.53926012250486:1541.7922614489669] [1549.610512239964:1875.2824860281853] [-164.93757025813011:636.20080415889652] [221.56242190655553:1089.4907981878778] [1524.734116901833:1878.5927805893305] [918.48235789497801:1546.026659559898] [-190.36807918097929:233.28774573905616] [114.85597560229394:558.0980255414413] [1461.6021794560984:1772.8045645617592] [1350.8919591976637:1563.5340319579941] [-546.62025850318901:-138.23356710602343] [-238.54275811702539:223.62628436622504] [1311.7268953644077:1541.030393503172] [1458.9030317273384:1776.7854765638192] [-457.03452431318624:-9.3037294426071639] [8.1770781697321127:516.4983900790628] [1420.1518107413815:1622.9632930592177] [1450.7808304451255:1619.6592438445509] [-536.13719856418925:-9.3037294426071639] [8.1770781697321127:445.36297489639333] [1420.1518107413815:1622.9632930592177] [1450.7808304451255:1619.6592438445509] [0:1] [0:1] [0:1]
tree_sizes=3396 3383 3386 3381 3396 3400 3396 3399 3384 3396 3403 3390 3375 3397 3399 3374 3379 3375 3389 3390 3372

Tree=0
num_leaves=31
num_cat=0
split_feature=15 19 10 10 59 15 6 4 47 16 2 26 13 3 52 1 24 2 40 23 32 7 42 59 30 42 19 47 107 11
split_gain=1194.57 243.8 174.792 60.2458 46.7886 40.4096 24.1211 19.478 16.7483 14.5569 14.5449 13.6719 13.5045 13.1578 11.9632 11.9221 11.1791 10.7091 10.142 9.75878 9.71535 9.47552 9.96566 9.41102 9.2561 8.84192 11.2201 11.1134 11.2913 10.9018
threshold=135.7140609907847 -2.6435316867721208 -110.91199354361935 -89.010899417168375 -224.33138230225663 101.27098579856897 2021.6259110163871 38.815070302687566 -37.825661785981303 1582.1905559873737 80.500000000000014 -265.14870001086109 1525.2815688467206 33.500000000000007 1525.7614567451767 270.50000000000006 2251.3283809235404 11.500000000000002 1731.2488388016079 -650.79951342577078 1740.9443933667887 1790.8599294416219 -53.34652051326065 230.57485215566729 -54.266684118562686 71.836082788637114 84.975604374034006 -23.53578132670361 1560.663052764676 113.41467659243348
decision_type=2 2 2 2 2 2 2 2 2 2 2 2 2 2 2 2 2 2 2 2 2 2 2 2 2 2 2 2 2 2
left_child=1 4 6 9 -1 21 7 11 18 -4 23 -2 -6 -12 15 -9 -11 -5 24 -14 -20 -3 -23 25 -8 27 -27 29 -29 -7
right_child=2 5 3 17 12 10 8 14 -10 16 13 -13 19 -15 -16 -17 -18 -19 20 -21 -22 22 -24 -25 -26 26 -28 28 -30 -31
leaf_value=-0.16189833721620067 -0.12614034478119091 -0.010060560764848125 0.030596175501217879 0.16681388860099319 0.012908894566571055 -0.096706039527684307 -0.083690870538038503 0.058650540927353237 0.10596998325100293 0.083067312508819199 -0.11725135231147098 0.010117400625957031 -0.11107437974821986 -0.035746542203918014 0.101554616173943 -0.090010891517167915 0.13776516945701886 0.11186242859556055 0.14814856571302443 -0.075928986849189736 0.0038611700884632547 -0.17456196165571797 -0.070025530628216828 0.033367686758783613 0.065861892564759855 0.07212283508691042 -0.010468001214185939 0.016305205369483284 -0.052539487131909784 -0.028723610078113443
leaf_weight=164.99808222055435 7.4999128282070151 25.499703615903854 48.999430477619171 121.99858200550079 10.499877959489821 26.499691992998123 12.249857619404795 17.749793693423275 55.749352023005486 421.4951009452343 22.499738484621048 405.99528110027313 303.99646663665771 165.49807640910149 38.999546706676483 7.7499099224805823 40.999523460865021 49.99941885471344 8.7498982995748538 106.74875925481319 9.9998837709426862 9.4998895823955518 227.74735288321972 40.499529272317886 6.2499273568391791 22.999732673168182 57.749328777194023 100.24883480370045 31.2496367841959 214.74750398099422
leaf_count=660 30 102 196 488 42 106 49 71 223 1686 90 1624 1216 662 156 31 164 200 35 427 40 38 911 162 25 92 231 401 125 859
internal_value=-0.00682106 -0.0661005 0.0655239 0.0996414 -0.116759 -0.0346653 0.0246845 0.0156186 0.0712813 0.0824251 -0.0218283 0.00764598 -0.0990777 -0.0455011 0.0667301 0.0134691 0.0879162 0.15084 0.0193647 -0.10194 0.0711953 -0.0679855 -0.0742114 -0.0128192 -0.0331663 -0.0169439 0.0130563 -0.023443 -5.52254e-05 -0.0361911
internal_weight=0 1530.98 1254.49 683.492 586.243 944.739 570.993 477.994 92.9989 511.494 681.992 413.495 421.245 187.998 64.4993 25.4997 462.495 171.998 37.2496 410.745 18.7498 262.747 237.247 493.994 18.4998 453.495 80.7491 372.746 131.498 241.247
internal_count=11142 6124 5018 2734 2345 3779 2284 1912 372 2046 2728 1654 1685 752 258 102 1850 688 149 1643 75 1051 949 1976 74 1814 323 1491 526 965
is_linear=0
shrinkage=1


Tree=1
num_leaves=31
num_cat=0
split_feature=15 19 10 10 5 15 8 11 46 6 2 71 10 89 13 19 56 30 5 28 10 49 49 3 94 8 47 6 1 2
split_gain=969.623 198.919 142.443 49.9809 38.7609 32.8074 20.2254 26.0166 12.955 13.1632 11.7931 11.5392 11.5618 12.4369 11.5266 12.0239 11.9592 11.9725 11.185 11.1146 10.8484 13.335 12.2812 10.7577 10.5985 10.3829 10.1303 9.78717 9.58655 9.5352
threshold=135.7140609907847 -2.6435316867721208 -110.91199354361935 -92.253892420335646 -234.65338554974628 101.27098579856897 74.410659227532747 151.64361620644073 -388.97898662336428 2021.6259110163871 80.500000000000014 1609.0915123815087 -146.56750823178092 -281.14000285040828 1516.5142872874674 353.1418959617161 1548.6669134289175 2.7612996951826294 552.71939300658119 1625.9227951559399 -124.74204501370239 1614.5276363167347 1580.3904369158015 28.500000000000004 1725.3537132447661 65.490710580089072 -15.711931599978923 1992.9968854251563 242.50000000000003 86.500000000000014
decision_type=2 2 2 2 2 2 2 2 2 2 2 2 2 2 2 2 2 2 2 2 2 2 2 2 2 2 2 2 2 2
left_child=1 4 6 14 -1 -3 7 8 -2 19 -7 12 -6 -14 16 -16 17 25 -5 -10 -21 22 -22 -12 26 -4 -11 28 -9 -23
right_child=2 5 3 18 11 10 -8 27 9 24 23 -13 13 -15 15 -17 -18 -19 -20 20 21 29 -24 -25 -26 -27 -28 -29 -30 -31
leaf_value=-0.14256779567584585 -0.095407766290213566 -0.055125156651551405 0.14651074038421444 0.11561953703569934 -0.076779839876701117 -0.0054005665802050115 -0.015873424239695223 0.10121555906871167 0.11124072723320313 -0.025686559630321338 -0.11851926090544947 -0.096757861733298811 -0.051995520657370536 0.077775720122491454 0.077610289269579621 0.12835911443526818 0.12052157635698948 -0.064724562172228842 0.16162162680861941 -0.031493346914091495 0.003453172849240601 -0.011553006714586042 0.066174615712130944 -0.027994862130531664 0.092874733615432525 0.022621732670375636 0.13264172647608738 0.15790733661908271 0.030930476734039099 0.082535622386430071
leaf_weight=152.9952632188797 8.731607183814047 262.39838391542435 8.2432300448417646 118.49111454188824 128.91562603414059 493.82289358973503 87.461080878973007 43.212220057845116 12.494382679462431 17.716780692338947 14.201135113835333 267.75109691917896 23.691918894648552 10.729716137051581 339.60753959417343 54.127959728240967 15.227073818445204 12.736965358257292 95.415486767888069 42.993616506457329 48.238954067230225 105.22891201078892 88.477437108755112 173.66885544359684 48.619637861847878 37.718086034059525 5.2352887988090506 14.962076365947722 35.225069835782051 11.999193862080572
leaf_count=616 35 1051 33 476 517 1976 350 173 50 71 57 1074 95 43 1361 217 61 51 384 172 193 421 354 695 195 151 21 60 141 48
internal_value=0 -0.0534568 0.0652384 0.0960987 -0.099326 -0.0250787 0.0283764 0.0363868 0.0250269 0.0277869 -0.0135132 -0.0839793 -0.0630321 -0.011544 0.0777842 0.0845869 0.0415523 0.0210666 0.136139 0.0188476 0.0149599 0.0228246 0.044044 -0.0348376 0.0664351 0.0448414 0.0104276 0.0837896 0.0696515 -0.00192232
internal_weight=0 1528.17 1252.16 681.567 584.084 944.091 570.596 483.135 389.736 381.004 681.693 431.088 163.337 34.4216 467.661 393.735 73.9254 58.6983 213.907 309.432 296.938 253.944 136.716 187.87 71.5717 45.9613 22.9521 93.3994 78.4373 117.228
internal_count=11142 6124 5018 2734 2345 3779 2284 1934 1560 1525 2728 1729 655 138 1874 1578 296 235 860 1238 1188 1016 547 752 287 184 92 374 314 469
is_linear=0
shrinkage=0.1


Tree=2
num_leaves=31
num_cat=0
split_feature=15 4 10 15 10 14 2 59 8 3 40 48 35 29 38 44 59 24 9 50 31 51 10 9 47 24 7 45 26 48
split_gain=789.745 165.184 118.536 50.0979 31.7742 19.5611 19.1456 17.011 13.1499 10.0466 10.8046 9.86175 13.5616 12.1008 10.7708 9.67511 9.50344 9.41586 9.2987 9.93191 9.2763 9.1646 9.12509 9.09564 8.93503 10.058 9.22582 8.66611 12.9218 8.70386
threshold=135.7140609907847 -384.33128188538154 -105.86988659450252 101.27098579856897 -87.307200038062874 -100.50612500553505 82.500000000000014 -234.65338554974628 97.607270358432473 38.500000000000007 1708.3958187677724 1480.5971022943374 -270.82633900082618 1807.3838110872889 333.54126733892707 1620.8509477708396 230.57485215566729 2251.3283809235404 66.089073169223795 -102.35962946358335 445.34319809097116 133.15807310088886 -117.68043470843712 65.322584102202214 -106.44688541530807 1998.0415636269061 1821.84155697454 1469.2901505831508 -63.235428621247699 1435.0867189847058
decision_type=2 2 2 2 2 2 2 2 2 2 2 2 2 2 2 2 2 2 2 2 2 2 2 2 2 2 2 2 2 2
left_child=1 7 5 9 6 8 17 -1 11 10 27 12 13 14 18 20 22 -4 -2 -20 -10 23 -5 -18 -14 26 -26 28 -3 -30
right_child=2 3 4 16 -6 -7 -8 -9 15 -11 -12 -13 24 -15 -16 -17 21 -19 19 -21 -22 -23 -24 -25 25 -27 -28 -29 29 -31
leaf_value=-0.13055816861414346 0.094826521708126943 -0.10761370691779458 0.078406693107830328 -0.017242390647902762 0.13514231848086394 0.053760717950956154 -0.058481958393796607 -0.087765691734040294 0.014358527775050426 -0.036154844424176762 -0.052086981137388938 0.059189890205576703 -0.061743134386560684 -0.1378348946536003 -0.035258119469486753 -0.16077782416411046 -0.056523746134312984 0.13204380194977125 0.030998108486672921 -0.047098483560080034 -0.12130813890981265 -0.032554328078556849 0.055485610376819941 0.084475515821946484 0.05090769924864539 0.11017857662648751 0.0019603252152706097 -0.11975705028692454 -0.099000141332421174 0.049610016970318749
leaf_weight=150.48549115657806 14.725620567798613 24.345512926578522 319.51278106868267 621.11279682815075 147.2284699678421 284.27207574248314 9.7013112008571607 242.74210327863693 22.491986200213436 170.69037149846554 172.887017801404 70.67563484609127 8.9563283771276456 6.4898663163185111 50.945246949791908 5.4938165694475165 5.4985149502754203 36.463839828968048 55.941038653254509 22.971100643277168 6.4954745918512335 15.493486553430555 17.744651436805725 27.242213845252991 103.35137286782265 18.636478707194328 61.375303342938423 55.349534675478935 5.7179709225893047 12.68220418691635
leaf_count=616 59 98 1288 2487 602 1143 39 980 90 686 696 284 36 26 204 22 22 148 224 92 26 62 71 109 414 75 246 223 23 51
internal_value=0 -0.0483262 0.0590448 -0.0288816 0.0959165 0.033238 0.0801235 -0.104142 0.0202315 -0.055158 -0.067128 0.0251725 0.0181711 -0.00425107 0.00174507 -0.039102 -0.0119908 0.0839009 0.0218773 0.00826441 -0.0160415 0.0308106 -0.0152223 0.0607959 0.0357844 0.0405482 0.0326705 -0.0936368 -0.0598148 0.00342847
internal_weight=0 1521.99 1245.73 1128.76 512.906 732.821 365.678 393.228 448.549 441.673 270.982 414.068 343.392 151.073 144.583 34.4813 687.092 355.977 93.6378 78.9121 28.9875 48.2342 638.857 32.7407 192.319 183.363 164.727 98.0952 42.7457 18.4002
internal_count=11142 6124 5018 4528 2077 2941 1475 1596 1798 1777 1091 1660 1376 605 579 138 2751 1436 375 316 116 193 2558 131 771 735 660 395 172 74
is_linear=0
shrinkage=0.1


Tree=3
num_leaves=31
num_cat=0
split_feature=69 4 10 65 12 10 6 7 65 2 3 21 24 101 45 14 22 101 13 53 7 13 1 2 69 1 40 17 6 28
split_gain=644.619 137.982 99.0681 41.4344 28.2273 16.5927 19.8126 16.502 15.9661 15.1399 13.2093 12.9745 12.1927 10.7913 10.6804 12.6992 11.5502 10.3755 10.1569 9.06768 12.8432 15.0066 9.5939 8.78805 10.9297 9.46493 9.04633 14.5726 8.77075 8.68472
threshold=135.7140609907847 -384.33128188538154 -105.86988659450252 115.49201493522618 1569.0696520507606 -113.64613648837484 2021.6259110163871 1821.84155697454 90.174753623044367 82.500000000000014 34.500000000000007 1707.1094493361277 1182.7542655415593 -2.4933528725094898 1478.8873455501728 -173.27375610116414 -342.4494374748877 -72.117421652790071 1523.8252193680239 1543.0544818623073 1918.9114825150534 1547.0577311779173 12.500000000000002 82.500000000000014 96.083460140158323 18.500000000000004 1664.819647720074 1575.5976431104177 2046.4103083490979 1517.8539661488123
decision_type=2 2 2 2 2 2 2 2 2 2 2 2 2 2 2 2 2 2 2 2 2 2 2 2 2 2 2 2 2 2
left_child=1 8 5 10 9 6 7 11 -1 -4 -3 -2 -9 28 16 -16 19 -6 -14 20 -12 -22 -21 24 -5 26 -25 -28 -8 -10
right_child=2 3 4 23 17 -7 13 12 29 -11 14 -13 18 -15 15 -17 -18 -19 -20 22 21 -23 -24 25 -26 -27 27 -29 -30 -31
leaf_value=-0.1175190187603657 0.015082983658375172 -0.06221354063788085 0.073546002903900412 -0.14584772173638785 -0.011923218296309414 0.050347161017640446 0.1301848573685119 0.061353552171690189 -0.01615494308424972 -0.053185118809369061 -0.044973249928886926 0.075187159873072618 0.076914256914346779 0.13205178876017673 -0.066125137813274212 0.048616773890493348 0.10889056133753253 0.12314942498706534 -0.042306366843612303 0.051922445856260095 0.10182381764789764 -0.093830317245755426 -0.086653493398999151 0.087516376735935833 -0.00013024486140595431 -0.041253474484242977 -0.043990051564846887 0.10953507398439416 0.017816782777726355 -0.083519951389436436
leaf_weight=175.8918828368187 251.69132466614246 279.90719513595104 312.58123269677162 5.2072384506463996 5.8746355623006812 258.8434896171093 8.8993401974439603 15.712722435593603 21.280335739254951 9.7197820693254453 72.796179085969925 41.893640726804733 7.7316494435071936 20.124241292476654 13.844472825527189 31.803798958659172 4.9825508892536154 177.92199119925499 94.325700163841248 5.4643763750791541 13.904254332184793 5.4593573361635199 58.282185763120651 11.469243019819258 447.63096959888935 136.48496793210506 31.178396254777908 7.7120107412338248 31.650963768362999 190.0618898421526
leaf_count=731 1010 1133 1275 21 24 1045 36 63 87 39 293 168 31 82 56 128 20 739 378 22 56 22 235 46 1792 548 125 31 128 778
internal_value=0 -0.0437684 0.0535496 -0.0260619 0.0875584 0.03 0.0188424 0.0109741 -0.0952612 0.0697241 -0.0480584 0.0236597 -0.0206493 0.0721871 -0.0288747 0.0138172 -0.0409875 0.118832 -0.0332745 -0.0457774 -0.02572 0.0466613 -0.0747747 -0.00933478 -0.00180587 -0.0275819 0.00947074 -0.0135458 0.0424776 -0.0767369
internal_weight=0 1513.36 1236.97 1126.13 506.098 730.873 472.03 411.355 387.234 322.301 486.444 293.585 117.77 60.6745 206.537 45.6483 160.889 183.797 102.057 155.906 92.1598 19.3636 63.7466 639.683 452.838 186.845 50.3597 38.8904 40.5503 211.342
internal_count=11142 6124 5018 4528 2077 2941 1896 1650 1596 1314 1965 1178 472 246 832 184 648 763 409 628 371 78 257 2563 1813 750 202 156 164 865
is_linear=0
shrinkage=0.1


Tree=4
num_leaves=31
num_cat=0
split_feature=14 18 18 9 11 21 64 6 11 52 12 29 109 29 96 2 18 53 49 28 26 23 23 44 44 51 34 112 36 4
split_gain=529.968 147.419 65.7765 31.0399 30.9459 19.1175 18.3036 17.5476 17.258 11.6183 11.1443 11.539 11.0494 10.8609 11.2581 10.8998 9.98625 11.5099 9.92867 9.91898 8.96335 11.676 8.92892 8.60411 11.2832 9.24834 8.60247 8.65657 12.5137 8.28504
threshold=-113.03439311080136 -263.53741305384204 89.347057776901821 85.295987240875093 90.174753623044367 1675.3809858390462 -110.91199354361935 1951.9699883246858 114.23366690667103 1517.1656951483403 1565.7316845912476 1979.3247141578959 116.94614007375253 1177.8896909382845 75.441649450126206 95.500000000000014 -379.21335918988774 1543.7425979677325 1695.6417643360685 2189.2434343116042 -340.00582237046257 -7330.4421467662933 -440.01585304153804 1616.784023572927 1603.0642208483162 133.74491198418494 -689.83001453288705 1.0000000180025095e-35 1241.7673723892055 49.582046365931895
decision_type=2 2 2 2 2 2 2 2 2 2 2 2 2 2 2 2 2 2 2 2 2 2 2 2 2 2 2 2 2 2
left_child=1 4 6 8 22 -6 10 -4 13 23 11 29 16 15 -15 -3 -7 -18 20 -20 -19 -22 -1 24 25 -5 -14 28 -28 -2
right_child=2 3 7 9 5 12 -8 -9 -10 -11 -12 -13 26 14 -16 -17 17 18 19 -21 21 -23 -24 -25 -26 -27 27 -29 -30 -31
leaf_value=-0.11171062097200418 0.017862898110881317 0.078574734471459656 0.023328480044677701 -0.095971799378812506 0.045810542156927064 -0.086859260820484466 0.056478588229068073 0.11112221972543745 -0.0085728661171313569 0.086179875961288996 0.099074947029907143 -0.09058185400421985 -0.11258719338673057 -0.051016653479279916 0.031651476256935498 -0.082460550424353393 -0.011843720433764016 0.01377495258271752 -0.04600594075698522 0.087975812479484189 0.041332792657068185 -0.083272532880276973 -0.0031665337057984553 -0.094015907612384875 0.15672564490745947 0.071410196731130915 0.11299139927451074 -0.12238604003857526 -0.055812632539264523 0.061778590959842644
leaf_weight=177.85887224972248 278.74161691963673 14.371182158589365 25.415085464715958 6.7338829785585457 16.920673370361328 68.746918112039566 428.14793844521046 218.43737441301346 750.21461421251297 41.972043395042419 19.639615848660469 8.9284500479698163 66.279622152447701 217.07572814822197 17.82648754119873 5.9406016170978537 77.505494400858879 12.200749963521956 15.821456566452982 8.490971699357031 8.001175180077551 125.06819021701813 7.9158539772033683 6.9743686169385901 5.483149141073226 6.4752099961042404 5.4174856394529369 12.950867250561712 23.190440237522125 50.786121249198914
leaf_count=757 1122 58 104 27 68 287 1754 927 3008 169 80 36 272 879 72 24 316 50 65 35 33 514 33 28 22 26 22 53 95 206
internal_value=0 -0.0343053 0.0565976 -0.011803 -0.0728551 -0.058422 0.0425248 0.101972 -0.0162144 0.05377 0.0258413 0.0215918 -0.0625849 -0.0386769 -0.0447431 0.0314766 -0.0531484 -0.043769 -0.0583601 0.000786394 -0.0682588 -0.0757803 -0.107086 0.000770715 0.0361371 -0.0139197 -0.0902223 -0.0545539 -0.0238462 0.0246311
internal_weight=0 1699.44 1030.1 1073.07 626.369 440.594 786.244 243.852 1005.43 67.6387 358.096 338.456 423.673 255.214 234.902 20.3118 315.835 247.088 169.583 24.3124 145.27 133.069 185.775 25.6666 18.6922 13.2091 107.838 41.5588 28.6079 329.528
internal_count=11142 6913 4229 4313 2600 1810 3198 1031 4041 272 1444 1364 1742 1033 951 82 1300 1013 697 100 597 547 790 103 75 53 442 170 117 1328
is_linear=0
shrinkage=0.1


Tree=5
num_leaves=31
num_cat=0
split_feature=64 18 19 9 5 64 21 6 25 31 29 22 25 35 13 49 32 17 1 44 26 88 28 18 8 110 25 15 26 50
split_gain=436.639 99.1336 78.2837 28.9203 26.7405 26.2488 15.5468 14.7303 13.3451 11.7875 10.4605 11.7168 11.377 13.0917 11.8514 11.781 10.2937 10.2242 9.39064 9.34492 9.24873 10.5685 9.23392 9.35467 10.7948 9.08877 8.76011 11.2648 8.71956 10.7039
threshold=-124.96362714501161 -263.53741305384204 353.1418959617161 85.295987240875093 -224.33138230225663 -113.64613648837484 1675.3809858390462 1976.7022916722403 1704.8756224709812 152.89046538774917 1737.4247039965232 -574.70086510020769 2086.7554052137634 -473.32259847984966 1517.8345282657865 1578.1010805983726 1736.6154413076599 1630.4836294997947 272.50000000000006 1571.2543728797918 -372.04561704998781 -740.87774874584386 2281.5799966044528 -174.56303196660983 76.484475519367479 1514.2804338375333 1817.8430169959631 151.74479579100537 259.60319083428107 -104.15697187455088
decision_type=2 2 2 2 2 2 2 2 2 2 2 2 2 2 2 2 2 2 2 2 2 2 2 2 2 2 2 2 2 2
left_child=1 4 5 8 -1 -2 -6 -4 9 -3 12 -12 14 -14 -10 -15 25 -13 -9 -5 21 -8 23 -21 28 -11 27 -7 -25 -30
right_child=2 3 7 19 6 26 20 18 10 16 11 17 13 15 -16 -17 -18 -19 -20 22 -22 -23 -24 24 -26 -27 -28 -29 29 -31
leaf_value=-0.10392700120372633 0.013857546066621937 0.067427692468675457 0.039931350712075056 -0.040496991911923408 0.038024807109473591 -0.095414015933575388 -0.12248648584537639 0.11730317874029775 -0.090351626089140089 0.012081332487639042 -0.056175366058768189 -0.026026012523261467 -0.11326518253256053 0.063749859289216601 -0.022564415025425121 -0.0036979314044437318 0.093949394609098971 0.070043944882303963 0.071757931020516183 0.11942148106831163 -0.064736604472514545 -0.0072327766869218386 0.1515592322790964 -0.042518673401731231 -0.078740967524586633 -0.11187845907325707 0.054567119284182175 0.031540196720080661 0.093924305499838434 -0.060187914688205661
leaf_weight=149.16912047564983 456.95151653885841 31.119558572769165 43.443710550665855 11.934735104441641 17.197607308626175 7.4355577528476706 9.2945866733789426 151.98358136415482 28.935502827167511 11.697258591651922 165.96851320564747 59.364879623055458 9.6492445170879346 30.148976385593414 237.35284419357777 183.61128310859203 6.2218611985445014 13.619290903210638 64.474123358726501 12.409243851900099 384.58116964995861 55.250637963414192 8.7132482975721341 9.1403266936540586 8.7112928628921491 11.965163096785544 377.44016326963902 116.44355992972851 26.901976749300946 5.41374996304513
leaf_count=660 1838 125 179 48 69 30 39 665 116 47 673 239 39 121 954 740 25 55 280 50 1600 229 36 37 35 48 1556 478 109 22
internal_value=0 -0.0363395 0.044395 -0.014668 -0.0670736 0.0311929 -0.0552848 0.0930716 -0.0205772 0.0243515 -0.0243387 -0.0414912 -0.0159691 0.000671805 -0.0299303 0.00581498 -0.0205053 -0.00809877 0.103737 0.0414003 -0.0588577 -0.0238294 0.0551108 0.0416812 0.0224516 -0.0506003 0.046994 0.0239201 0.0437155 0.0681064
internal_weight=0 1488.37 1218.17 872.879 615.493 958.271 466.324 259.901 789.654 61.0038 728.651 238.953 489.698 223.41 266.288 213.76 29.8843 72.9842 216.458 83.2246 449.126 64.5452 71.2898 62.5766 50.1673 23.6624 501.319 123.879 41.4561 32.3157
internal_count=11142 6116 5026 3519 2597 3902 1937 1124 3182 245 2937 967 1970 900 1070 861 120 294 945 337 1868 268 289 253 203 95 2064 508 168 131
is_linear=0
shrinkage=0.1


Tree=6
num_leaves=31
num_cat=0
split_feature=14 59 10 11 9 6 17 88 47 97 10 30 25 108 2 10 81 14 48 20 9 14 67 105 38 12 22 104 114 38
split_gain=357.67 105.131 51.0044 32.5732 18.2177 16.9142 13.6667 15.302 12.1247 12.1816 10.7154 10.386 13.2553 10.7166 9.86263 9.58454 11.1352 9.48333 9.4628 9.40117 9.1458 9.14248 10.279 10.0315 9.8824 9.31804 9.0917 11.5486 8.79767 8.79177
threshold=-113.03439311080136 23.489798550657614 -92.253892420335646 90.174753623044367 85.295987240875093 1997.4011205675943 1616.3481931667957 -447.27151822713921 -46.464181003684637 369.86102793129459 -140.43316712475448 -97.890440066259188 1945.8288343276122 -128.95896003040932 81.500000000000014 -127.13692556228567 8012.6200371982941 -142.55333391126655 1393.2469006637591 2072.9299346217217 67.41438298989857 -54.415487103520597 1533.1328546927728 98.741729781763752 442.77075033321859 1545.7179237935179 -713.85102905562576 -114.79387651913338 1.0000000180025095e-35 216.73607184296159
decision_type=2 2 2 2 2 2 2 2 2 2 2 2 2 2 2 2 2 2 2 2 2 2 2 2 2 2 2 2 2 2
left_child=1 3 5 -1 15 21 10 -8 29 -10 18 12 14 17 -12 -3 -17 -14 20 -4 -5 22 23 -2 -24 -25 27 -15 -6 -7
right_child=2 4 19 6 28 8 7 -9 9 -11 11 -13 13 26 -16 16 -18 -19 -20 -21 -22 -23 24 25 -26 -27 -28 -29 -30 -31
leaf_value=-0.093215352198505866 -0.079190791430774857 -0.017250536830873932 0.077353862500879986 -0.039976969651177204 0.083680968906615694 -0.0086198181959437781 -0.066709914081162391 0.08310980522602289 0.051773338886837154 0.10340225149468481 0.018465170530179868 -0.088053485437791998 0.12644912313786336 -0.052389071273619595 -0.094430302768083785 0.0020192765866041229 0.12353102523888702 0.014134546306192373 -0.046417469770139122 0.12389557878228695 0.13708986588895153 -0.069542021731711992 -0.020246616918621792 0.027286364402794125 0.12339245632603585 0.070130171190085036 -0.12874531732850894 0.11335131033744922 0.012709190399386699 0.053748879348759306
leaf_weight=175.13306152820587 7.9286611229181281 530.42724268138409 124.08143927156925 6.0300714969634992 30.895701944828033 48.43164399266243 237.69173845648766 7.018559902906417 217.46383982896805 57.859682321548462 14.365147262811663 12.570727869868277 17.494326084852219 9.3197835832834279 16.773983597755432 289.16879904270172 7.7434907704591742 13.182719618082045 248.60094773769379 66.747361481189728 5.6505514830350876 10.3774167150259 65.014914557337761 300.78596097230911 5.1707411259412757 61.069749638438225 5.2003665119409588 7.6590751856565484 40.182015851140022 42.37900710105896
leaf_count=788 32 2141 551 25 126 200 1002 29 911 246 58 51 71 38 68 1159 31 53 1035 309 23 43 263 1223 21 254 21 31 163 176
internal_value=0 -0.0283172 0.047088 -0.0552611 -0.00502397 0.0362094 -0.0442114 -0.0624129 0.0521721 0.0626232 -0.0317295 -0.00328015 0.009407 0.0398981 -0.0423492 -0.00919777 0.00518831 0.0781846 -0.0422844 0.093633 0.0456799 0.0232317 0.0254199 0.032079 -0.00966439 0.034517 -0.0130578 0.0223756 0.0435588 0.0204861
internal_weight=0 1675.11 1007.31 776.691 898.417 816.482 601.558 244.71 366.134 275.324 356.848 96.5661 83.9954 52.8563 31.1391 827.34 296.912 30.677 260.282 190.829 11.6806 450.347 439.97 369.784 70.1857 361.856 22.1792 16.9789 71.0777 90.8107
internal_count=11142 6913 4229 3293 3620 3369 2505 1031 1533 1157 1474 391 340 214 126 3331 1190 124 1083 860 48 1836 1793 1509 284 1477 90 69 289 376
is_linear=0
shrinkage=0.1


Tree=7
num_leaves=31
num_cat=0
split_feature=10 4 19 3 11 10 13 2 5 82 4 26 34 50 9 1 50 31 22 48 29 71 74 23 2 33 39 3 40 13
split_gain=294.48 70.6779 59.924 28.4177 19.1542 16.2994 13.1647 12.2133 10.359 9.67833 9.46735 9.34799 11.3142 9.33545 15.962 11.3196 12.9882 11.451 9.33074 9.30274 9.12073 11.9624 13.6153 11.6808 12.8932 9.81114 9.22516 9.26267 10.389 9.5148
threshold=-124.96362714501161 -384.33128188538154 353.1418959617161 72.500000000000014 135.97128997168718 -146.56750823178092 1523.40032877164 7.5000000000000009 -308.82377502083847 2773.2976747226926 -352.20104791848752 -405.72147057489559 -651.23323833675556 -160.36843971526068 69.549129615105997 286.50000000000006 -147.28941876482597 81.405713436593501 -3022.2193665871537 1503.6847086165787 1741.5879968771194 1571.9550273738139 1693.1390972456156 -269.09080568798566 36.500000000000007 1680.4970164141932 836.57500086463244 49.500000000000007 1744.5806204727576 1519.4782786762059
decision_type=2 2 2 2 2 2 2 2 2 2 2 2 2 2 2 2 2 2 2 2 2 2 2 2 2 2 2 2 2 2
left_child=1 6 4 5 18 10 -1 -4 -8 -5 13 12 -10 14 -3 16 17 -15 -2 -20 21 25 -23 24 -22 26 27 -7 29 -29
right_child=2 3 7 9 -6 20 8 -9 11 -11 -12 -13 -14 15 -16 -17 -18 -19 19 -21 23 22 -24 -25 -26 -27 -28 28 -30 -31
leaf_value=0.04690881601907633 0.053214479023321472 -0.13203760850220803 0.10711643801740388 0.0047110080028579943 0.036650153090396036 -0.08835518736749981 -0.10475039723971254 0.06193987409802805 -0.074082748090443143 0.13097953820373073 -0.065912422768746579 -0.070890985134882234 0.023608131120700974 0.17779556306719196 0.078972694009010747 0.13219668912213034 -0.069482869926214594 -0.03689197355479517 -0.0022154386666302767 0.072767018053701671 -0.021927248458398024 0.061594281866232253 -0.0064274653509428783 -0.0040121061201197896 -0.077344000886093334 -0.097742873082037163 0.10724422193800334 -0.083014140690309379 -0.099270344008379446 0.051295117676201429
leaf_weight=9.6604860723018628 39.657772287726402 12.960386857390406 102.83086732029915 324.75185704231262 584.53999616205692 19.321539476513863 73.778572484850883 143.14445275068283 22.347500279545784 6.1859259754419318 144.91813822090626 232.94720658659935 25.251180931925774 5.2362721115350741 4.9557013213634482 6.6856888085603705 16.014294639229774 4.7274941205978394 306.80681386590004 17.489118456840515 86.053119361400604 34.652883648872375 195.08824796974659 88.12239208817482 81.97990770637989 21.827811717987061 5.2189744859933844 6.6961411237716701 8.9537445455789548 24.845373943448067
leaf_count=39 161 55 491 1314 2433 78 352 633 99 26 604 1028 110 22 21 28 68 20 1236 72 354 141 789 357 339 88 21 27 36 100
internal_value=0 -0.0300744 0.0368431 -0.0174271 0.0254369 -0.0279801 -0.0682678 0.0808261 -0.0714081 0.00707123 -0.0529116 -0.0626396 -0.0222576 -0.0156625 -0.0736708 0.0161551 -0.0137093 0.0759331 0.00742756 0.00182833 -0.0194704 -0.00811971 0.00383256 -0.0334997 -0.048964 -0.0397317 -0.0202615 -0.0313863 -0.00420467 0.0227818
internal_weight=0 1463.18 1194.47 1099.2 948.494 768.258 363.985 245.975 354.324 330.938 195.498 280.546 47.5987 50.5798 17.9161 32.6637 25.9781 9.96377 363.954 324.296 572.76 316.605 229.741 256.155 168.033 86.8636 65.0358 59.8168 40.4953 31.5415
internal_count=11142 6116 5026 4488 3902 3148 1628 1124 1589 1340 818 1237 209 214 76 138 110 42 1469 1308 2330 1280 930 1050 693 350 262 241 163 127
is_linear=0
shrinkage=0.1


Tree=8
num_leaves=31
num_cat=0
split_feature=14 5 12 5 5 9 49 19 32 10 19 16 23 10 14 48 24 31 42 6 9 101 110 44 114 12 91 11 101 40
split_gain=241.594 74.7901 41.2814 25.9053 14.082 13.8405 10.944 10.7157 10.2281 10.1322 10.1951 10.0251 9.06302 8.7715 8.68608 11.7934 8.58326 8.56621 8.4943 8.09268 8.0178 13.4411 7.87006 7.72887 7.81955 7.66256 8.62095 8.52268 7.75564 7.51592
threshold=-113.03439311080136 23.489798550657614 1569.0696520507606 -224.33138230225663 392.27281280175879 85.295987240875093 1614.1648795661258 407.77874905342543 1591.6737945167115 -140.12956658854327 23.84349679793468 1586.4339013879055 -650.79951342577078 -124.49784811225798 -195.03709530487615 1450.7570941039846 2054.4995404846536 37.732147885491038 62.739669860091915 1642.5474825876784 67.305314329687803 7.1328635675012046 1499.986092082507 1561.0365691599679 1.0000000180025095e-35 1539.6165409189439 1669.418197624899 175.80728050151222 72.706748020690057 1681.5531617755507
decision_type=2 2 2 2 2 2 2 2 2 2 2 2 2 2 2 2 2 2 2 2 2 2 2 2 2 2 2 2 2 2
left_child=1 3 4 17 13 14 8 -4 9 20 -11 19 18 -2 15 -3 -14 -1 29 -10 22 -22 -5 -7 -25 27 -27 -6 -28 -8
right_child=2 5 7 6 25 23 12 -9 11 10 -12 -13 16 -15 -16 -17 -18 -19 -20 -21 21 -23 -24 24 -26 26 28 -29 -30 -31
leaf_value=-0.10243648288820979 -0.048367075243853058 -0.13436968325515827 0.061082146561855559 0.038935593313072503 0.045072088565263263 -0.06560978113176448 -0.093188718861374503 0.1096136351865291 0.016037399205745751 0.20156819310710883 0.020734242020930244 0.088841723198375688 -0.030708193750159318 0.023973764423191383 -0.0060070036005972997 0.044710198389283695 0.089510614807684505 -0.046923532571183396 0.038082904149465802 -0.076006119375509371 0.09142888302402076 -0.06119406107350589 -0.085817922716477771 0.089028716441704153 0.018586882403113621 0.11494478842470179 0.044056555074217761 -0.062582870359734796 0.12823464692450418 -0.050676036328719143
leaf_weight=95.709418997168541 17.250056460499763 11.703320786356928 107.71197482943535 7.4700832515954998 22.405532374978065 6.4629138559103003 49.551444381475449 78.765145182609558 12.542690083384512 5.3964694589376432 7.3831344693899155 5.4144323021173468 176.0529500991106 591.53124791383743 808.30816474556923 5.3624394536018363 6.146256372332572 39.174736857414246 9.5845838040113431 40.064798533916473 15.944174736738207 9.0428792089223844 15.652447775006292 27.816148743033409 36.354814484715462 26.134572580456734 116.69716238975525 10.946497976779936 12.077891290187834 258.69087193906307
leaf_count=470 70 48 480 32 93 26 216 398 52 22 30 22 737 2453 3261 22 25 190 40 168 66 37 67 115 148 117 519 45 54 1119
internal_value=0 -0.0233908 0.0392253 -0.0466035 0.0293156 -0.00386179 -0.0379495 0.0815811 -0.0106817 0.0179477 0.0970954 -0.0407258 -0.044434 0.021924 -0.0074976 -0.0780988 -0.0266528 -0.0863137 -0.0546274 -0.0540611 -0.00307674 0.0361942 -0.0455144 0.0386235 0.0491213 0.053218 0.0625791 0.00973856 0.0519517 -0.0575102
internal_weight=0 1649.83 983.52 753.821 797.043 896.008 618.937 186.477 118.911 60.8892 12.7796 58.0219 500.026 608.781 825.374 17.0658 182.199 134.884 317.827 52.6075 48.1096 24.9871 23.1225 70.6339 64.171 188.262 154.91 33.352 128.775 308.242
internal_count=11142 6913 4229 3293 3351 3620 2633 878 496 254 52 242 2137 2523 3331 70 762 660 1375 220 202 103 99 289 263 828 690 138 573 1335
is_linear=0
shrinkage=0.1


Tree=9
num_leaves=31
num_cat=0
split_feature=10 4 19 3 11 10 21 60 1 36 15 15 4 28 9 1 29 66 7 5 32 26 108 9 46 7 47 29 17 20
split_gain=199.881 51.3629 44.6395 20.5463 13.5525 11.9973 11.0916 10.8507 9.28322 8.71508 8.74693 8.36031 8.23272 7.87506 8.10858 10.2987 7.85214 8.33142 9.73522 8.16457 7.69474 8.34589 7.635 14.8982 7.55539 9.69402 7.54652 9.74627 9.76608 11.3959
threshold=-124.96362714501161 -384.33128188538154 353.1418959617161 72.500000000000014 135.97128997168718 -146.56750823178092 1859.5139981580185 1976.7022916722403 272.50000000000006 1385.6064000193687 57.365250145521834 117.69475773539001 -356.57355386647674 2773.2976747226926 67.551206139300405 272.50000000000006 2068.0401256573305 1565.7316845912476 2110.6748969905452 283.71027960984571 1728.0224619256708 191.1227773906983 -160.38721026237371 69.549129615105997 -293.33462763058225 1996.7972757146588 -146.06481565224678 1741.5879968771194 1571.9550273738139 1693.1390972456156
decision_type=2 2 2 2 2 2 2 2 2 2 2 2 2 2 2 2 2 2 2 2 2 2 2 2 2 2 2 2 2 2
left_child=1 6 4 5 11 12 24 -4 -9 -8 -11 -2 22 14 -5 20 17 18 19 -13 -16 -22 23 -3 25 -1 -7 28 -28 -30
right_child=2 3 7 13 -6 26 9 8 -10 10 -12 16 -14 -15 15 -17 -18 -19 -20 -21 21 -23 -24 -25 -26 -27 27 -29 29 -31
leaf_value=-0.046333595529015226 0.081699678985577409 -0.12617655115563833 0.02390408214825359 -0.027968398405538688 0.030499447798268787 0.063889305316073938 -0.073882796818852306 0.09476912785413108 0.046670670502721119 -0.048219463566919057 0.10754913892184832 0.0095489186667621264 -0.056248828850985803 0.12009045076194357 0.020746291987000402 -0.013431201255475231 -0.059879946376309695 0.063856403849955737 -0.12176877416182333 -0.049919899784300732 0.18794855171136027 0.033945546513687967 0.025017693057805015 0.085571310357558855 0.090056479258629599 0.068797773676884305 -0.034824616168566275 -0.03281777820046676 0.05740438653104072 -0.004780794409700727
leaf_weight=76.450334802269936 13.96779055893421 11.001478001475332 41.858027085661888 62.42564032971859 576.65938140451908 11.560209959745405 240.77713465690613 132.07100902497768 57.639535516500473 11.459982439875604 5.2593261897563925 275.38229295611382 148.02049408853054 5.994160294532775 148.71351543068886 98.290962114930153 18.903031334280968 23.437763273715973 6.2261809259653083 25.19884680211544 5.9535169005393973 8.6053351163864118 27.592513754963875 4.760537087917327 5.0962059795856467 8.0869675725698453 86.293538436293602 242.40449547767639 34.735420480370522 194.39541958272457
leaf_count=336 56 49 179 253 2433 47 1156 665 280 55 23 1110 631 26 604 398 77 98 25 103 24 35 118 20 22 36 350 1004 141 788
internal_value=0 -0.0249859 0.0306606 -0.0143237 0.0209701 -0.0233628 -0.0584886 0.0699875 0.0801554 -0.0690349 0.000780044 0.00583678 -0.0450239 0.00651564 0.00441438 0.012143 0.00280186 0.00638973 0.00199971 0.00456342 0.0275388 0.0969216 -0.00669969 -0.0622232 -0.0281915 -0.03532 -0.0160824 -0.0177397 -0.00615215 0.00464626
internal_weight=0 1437.88 1171.34 1090.75 939.775 760.764 347.13 231.569 189.711 257.496 16.7193 363.116 191.375 329.983 323.989 261.563 349.148 330.245 306.807 300.581 163.272 14.5589 43.3545 15.762 89.6335 84.5373 569.389 557.829 315.424 229.131
internal_count=11142 6116 5026 4488 3902 3148 1628 1124 945 1234 78 1469 818 1340 1314 1061 1413 1336 1238 1213 663 59 187 69 394 372 2330 2283 1279 929
is_linear=0
shrinkage=0.1


Tree=10
num_leaves=31
num_cat=0
split_feature=10 5 5 11 98 101 107 9 1 14 4 17 34 25 29 14 45 98 14 43 36 36 29 30 2 24 39 38 110 33
split_gain=165.274 57.1822 31.5134 21.3168 12.5104 13.5093 16.4427 12.1734 10.9053 10.6602 10.1613 9.60603 10.8603 8.90477 8.73064 8.60465 8.6916 9.62681 8.48143 8.61 10.4128 14.281 8.56924 8.52847 8.32577 7.96369 18.6095 7.78396 11.865 9.61883
threshold=-118.77428000595124 23.489798550657614 552.71939300658119 90.174753623044367 1634.4873968633476 -39.917412136966838 1504.7655582522113 74.184197477501471 275.50000000000006 -189.84522794476285 -96.974186905302062 1616.3481931667957 -447.27151822713921 1753.8496070928502 2271.8504290864967 -87.502650367982923 1430.4655711772496 1705.3863273238792 -183.73607397629584 364.2171150091562 1301.4952751031069 1364.6417002942578 2101.7174191826875 104.93730744716869 93.500000000000014 1534.2911832821603 539.70822018677757 331.21357188607846 1499.986092082507 1608.1352763747975
decision_type=2 2 2 2 2 2 2 2 2 2 2 2 2 2 2 2 2 2 2 2 2 2 2 2 2 2 2 2 2 2
left_child=1 3 4 25 5 6 -2 9 -8 -3 -7 27 -13 15 18 -6 17 -17 -11 22 -21 -22 23 -20 -12 -1 -27 -5 -29 -30
right_child=2 7 -4 11 13 10 8 -9 -10 14 24 12 -14 -15 -16 16 -18 -19 19 20 21 -23 -24 -25 -26 26 -28 28 29 -31
leaf_value=-0.087250425726906861 0.068245940674682426 -0.084639460387054902 0.092997771175391861 -0.027663560632252143 -0.040493141134933484 0.074653172791411454 -0.14787348779759915 0.02047817309516177 2.0655965191540944e-05 0.11809372934698326 0.016393931367043115 -0.050189615495156895 0.075920763465851485 0.042893861892327481 0.11264371880469999 0.077481618003583774 -0.02949324118743489 -0.064437333765107477 -0.0080938466816210183 -0.1012005020034844 0.13056249403681505 0.01121621618415101 -0.089141286634559863 -0.10640719762978899 -0.068153795703357251 0.077124435642508746 -0.072673386809166352 0.098250687249855986 0.057387719146369448 -0.033740243756940728
leaf_weight=108.13404589891434 8.2920950204134005 17.669432699680328 84.640067934989929 273.88960407674313 25.985202357172966 28.844029381871223 14.469533458352091 188.33424282073975 7.6069921255111685 5.3783124834299079 190.01823577284813 223.89031906425953 7.0435371100902548 460.57189185917377 6.1450278759002677 32.011252298951149 17.213785529136658 5.6186516880989066 671.8675742149353 5.4590589106082907 13.861954405903814 36.235157534480095 13.743331998586653 8.9410323649644834 12.407706454396246 10.818783283233641 35.525629863142967 12.417721852660177 15.829556182026861 43.176279872655869
leaf_count=554 34 74 451 1172 107 118 59 772 31 22 806 1000 29 2025 25 142 76 26 2718 22 56 146 56 36 51 52 182 52 66 182
internal_value=0 -0.0182832 0.0349615 -0.0393984 0.0288445 0.0108899 -0.0518167 -0.00233778 -0.096913 -0.00785172 0.019124 -0.0305551 -0.0463432 0.0375212 -0.00607029 0.00690743 0.029366 0.0562912 -0.0070359 -0.00793308 0.0299483 0.0442395 -0.0109632 -0.00938499 0.0112116 -0.0723863 -0.0377041 -0.0199965 0.00940437 -0.00929325
internal_weight=0 1698.36 887.679 730.725 803.039 261.639 30.3686 967.635 22.0765 779.301 231.27 576.247 230.934 541.401 761.631 80.8289 54.8437 37.6299 755.486 750.108 55.5562 50.0971 694.552 680.809 202.426 154.478 46.3444 345.313 71.4236 59.0058
internal_count=11142 7216 3926 3289 3475 1099 124 3927 90 3155 975 2501 1029 2376 3081 351 244 168 3056 3034 224 202 2810 2754 857 788 234 1472 300 248
is_linear=0
shrinkage=0.1


Tree=11
num_leaves=31
num_cat=0
split_feature=10 18 19 3 10 10 45 24 11 25 1 29 23 2 15 32 31 103 20 23 0 40 3 20 40 24 30 2 40 33
split_gain=136.19 39.3454 34.918 16.046 12.4969 9.92478 9.68835 8.86462 11.3064 8.42086 8.41877 8.35302 9.32601 10.9006 8.32887 10.9483 8.32734 8.09948 7.92214 10.3467 7.84015 7.72076 9.92831 10.2705 9.41125 7.54365 12.0468 11.657 7.44718 8.97327
threshold=-124.96362714501161 -379.21335918988774 396.39669125775282 72.500000000000014 -110.91199354361935 -146.56750823178092 1460.5716996123672 1651.9350221381376 172.22658781303247 2072.2683004048827 290.50000000000006 1707.4892121276955 -256.30510985437655 83.500000000000014 116.75266507575601 1767.7785487835583 225.21379516606865 1647.1100973948585 1759.2652024616402 93.44107334073351 4.0000000000000009 1787.7673631544401 20.500000000000004 1913.578982218462 1803.2101429819536 1601.7548565795425 -206.45313594578133 65.500000000000014 1762.9144772318355 1675.4291150848869
decision_type=2 2 2 2 2 2 2 2 2 2 2 2 2 2 2 2 2 2 2 2 2 2 2 2 2 2 2 2 2 2
left_child=1 6 4 5 -2 10 9 8 -4 -1 -3 14 13 21 17 -16 20 -7 -5 -20 -14 28 23 -23 -25 27 -27 -12 29 -13
right_child=2 3 7 18 -6 11 -8 -9 -10 -11 25 12 16 -15 15 -17 -18 -19 19 -21 -22 22 -24 24 -26 26 -28 -29 -30 -31
leaf_value=-0.03703773089399727 0.0088421961331202389 -0.043770957303723414 0.12804637614889311 -0.003013929358655118 0.03124065821254687 0.003649106040461154 -0.07218021095310731 0.079941862225489532 -0.061998113578634911 0.091881785361369178 -0.11042060115806301 -0.068245856823417814 0.023382020415050282 -0.11181473884608562 -0.033866565156691654 0.094035937592247154 -0.091648503595949768 0.072146157895688026 0.016332616667184535 0.11779362169453685 -0.060014806033439033 -0.10122923827896534 0.10005538697880106 0.12200041489570652 -0.040309063218015875 0.15438211900756246 -0.039599979643295924 0.023014497008771947 -0.087341184052439638 -0.011531743821543209
leaf_weight=27.70749269425869 551.30430269241333 241.66626662015915 4.5607097595930091 275.85124979913235 454.41127607226372 170.65850695967674 164.09311582148075 129.39784589409828 9.9826222360134107 6.2004484087228766 10.070583015680315 40.996378898620605 71.512507349252701 17.979752331972122 94.867764785885811 7.2004315853118888 8.8592909276485425 19.20563118159771 52.130738213658333 12.451574191451071 13.382070004940031 9.5778182893991488 9.4516826122999174 6.4643479287624341 7.9853308200836182 7.2051729112863541 5.7614464014768583 18.712396547198296 27.104288384318352 87.314632087945938
leaf_count=129 2247 1078 21 1122 2012 697 858 702 44 29 46 172 292 77 383 29 36 78 213 53 55 41 39 27 34 31 25 82 116 374
internal_value=0 -0.0207853 0.0255557 -0.0140563 0.0189625 -0.0212163 -0.0621249 0.0716222 -0.0024012 -0.0134633 -0.0366074 -0.0138549 -0.0255548 -0.0374118 -0.00180652 -0.0248436 0.000608442 0.0105779 0.00436723 0.0358945 0.010236 -0.0303298 0.0132294 -0.0209253 0.0323033 0.00485881 0.0681902 -0.0236717 -0.0397132 -0.0296523
internal_weight=0 1414.41 1149.66 1216.41 1005.72 875.976 198.001 143.941 14.5433 33.9079 283.416 592.56 300.628 206.874 291.932 102.068 93.7539 189.864 340.434 64.5823 84.8946 188.894 33.4792 24.0275 14.4497 41.7496 12.9666 28.783 155.415 128.311
internal_count=11142 6116 5026 5100 4259 3712 1016 767 65 158 1262 2450 1263 880 1187 412 383 775 1388 266 347 803 141 102 61 184 56 128 662 546
is_linear=0
shrinkage=0.1


Tree=12
num_leaves=31
num_cat=0
split_feature=10 15 82 42 13 9 82 34 48 83 1 1 2 60 44 48 5 42 47 23 37 53 9 52 48 1 9 43 82 52
split_gain=112.177 40.6541 26.7868 22.9197 11.9164 9.39733 9.12599 8.95752 11.1675 9.44764 8.88227 8.66317 8.22633 9.04034 7.83042 7.81124 7.78305 7.76649 7.5271 8.64638 10.0759 8.36348 9.8134 9.07077 8.30206 8.2758 10.0196 7.46021 8.66175 7.81193
threshold=-118.77428000595124 101.27098579856897 8208.4373467946698 -49.971985312734311 1542.7393770600791 86.539835491449381 2150.3310942925723 -576.31416981210384 1426.7092575005584 2034.6353764067537 292.50000000000006 276.50000000000006 87.500000000000014 1606.4875404229722 1588.4248140203401 1422.1363323713601 210.54708987690506 90.016247701444414 -104.98172224297922 -6.5099432569626279 1688.9240993862297 1516.1072655136902 66.594939399425073 1544.1218746534182 1447.0607900220989 131.50000000000003 67.960985574596194 238.79404390352218 1815.5047635227768 1519.5742747986826
decision_type=2 2 2 2 2 2 2 2 2 2 2 2 2 2 2 2 2 2 2 2 2 2 2 2 2 2 2 2 2 2
left_child=1 3 7 -1 12 17 11 8 -2 18 -6 14 27 -14 16 -12 -7 -3 -9 20 25 22 23 -21 -24 -20 -27 -5 29 -29
right_child=2 5 -4 4 10 6 -8 9 -10 -11 15 -13 13 -15 -16 -17 -18 -19 19 21 -22 -23 24 -25 -26 26 -28 28 -30 -31
leaf_value=-0.07699969346956391 -0.13066142812722056 -0.0076277759614076486 0.075722390500842174 -0.081932809832175824 -0.039270814476901131 0.048133063242722172 0.08984171888630467 -0.045457558460034762 0.015304046585260078 -0.064370238228598761 0.10807709349418038 -0.038102618275925551 0.029930669694129247 -0.043314575861540104 0.057426783558502337 -0.011189806468108762 -0.097707314147333607 0.0294120259180999 0.02562373531663675 -0.17171100769547035 0.040307842775620793 0.069174218224260439 -0.018776181001924474 0.025189809162103751 0.06803335105622671 -0.00059546793366533235 -0.15248286305936079 0.026294690453234661 0.078221313258454772 -0.1113785989885195
leaf_weight=102.35347229242325 5.3037285506725302 802.86763435602188 108.21609887480736 5.5202128589153281 400.24887885153294 7.0092879235744459 19.05024079978466 10.23840945959091 446.890725299716 9.1487688124179822 5.9731785655021659 23.511895254254341 24.291616216301918 55.014147713780403 39.968047320842743 68.077788561582565 7.6563284695148468 60.903516694903374 15.657589018344877 4.533151909708975 67.367391318082809 126.30040781199932 15.953023433685301 4.8351482599973679 35.603280708193779 8.9131760001182574 8.4707681983709318 19.267367377877239 28.047256261110306 5.2431030124425879
leaf_count=531 22 3255 580 23 1859 29 84 43 1941 39 25 96 106 235 167 310 31 246 67 20 292 582 71 23 172 38 36 81 116 22
internal_value=0 -0.0151281 0.0291767 -0.0332015 -0.0258727 -0.00169894 0.0277808 0.0225422 0.013592 0.0357245 -0.0333846 0.0126517 6.12629e-05 -0.0208793 0.034494 -0.00156937 -0.0280043 -0.00501614 0.0387988 0.0417979 0.0181227 0.0544949 0.0240638 -0.070087 0.041172 -0.0271098 -0.0746065 0.0286557 0.040271 -0.00315539
internal_weight=0 1675 867.432 714.037 611.684 960.967 97.1958 759.216 452.194 307.021 474.3 78.1456 137.384 79.3058 54.6337 74.051 14.6656 863.771 297.872 287.634 100.409 187.225 60.9246 9.3683 51.5563 33.0415 17.3839 58.0779 52.5577 24.5105
internal_count=11142 7216 3926 3308 2777 3908 407 3346 1963 1383 2194 323 583 341 227 335 60 3501 1344 1301 433 868 286 43 243 141 74 242 219 103
is_linear=0
shrinkage=0.1


Tree=13
num_leaves=31
num_cat=0
split_feature=4 18 2 11 11 0 33 12 3 10 8 33 31 30 43 104 25 27 105 25 7 107 19 104 2 24 36 1 33 2
split_gain=92.7024 34.8755 24.5186 15.7778 12.5868 11.9521 10.9313 9.10008 9.1826 12.4326 9.86564 9.57369 10.4282 12.6806 10.5951 9.06653 8.87781 8.85317 8.81731 12.3223 9.35812 8.4886 8.33128 7.85439 15.4012 8.10379 12.7216 12.1212 9.12844 9.04053
threshold=-57.969923663463526 -390.21303884043385 13.500000000000002 119.16096340491937 181.71387957908146 4.0000000000000009 1732.5466713498729 1563.8764242868585 71.500000000000014 -119.02252114848578 64.292410696462269 1707.5764790316173 162.99690954968619 -170.06348003953505 241.37454119797113 -109.5563816986231 3249.9351540785697 1036.77194329586 116.49686893960144 1736.6126540271832 1855.0817000480868 1515.4878899874029 123.51553019747452 -130.81798482898384 28.500000000000004 -476.61102441019619 1193.0441397993429 14.500000000000002 1650.450305265839 85.500000000000014
decision_type=2 2 2 2 2 2 2 2 2 2 2 2 2 2 2 2 2 2 2 2 2 2 2 2 2 2 2 2 2 2
left_child=1 -1 4 18 -2 16 7 8 10 15 -5 12 14 -14 -12 -10 -4 -13 19 20 -3 -8 -17 25 -25 28 27 -27 29 -21
right_child=2 3 5 6 -6 -7 21 -9 9 -11 11 17 13 -15 -16 22 -18 -19 -20 23 -22 -23 -24 24 -26 26 -28 -29 -30 -31
leaf_value=-0.056868824564317223 0.044920006760851498 0.1874462357180855 0.011444195295774279 0.10170551871811009 0.1178429402910374 0.048624543678659315 0.087554693831637359 0.073060448696704014 0.0080175580418311958 0.063131283088148069 0.14491004953977579 -0.031712397329243705 -0.14754430237670632 -0.025302990687586971 -0.00068976727184795656 0.031917564644930459 -0.089253860923409797 -0.13162559670082594 -0.037383585217222591 0.10221604199906527 0.024114953819737668 0.016303656950528243 -0.075390380154150241 0.15085103903165956 -0.015420143555574939 0.038458586602435993 -0.016060266644662403 -0.083543844184622337 -0.023145715446514233 -0.009779592146467014
leaf_weight=169.744787722826 228.31928011775017 4.8851011544466045 514.74534705281258 6.8640233427286139 26.406966507434845 93.053656801581383 19.397867113351822 14.691389560699461 186.29919293522835 35.058849260210991 5.1609506011009207 26.065909489989281 9.0500761270523054 136.14754323661327 158.1702829003334 9.9163018167018873 8.906642407178877 13.442008122801779 202.4994288533926 17.192666888237003 12.443215280771254 121.15061755478382 26.759479284286499 8.2440736591815966 17.180169224739075 9.6096807420253736 345.46150359511375 53.371886670589447 29.78717614710331 12.410365790128706
leaf_count=928 1142 20 2216 28 166 408 80 63 755 145 21 106 38 554 644 40 38 55 872 73 53 499 108 34 75 41 1513 240 133 54
internal_value=0 -0.0139346 0.0263802 -0.00901457 0.0524798 0.0156 0.000929129 -0.00471593 -0.00658014 0.00777445 -0.0170168 -0.0193582 -0.0134232 -0.0329222 0.0039109 -0.000929425 0.00973145 -0.0657064 -0.0197265 -0.0127236 0.0701604 0.0261374 -0.0463767 -0.0156354 0.038495 -0.0185771 -0.0235958 -0.0649288 0.0159379 0.0552645
internal_weight=0 1651 871.432 1481.26 254.726 616.706 768.174 627.626 612.935 258.034 354.901 348.037 308.529 145.198 163.331 222.975 523.652 39.5079 713.085 510.586 17.3283 140.548 36.6758 493.258 25.4242 467.833 408.443 62.9816 59.3902 29.603
internal_count=11142 7172 3970 6244 1308 2662 3136 2557 2494 1048 1446 1418 1257 592 665 903 2254 161 3108 2236 73 579 148 2163 109 2054 1794 281 260 127
is_linear=0
shrinkage=0.1


Tree=14
num_leaves=31
num_cat=0
split_feature=10 5 11 9 10 43 45 4 28 48 51 2 29 13 20 16 41 35 45 52 108 37 50 12 25 35 39 37 50 45
split_gain=75.9674 27.7492 26.5038 10.4083 11.3177 10.2933 11.298 11.0363 10.1304 9.25147 9.70424 10.1735 9.16946 10.5588 8.91867 8.73097 8.56703 8.15916 10.2724 8.83603 8.77916 8.21863 9.67646 8.68844 9.2404 8.08463 8.47157 9.57295 8.70229 7.69611
threshold=-124.96362714501161 552.71939300658119 90.174753623044367 107.36223158216646 -146.56750823178092 363.63407842940313 1436.4645679296998 241.25238801470667 2318.3286221721241 1407.9971823076901 93.097911168637111 81.500000000000014 2139.3091363652675 1569.1673221470207 1913.578982218462 1626.3583840985714 1022.8546339492866 -273.43217403528678 1424.9264777144597 1585.5117376858686 -162.21234074331502 1731.0599054624402 -107.17058346691873 1516.2233709394081 1731.7550369124754 -284.26047142908857 714.50178617040922 1711.6115680795372 -130.56923373742094 1392.8225524829879
decision_type=2 2 2 2 2 2 2 2 2 2 2 2 2 2 2 2 2 2 2 2 2 2 2 2 2 2 2 2 2 2
left_child=2 5 -1 4 9 7 8 12 14 10 -4 -12 13 -2 -7 -16 -6 19 29 25 -20 23 -23 -22 -25 -18 27 -27 -29 -19
right_child=1 -3 3 -5 16 6 -8 -9 -10 -11 11 -13 -14 -15 15 -17 17 18 20 -21 21 22 -24 24 -26 26 -28 28 -30 -31
leaf_value=-0.057298366427734129 0.010365564413152928 0.078804771843146382 0.07230137085721669 0.036131472440611774 0.1631623600984024 0.0069188292684238678 0.050103684409805116 -0.098011457855423506 0.068212894792976236 -0.031716979514717622 0.11521962886280963 -0.04505913187198024 -0.084475783608503163 0.10139842853080346 -0.19081403472168962 -0.022476728245916525 -0.0089802441420187926 -0.04623768102293635 -0.041442984226222959 -0.11512743101959902 0.094903325856693921 0.041543535661400989 -0.094436052053736536 -0.12982932733743272 -0.0063385096651464457 0.06024602102415938 -0.13111567492370829 -0.01147709439215302 -0.15430855199519089 0.085993806659604169
leaf_weight=137.84467168152332 746.27548862993717 73.331577941775322 18.277204930782318 44.998420014977455 2.9887550920248023 81.075238257646561 151.37923388183117 9.4590274244546872 23.081221833825111 364.52909944951534 4.691488295793536 25.407027497887611 9.9979526400566083 12.962754771113394 4.7003914862871161 8.9433956593275052 426.24795840680599 5.374765649437907 42.91652424633503 8.6104594618082029 8.068088084459303 79.574099585413933 5.6016134172677985 6.3343676030635825 139.52890954911709 8.552519842982294 11.019882231950758 10.684490814805033 7.1004163622856131 24.307181105017662
leaf_count=792 3179 455 81 192 12 351 710 51 114 1658 20 109 43 59 22 42 1773 22 181 38 33 329 23 26 574 35 45 45 29 99
internal_value=0 0.0193357 -0.0156926 -0.0110854 -0.0128562 0.015174 0.0320311 0.00934678 0.00880697 -0.0262641 0.0148256 -0.0200763 0.0106669 0.0119198 -0.00566912 -0.0804702 -0.00582088 -0.00646514 0.00609182 -0.0147539 0.000202475 0.00767728 0.0326008 -0.00611379 -0.0117013 -0.0128897 -0.0574963 -0.0266931 -0.0685009 0.0620495
internal_weight=0 1121.21 1382.66 1244.81 1199.81 1047.87 269.179 778.695 117.8 412.905 48.3757 30.0985 769.236 759.238 94.719 13.6438 786.91 783.921 311.706 472.216 282.024 239.107 85.1757 153.931 145.863 463.605 37.3573 26.3374 17.7849 29.6819
internal_count=11142 5026 6116 5324 5132 4571 1239 3332 529 1868 210 129 3281 3238 415 64 3264 3252 1287 1965 1166 985 352 633 600 1927 154 109 74 121
is_linear=0
shrinkage=0.1


Tree=15
num_leaves=31
num_cat=0
split_feature=10 5 5 5 44 29 48 47 6 40 47 7 37 41 24 9 48 34 24 6 75 11 3 45 23 28 41 48 44 6
split_gain=65.0774 28.7453 16.5574 14.2791 7.67099 17.3661 8.24839 13.624 9.97773 9.69657 9.65419 7.96228 15.3315 7.35946 7.31385 7.27633 8.38784 8.34506 10.0446 13.5876 9.71276 8.29639 8.21406 7.99051 7.6197 8.97755 8.45546 7.58891 7.51601 7.5506
threshold=-113.64613648837484 23.489798550657614 552.71939300658119 -234.65338554974628 1634.4873968633476 1741.5879968771194 1458.5464299372754 1.0000000180025095e-35 1816.2305835282814 1706.5991571196798 -35.688888225562998 1920.2418864610236 1748.8275012098982 1354.9604877959164 1485.2462565491235 67.761709648617781 1517.0732561612633 -558.56119749652783 1.0000000180025095e-35 1744.2268874182607 1808.3467203547514 130.86140770559919 31.500000000000004 1470.3891345044931 -3075.3532907072236 1966.583791668329 1245.4588211541211 1481.9042680845146 1575.0857762916523 1591.7982498597419
decision_type=2 2 2 2 2 2 2 2 2 2 2 2 2 2 2 2 2 2 2 2 2 2 2 2 2 2 2 2 2 2
left_child=1 3 4 13 5 6 7 10 -8 -9 -2 -10 -13 -1 -15 16 17 18 19 -3 22 23 -19 -22 25 -21 -26 -27 29 -17
right_child=2 15 -4 -5 -6 -7 8 9 11 -11 -12 12 -14 14 -16 28 -18 20 -20 24 21 -23 -24 -25 26 27 -28 -29 -30 -31
leaf_value=-0.072416243046326656 -0.068669689596692882 -0.063322847255000647 0.074323101550534731 -0.019876497684120739 0.02902420804955429 -0.1252963471714359 0.11557597186717242 -0.0046377105778615249 0.025202321140636082 -0.16414233216763008 0.067568629273189171 -0.14793482259460136 0.086203042855921869 -0.037982503027160511 0.11956987137431969 0.077477461576219792 0.11097016270438209 0.16325098440814262 -0.020679848744745353 0.088501433450353773 0.035425408514050918 -0.11621170013513793 0.033309290039748939 -0.043944665170623745 0.21716726636991679 -0.064419071335838574 0.050146084495935876 0.058342087633036444 0.012516222896222154 -0.032348015664933803
leaf_weight=84.267622277140617 7.9213080853223792 14.115980833768843 66.798740059137344 588.03690706193447 417.0056204944849 9.8269884884357435 10.994563922286032 6.3960096389055243 95.537631809711456 9.4311973452568036 15.147986531257631 7.5528529286384565 4.4411274939775467 11.353755429387091 3.9790332764387122 6.917698308825492 5.8839501440525046 5.4214937984943381 402.5326970666647 13.258371040225027 29.386570513248444 6.8153405189514151 47.37244601547718 22.316697344183922 4.9229058325290662 12.88784369826317 7.8873199075460434 8.2650896310806257 494.54525591433048 65.84456479549408
leaf_count=524 33 58 438 2682 1965 44 47 27 422 40 65 33 20 70 22 28 25 22 1644 54 120 28 192 91 20 53 32 34 2040 269
internal_value=0 -0.0096372 0.0271598 -0.0258071 0.0217676 0.00367447 0.0117254 -0.0282325 0.0248383 -0.0996841 0.0207885 0.0155608 -0.0612383 -0.0608212 0.00290413 4.52113e-05 -0.00782 -0.00903519 -0.0149356 0.0227612 0.0155536 -0.0125036 0.0466532 0.00116688 0.0484943 0.0239853 0.114331 -0.0164526 0.00810119 -0.0219066
internal_weight=0 1836.01 651.054 687.637 584.255 167.25 157.423 38.8965 118.526 15.8272 23.0693 107.532 11.994 99.6004 15.3328 1148.37 581.067 575.183 463.87 61.3375 111.313 58.5186 52.7939 51.7033 47.2215 34.4113 12.8102 21.1529 567.308 72.7623
internal_count=11142 8008 3134 3298 2696 731 687 165 522 67 98 475 53 616 92 4710 2373 2348 1895 251 453 239 214 211 193 141 52 87 2337 297
is_linear=0
shrinkage=0.1


Tree=16
num_leaves=31
num_cat=0
split_feature=4 10 12 0 7 9 45 5 11 7 108 13 49 46 32 31 80 32 31 6 32 1 46 25 12 1 49 40 37 52
split_gain=54.6077 26.6223 18.8288 11.8812 11.4882 8.94278 8.29223 7.95829 7.85928 10.1513 7.95348 8.51125 10.0107 13.7624 9.89629 9.74238 8.5003 10.7626 11.2232 10.2511 7.80434 7.98783 9.69533 7.61267 9.1177 15.3133 14.6633 11.6632 8.50951 13.2315
threshold=4.8285767780629394 -146.56750823178092 1577.5337567668478 4.0000000000000009 2236.5243446034524 74.887928432829099 1412.5233542310937 431.18375904131682 109.1577742929435 1729.8045329189915 -175.89641369757496 1571.8413802505522 1625.5281488516887 -325.38418736965667 1574.3565231583798 223.74485375656607 -372.04561704998781 1622.4612783982773 -96.544602723426792 1878.3324924812789 1652.9899629455726 184.50000000000003 -283.77270424127192 2553.7093491980822 1536.4838310602024 252.50000000000003 1582.8822014946306 1706.5991571196798 1672.6186712894339 1527.3866406009345
decision_type=2 2 2 2 2 2 2 2 2 2 2 2 2 2 2 2 2 2 2 2 2 2 2 2 2 2 2 2 2 2
left_child=1 4 3 23 5 8 7 -5 9 -1 11 12 13 -11 -15 -14 -12 18 -18 -20 -8 -22 -23 24 25 27 -27 -2 29 -26
right_child=2 -3 -4 6 -6 -7 20 -9 -10 10 16 -13 15 14 -16 -17 17 -19 19 -21 21 22 -24 -25 28 26 -28 -29 -30 -31
leaf_value=0.16085387507728477 0.081446965093342025 -0.0005170030146284375 0.075257867765380279 -0.13901686450990899 -0.060855235650136091 0.013547675216773039 0.12196567799255383 0.042162863094324127 -0.046917014501899598 0.14667565002508451 0.038202655079575355 0.028961582605988714 -0.10403411572245405 0.065950451693948184 -0.12549781831678575 0.049224947906026661 -0.07553963079883623 -0.043746010601619263 0.010198236395840377 0.1443793150325072 0.063687842186478869 -0.14450058065405832 0.069498134112282603 -0.054353350866147947 -0.10310835627710935 -0.14794646528335018 -0.0041272700610095418 -0.023024200712164967 0.016402686943567196 0.078002524413195176
leaf_weight=3.1796540319919577 18.464448928833008 1344.242523342371 71.226536735892296 4.0366002172231656 82.912620782852173 66.319926977157593 18.807920128107071 6.0700486302375793 125.09974151849747 4.7789853364229229 32.358827322721481 12.14349991083145 39.119561538100243 4.2751103639602643 7.328515350818634 4.6396886110305777 14.29773937165737 82.856040358543396 71.792520135641098 6.1840669661760321 46.053587287664413 4.4161687791347504 4.0666126757860166 15.962686777114866 4.4353912919759741 13.655010402202608 14.743509277701376 25.367882505059242 277.55358766764402 44.55916203558445
leaf_count=13 78 5602 456 18 506 281 86 32 550 23 157 67 211 21 37 23 74 403 351 29 237 21 20 73 19 56 61 106 1311 220
internal_value=0 -0.00813554 0.0271658 0.0202901 -0.0265124 -0.0205098 0.0547176 -0.0302004 -0.0260451 -0.0168172 -0.0188364 -0.0474023 -0.0628213 0.00385736 -0.0549628 -0.0877844 -0.00888463 -0.0175849 0.0059059 0.0208397 0.066419 0.0472627 -0.0419104 0.0133629 0.0160735 -0.0160771 -0.0732806 0.0209845 0.023185 0.0616069
internal_weight=0 1901.53 569.419 498.193 557.286 474.374 83.4509 10.1066 408.054 282.954 279.775 72.2854 60.1419 16.3826 11.6036 43.7593 207.489 175.13 92.2743 77.9766 73.3443 54.5364 8.48278 414.742 398.779 72.2309 28.3985 43.8323 326.548 48.9946
internal_count=11142 8348 2794 2338 2746 2240 414 50 1959 1409 1396 382 315 81 58 234 1014 857 454 380 364 278 41 1924 1851 301 117 184 1550 239
is_linear=0
shrinkage=0.1


Tree=17
num_leaves=31
num_cat=0
split_feature=18 15 42 16 110 37 1 24 42 8 49 27 13 17 48 38 27 38 39 1 109 51 30 39 53 39 24 1 20 9
split_gain=45.4648 25.074 16.0947 13.7664 8.77152 9.99688 8.90646 14.0303 10.0676 8.45151 8.25737 8.15306 8.01875 7.92583 13.4116 8.1367 7.83277 7.77916 7.68706 7.65601 8.45368 7.55691 7.3889 7.24966 10.1134 7.28872 7.18721 7.16974 7.15343 7.1355
threshold=3.7831109766821105 101.27098579856897 -49.971985312734311 1671.4482834240241 1529.7447040521142 1675.0056249752138 152.50000000000003 1762.1239929538767 129.42481373377623 64.643888556550138 1597.4023350470432 862.63095991176181 1542.7393770600791 1586.9300253301631 1441.8071875046542 313.02888967261111 493.4371493751824 1.0000000180025095e-35 709.60974155657232 272.50000000000006 101.80248188018369 105.05775231827364 -284.89437356336549 865.07462263229343 1559.3116559062489 928.18465507742951 -7759.1607020661586 46.500000000000007 1850.4641119565733 68.724726238968103
decision_type=2 2 2 2 2 2 2 2 2 2 2 2 2 2 2 2 2 2 2 2 2 2 2 2 2 2 2 2 2 2
left_child=1 2 26 4 6 -6 8 10 27 11 -8 16 13 19 -15 -16 28 -14 -18 20 -4 -22 -7 -11 25 -25 -1 -2 -3 -24
right_child=3 9 12 -5 5 22 7 -9 -10 23 -12 -13 17 14 15 -17 18 -19 -20 -21 21 -23 29 24 -26 -27 -28 -29 -30 -31
leaf_value=0.055313155838733918 0.019309804344581724 0.10379208953016694 0.052241431372802342 0.075544536609460589 0.066028165032426603 -0.12773084395631709 -0.14881508137343968 0.07953624161515882 -0.1035693305640094 -0.001503594391160458 0.0041297484230292626 0.094988281261340152 0.13366380497913663 -0.0094342580736033743 0.18617969506996135 0.034304258898365261 -0.08170334149131786 -0.023498764156082083 0.067957064051217084 -0.054560168614735519 -0.13662611557084955 -0.004124410930577721 0.0088847359865980354 0.098469471088273475 -0.038351400196060717 -0.0014282838615054905 -0.068239686820866327 0.15009461950288649 -0.018225716858339455 0.042643693096715694
leaf_weight=4.9840849637985221 22.618838191032413 12.020987480878832 27.512511894106865 56.0977588519454 58.98820261657238 3.32067547738552 12.515829175710683 5.3436336219310752 5.5878395885229102 1244.6188661307096 4.9166854321956626 18.0934127420187 3.1717892736196509 17.722304925322533 8.1638160943984968 6.2115200608968726 11.727803543210031 447.11630171537399 4.8518135994672766 26.40363883972168 4.770331159234046 44.057901293039322 156.57889991998672 23.245674163103104 12.435697853565214 10.649717226624487 85.057993233203888 5.145179718732833 8.0037787109613401 104.32722357660532
leaf_count=26 100 49 119 386 305 17 52 24 27 5166 21 76 15 78 35 26 48 2179 20 114 21 190 777 96 52 44 505 24 33 517
internal_value=0 -0.00631668 -0.0220422 0.0293076 0.0224701 0.0288068 -0.0140202 -0.0622242 0.0188985 0.00157354 -0.105678 0.0400745 -0.0159856 0.00540679 0.0487831 0.120555 0.0129308 -0.0223917 -0.0379071 -0.00814408 0.00790965 -0.0170693 0.0204972 -5.77481e-05 0.0387829 0.0670822 -0.0614007 0.0435466 0.0550223 0.0223838
internal_weight=0 2020.82 675.172 435.441 379.343 323.215 56.128 22.7761 33.3519 1345.65 17.4325 54.6978 585.13 134.842 32.0976 14.3753 36.6044 450.288 16.5796 102.744 76.3407 48.8282 264.227 1290.95 46.3311 33.8954 90.0421 27.764 20.0248 260.906
internal_count=11142 8892 3308 2250 1864 1616 248 97 151 5584 73 226 2777 583 139 61 150 2194 68 444 330 211 1311 5358 192 140 531 124 82 1294
is_linear=0
shrinkage=0.1


Tree=18
num_leaves=31
num_cat=0
split_feature=10 72 14 67 17 32 2 6 21 9 4 32 44 29 39 14 48 8 8 23 2 2 31 1 1 25 104 17 42 40
split_gain=38.2524 18.8381 13.8815 8.40915 10.1988 12.7239 9.78375 9.72892 9.53369 9.01909 10.6828 8.05367 8.02547 16.4916 8.00899 8.11063 7.99712 7.73982 9.55358 8.00942 12.2573 7.6393 7.56101 8.58936 14.6292 7.57387 7.34816 7.2956 7.14025 7.15478
threshold=-113.64613648837484 -390.21303884043385 -18.323044043662886 1539.0250172186711 1576.4949579483095 1603.6114528280377 24.500000000000004 2024.0936268698465 1773.2157194143376 65.857609241678887 -230.9419127318217 1794.1583932954511 1634.4873968633476 1741.5879968771194 861.19354613332746 -137.71365940457926 1529.3378615706304 67.284357930517714 68.530520587896916 -658.96128125070197 39.500000000000007 51.500000000000007 37.732147885491038 211.50000000000003 270.50000000000006 1525.5010777659074 -127.50951814987774 1581.9728403728229 154.27566878511462 1816.5359174477869
decision_type=2 2 2 2 2 2 2 2 2 2 2 2 2 2 2 2 2 2 2 2 2 2 2 2 2 2 2 2 2 2
left_child=1 22 12 4 7 9 11 8 14 10 -6 -5 13 -2 -3 -16 28 19 -19 27 -21 -10 25 -24 -25 -1 -17 -7 29 -14
right_child=2 3 -4 6 5 17 -8 -9 21 -11 -12 -13 16 -15 15 26 -18 18 -20 20 -22 -23 23 24 -26 -27 -28 -29 -30 -31
leaf_value=0.27346406340218909 0.007598466102999313 -0.0035699463047830235 0.089791200806786986 0.017107491145707275 0.086234596868069627 0.034138767571173859 -0.017013870438372623 0.11435719157743734 0.033951562375046838 0.09272026655422308 -0.084087400382334365 -0.03327331411856476 0.028298538180971514 -0.12182537210563443 0.12257876541574896 -0.0511432715852621 0.086449941686268406 -0.1110616515569548 0.00056394975652434881 -0.028417765555075265 0.096146747398628774 -0.096708761367200316 -0.042062501838357289 0.19919782146167908 -0.0057442871454973735 -0.059728317533035702 0.084948487266535699 -0.089601990192853587 -0.037476491482317902 -0.032611526734842661
leaf_weight=0.68699032068252464 159.40477585792542 582.86776112020016 28.208996266126633 170.91628932952881 7.3019901514053345 10.302876248955728 664.13163356482983 7.0720446854829779 5.9105259180068996 37.392680555582047 7.4291927218437177 38.962684988975525 371.9732801169157 10.493566393852232 10.205864280462267 9.0318465530872363 20.3525375649333 10.361274421215056 29.488093554973602 11.555705264210699 24.968334808945656 18.420300245285034 31.798636674880981 4.5523522347211864 14.828039824962614 98.352611035108566 7.0756525248289099 8.8639511018991453 19.097183182835579 20.339423581957817
leaf_count=3 710 2401 225 726 31 42 2933 37 24 154 30 165 1832 48 42 37 123 43 125 47 101 77 189 27 83 626 29 36 97 99
internal_value=0 -0.00737628 0.0212307 -0.00431153 0.00317798 0.0268696 -0.0110661 -0.00228328 -0.00358536 0.0666114 0.00033824 0.00775462 0.0180162 -0.000395241 -0.00113371 0.0528313 0.0252611 0.00518762 -0.0284599 0.029264 0.0567362 -0.0649683 -0.0412895 -0.0100801 0.0423955 -0.0574171 0.0086387 -0.0230868 0.022234 0.0251407
internal_weight=0 1812.48 629.87 1662.26 788.248 147.664 874.011 640.584 633.512 52.1239 14.7312 209.879 601.661 169.898 609.181 26.3134 431.762 95.5402 39.8494 55.6909 36.524 24.3308 150.219 51.179 19.3804 99.0396 16.1075 19.1668 411.41 392.313
internal_count=11142 8008 3134 7080 3256 609 3824 2647 2610 215 61 891 2909 758 2509 108 2151 394 168 226 148 101 928 299 110 629 66 78 2028 1931
is_linear=0
shrinkage=0.1


Tree=19
num_leaves=31
num_cat=0
split_feature=5 2 10 5 37 34 3 36 26 46 53 31 39 36 13 47 3 27 17 13 31 48 27 17 1 29 29 75 96 27
split_gain=32.4712 19.4639 9.90729 9.05071 8.08507 9.59603 7.75975 8.83522 8.21672 7.20092 6.93056 6.96935 12.4629 8.86334 8.11211 10.0376 11.8886 11.7651 8.27429 9.54236 9.93351 8.55595 7.78193 8.12664 10.068 11.1593 14.864 8.74212 10.4094 7.57413
threshold=23.489798550657614 10.500000000000002 -89.010899417168375 -308.82377502083847 1796.666379246449 -833.33926153953814 34.500000000000007 1521.0936216995412 -47.703074997331434 -422.86880970689089 1500.4321115673608 196.23803374689342 800.43154615763467 1469.7432018467271 1553.2142361944545 -96.616919053336446 5.5000000000000009 275.57477490454033 1576.9943433606436 1539.0250172186711 136.42418950746278 1456.7300109724349 1892.1969958264224 1586.098506489185 124.50000000000001 1506.8063308285361 1383.915050082092 1849.2617744853123 -11.692449436932064 -16.389021070275245
decision_type=2 2 2 2 2 2 2 2 2 2 2 2 2 2 2 2 2 2 2 2 2 2 2 2 2 2 2 2 2 2
left_child=3 2 -2 4 -1 -6 8 -8 9 -3 -5 13 -13 14 18 16 -16 29 -12 -20 22 -22 23 -21 -25 26 -26 -27 -29 -18
right_child=1 6 -4 10 5 -7 7 -9 -10 -11 11 12 -14 -15 15 -17 17 -19 19 20 21 -23 -24 24 25 27 -28 28 -30 -31
leaf_value=-0.079341391739385481 0.021700079865027481 0.038410172295622942 0.069002339537804963 0.089357570385489749 -0.11882708157187452 0.11131989745588285 0.0057615585588071073 0.10345754411343733 -0.0044806618325179655 -0.069316452605944295 -0.032021488890310271 -0.058647365149604239 0.070964556969778145 0.074471540176738904 0.14045152063128027 -0.040202830867631718 0.011491890435907641 0.10049923032646108 0.051893733782323537 -0.11228802500979103 0.085236095543949827 -0.053834352701417156 -0.10398602303247528 -0.029091200113513245 0.0098465093061691489 -0.038931630608096256 0.26001484397648034 0.1540354150169809 0.0081782658473673105 -0.058448837683427006
leaf_weight=39.668797731399536 158.4882779866457 7.4536360204219809 61.444663420319557 6.2242342829704276 2.7827448919415474 5.1916473284363738 1253.3524122089148 9.3257465660572034 239.87132708728313 37.040369495749474 68.97014607489109 69.104567334055901 8.3109636902809125 11.434895396232603 5.820601522922515 178.91196349263191 30.905528455972668 8.7225030064582807 39.898016452789307 6.9697930812835684 19.788493558764461 5.69754834473133 8.9735668599605543 60.282408371567726 5.001884311437605 20.301341459155083 4.5223951488733292 6.8868148028850582 16.900281131267548 31.029197558760647
leaf_count=293 766 31 473 26 21 38 5364 43 1011 156 298 323 37 50 33 930 156 40 172 32 90 26 41 285 24 94 20 32 76 161
internal_value=0 0.00707939 0.0349153 -0.018883 -0.0608714 0.0310078 0.00312214 0.00648311 -0.0118017 -0.0512701 -0.0156284 -0.0167024 -0.0447328 -0.0126159 -0.0145325 -0.0272411 0.00308141 -0.00823487 -0.00224734 0.00827156 -0.00293361 0.0541461 -0.0141378 -0.00746707 -0.00105257 0.0304742 0.128633 0.00926919 0.0504067 -0.0235483
internal_weight=0 1766.98 219.933 662.3 47.6432 7.97439 1547.04 1262.68 284.365 44.494 614.657 608.433 77.4155 531.017 519.582 255.39 76.4778 70.6572 264.193 195.223 155.325 25.486 129.838 120.865 113.895 53.6127 9.52428 44.0884 23.7871 61.9347
internal_count=11142 7844 1239 3298 352 59 6605 5407 1198 187 2946 2920 360 2560 2510 1320 390 357 1190 892 720 116 604 563 531 246 44 202 108 317
is_linear=0
shrinkage=0.1


Tree=20
num_leaves=31
num_cat=0
split_feature=15 10 48 34 41 40 47 43 42 12 29 7 31 44 42 34 1 32 39 44 41 26 7 5 3 3 49 54 54 45
split_gain=27.9363 17.3131 14.4748 9.43563 9.00889 9.71371 8.62446 8.09032 8.93031 8.85165 7.95105 10.909 10.9654 9.32281 8.95871 7.81219 9.58893 9.17867 8.41625 8.19593 7.3238 7.26391 7.03287 6.7113 8.22397 8.59486 7.11984 6.67117 9.74597 12.4628
threshold=169.92679388077491 -146.56750823178092 1470.4669398485505 -569.93240901543913 1131.5946984528557 1727.8593014561886 -72.117421652790071 363.63407842940313 17.993088623701741 1535.242616851853 -895.14661770715759 1639.488533984756 214.9142017268895 1587.9238276329552 -31.051821774538436 -595.70712312635135 279.50000000000006 1642.2424648605454 698.90155264343718 1639.9696290428622 1215.9544714657934 2848.3290654909169 2236.5243446034524 96.405161387509807 59.500000000000007 84.500000000000014 1570.6151161358746 -67.812852098948824 -75.857809500863013 1452.5800437003554
decision_type=2 2 2 2 2 2 2 2 2 2 2 2 2 2 2 2 2 2 2 2 2 2 2 2 2 2 2 2 2 2
left_child=1 22 3 4 5 -2 -4 8 9 -8 11 -3 14 -14 -13 16 17 -6 -17 20 -18 -16 -1 -23 -25 -26 -27 28 -10 -30
right_child=2 10 6 -5 15 -7 7 -9 27 -11 -12 12 13 -15 21 18 19 -19 -20 -21 -22 23 -24 24 25 26 -28 -29 29 -31
leaf_value=-0.016206098667394642 -0.025833451784078809 -0.090617899367831156 -0.11057576990384339 0.027248866008924684 0.058531738260140312 -0.20331418438242954 -0.03746163863739941 0.062911996396206163 0.013556666136532168 0.08739047047265483 -0.0018415023920448832 0.11623113131926971 -0.029834103241688448 0.11334528241484143 0.1098441486240902 -0.0066173191928231003 -0.0029597152638654953 -0.018097816345433105 -0.15457497178055313 0.069957244980189737 -0.12516746617231603 -0.04985127352993108 -0.04945845460185639 0.071100227833621979 -0.075504928706356056 -0.039370511355211912 0.10645039602704504 0.062059265057767148 0.013740512186542873 -0.18103718750270972
leaf_weight=437.59375578165054 7.9254305362701398 7.5869341045618048 3.8595784157514563 86.348279997706413 36.301730781793594 5.0479119643568993 6.8192386478185645 96.228173434734344 82.832481227815151 33.945101030170918 1325.6207379698753 7.781813755631446 5.6316513717174557 23.625813439488411 5.8819302320480338 8.7255943715572339 8.2909901142120415 27.451056018471718 6.872661665081977 4.8085890710353842 12.003706023097036 22.959574401378632 74.421700142323971 17.068703681230545 13.104306787252428 6.2872672080993635 7.1631762981414795 21.862697131931782 6.895142197608946 6.2741543501615524
leaf_count=2146 35 31 18 427 157 23 29 630 418 198 5582 32 23 99 24 40 35 122 30 22 50 95 506 72 54 26 30 121 34 33
internal_value=0 -0.0052417 0.0220888 0.00215502 -0.0162973 -0.094891 0.0377894 0.0400363 0.0261593 0.0665047 0.00036485 0.0253436 0.0333779 0.0857853 0.0142705 -0.00653586 0.00492237 0.0255361 -0.0718081 -0.0474287 -0.0752419 0.0033212 -0.0210393 -0.00608901 0.0169436 -0.0178668 0.038288 0.0122056 0.000852274 -0.079056
internal_weight=0 1954.73 462.493 203.776 117.428 12.9733 258.717 254.857 158.629 40.7643 1442.71 117.091 109.504 29.2575 80.2468 104.454 88.8561 63.7528 15.5983 25.1033 20.2947 72.465 512.015 66.583 43.6235 26.5548 13.4504 117.864 96.0018 13.1693
internal_count=11142 8720 2422 941 514 58 1481 1463 833 227 6068 486 455 122 333 456 386 279 70 107 85 301 2652 277 182 110 56 606 485 67
is_linear=0
shrinkage=0.1


end of trees

feature_importances:
point_glicko_rating_diff_high=33
match_num=23
a_player_rank=23
b_glicko_rd=20
glicko_rating_diff_low=19
b_service_glicko_rating=16
a_return_first_won_glicko_rating=16
b_player_rank=15
point_glicko_rating_diff_low=15
a_glicko_rating=14
glicko_rating_diff_high=13
b_point_glicko_rating=13
game_glicko_rating_diff_high=13
game_glicko_rating_diff_low=13
a_service_glicko_rating=13
b_glicko_rating=12
tiebreak_glicko_rating_diff_low=12
a_return_ace_glicko_rating=12
set_glicko_rating_diff_low=11
b_return_glicko_rating=11
a_tiebreak_glicko_rating=11
a_first_won_glicko_rating=11
return_first_won_glicko_rating_diff_low=11
a_point_glicko_rating=10
b_game_glicko_rating=10
service_glicko_rating_diff_low=10
first_won_glicko_rating_diff_high=10
b_return_first_won_glicko_rating=10
return_glicko_rating_diff_high=9
return_ace_glicko_rating_diff_low=9
b_first_won_glicko_rating=9
a_glicko_rd=8
set_glicko_rating_diff_high=8
ace_glicko_rating_diff_high=8
a_return_glicko_rating=7
tiebreak_glicko_rating_diff_high=7
a_ace_glicko_rating=7
b_return_ace_glicko_rating=7
a_set_glicko_rating=6
return_glicko_rating_diff_low=6
b_tiebreak_glicko_rating=6
return_ace_glicko_rating_diff_high=6
second_won_glicko_rating_diff_high=6
a_second_won_glicko_rating=6
b_set_glicko_rating=5
b_ace_glicko_rating=5
first_won_glicko_rating_diff_low=5
return_first_won_glicko_rating_diff_high=5
b_return_second_won_glicko_rating=5
surface_glicko_rating_diff_low=5
surface_return_first_won_glicko_rating_diff_low=5
a_game_glicko_rating=4
service_glicko_rating_diff_high=4
ace_glicko_rating_diff_low=4
second_won_glicko_rating_diff_low=4
a_surface_return_glicko_rating=4
surface_second_won_glicko_rating_diff_high=4
surface_return_second_won_glicko_rating_diff_high=4
a_surface_return_second_won_glicko_rating=4
best_of=3
surface_point_glicko_rating_diff_high=3
b_surface_return_second_won_glicko_rating=3
return_second_won_glicko_rating_diff_high=2
a_surface_glicko_rating=2
surface_point_glicko_rating_diff_low=2
b_surface_point_glicko_rating=2
surface_game_glicko_rating_diff_low=2
b_surface_game_glicko_rating=2
b_surface_set_glicko_rating=2
surface_ace_glicko_rating_diff_high=2
surface_first_won_glicko_rating_diff_high=2
a_surface_first_won_glicko_rating=2
surface_second_won_glicko_rating_diff_low=2
surface_return_second_won_glicko_rating_diff_low=2
surface_Hard=2
a_return_second_won_glicko_rating=1
a_surface_point_glicko_rating=1
surface_set_glicko_rating_diff_high=1
a_surface_set_glicko_rating=1
surface_return_glicko_rating_diff_high=1
surface_return_glicko_rating_diff_low=1
b_surface_service_glicko_rating=1
surface_ace_glicko_rating_diff_low=1
b_surface_return_ace_glicko_rating=1
a_surface_return_ace_glicko_rating=1
surface_first_won_glicko_rating_diff_low=1
b_surface_first_won_glicko_rating=1
surface_Clay=1

parameters:
[boosting: gbdt]
[objective: binary]
[metric: binary_logloss,auc]
[tree_learner: serial]
[device_type: cpu]
[data_sample_strategy: bagging]
[data: ]
[valid: ]
[num_iterations: 300]
[learning_rate: 0.1]
[num_leaves: 31]
[num_threads: 0]
[seed: 0]
[deterministic: 0]
[force_col_wise: 0]
[force_row_wise: 0]
[histogram_pool_size: -1]
[max_depth: -1]
[min_data_in_leaf: 20]
[min_sum_hessian_in_leaf: 0.001]
[bagging_fraction: 1]
[pos_bagging_fraction: 1]
[neg_bagging_fraction: 1]
[bagging_freq: 0]
[bagging_seed: 3]
[feature_fraction: 0.9]
[feature_fraction_bynode: 1]
[feature_fraction_seed: 2]
[extra_trees: 0]
[extra_seed: 6]
[early_stopping_round: 0]
[early_stopping_min_delta: 0]
[first_metric_only: 0]
[max_delta_step: 0]
[lambda_l1: 0]
[lambda_l2: 0]
[linear_lambda: 0]
[min_gain_to_split: 0]
[drop_rate: 0.1]
[max_drop: 50]
[skip_drop: 0.5]
[xgboost_dart_mode: 0]
[uniform_drop: 0]
[drop_seed: 4]
[top_rate: 0.2]
[other_rate: 0.1]
[min_data_per_group: 100]
[max_cat_threshold: 32]
[cat_l2: 10]
[cat_smooth: 10]
[max_cat_to_onehot: 4]
[top_k: 20]
[monotone_constraints: ]
[monotone_constraints_method: basic]
[monotone_penalty: 0]
[feature_contri: ]
[forcedsplits_filename: ]
[refit_decay_rate: 0.9]
[cegb_tradeoff: 1]
[cegb_penalty_split: 0]
[cegb_penalty_feature_lazy: ]
[cegb_penalty_feature_coupled: ]
[path_smooth: 0]
[interaction_constraints: ]
[verbosity: 1]
[saved_feature_importance_type: 0]
[use_quantized_grad: 0]
[num_grad_quant_bins: 4]
[quant_train_renew_leaf: 0]
[stochastic_rounding: 1]
[linear_tree: 0]
[max_bin: 255]
[max_bin_by_feature: ]
[min_data_in_bin: 3]
[bin_construct_sample_cnt: 200000]
[data_random_seed: 1]
[is_enable_sparse: 1]
[enable_bundle: 1]
[use_missing: 1]
[zero_as_missing: 0]
[feature_pre_filter: 1]
[pre_partition: 0]
[two_round: 0]
[header: 0]
[label_column: ]
[weight_column: ]
[group_column: ]
[ignore_column: ]
[categorical_feature: ]
[forcedbins_filename: ]
[precise_float_parser: 0]
[parser_config_file: ]
[objective_seed: 5]
[num_class: 1]
[is_unbalance: 0]
[scale_pos_weight: 1]
[sigmoid: 1]
[boost_from_average: 1]
[reg_sqrt: 0]
[alpha: 0.9]
[fair_c: 1]
[poisson_max_delta_step: 0.7]
[tweedie_variance_power: 1.5]
[lambdarank_truncation_level: 30]
[lambdarank_norm: 1]
[label_gain: ]
[lambdarank_position_bias_regularization: 0]
[eval_at: ]
[multi_error_top_k: 1]
[auc_mu_weights: ]
[num_machines: 1]
[local_listen_port: 12400]
[time_out: 120]
[machine_list_filename: ]
[machines: ]
[gpu_platform_id: -1]
[gpu_device_id: -1]
[gpu_use_dp: 0]
[num_gpu: 1]

end of parameters

pandas_categorical:[]
