tree
version=v4
num_class=1
num_tree_per_iteration=1
label_index=0
max_feature_idx=113
objective=binary sigmoid:1
feature_names=best_of a_player_rank b_player_rank glicko_rating_diff_high glicko_rating_diff_low a_glicko_rating b_glicko_rating a_glicko_rd b_glicko_rd point_glicko_rating_diff_high point_glicko_rating_diff_low a_point_glicko_rating b_point_glicko_rating game_glicko_rating_diff_high game_glicko_rating_diff_low a_game_glicko_rating b_game_glicko_rating set_glicko_rating_diff_high set_glicko_rating_diff_low a_set_glicko_rating b_set_glicko_rating service_glicko_rating_diff_high service_glicko_rating_diff_low a_service_glicko_rating b_return_glicko_rating return_glicko_rating_diff_high return_glicko_rating_diff_low a_return_glicko_rating b_service_glicko_rating tiebreak_glicko_rating_diff_high tiebreak_glicko_rating_diff_low a_tiebreak_glicko_rating b_tiebreak_glicko_rating ace_glicko_rating_diff_high ace_glicko_rating_diff_low a_ace_glicko_rating b_return_ace_glicko_rating return_ace_glicko_rating_diff_high return_ace_glicko_rating_diff_low a_return_ace_glicko_rating b_ace_glicko_rating first_won_glicko_rating_diff_high first_won_glicko_rating_diff_low a_first_won_glicko_rating b_return_first_won_glicko_rating return_first_won_glicko_rating_diff_high return_first_won_glicko_rating_diff_low a_return_first_won_glicko_rating b_first_won_glicko_rating second_won_glicko_rating_diff_high second_won_glicko_rating_diff_low a_second_won_glicko_rating b_return_second_won_glicko_rating return_second_won_glicko_rating_diff_high return_second_won_glicko_rating_diff_low a_return_second_won_glicko_rating b_second_won_glicko_rating surface_glicko_rating_diff_high surface_glicko_rating_diff_low a_surface_glicko_rating b_surface_glicko_rating a_surface_glicko_rd b_surface_glicko_rd surface_point_glicko_rating_diff_high surface_point_glicko_rating_diff_low a_surface_point_glicko_rating b_surface_point_glicko_rating surface_game_glicko_rating_diff_high surface_game_glicko_rating_diff_low a_surface_game_glicko_rating b_surface_game_glicko_rating surface_set_glicko_rating_diff_high surface_set_glicko_rating_diff_low a_surface_set_glicko_rating b_surface_set_glicko_rating surface_service_glicko_rating_diff_high surface_service_glicko_rating_diff_low a_surface_service_glicko_rating b_surface_return_glicko_rating surface_return_glicko_rating_diff_high surface_return_glicko_rating_diff_low a_surface_return_glicko_rating b_surface_service_glicko_rating surface_tiebreak_glicko_rating_diff_high surface_tiebreak_glicko_rating_diff_low a_surface_tiebreak_glicko_rating b_surface_tiebreak_glicko_rating surface_ace_glicko_rating_diff_high surface_ace_glicko_rating_diff_low a_surface_ace_glicko_rating b_surface_return_ace_glicko_rating surface_return_ace_glicko_rating_diff_high surface_return_ace_glicko_rating_diff_low a_surface_return_ace_glicko_rating b_surface_ace_glicko_rating surface_first_won_glicko_rating_diff_high surface_first_won_glicko_rating_diff_low a_surface_first_won_glicko_rating b_surface_return_first_won_glicko_rating surface_return_first_won_glicko_rating_diff_high surface_return_first_won_glicko_rating_diff_low a_surface_return_first_won_glicko_rating b_surface_first_won_glicko_rating surface_second_won_glicko_rating_diff_high surface_second_won_glicko_rating_diff_low a_surface_second_won_glicko_rating b_surface_return_second_won_glicko_rating surface_return_second_won_glicko_rating_diff_high surface_return_second_won_glicko_rating_diff_low a_surface_return_second_won_glicko_rating b_surface_second_won_glicko_rating surface_Clay surface_Grass surface_Hard
feature_infos=[3:3] [1:1821] [1:1751] [-1243.038921539687:895.23686638498634] [-889.10914479600319:1201.7905865758692] [1228.0274275784911:2746.7126181418607] [1116.6939603027877:2715.84569705896] [63.369624695665607:149.89248136992879] [63.201663981340033:149.66223297632351] [-273.96071686151481:-20.439239170447763] [28.643842407795091:245.95555147090704] [1446.5240004818315:1618.2056992421997] [1471.9934030152235:1614.3472527660545] [-403.2796161984943:84.024509761209856] [-81.263161470849582:340.28222452017735] [1375.0638610305402:1753.7912872698305] [1448.1333055570833:1751.3610246900082] [-975.84739624519602:612.37615639811202] [-648.16839187169103:898.61926635620603] [1254.7788313877477:2397.725353135831] [1243.7357309359402:2400.9028690842911] [-18818.374053753618:907.73906139887322] [-17795.642842139619:1246.85911692934] [-15792.170936977009:2697.627506280156] [1069.147656895514:10214.172062586669] [-1330.5292982575204:19359.328445557847] [-989.35658125719078:20199.971922306657] [952.09320320853715:9917.4457871323375] [-17914.831877850993:2752.4517792682091] [-1005.6741773450065:548.50936331036951] [-538.23621635784025:1033.1137661859918] [1038.0164917572561:2031.5857104498807] [1025.2496326433909:2071.3704674462451] [-1128.8556758384391:-256.40326728720038] [-656.50976930852926:54.31862408835832] [919.11351086853404:1541.8553717316086] [1549.8405379467099:1878.3829403198345] [-145.90344866132114:663.07823644808241] [241.48505138084056:1103.1750596732734] [1524.7822890298:1875.3108136800115] [922.12883002356057:1545.9821872996929] [-154.95653806029077:233.81430490298749] [134.85996804718866:518.7105574108316] [1461.7009647653531:1772.409014571457] [1354.432722068934:1556.6110854828723] [-557.90416548776261:-139.52776405032773] [-214.11694403691129:169.37212295820427] [1311.908073642164:1556.6110854828723] [1477.2828605603413:1777.0969654114515] [-257.76257418646651:-13.726106644510992] [15.823905949028584:264.98454829137177] [1443.6799804276636:1618.806123403893] [1450.763561398446:1618.806123403893] [-257.76257418646651:-13.726106644510992] [15.823905949028584:264.98454829137177] [1443.6799804276636:1618.806123403893] [1450.763561398446:1618.806123403893] [-1243.038921539687:895.23686638498634] [-889.10914479600319:1201.7905865758692] [1228.0274275784911:2746.7126181418607] [1116.6939603027877:2715.84569705896] [63.369624695665607:149.89248136992879] [63.201663981340033:149.66223297632351] [-273.96071686151481:-20.439239170447763] [28.643842407795091:245.95555147090704] [1446.5240004818315:1618.2056992421997] [1471.9934030152235:1614.3472527660545] [-403.2796161984943:84.024509761209856] [-81.263161470849582:340.28222452017735] [1375.0638610305402:1753.7912872698305] [1448.1333055570833:1751.3610246900082] [-975.84739624519602:612.37615639811202] [-648.16839187169103:898.61926635620603] [1254.7788313877477:2397.725353135831] [1243.7357309359402:2400.9028690842911] [-18818.374053753618:907.73906139887322] [-17795.642842139619:1246.85911692934] [-15792.170936977009:2697.627506280156] [1069.147656895514:10214.172062586669] [-1330.5292982575204:19359.328445557847] [-989.35658125719078:20199.971922306657] [952.09320320853715:9917.4457871323375] [-17914.831877850993:2752.4517792682091] [-1005.6741773450065:548.50936331036951] [-538.23621635784025:1033.1137661859918] [1038.0164917572561:2031.5857104498807] [1025.2496326433909:2071.3704674462451] [-1128.8556758384391:-256.40326728720038] [-656.50976930852926:54.31862408835832] [919.11351086853404:1541.8553717316086] [1549.8405379467099:1878.3829403198345] [-145.90344866132114:663.07823644808241] [241.48505138084056:1103.1750596732734] [1524.7822890298:1875.3108136800115] [922.12883002356057:1545.9821872996929] [-154.95653806029077:233.81430490298749] [134.85996804718866:518.7105574108316] [1461.7009647653531:1772.409014571457] [1354.432722068934:1556.6110854828723] [-557.90416548776261:-139.52776405032773] [-214.11694403691129:169.37212295820427] [1311.908073642164:1556.6110854828723] [1477.2828605603413:1777.0969654114515] [-442.89886320077699:-13.726106644510992] [15.823905949028584:465.68115941894871] [1443.6799804276636:1618.806123403893] [1450.763561398446:1618.806123403893] [-479.85635532963306:-13.726106644510992] [15.823905949028584:456.92989458141824] [1443.6799804276636:1618.806123403893] [1450.763561398446:1618.806123403893] [0:1] [0:1] [0:1]
tree_sizes=3364 3399 3414 3416 3396 3417 3395 3388 3414 3417 3417 3416 3405 3398 3403 3412 3419

Tree=0
num_leaves=31
num_cat=0
split_feature=35 40 67 64 25 21 14 26 28 24 20 41 43 22 41 36 43 28 1 33 5 15 22 43 11 3 8 64 32 48
split_gain=36.7228 30.6427 23.3144 23.0984 20.6543 18.2348 13.4619 11.6082 11.3309 10.6462 9.90026 8.88666 8.74009 8.71773 8.66777 8.42212 8.39896 13.7723 11.9479 10.4047 11.8342 11.143 10.0832 10.9127 9.91637 9.06592 9.42654 9.14444 8.90286 8.9452
threshold=1381.2790825031564 1366.3382041930083 -44.068525519018401 82.124633748796114 280.22803443268396 -163.80785087916067 74.495064258142534 97.282404602498232 -103.6132490054341 2045.1667344692248 2033.2884674040465 -36.852583189160889 1711.4656224825696 584.83829773391165 -19.337153781612411 1785.3352468334485 1642.8723534662074 1827.8704222010408 6.5000000000000009 -554.20229079064268 2013.1011825181674 1578.6055269770702 -933.51721069655127 1556.6205207081125 1533.6818273771603 8.2567767509892764 65.352892300834142 118.97318613640006 1530.0737897732954 1607.3980060490871
decision_type=2 2 2 2 2 2 2 2 2 2 2 2 2 2 2 2 2 2 2 2 2 2 2 2 2 2 2 2 2 2
left_child=1 2 3 11 6 7 12 -5 -7 -3 16 -1 -2 -8 -13 -12 22 18 -18 25 21 24 -9 -24 -21 27 -27 -20 -28 -30
right_child=4 9 -4 5 -6 8 13 10 -10 -11 15 14 -14 -15 -16 -17 17 -19 19 20 -22 -23 23 -25 -26 26 28 -29 29 -31
leaf_value=-0.19214313813270373 -0.20124241453343455 -0.11730553197775205 -0.17377354630115316 -0.12013641912789154 -0.14275889198846184 -0.18208143826651099 -0.10504808246168412 -0.15539976233651215 -0.11243294254202588 -0.14473770399471206 -0.15308785575735032 -0.11853127692935884 -0.11384147015799373 -0.052411092111255303 -0.1859472492677324 -0.19909100667188523 -0.18137856353901619 -0.11388771404390666 -0.15123465770006378 -0.16383481034074587 -0.12173183319188768 -0.18756839581663171 -0.077060239399995706 -0.14504377158751552 -0.085436163235975443 -0.085436163235975443 -0.11204203895026406 -0.11597731317167009 -0.20030597584369769 -0.14869902326772835
leaf_weight=36.314402163028717 5.7207619845867139 122.37456071376801 80.09066778421402 41.78643536567688 63.674568176269531 6.4669483304023734 81.583040475845337 329.81436485052109 60.192365229129791 49.745756387710571 25.867793321609497 10.197880059480669 5.7207619845867157 8.7055073678493482 8.9542361497879011 16.167370826005936 19.15211620926857 47.00973978638649 24.126691848039627 12.436439096927645 17.908472299575806 30.842368960380554 5.9694907665252677 529.29484796524048 5.9694907665252677 4.9745756387710562 8.4567785859107953 77.354651182889938 13.928811788558958 21.141946464776993
leaf_count=146 23 492 322 168 256 26 328 1326 242 200 104 41 23 35 36 65 77 189 97 50 72 124 24 2128 24 20 34 311 56 85
internal_value=-0.142859 -0.145169 -0.147561 -0.14601 -0.120426 -0.144661 -0.106448 -0.146039 -0.11919 -0.125234 -0.146948 -0.177609 -0.157542 -0.0999729 -0.15005 -0.170781 -0.146076 -0.138604 -0.143521 -0.140182 -0.156538 -0.169195 -0.148523 -0.144286 -0.138408 -0.132858 -0.15064 -0.12436 -0.158091 -0.169195
internal_weight=0 1606.54 1434.42 1354.33 165.405 1298.86 101.73 1232.2 66.6593 172.12 1190.42 55.4665 11.4415 90.2885 19.1521 42.0352 1148.38 283.302 236.292 217.14 67.1568 49.2483 865.079 535.264 18.4059 149.983 48.5021 101.481 43.5275 35.0708
internal_count=7124 6459 5767 5445 665 5222 409 4954 268 692 4786 223 46 363 77 169 4617 1139 950 873 270 198 3478 2152 74 603 195 408 175 141
is_linear=0
shrinkage=1


Tree=1
num_leaves=31
num_cat=0
split_feature=35 40 13 10 25 21 14 26 28 20 22 35 40 46 7 3 8 14 34 35 41 41 23 91 107 22 96 96 43 28
split_gain=33.1015 27.6376 21.1068 20.9213 18.5743 16.4372 12.1002 10.4659 10.2185 8.96243 8.79694 13.2166 13.8581 9.813 14.2589 8.92189 8.48772 11.2413 8.18192 10.3995 8.13957 9.35581 8.13105 8.10627 7.93047 7.80537 8.09593 7.72022 7.58019 12.7113
threshold=1381.2790825031564 1366.3382041930083 -44.068525519018401 82.124633748796114 280.22803443268396 -163.80785087916067 74.495064258142534 97.282404602498232 -103.6132490054341 2033.2884674040465 -330.8854775830427 1197.5621880760114 1379.7997698885276 -126.56786679649245 67.305499706643289 1.0000000180025095e-35 67.080719361533738 129.38069205803677 -313.16613561417574 1343.6972322216204 -35.605739319794559 -19.337153781612411 1880.1123104172486 221.45907724905717 -76.128570433364629 584.83829773391165 335.98276842486638 289.47869566503772 1642.8723534662074 1918.2718548965097
decision_type=2 2 2 2 2 2 2 2 2 2 2 2 2 2 2 2 2 2 2 2 2 2 2 2 2 2 2 2 2 2
left_child=1 2 3 20 6 7 23 27 -7 28 -3 -12 -13 -14 16 -16 -15 -18 -11 22 -1 -22 -20 -2 -4 26 -8 -5 -9 -30
right_child=4 10 24 5 -6 8 25 9 -10 18 11 12 13 14 15 -17 17 -19 19 -21 21 -23 -24 -25 -26 -27 -28 -29 29 -31
leaf_value=-0.046243705206389138 0.031987781158243529 0.003881933280930493 -0.01562632457996178 0.0015607776127943055 9.5078548925310141e-05 -0.037382984990726939 0.076887881251716667 -0.0053831942030579593 0.028847204103623614 -0.049620222017574572 0.064148778648702484 0.060454333823894174 0.039473084384849297 0.05402903258921013 -0.056250775989054473 0.0062059471875394083 -0.057688843358967748 0.046089156192657785 0.064982691197850176 -0.055943682820861373 0.031745162939348981 -0.041082415320268885 -0.01098055444717061 -0.052571887800767374 -0.047403479165346513 0.08553581265832709 0.029805181038566986 0.044621758294951998 0.0010490301256724872 0.041536919824483279
leaf_weight=37.659919172525406 5.2142617553472501 75.176092967391014 45.158226907253265 22.419010698795319 63.675022125244141 6.44642150402069 10.471085786819456 864.70954877138138 60.309205859899521 20.090735226869583 18.930766567587852 15.192297518253325 17.187666431069374 11.458295390009882 14.447105184197428 9.4633731693029386 5.4788890331983549 4.9823919385671616 5.7124339193105724 6.9451186954975119 8.7193381041288394 8.9226493835449201 9.1900032609701139 6.2093228697776794 34.73709762096405 8.743993937969206 71.303107976913452 19.429809272289276 262.38431605696678 20.932052850723267
leaf_count=152 21 302 182 90 256 26 42 3478 242 81 76 61 69 46 58 38 22 20 23 28 35 36 37 25 140 35 286 78 1055 84
internal_value=0 -0.00219565 -0.0044695 -0.00299578 0.0212819 -0.00171311 0.0345156 -0.00302267 0.0224515 -0.00388696 0.0167239 0.0266622 0.0175886 0.00725451 -0.00482844 -0.0315314 0.0242999 -0.00826252 -0.0265901 -0.00541193 -0.0331146 -0.00508827 0.0181378 -0.0139749 -0.0294425 0.0406352 0.0358341 0.0215534 -0.00305759 0.00404037
internal_weight=0 1606.08 1433.77 1353.87 165.617 1298.57 101.942 1231.81 66.7556 1189.96 172.317 97.1408 78.21 63.0177 45.8301 23.9105 21.9196 10.4613 41.9383 21.8476 55.3019 17.642 14.9024 11.4236 79.8953 90.5182 81.7742 41.8488 1148.03 283.316
internal_count=7124 6459 5767 5445 665 5222 409 4954 268 4786 692 390 314 253 184 96 88 42 169 88 223 71 60 46 322 363 328 168 4617 1139
is_linear=0
shrinkage=0.05


Tree=2
num_leaves=31
num_cat=0
split_feature=35 40 13 10 25 75 14 26 42 29 28 24 36 14 46 20 43 14 28 43 62 10 62 36 12 28 50 14 58 41
split_gain=29.8562 24.9325 19.1192 18.9679 16.7324 14.8231 10.8942 9.48326 10.2736 10.6932 9.2206 9.18571 9.03717 8.00186 9.9668 9.13274 7.96809 7.94259 13.5666 9.19782 8.33341 8.18435 10.2989 9.97437 8.03963 7.90354 15.5698 7.62332 7.43266 7.40741
threshold=1381.2790825031564 1366.3382041930083 -44.068525519018401 82.124633748796114 280.22803443268396 -163.80785087916067 74.495064258142534 170.77146005954629 289.47869566503772 -211.87512526960924 -103.6132490054341 2045.1667344692248 1760.5554909355581 62.093649162315508 -27.195446711751398 2033.2884674040465 1711.4656224825696 184.92744991123735 1220.6997703717573 1693.2059662625891 113.83787864210207 180.20562527485563 66.413771628429132 1743.9000726137008 1568.8777290533351 1918.2718548965097 86.447013638439913 189.89074711092738 346.22483245871268 -35.605739319794559
decision_type=2 2 2 2 2 2 2 2 2 2 2 2 2 2 2 2 2 2 2 2 2 2 2 2 2 2 2 2 2 2
left_child=1 2 3 29 6 7 16 8 9 -5 -7 -3 -11 14 25 17 -2 20 21 27 24 22 -19 -24 -15 -9 -27 -20 -23 -1
right_child=4 11 -4 5 -6 10 -8 13 -10 12 -12 -13 -14 15 -16 -17 -18 18 19 -21 -22 28 23 -25 -26 26 -28 -29 -30 -31
leaf_value=-0.044152379331558189 -0.055241263369677197 0.023226193306362188 -0.028052148845494264 -0.020955583341106119 9.0326744505407277e-05 -0.035650304203931227 0.038547981070641078 -0.0481474135884064 0.03635902944048941 0.0042823982287200704 0.027365092860978962 -0.0022432038537134095 0.08715694249619553 -0.0018963552521772801 0.013277749289830248 -0.030990747072552633 0.028340741168685842 0.057439803800456601 -0.018946085750486941 0.016329985632888844 0.052653571829475304 0.079116854615213145 -0.028221511744016582 0.029952366278809713 0.033906524128272893 0.061961558586995674 -0.052757799369423687 -0.075032331877399369 0.00020118010954777487 -0.0048430796910700199
leaf_weight=37.476177603006363 5.6825966686010343 122.66236147284508 79.669802844524384 26.12504680454731 63.675453186035156 6.422356665134429 90.644413486123085 30.308622345328331 31.158463522791862 9.703697666525839 60.394450008869171 49.762771442532539 4.9765108525753012 951.35654859244823 14.650493308901785 28.435632348060608 5.7234195619821548 4.973894625902175 9.4457894861698204 5.4701576679944983 7.2085124105215064 5.2217616587877256 41.750645473599434 8.9474185407161695 15.942548766732214 5.469377934932707 6.4404548406600952 16.895428508520126 6.9615449607372284 17.618563398718834
leaf_count=152 23 492 322 105 256 26 363 122 125 39 242 200 20 3827 59 115 23 20 38 22 29 21 168 36 64 22 26 68 28 71
internal_value=0 -0.00208749 -0.00424885 -0.00284759 0.0202033 -0.00162819 0.0327529 -0.00287269 0.0147396 -0.00176872 0.0213081 0.0158756 0.0323764 -0.00396581 -0.0222555 -0.00302248 -0.0133007 -0.0022821 -0.0157262 -0.0426683 -0.000907124 -0.00309542 -0.0112188 -0.0179547 -0.00130627 -0.0345862 -7.49837e-05 -0.0549202 0.0340244 -0.0315818
internal_weight=0 1605.45 1433.02 1353.35 165.726 1298.26 102.05 1231.44 71.9637 40.8053 66.8168 172.425 14.6802 1159.48 56.8689 1102.61 11.406 1074.17 99.6666 31.8114 974.508 67.8553 55.672 50.6981 967.299 42.2185 11.9098 26.3412 12.1833 55.0947
internal_count=7124 6459 5767 5445 665 5222 409 4954 289 164 268 692 59 4665 229 4436 46 4321 401 128 3920 273 224 204 3891 170 48 106 49 223
is_linear=0
shrinkage=0.05


Tree=3
num_leaves=31
num_cat=0
split_feature=35 40 13 18 25 21 14 26 23 24 30 42 21 28 4 22 48 11 43 44 30 34 45 16 42 100 57 40 50 20
split_gain=26.9403 22.4969 17.3217 17.3526 15.0897 13.2186 9.81415 9.80759 8.42234 8.41907 12.9279 9.1265 8.70742 8.32429 7.74412 7.72631 11.2389 13.9726 11.1235 9.12332 9.6062 8.6933 8.52074 11.5246 9.46824 11.1346 10.4186 11.2053 9.98368 11.1253
threshold=1381.2790825031564 1366.3382041930083 -44.068525519018401 -164.16518015734138 280.22803443268396 -163.80785087916067 74.495064258142534 97.282404602498232 754.47869405968288 1742.4524676121212 264.44488672831159 347.07582352739422 -661.09782092719877 -103.6132490054341 510.94360507157529 -901.19516427341466 1686.2592306947633 1551.9356633575344 1556.6205207081125 1535.9922938199604 264.44488672831159 -412.75937346995119 -279.6606431122072 1627.5686013935347 364.53082148093546 8.9822842080787968 5.2454711724582248 1259.8856125344312 151.76782443571827 1712.0243638038194
decision_type=2 2 2 2 2 2 2 2 2 2 2 2 2 2 2 2 2 2 2 2 2 2 2 2 2 2 2 2 2 2
left_child=1 2 3 -1 6 7 -2 8 -5 -3 11 12 -11 -7 15 16 17 -9 -17 20 -19 -18 -20 24 26 -26 27 28 -24 -30
right_child=4 9 -4 5 -6 13 -8 14 -10 10 -12 -13 -14 -15 -16 18 21 19 22 -21 -22 -23 23 -25 25 -27 -28 -29 29 -31
leaf_value=-0.027542122819619187 -0.012671865779882319 0.032142409324915827 -0.026732618896260014 -0.032624504199730356 8.5809092699388697e-05 -0.034014337173109997 0.036591451388322323 -0.0096339853290004704 0.033515391782198221 -0.00082948586382066997 0.084744904591167791 -0.028329757190900275 0.030058859685150971 0.025971296765360492 -0.033788785648375799 0.069525430739298899 0.020380400701456788 0.037171829017764092 0.0034325482134275375 -0.042591890372043618 -0.035519433636716231 -0.052997066369902229 -0.01213958435652995 -0.083288273184502784 -0.026072400884851327 0.064916510369689789 -0.020682213567099199 0.035737808390314013 0.07141736133998261 -0.011562674686810496
leaf_weight=66.860380336642265 11.377899438142775 50.912598177790642 79.42840901017189 5.7178291082382193 63.675865173339844 6.3953760266304007 90.714427024126053 341.13810488581657 30.427653938531876 62.514591053128242 5.2408084720373145 17.942593321204185 35.929117128252983 60.452219426631927 20.582358345389366 5.7389222234487525 4.9425532817840603 35.28367206454277 495.23116745054722 5.1919195950031272 5.2169316411018363 22.017677262425423 89.503836080431938 4.9713639169931403 5.2187279164791098 9.4521237909793836 102.81109884381294 19.393862202763557 8.203720375895502 7.9571715146303168
leaf_count=271 46 204 322 23 256 26 363 1374 122 251 21 72 144 242 83 23 20 142 1992 21 21 89 360 20 21 38 414 78 33 32
internal_value=0 -0.00198494 -0.00403983 -0.00270736 0.0191874 -0.00141602 0.0311012 -0.00260318 0.0230528 0.0150714 0.0079255 0.00446637 0.0104439 0.0202324 -0.00338717 -0.0028488 -0.0083316 -0.00615617 0.000182315 0.019809 0.0278084 -0.039545 -0.000353476 -0.0079287 -0.00638405 0.0325499 -0.00889072 0.000803117 -0.00560885 0.0305603
internal_weight=0 1604.68 1432.14 1352.71 165.768 1285.85 102.092 1219 36.1455 172.54 121.627 116.386 98.4437 66.8476 1182.86 1162.27 413.791 386.831 748.482 45.6925 40.5006 26.9602 742.743 247.512 242.541 14.6709 227.87 125.059 105.665 16.1609
internal_count=7124 6459 5767 5445 665 5174 409 4906 145 692 488 467 395 268 4761 4678 1667 1558 3011 184 163 109 2988 996 976 59 917 503 425 65
is_linear=0
shrinkage=0.05


Tree=4
num_leaves=31
num_cat=0
split_feature=35 40 13 10 79 21 36 3 49 4 2 34 43 21 39 9 26 48 40 39 48 83 107 49 31 36 34 43 7 69
split_gain=24.3178 20.3039 15.6978 15.9613 13.6204 12.1023 9.9664 14.1936 8.8686 8.41416 8.03025 9.46326 11.2675 8.6634 8.72065 13.7149 7.87551 7.8541 9.29401 7.75104 7.42112 7.37336 7.28353 7.09092 9.52208 7.14025 7.07005 7.02587 7.36741 7.0576
threshold=1381.2790825031564 1366.3382041930083 -44.068525519018401 82.124633748796114 280.22803443268396 -210.44988375021441 1742.3509751068575 142.38425685012729 -159.26859274890145 510.94360507157529 56.500000000000007 -264.53540050335158 1676.2740875567663 -163.80785087916067 1759.1385006959449 -101.80046607170219 97.282404602498232 1662.6571638285807 1474.9546682802845 1685.7692236611899 1692.0501427762754 2.0469344474545328 -76.128570433364629 -88.243013917852394 1821.2591274273304 1730.5859091632449 -270.64307117970333 1652.4149977934289 67.374216099650042 1584.8259164152062
decision_type=2 2 2 2 2 2 2 2 2 2 2 2 2 2 2 2 2 2 2 2 2 2 2 2 2 2 2 2 2 2
left_child=1 2 3 -1 8 9 10 -8 -2 16 -7 -12 13 -13 15 -15 -5 -3 21 -20 -18 27 23 24 -4 -26 -25 29 -29 -19
right_child=4 17 22 5 -6 6 7 -9 -10 -11 11 12 -14 14 -16 -17 20 18 19 -21 -22 -23 -24 26 25 -27 -28 28 -30 -31
leaf_value=-0.029029385526524044 -0.00088770414706351188 0.046601775723800774 -0.05372337517623637 0.019090390266891022 8.151918267545002e-05 0.042709231317780684 0.073104295645748371 -0.014349596859532025 0.036684603142243033 -0.035085856196118613 -0.052085034632647798 -0.027463720539411846 -0.046425548348145246 0.046626581071302207 0.077585009594116378 -0.040006093088481444 -0.0022923476694649038 -0.0025452467079405939 -0.017288347792509585 0.044085559253142094 -0.026497741774011759 0.062109624388071383 -0.042807873713244689 -0.029959936493685953 -0.040834730467056504 0.035249849590360226 0.038295553328838605 0.011608118799598551 -0.04295315855604083 0.026668887376830264
leaf_weight=54.707083120942116 19.388028979301453 16.98051705956459 15.517535358667375 41.899886325001717 63.676250457763672 12.482946306467054 14.9756455719471 6.7220869809389105 82.694837659597397 19.776214808225632 7.9682589471340171 7.6950372904539064 7.9736625105142585 12.476758748292921 7.7278450876474372 7.2075769752264121 1117.8279816955328 56.348759636282921 6.2435643672943106 29.220821216702461 32.58858722448349 5.2476926296949378 34.34201180934906 5.9114420413970974 5.1725117862224561 7.6356126368045807 10.591333657503126 10.22154074907303 15.675340786576269 32.653257757425308
leaf_count=223 78 68 63 168 256 50 60 27 331 80 32 31 32 50 31 29 4500 226 25 117 132 21 140 24 21 31 43 41 63 131
internal_value=0 -0.00188755 -0.00384119 -0.00257404 0.0182289 -0.00145844 0.0167534 0.0460106 0.0295487 -0.00273903 0.00676132 -0.00202896 0.00722944 0.0194157 0.0325755 0.0149053 -0.00220251 0.0143129 0.0107895 0.0332806 -0.00297803 0.00415063 -0.0254809 -0.0122071 -0.0273857 0.00452338 0.0138458 0.00150351 -0.0214177 0.0081729
internal_weight=0 1603.79 1431.2 1352.03 165.759 1297.32 85.2298 21.6977 102.083 1212.09 63.5321 51.0491 43.0809 35.1072 27.4122 19.6843 1192.32 172.591 155.611 35.4644 1150.42 120.147 79.1704 44.8284 28.3257 12.8081 16.5028 114.899 25.8969 89.002
internal_count=7124 6459 5767 5445 665 5222 342 87 409 4880 255 205 173 141 110 79 4800 692 624 142 4632 482 322 182 115 52 67 461 104 357
is_linear=0
shrinkage=0.05


Tree=5
num_leaves=31
num_cat=0
split_feature=35 94 9 22 25 9 43 43 31 109 37 37 23 13 9 41 21 22 8 27 111 25 27 8 42 19 101 20 3 29
split_gain=21.9552 18.3283 14.3316 15.38 12.3013 12.1907 10.6746 11.8534 9.95255 9.4208 9.19645 9.29074 8.94253 8.9722 8.96129 9.89354 8.7764 8.76515 8.7176 8.73324 9.23696 8.68274 9.64826 8.82926 8.58459 8.16228 11.0228 8.29584 7.93952 10.7865
threshold=1381.2790825031564 1366.3382041930083 -88.45918771435764 -901.19516427341466 280.22803443268396 -164.42762260252468 1641.1267701536117 1546.2472942452193 1416.3232431733638 1509.9776322645805 359.38111189605576 381.78762070665113 1260.4687921818286 -136.74277161771985 -137.05453039273104 -59.700124544917564 -210.44988375021441 584.83829773391165 74.976227634099686 1973.3688641153349 1.0000000180025095e-35 -79.307505519405922 1958.007487603189 72.42144613392702 257.21850539512758 1633.0524770632221 1462.3048397500718 1893.1886282616381 2.7707752192884532 -65.102809122205471
decision_type=2 2 2 2 2 2 2 2 2 2 2 2 2 2 2 2 2 2 2 2 2 2 2 2 2 2 2 2 2 2
left_child=1 2 3 5 17 -1 7 -7 -5 -8 -11 -12 13 14 15 -9 28 21 19 20 -17 22 23 -2 -16 -21 -27 -28 -10 -30
right_child=4 -3 -4 8 -6 6 9 12 16 10 11 -13 -14 -15 24 18 -18 -19 -20 25 -22 -23 -24 -25 -26 26 27 -29 29 -31
leaf_value=-0.024481868129207385 0.0085537549728284448 0.013596898520220106 -0.023241729247893004 0.035194070634265023 7.7439440002015293e-05 0.034608616395972201 0.078137681586735674 0.061727865554078776 0.0021067171032039685 -0.011828244146945693 0.087896393339006021 0.014317325412231401 -0.028674924718507716 -0.020065664165565794 -0.008688701809185826 0.012186176488369159 0.016460586713526671 0.076068861998234413 0.038144316699403429 -0.083235998525468508 -0.030426752938976228 0.040568683853065231 -0.045992485604514771 0.068924995817878268 0.04697902814434296 0.0065908147503021854 -0.067536609773662798 -0.0056425311141611199 -0.022541795639565293 0.001680156207928587
leaf_weight=105.09306235611439 37.675071328878403 172.5877760797739 87.643777087330818 21.642256543040276 63.676620483398438 14.632281661033629 4.9691996723413459 5.2084433436393729 559.4586511105299 33.943278938531876 4.9657389372587195 31.538560539484024 60.402637973427773 86.31420487165451 11.411276236176493 44.155940890312195 81.132454484701157 8.7047902345657331 9.1863642036914808 5.9494230151176444 17.861086204648018 41.725785985589027 6.7172263562679282 7.2162705063819876 17.617772236466408 19.83325420320034 14.385472953319551 8.6806608885526639 87.786922559142113 96.472768574953079
leaf_count=427 151 692 357 87 256 59 20 21 2250 137 20 127 244 348 46 178 326 35 37 24 72 167 27 29 71 80 58 35 354 389
internal_value=0 -0.00179486 -0.00365213 -0.00237338 0.0173222 -0.00936333 -0.00530034 -0.00933833 0.00172358 0.0115997 0.00690626 0.0243264 -0.0114746 -0.00715658 6.51483e-05 -0.00573576 0.000845393 0.0280836 -0.00866266 -0.0125411 -8.64725e-05 0.0236083 0.0098957 0.0182584 0.0250961 -0.0283531 -0.0207418 -0.0442435 -0.000858073 -0.00985992
internal_weight=0 1602.87 1430.29 1342.64 165.716 496.149 391.056 315.639 846.493 75.4168 70.4476 36.5043 301.007 240.604 154.29 125.261 824.851 102.039 120.052 110.866 62.017 93.3344 51.6086 44.8913 29.029 48.8488 42.8994 23.0661 743.718 184.26
internal_count=7124 6459 5767 5410 665 2004 1577 1273 3406 304 284 147 1214 970 622 505 3319 409 484 447 250 374 207 180 117 197 173 93 2993 743
is_linear=0
shrinkage=0.05


Tree=6
num_leaves=31
num_cat=0
split_feature=35 10 13 40 42 3 22 37 2 2 24 5 32 54 45 74 3 3 108 31 43 35 31 52 52 49 31 3 40 35
split_gain=19.8686 16.7638 18.1965 14.9066 11.7395 10.5257 10.0642 9.90934 10.7135 9.45995 9.18564 9.06878 9.16703 8.84784 8.73054 8.62736 8.55643 8.36334 9.101 11.6115 13.2969 8.49398 8.29837 11.0015 9.1774 8.62315 11.0445 8.43919 8.40082 8.14942
threshold=1418.4698292398286 80.554458315663865 -44.068525519018401 1474.9546682802845 313.01216503629979 -32.954467600152832 14.724944765991383 347.11496190038673 32.500000000000007 11.500000000000002 2515.8763487631481 1817.0486055375111 1807.4309730316961 129.0385187182566 -277.73828656779114 2242.3692789170832 -17.479894811839127 -40.384608549778697 148.52775680691755 1650.1837542201722 1667.4989249500659 1296.1841310930813 1688.7891063604463 1522.7576613349033 1508.8978863626592 -138.6165988400754 1742.8114754019239 2.7707752192884532 1211.4428033458032 1256.768544723923
decision_type=2 2 2 2 2 2 2 2 2 2 2 2 2 2 2 2 2 2 2 2 2 2 2 2 2 2 2 2 2 2
left_child=1 10 3 4 29 17 22 8 9 -2 -1 -12 -13 -9 -4 -14 -8 18 -6 -20 -21 -19 23 24 -7 -24 28 -25 -27 -3
right_child=7 2 14 -5 5 6 16 13 -10 -11 11 12 15 -15 -16 -17 -18 21 19 20 -22 -23 25 27 -26 26 -28 -29 -30 -31
leaf_value=0.027974126385738304 0.03838861393678638 -0.0068445700704451015 0.014886588320273793 0.032724155018575417 0.014012361827470291 -0.029442255986345672 -0.041164365368889802 0.019389384115385776 0.044142430695071691 -0.015435445214393002 -0.055010018367187531 0.026634533564614645 -0.073181132613712882 -0.036019627282123899 -0.02996750663733232 0.010918939628030462 0.011458990479968114 0.096705898385703523 -0.032115639074051447 0.040762360546582901 -0.041824346034613644 0.0085765012288546352 0.050178378444851929 -0.0066613726836060984 0.016951186024932362 -0.016394078269648494 -0.023841765028864065 -0.064488646402804647 0.035164734934749801 0.0035981236452060543
leaf_weight=6.3853089958429328 14.194449588656424 609.81472454965115 12.803582206368445 35.72183521091938 254.12503020465374 21.560924991965294 8.2182015478610975 16.674318969249729 49.068540915846825 19.213589429855347 27.233685150742531 9.0797602236270922 7.5463855564594251 12.686232164502142 71.053371459245682 5.1174121201038361 128.60834848880768 5.7285041362047178 26.371985748410225 16.44540195167065 6.9266649931669226 5.2304169833660126 7.951256424188613 9.2016512900590914 21.083368062973022 12.629792809486387 36.451590567827225 20.071394369006157 21.098822414875031 269.34748078882694
leaf_count=26 57 2458 52 143 1021 87 33 67 197 77 112 37 31 51 291 21 517 23 106 66 28 21 32 37 85 51 147 81 85 1084
internal_value=0 -0.00138179 -0.000446089 0.00080757 3.76693e-05 0.00541888 -0.00150891 0.020393 0.029273 0.00743339 -0.0284316 -0.0357853 -0.0117065 -0.00455198 -0.023119 -0.0391965 0.00829828 0.0117316 0.010184 -0.00937405 0.0162865 0.054644 -0.0104519 -0.0227078 -0.00650531 0.000829264 -0.00476188 -0.0463113 0.0158584 -0.00364526
internal_weight=0 1655.81 1600.44 1516.59 1480.87 601.703 286.875 111.837 82.4766 33.408 55.3626 48.9772 21.7436 29.3606 83.857 12.6638 136.827 314.828 303.869 49.7441 23.3721 10.9589 150.049 71.9173 42.6443 78.1315 70.1802 29.273 33.7286 879.162
internal_count=7124 6675 6448 6105 5962 2420 1155 449 331 134 227 201 89 118 343 52 550 1265 1221 200 94 44 605 290 172 315 283 118 136 3542
is_linear=0
shrinkage=0.05


Tree=7
num_leaves=31
num_cat=0
split_feature=35 40 9 16 5 79 22 4 14 40 47 48 40 39 40 37 37 37 2 10 29 41 42 4 46 45 77 52 38 1
split_gain=18.0805 15.3358 11.9206 13.1943 11.1125 10.5246 8.95899 10.4041 8.13929 8.12949 7.48439 7.16886 7.73379 9.37613 7.11389 7.07257 7.05555 7.55082 6.98782 8.3956 8.04946 11.047 9.82403 8.00953 7.23975 6.92713 6.57034 6.52365 8.61359 7.46301
threshold=1381.2790825031564 1366.3382041930083 -87.644904212476362 1658.3167921836528 1817.0486055375111 280.22803443268396 84.888582172868624 510.94360507157529 74.495064258142534 1138.6476861905228 1460.3572474555606 1662.6571638285807 1483.835530502668 1685.7692236611899 1165.2435996242725 221.45907724905717 355.90548230891824 396.37139462324245 49.500000000000007 187.41318160677284 -146.28064479219242 107.68229610591142 380.80934439595904 272.87852388416451 -31.172016395683837 -278.41474207739458 1589.5751844223748 1531.1978706028856 651.00041238413098 54.500000000000007
decision_type=2 2 2 2 2 2 2 2 2 2 2 2 2 2 2 2 2 2 2 2 2 2 2 2 2 2 2 2 2 2
left_child=1 2 3 6 -5 8 7 -1 15 -4 26 -3 -13 -14 -11 -2 -12 -18 -8 20 22 24 23 -20 -22 -16 -6 28 -26 -30
right_child=5 11 9 4 10 -7 18 -9 -10 14 16 12 13 -15 25 -17 17 -19 19 -21 21 -23 -24 -25 27 -27 -28 -29 29 -31
leaf_value=-0.0016525853992830309 0.028655026566556357 0.043288585596828313 -0.05678726064003603 -0.057635087149424759 -0.015505949541060599 -0.00021477994508260707 0.041249237267409027 -0.042006462392438326 0.030715441387466444 0.034647017707879306 -0.039013178952598961 0.0036926987288248073 -0.023655498215570878 0.046395443331161801 0.016247234882816999 -0.050420402423274446 0.039717700681488444 -0.019403239795395374 -0.0073343435018766905 0.058863398818490245 0.053982741123764645 -0.041393946855399807 0.02940937070601133 -0.075702257798038228 -0.048169355851846514 -0.027797344681982684 0.059200359201330592 0.051325935109171363 0.035017101379829434 -0.035210297000385547
leaf_weight=1145.7919227778912 5.2252307236194593 16.985870882868767 13.837851718068121 17.071925088763237 5.6037647128105146 63.68748764693737 18.193629279732704 16.198418647050858 90.437534987926483 6.5840322375297538 25.649841263890266 126.17126105725765 5.9971602559089687 23.474085628986359 10.836315914988516 6.1627838164567947 7.6397830843925503 18.427495345473289 8.4675807952880913 7.1868684589862815 12.981030851602553 7.9834935069084159 6.7191066890954962 8.6705377101898176 7.2195845991373089 50.667267680168152 6.1988600939512253 7.4605921208858481 13.92162846028805 5.1946178227663031
leaf_count=4617 21 68 57 71 23 256 73 66 363 27 105 506 24 94 44 25 31 75 34 29 52 32 27 35 29 208 25 30 56 21
internal_value=0 -0.00163107 -0.00333215 -0.00220555 -0.0218218 0.0157278 -0.00095679 -0.00221513 0.0256991 -0.0218498 -0.0121965 0.0124454 0.00907938 0.0321406 -0.0147492 -0.0141378 -0.0203956 -0.00207611 0.0131028 0.00713476 0.00240599 0.0129661 -0.0218332 -0.0419231 0.0222437 -0.0200371 0.0237306 0.0100528 -0.00163928 0.0159336
internal_weight=0 1601.13 1428.51 1346.58 80.5917 165.513 1265.99 1161.99 101.826 81.9255 63.5197 172.628 155.643 29.4712 68.0876 11.388 51.7171 26.0673 103.999 85.805 78.6182 54.7609 23.8572 17.1381 46.7775 61.5036 11.8026 33.7964 26.3358 19.1162
internal_count=7124 6459 5767 5431 330 665 5101 4683 409 336 259 692 624 118 279 46 211 106 418 345 316 220 96 69 188 252 48 136 106 77
is_linear=0
shrinkage=0.05


Tree=8
num_leaves=31
num_cat=0
split_feature=35 27 24 48 49 6 113 100 21 43 107 44 19 40 29 108 48 52 2 22 17 32 27 45 27 10 22 43 44 44
split_gain=16.801 22.7479 22.4516 19.0627 12.2931 13.2188 12.4925 11.0837 11.0371 10.4768 9.77323 8.59141 8.29978 8.12743 8.4162 11.5213 9.10332 8.07827 8.01048 8.1678 8.99771 9.9296 8.64629 7.927 8.8452 8.21335 7.87567 9.98746 8.30031 10.3012
threshold=1256.768544723923 1913.3640012943556 2455.1263949550666 1721.579927993103 -83.929176100744584 1721.5068608532661 1.0000000180025095e-35 -11.676377663469678 97.31472217373188 1581.8070496628231 -124.33601859641043 1421.3324328027679 1921.8730311280697 1178.7490901200981 32.541870676960919 191.70928326215451 1626.3678912834871 1493.3815120257188 162.50000000000003 584.83829773391165 59.847484716380343 1585.5338038863772 1938.5588493212974 -312.92451017665991 1790.2390843433982 144.66263707035856 -6122.2527957905431 1554.5145049268435 1456.3911085360301 1429.7548263578003
decision_type=2 2 2 2 2 2 2 2 2 2 2 2 2 2 2 2 2 2 2 2 2 2 2 2 2 2 2 2 2 2
left_child=2 4 3 8 5 6 23 -4 13 -7 -8 -11 -13 26 15 -15 -16 -3 19 20 22 -22 -19 25 -25 -2 -1 -28 29 -29
right_child=1 17 7 -5 -6 9 10 -9 -10 11 -12 12 -14 14 16 -17 -18 18 -20 -21 21 -23 -24 24 -26 -27 27 28 -30 -31
leaf_value=-0.055583409613621064 5.7328933701392506e-05 -0.037626668589728178 -0.032201275573000163 0.054524823063883524 0.076858563978342315 0.075434671496480865 -0.049526944813182573 -0.0033924379064095411 -0.05527867427552198 0.060895416101680547 0.00023871707988904449 0.013103978268889911 0.059770746526862942 0.0005501223285984153 0.005753716698008584 -0.046636767888794443 0.056910161721991565 -0.024003558031726459 0.030248753529857248 0.039819021546505864 0.0053766084160022732 -0.028388741855681278 0.0026346330022845267 -0.056578406507992576 0.032570212520601098 0.081250933342609757 0.041701216596012766 0.015923217307815662 0.0010339276424589732 -0.035369956005905083
leaf_weight=9.8970190882682783 5.226238280534746 14.776395991444586 100.31423355638981 14.96087861061096 7.9238566607236853 7.9494346231222144 19.13861258327961 50.04138357937336 9.7751152366399747 10.709637418389319 20.361195221543312 223.26062679290771 9.9524963051080686 481.49605064094067 24.897007331252098 13.293156579136847 13.364571899175642 32.832200437784195 20.839620679616928 11.810719460248945 34.008090168237686 60.52351701259613 421.98996619880199 5.2178760617971403 5.9611116200685501 7.7091788202524185 8.9327720105648023 12.11531926691532 55.181758970022202 50.962870687246323
leaf_count=40 21 60 410 60 32 32 77 203 40 43 82 898 40 1940 101 54 54 132 84 48 138 246 1699 21 24 31 36 49 223 206
internal_value=0 0.00466963 -0.00509452 -0.00130389 0.0153487 0.0138038 -0.00656148 -0.0226131 -0.00253235 0.0189473 -0.023874 0.0171064 0.0150955 -0.00176295 0.00102947 -0.000717615 0.0236224 -0.0011176 -0.000190678 -0.00132109 -0.00220557 -0.0162415 0.000711705 0.0217966 -0.00904057 0.0484466 -0.0126208 -0.00927788 -0.0131286 -0.0255182
internal_weight=0 920.191 845.232 694.877 323.41 315.486 63.6142 150.356 679.916 251.872 39.4998 243.923 233.213 670.141 533.051 494.789 38.2616 596.781 582.004 561.164 549.354 94.5316 454.822 24.1144 11.179 12.9354 137.09 127.193 118.26 63.0782
internal_count=7124 3708 3416 2803 1301 1269 256 613 2743 1013 159 981 938 2703 2149 1994 155 2407 2347 2263 2215 384 1831 97 45 52 554 514 478 255
is_linear=0
shrinkage=0.05


Tree=9
num_leaves=31
num_cat=0
split_feature=42 45 9 76 10 7 15 39 108 48 76 39 40 34 21 35 49 41 36 43 40 41 76 4 23 41 76 41 38 41
split_gain=15.838 28.1679 14.3996 12.5865 11.6188 10.5267 9.12034 11.1637 9.07765 8.92025 9.93856 8.64876 8.32666 9.94567 8.09502 7.92201 12.2423 9.63401 9.03081 11.0636 9.04627 8.73864 9.1062 11.4958 9.25519 17.1944 8.74171 8.52528 12.8386 9.55802
threshold=313.01216503629979 -290.29317786109033 -72.631764408773833 584.83829773391165 67.345839646770415 66.787901049684237 1593.9589568008721 1762.5370373764183 164.86725406075132 1595.9600705069372 -330.8854775830427 1744.056854831653 1312.8773653201013 -206.93371633926003 -536.97559892016193 1255.5406444476328 -169.70196563393048 2.9159801513526422 1714.7600480230064 1653.677084589485 1408.9106902629012 44.945107104979463 -516.47373216024539 20.198501878287406 1703.1670263679368 9.9255984496030596 -841.66444054858641 -62.67602738979371 669.95666862533744 -31.086358534784264
decision_type=2 2 2 2 2 2 2 2 2 2 2 2 2 2 2 2 2 2 2 2 2 2 2 2 2 2 2 2 2 2
left_child=4 3 6 8 5 -1 9 -8 -2 14 -11 -12 13 -9 -3 16 17 -6 -18 20 27 22 24 -24 25 -17 -27 28 -20 -29
right_child=1 2 -4 -5 15 -7 7 12 -10 10 11 -13 -14 -15 -16 21 18 -19 19 -21 -22 -23 23 -25 -26 26 -28 29 -30 -31
leaf_value=0.0068862937073268758 0.01343806884260172 -0.017375467518360308 -0.045806838704066516 0.051444766252799659 -0.034908810772335638 -0.068415315169583588 -0.020506947757134759 0.023009821254058111 -0.0081082543382002166 0.063110166984965119 0.044172388876057955 -0.03617067541531243 -0.042178521913186072 -0.014279810914197716 0.015899566615973384 0.0080537630886553888 -0.013300307829209088 0.017398278713943654 -0.022581394476647115 -0.070994571915942925 0.040579864484040024 -0.035744130798454801 0.049700024886425317 0.0081483723260046808 0.017580529496489999 -0.0067328128686036494 -0.044632528173344815 -0.021051946104106645 0.05937470782921267 0.001389984200748222
leaf_weight=7.1790858060121563 420.3423288166523 35.9546038210392 21.731895297765732 19.97726571559906 56.99749293923378 13.128336325287817 109.4466458261013 47.52660907804966 55.317170545458794 13.681450664997103 6.4650843739509565 6.9510364234447479 8.8808367997407895 28.666694208979607 37.176473557949066 76.580162569880486 187.631781488657 10.410785406827925 7.3718767464160946 5.3994295597076407 13.96548508107662 13.680816546082495 21.925037950277328 69.129467934370041 48.815707609057426 27.816733092069626 33.583916023373604 56.78701214492321 13.583464279770849 288.39013314247131
leaf_count=30 1689 145 90 81 233 55 444 193 223 55 26 28 36 116 150 309 757 42 30 22 56 55 88 278 197 112 135 230 55 1164
internal_value=0 0.00512426 -0.00652894 0.0125652 -0.00437996 -0.0417947 -0.00363298 -0.00994636 0.0109323 0.00861984 0.0331245 0.00254578 0.00363969 0.0089801 -0.000459972 -0.00356479 -0.0066746 -0.0268303 -0.004304 7.47473e-05 0.00108431 0.00326792 0.0051888 0.0181536 -0.00113094 -0.0077508 -0.0274626 -0.000422176 0.0305434 -0.00230206
internal_weight=0 812.118 316.481 495.637 952.377 20.3074 294.749 194.521 475.659 100.229 27.0976 13.4161 85.0741 76.1933 73.1311 932.069 640.537 67.4083 573.129 385.497 380.098 291.532 277.851 91.0545 186.797 137.981 61.4006 366.132 20.9553 345.177
internal_count=7124 3276 1283 1993 3848 85 1193 789 1912 404 109 54 345 309 295 3763 2589 275 2314 1557 1535 1174 1119 366 753 556 247 1479 85 1394
is_linear=0
shrinkage=0.05


Tree=10
num_leaves=31
num_cat=0
split_feature=42 45 9 22 10 7 13 37 5 47 52 40 7 38 1 15 47 51 11 100 108 22 34 28 33 23 11 22 40 48
split_gain=14.3049 24.9286 12.1354 11.5554 10.5725 9.72062 9.41349 11.9422 9.05411 11.8593 9.82769 9.59811 12.0029 8.70769 8.94483 8.29511 8.98864 10.0317 8.8878 8.08725 8.01111 7.96168 7.84398 10.9235 7.5095 11.7978 11.2633 15.4627 7.28011 7.25508
threshold=311.88495220369902 -290.29317786109033 -72.631764408773833 584.83829773391165 67.345839646770415 66.787901049684237 -72.553921588451189 433.30868267478735 1844.9433971224337 1442.7582646933763 1509.2676206011342 1211.4428033458032 64.767720308356374 716.93034085505087 17.500000000000004 1593.9589568008721 1475.4767922284843 1533.2275914226698 1544.2868773559778 23.328997177696582 164.86725406075132 -319.64092212743884 -200.45098189809013 1470.1166183724197 -703.74557270109722 198.43881475653669 1515.1827629737822 -498.58340021646296 1431.7359620541588 1595.9600705069372
decision_type=2 2 2 2 2 2 2 2 2 2 2 2 2 2 2 2 2 2 2 2 2 2 2 2 2 2 2 2 2 2
left_child=4 3 15 20 5 -1 8 13 -6 21 -11 12 -12 14 -8 18 -17 -18 29 28 24 -10 -22 -24 26 -26 -2 -28 -13 -3
right_child=1 2 -4 -5 6 -7 7 -9 9 10 11 19 -14 -15 -16 16 17 -19 -20 -21 22 -23 23 -25 25 -27 27 -29 -30 -31
leaf_value=0.0065328969221614287 0.09007065306177417 -0.0034449739235447988 -0.042102143480733281 0.049090210738676691 -0.0066345401724150297 -0.065986702246942544 -0.045823020408366603 0.030766878012773571 0.046202948344409592 0.047035728107002808 -0.058611580915966091 -0.0074860104909785126 0.014266741902926603 -0.07079984081801044 0.027868958125221284 -0.026556993050953923 0.067069871279501717 -0.0053335679729831125 0.070084464803449584 -0.064912001445721443 0.0063908195566891694 -0.016150671652271281 0.0041985114727188791 -0.069970789034502864 -0.060756356978009324 0.011549923434093364 -0.039100424178045788 0.042534168967640118 0.043646261728178259 0.027706758989586341
leaf_weight=7.1888090223073986 7.2321048974990836 72.868732035160065 21.788264974951744 19.890833929181099 517.19326475262642 12.935821935534475 10.742632254958158 7.1076381653547278 24.586330324411396 11.155538156628607 5.9489580541849127 188.47014497220516 112.3385014384985 13.750347837805746 6.6774632185697547 55.387523368000984 4.9578710347414008 136.44616882503033 5.4611114263534537 5.9205495864152899 35.437283396720886 6.4657398462295523 9.9344526231288928 9.9225292205810529 5.7250877767801276 386.10271160304546 7.9570874124765423 21.40407694876194 7.2282429337501517 25.138152599334717
leaf_count=30 29 294 91 81 2089 55 44 29 99 45 24 761 454 56 27 224 20 555 22 24 143 26 40 40 23 1551 32 86 29 101
internal_value=0 0.00479301 -0.00607138 0.0117406 -0.00423204 -0.0400817 -0.00344578 -0.0277184 -0.00238914 0.0036744 0.000903206 -0.000705493 0.0106015 -0.0410545 -0.0175754 -0.00345682 -0.00948286 -0.00279498 0.00800446 -0.00733918 0.0102048 0.0332195 -0.00770612 -0.0328639 0.0125164 0.0104934 0.0341779 0.0204106 -0.00559741 0.00454525
internal_weight=0 825.654 322.048 503.606 937.71 20.1246 917.585 38.2781 879.307 362.114 331.062 319.906 118.287 31.1704 17.4201 300.26 196.792 141.404 103.468 201.619 483.715 31.0521 55.2943 19.857 428.421 391.828 36.5933 29.3612 195.698 98.0069
internal_count=7124 3332 1307 2025 3792 85 3707 156 3551 1462 1337 1292 478 127 71 1216 799 575 417 814 1944 125 223 80 1721 1574 147 118 790 395
is_linear=0
shrinkage=0.05


Tree=11
num_leaves=31
num_cat=0
split_feature=35 40 35 50 2 82 2 21 36 32 45 31 1 82 30 13 21 21 24 24 21 50 30 8 30 31 15 5 34 46
split_gain=13.4505 11.808 9.92997 12.7246 9.82412 9.31561 9.69606 10.2741 9.05161 10.8283 10.2945 8.65452 15.7438 9.39778 9.39581 8.63681 8.53248 8.33954 8.23447 8.7433 8.57702 9.96352 8.64441 7.98664 11.6891 7.91901 9.44108 8.08039 7.87033 10.1694
threshold=1381.2790825031564 1348.7926191169345 1193.4840454944303 70.345952847674212 7.5000000000000009 -253.66332646638133 145.50000000000003 -907.94435954330345 1789.9025040082959 1491.0660513519126 -257.5782315626081 1615.7717199765407 54.500000000000007 2094.5421797138665 210.3017619435482 -56.107780028791119 -108.80591016348625 97.31472217373188 2190.0405898462109 2204.6863258162389 -1160.7045840167582 88.330767855082982 115.12638605711085 68.043237702167715 -32.784706113436066 1672.3066185382966 1560.5335242380199 2018.9980419179881 -218.35624995341252 -20.029240914072599
decision_type=2 2 2 2 2 2 2 2 2 2 2 2 2 2 2 2 2 2 2 2 2 2 2 2 2 2 2 2 2 2
left_child=1 2 3 -1 -3 8 18 -8 9 10 -4 13 14 -6 -13 25 -9 23 20 -20 28 22 -22 24 -5 26 -2 -27 29 -7
right_child=15 4 5 17 11 6 7 16 -10 -11 -12 12 -14 -15 -16 -17 -18 -19 19 -21 21 -23 -24 -25 -26 27 -28 -29 -30 -31
leaf_value=-0.053394835595416447 -0.027515482444095341 -0.022202197486971387 0.069436825197800853 0.039543147569728064 -0.011161745537058544 -0.020896267443603386 0.060834773292229249 -0.002956729445599428 0.036644257418889901 -0.023517594465794892 -0.010385135875433646 -0.00034500375173204996 0.044410918862236415 0.030897873714379 0.035218152305218325 -0.022787636068314222 0.058909379458881944 -0.065711707368222225 -0.050777309590264545 -0.0046846244820705069 0.0092498453736353462 0.0051611892046242603 0.074343328449378118 -0.014871659973028559 -0.0039272902245799509 -0.0055186095364387934 0.042372872215788192 0.022538298406355468 -0.049768828349837223 0.024057132452100158
leaf_weight=16.049638569355011 5.4701992124319068 23.202206403017044 6.4553527832031277 16.822171092033386 58.741300716996193 34.445698410272598 13.179970383644102 28.525232508778569 8.4454739242792112 96.633969634771347 10.79218542575836 75.920841187238693 43.326668366789818 17.161168023943901 24.587517842650414 14.846522554755209 6.9265790879726437 6.1548413336276999 10.663731172680853 292.37314239144325 10.455873042345049 386.91654215753078 9.9576915800571424 176.55625751614571 191.60258831083775 48.125530958175659 41.437208846211433 54.978440120816231 11.651410460472105 19.819741725921631
leaf_count=67 22 94 26 68 236 139 53 115 34 392 44 305 174 69 99 60 28 26 43 1184 42 1560 40 718 776 194 167 222 47 80
internal_value=0 -0.00141014 -0.00323079 -0.0097606 0.00874027 -0.00042386 0.00148556 0.0231433 -0.0133001 -0.017004 0.0194904 0.0120075 0.0192158 -0.00165228 0.00835487 0.0135906 0.00913068 -0.00797014 0.000128769 -0.00630661 0.00424957 0.00695739 0.0410023 -0.007047 -0.000418748 0.0171909 0.0342227 0.00944226 -0.0124833 -0.00447763
internal_weight=0 1597.37 1354.43 407.185 242.94 947.243 824.916 48.6318 122.327 113.882 17.2475 219.737 143.835 75.9025 100.508 164.858 35.4518 391.136 776.284 303.037 473.247 407.33 20.4136 384.981 208.425 150.011 46.9074 103.104 65.9169 54.2654
internal_count=7124 6459 5482 1655 977 3827 3331 196 496 462 70 883 578 305 404 665 143 1588 3135 1227 1908 1642 82 1562 844 605 189 416 266 219
is_linear=0
shrinkage=0.05


Tree=12
num_leaves=31
num_cat=0
split_feature=34 40 9 10 39 35 24 34 87 45 27 32 27 27 36 24 36 40 39 28 7 2 16 11 18 87 8 27 29 12
split_gain=12.7634 14.027 11.8874 10.8146 10.439 8.79208 12.2856 10.8771 9.88052 9.19407 9.13109 11.438 12.6939 9.21925 8.97029 16.8447 11.1697 8.9257 11.9878 8.77404 7.63992 7.60456 7.59018 7.54992 12.3844 10.5843 8.87259 7.45286 8.5989 8.1071
threshold=-76.299401292181741 1449.847160008718 -87.644904212476362 67.345839646770415 1740.732155633322 1256.768544723923 2455.1263949550666 -398.09355196597511 -790.52379633312887 -363.77123252491305 1913.3640012943556 1772.2875406906919 1763.8256506031842 1931.4550072014522 1724.5546566810078 2222.8349538635039 1789.9025040082959 1271.3636565095062 1733.3855757498782 1197.2744107942065 66.787901049684237 162.50000000000003 1642.8143507654645 1524.5956316048798 -61.648623668704538 -698.75601984909645 69.459968650004114 1661.2218018475817 -300.97684132687556 1517.577518992432
decision_type=2 2 2 2 2 2 2 2 2 2 2 2 2 2 2 2 2 2 2 2 2 2 2 2 2 2 2 2 2 2
left_child=1 2 3 20 -2 6 22 8 19 -9 11 12 14 17 15 27 -16 18 -12 -8 -1 -15 -5 24 -3 -25 -27 28 -7 -30
right_child=4 23 -4 5 -6 10 7 9 -10 -11 13 -13 -14 21 16 -17 -18 -19 -20 -21 -22 -23 -24 25 -26 26 -28 -29 29 -31
leaf_value=0.0036051012068261676 0.037138176582555818 -0.066557212988262671 -0.019350375945295706 -0.0014914903109842087 -0.026006172674993396 -0.029705962363225754 0.048870695311777963 -0.072150808470167888 0.050793705372877473 -0.022922773716123619 0.046506150037740612 0.042864134901885814 0.018366529578712553 -5.9639888460419712e-05 -0.026328846682627555 0.078016872697952128 0.030299916087702657 -0.059976433048400259 -0.055470339414020214 -0.017058981928205642 -0.060043946167396361 0.032526707114178287 0.059153714063103019 0.064836189445192774 0.036362702899494406 0.02680788745638539 -0.038684865981934213 -0.027321218804824243 -0.015604936497601203 0.056157317936916432
leaf_weight=7.4266935139894512 37.559911444783211 5.7307073175907135 89.135983243584633 624.96550408005714 7.9266522675752631 7.4651246815919903 5.6958201974630347 11.114152267575262 7.8521106392145148 64.692117929458618 6.4478031247854251 25.603169396519661 130.75192515552044 465.44431200623512 52.893731877207756 7.957569181919097 10.423885762691496 12.42944151163101 5.211000919342041 44.256420508027077 12.910305216908453 18.619934543967247 5.2023475170135489 15.626164242625235 5.9656275510787946 30.511229813098907 6.2267188578844062 16.663471758365631 5.7031089663505581 12.699002027511595
leaf_count=31 152 23 370 2523 32 30 23 46 32 264 26 103 526 1875 213 32 42 50 21 182 56 75 21 63 24 123 25 67 23 51
internal_value=0 -0.000700157 -0.00159056 -0.000577371 0.0261344 -9.96634e-05 -0.0039108 -0.0176827 -0.00134545 -0.0301402 0.0036403 0.0110677 0.00773893 -0.000308531 -0.00447115 0.011249 -0.0170061 -0.030499 0.000926897 -0.00954133 -0.0368005 0.00119382 -0.000990834 0.0222557 -0.0140637 0.0303682 0.0157075 -0.00124333 0.0155558 0.033917
internal_weight=0 1715.63 1651.56 1562.43 45.4866 1542.09 763.778 133.611 57.8044 75.8063 778.313 270.161 244.558 508.152 113.806 50.4883 63.3176 24.0882 11.6588 49.9522 20.337 484.064 630.168 64.0604 11.6963 52.3641 36.7379 42.5307 25.8672 18.4021
internal_count=7124 6940 6682 6312 184 6225 3091 547 237 310 3134 1087 984 2047 458 203 255 97 47 205 87 1950 2544 258 47 211 148 171 104 74
is_linear=0
shrinkage=0.05


Tree=13
num_leaves=31
num_cat=0
split_feature=10 99 22 44 22 56 15 4 51 32 39 48 34 18 4 29 17 26 27 27 39 36 50 29 85 2 107 97 28 24
split_gain=11.5932 14.6984 16.8135 10.2853 9.56988 9.1433 9.33243 9.68702 8.75677 8.64042 8.29791 9.12838 9.94331 13.2489 8.54353 11.1769 8.9371 7.97542 7.57559 7.40958 7.29852 10.873 7.29452 7.45184 8.96192 7.3296 8.51852 13.1861 7.29611 7.2606
threshold=80.554458315663865 -279.6606431122072 -712.16689093106947 1463.2419750834522 584.83829773391165 1552.2751599373444 1638.8445824697199 9.5489297102452628 1602.7894773161502 1815.3072501066133 1719.8784571608533 1568.6058267164092 -198.72196199935726 346.83369065525375 310.21588587650382 50.254220439735157 -139.56756436776422 418.84102954029726 2605.4572765464973 1987.9772843211106 1730.1088662417367 1692.7512502189163 90.345369538962032 -8.3616754541951632 1629.0596498275943 32.500000000000007 -122.44626956918363 1629.0396922689167 2263.2074897352409 2515.8763487631481
decision_type=2 2 2 2 2 2 2 2 2 2 2 2 2 2 2 2 2 2 2 2 2 2 2 2 2 2 2 2 2 2
left_child=29 2 -2 5 9 6 7 -3 -5 22 11 12 13 19 16 -16 -13 -6 -7 -9 21 -12 -4 28 -25 -26 -27 -28 -24 -1
right_child=1 3 4 8 17 18 -8 10 -10 -11 20 14 -14 -15 15 -17 -18 -19 -20 -21 -22 -23 23 24 25 26 27 -29 -30 -31
leaf_value=0.027553496979749566 -0.0041092152610679514 -0.073510314565279442 0.022575978069277351 0.003913942690317705 0.077546436595815046 -0.0042351238726167674 -0.035901903293196161 -0.016218510719240711 -0.063085677917733646 0.036933228988390444 0.073608141526567944 -0.058621879395894472 0.055270939177739287 -0.078341513074836833 -0.074682952735888569 0.010383166295312305 -0.001340620290156229 0.016034039056717651 0.06859815853498312 0.060497140324098898 -0.0064391558639053373 -0.0011403528201529432 0.0016461588131237289 0.074250238774381222 0.044606514789616122 -0.018545575136596545 0.063635234935479609 0.004526241383666578 0.043433861351783239 -0.029189289073203097
leaf_weight=6.377370446920394 427.61027890443802 5.9277222752571097 62.966152667999268 204.68094037473202 8.8406985551118868 8.4281584769487363 41.426190435886383 8.6557085961103493 4.9958859682083121 23.843470394611359 7.4450369328260448 9.3912026286125165 6.6962479203939429 5.8434011638164511 18.078335940837864 4.9102497845888129 24.769444331526756 13.044855505228041 6.194110006093978 4.9460474848747245 146.82373580336571 14.038872778415678 535.77198280394077 6.4729963243007651 15.627651333808897 22.85061976313591 12.188249051570891 41.771242722868919 10.653326764702795 48.597261115908623
leaf_count=26 1731 24 253 829 37 34 173 35 21 96 30 38 27 24 74 20 100 53 25 20 595 57 2155 26 63 92 49 168 43 206
internal_value=0 0.000721447 0.00381081 -0.00625516 0.00830225 -0.0119875 -0.0138757 -0.0103325 0.00231757 0.00732836 -0.00884404 -0.0217519 0.00272235 -0.0153736 -0.032947 -0.0565132 -0.017088 0.0408821 0.0266176 0.0116778 -0.0024563 0.024763 0.00633178 0.00474681 0.0173753 0.0133926 0.00704192 0.0178776 0.00246087 -0.0226068
internal_weight=0 1704.89 1181.64 523.251 754.031 313.574 298.952 257.526 209.677 732.146 251.598 83.2906 26.1414 19.4452 57.1492 22.9886 34.1606 21.8856 14.6223 13.6018 168.308 21.4839 708.302 645.336 98.9108 92.4378 76.8101 53.9595 546.425 54.9746
internal_count=7124 6892 4766 2126 3035 1276 1217 1044 850 2945 1020 338 106 79 232 94 138 90 59 55 682 87 2849 2596 398 372 309 217 2198 232
is_linear=0
shrinkage=0.05


Tree=14
num_leaves=31
num_cat=0
split_feature=34 40 9 96 39 41 10 7 35 49 47 12 90 41 45 38 26 41 90 1 32 96 23 107 33 45 41 6 40 29
split_gain=11.125 11.7311 9.85748 9.43438 9.3019 8.08591 8.30218 8.50224 7.5341 10.433 8.58994 8.34131 8.22574 8.85679 12.289 10.9488 7.59643 7.19025 7.13789 9.13891 9.68598 9.98766 8.40544 7.32504 7.05691 6.99864 7.92806 8.41759 6.83653 7.03099
threshold=-76.299401292181741 1449.847160008718 -87.644904212476362 313.01216503629979 1740.732155633322 44.399607983002404 67.345839646770415 66.787901049684237 1256.768544723923 -169.70196563393048 1505.6071473011664 1587.4722685708941 1714.7600480230064 -62.67602738979371 -321.49315642955906 848.577296042081 -29.777379609309829 2.9159801513526422 1766.7182811479711 17.500000000000004 1552.5175877089234 333.9622478332646 1648.0353122496213 -105.93266819954179 -741.45070986631015 -245.33917861692666 45.522176010209485 1844.6153662261202 1138.6476861905228 -136.44329668843361
decision_type=2 2 2 2 2 2 2 2 2 2 2 2 2 2 2 2 2 2 2 2 2 2 2 2 2 2 2 2 2 2
left_child=1 2 3 5 -2 6 7 -1 9 17 16 12 -11 14 -14 -15 -10 -8 25 23 -21 -22 -23 -20 -3 -5 -27 -28 -4 -30
right_child=4 24 28 18 -6 -7 8 -9 10 11 -12 -13 13 15 -16 -17 -18 -19 19 20 21 22 -24 -25 -26 26 27 -29 29 -31
leaf_value=0.0080914698133303844 0.034872223352531782 0.05315125765659208 -0.049336506387033074 0.0033811947112661542 -0.024773370952993343 -0.033334243006508134 -0.031089294335817249 -0.060449353446894116 0.035354603822377199 -0.011244510486507542 0.06400688490198285 -0.065548788179472503 -0.018327954426276893 0.0023602463962197166 0.063928595839331179 -0.033176216848529831 0.0010594362891480664 0.015615640243091609 0.013360821337285734 -0.023565901197721603 0.05765680966147755 -0.032637177579117438 0.02930558562792426 -0.029961455814630618 0.011944056970720348 0.035180506371899969 -0.043713164384930531 0.010188702721081251 -0.054189815188356222 -0.0060310731494798379
leaf_weight=7.1434074193239239 37.39262355864048 13.065676406025885 14.317320600152014 489.07990492880344 7.9213947355747214 22.57763671875 55.969272032380104 12.341497033834456 17.293100297451019 180.11945712566376 5.9668864756822577 5.2986668795347205 7.0834143459796932 319.95775070786476 12.648849472403525 23.250077784061432 243.56868894398212 9.6633744090795499 26.766781568527222 8.1982714682817441 25.870367467403412 6.9709202796220771 25.550287991762161 15.354338735342024 50.731724813580513 5.9156784713268271 24.050597459077835 10.364318862557409 8.569304943084715 65.575006365776062
leaf_count=30 152 53 61 1969 32 91 232 55 70 729 24 22 29 1294 51 94 981 39 108 33 104 28 103 62 205 24 98 42 36 273
internal_value=0 -0.00065442 -0.00146811 -0.000547962 0.0244455 -0.0037802 -0.00303905 -0.0353214 -0.00232492 -0.00537336 0.00468974 -0.00311849 -0.00250935 0.00182572 0.0344004 -4.71158e-05 0.00333294 -0.0242127 0.00412666 0.0157964 0.0273264 0.0344717 0.0160282 -0.00243137 0.0203833 0.00173034 -0.0182891 -0.0274802 -0.0177051 -0.0115971
internal_weight=0 1713.26 1649.47 1561 45.314 922.882 900.304 19.4849 880.82 613.991 266.829 548.358 543.06 362.94 19.7323 343.208 260.862 65.6326 638.121 108.711 66.5898 58.3916 32.5212 42.1211 63.7974 529.41 40.3306 34.4149 88.4616 74.1443
internal_count=7124 6940 6682 6312 184 3741 3650 85 3565 2490 1075 2219 2197 1468 80 1388 1051 271 2571 438 268 235 131 170 258 2133 164 140 370 309
is_linear=0
shrinkage=0.05


Tree=15
num_leaves=31
num_cat=0
split_feature=34 40 9 14 43 3 103 32 24 22 4 9 5 19 9 51 5 21 101 40 100 20 10 39 35 1 2 41 41 66
split_gain=10.0672 10.6348 8.98206 8.69469 8.4528 8.61758 7.83295 7.57907 12.8617 7.31819 10.3024 7.09659 6.98661 13.2515 7.81798 9.66772 7.90973 8.95919 8.48976 9.0245 7.33234 7.1566 9.66279 7.44388 7.1545 13.0818 12.2858 7.1241 9.81028 7.65231
threshold=-76.299401292181741 1455.3401933549837 -87.644904212476362 33.933077330038834 1736.1638793123361 72.130262226682831 -221.28233020809952 1673.156388491366 2621.6688493053362 84.888582172868624 510.94360507157529 -153.49645707355339 1827.3889088652952 1750.4932221396562 -130.92985964428769 1548.0670935311393 1810.6898173739926 -1198.9764609840299 1426.1740213012465 1328.2510862958591 -21.522772494093257 1712.0243638038194 125.70394439304563 1773.8422318480211 1168.4620865452541 68.500000000000014 36.500000000000007 76.977791173200345 49.691785660471403 1523.0705182888732
decision_type=2 2 2 2 2 2 2 2 2 2 2 2 2 2 2 2 2 2 2 2 2 2 2 2 2 2 2 2 2 2
left_child=1 2 3 7 5 -2 -5 -1 -9 10 12 -3 14 24 16 21 17 18 19 -8 -18 22 -16 -23 -14 26 -26 28 29 -19
right_child=4 11 -4 6 -6 -7 9 8 -10 -11 -12 -13 13 -15 15 -17 20 27 -20 -21 -22 23 -24 -25 25 -27 -28 -29 -30 -31
leaf_value=-0.061264892556958717 0.055546617493399036 -0.012110074236612582 -0.01689037233811776 0.048321809144126163 -0.01536235654463588 0.0043478047916521703 -0.032955265165191108 0.044474116468187656 -0.022563903405503155 0.010053014228700094 -0.039645103819987267 0.029985335779549302 0.050352951170180564 0.00011992136791940411 0.025536213161111557 0.028895788381287126 -0.036520089682882742 -0.016778791610633646 -0.00032946873405462402 0.026839803462509026 0.02122646629945945 -0.046050853677097242 -0.016515566656886495 0.017307776386839245 -0.04062701954849874 0.042587638213092166 0.016184648966997617 -0.045921793061576371 0.047384521102272231 0.013358657374363536
leaf_weight=9.0157621353864652 20.865815207362175 12.914797842502592 88.113595679402351 8.4331593215465528 10.776390522718428 13.559730544686316 41.448282361030579 8.5480283647775632 43.896119430661201 161.44647893309593 17.216893747448921 44.54389463365078 16.83312252163887 640.94716313481331 15.609707325696943 12.390763953328131 26.292087614536285 26.08256259560585 178.05308397114277 7.4431848526000968 6.9501783251762381 30.766628205776215 109.410698980093 5.4582750350236884 14.340801164507864 25.071529567241669 28.287192732095718 5.4793941378593436 17.454364597797394 109.44614490866661
leaf_count=38 85 52 370 34 44 55 168 35 188 651 71 181 68 2588 63 50 106 105 721 30 28 124 442 22 58 101 114 22 70 440
internal_value=0 -0.000623061 -0.00135749 -0.000483686 0.0232828 0.0353801 0.000269157 -0.0189172 -0.0116372 -1.64515e-06 -0.00121761 0.0205237 -0.000715545 0.00257401 -0.00474486 -0.0136647 -0.00104533 0.000973086 -0.00539704 -0.0238521 -0.0244466 -0.0169352 -0.0112651 -0.0365041 0.0211815 0.0139282 -0.00292779 0.0100962 0.0121026 0.00755869
internal_weight=0 1711.89 1654.44 1566.32 45.2019 34.4255 1504.86 61.4599 52.4441 1496.43 1334.98 57.4587 1317.77 725.48 592.285 173.636 418.649 385.407 226.945 48.8915 33.2423 161.245 125.02 36.2249 84.5326 67.6995 42.628 158.462 152.983 135.529
internal_count=7124 6940 6707 6337 184 140 6076 261 223 6042 5391 233 5320 2929 2391 701 1690 1556 919 198 134 651 505 146 341 273 172 637 615 545
is_linear=0
shrinkage=0.05


Tree=16
num_leaves=31
num_cat=0
split_feature=35 24 45 35 2 46 42 12 88 49 30 16 46 48 85 51 23 38 37 44 22 93 44 45 48 32 2 11 17 42
split_gain=9.4231 8.49231 14.252 10.2317 12.0638 9.99193 16.6695 12.9276 9.41426 9.16627 9.02258 9.11639 8.55324 8.40192 8.09386 7.92597 11.4812 8.82183 10.1403 7.78466 7.76795 10.5213 9.32593 8.87006 7.65597 7.48139 7.4293 16.9698 8.83338 7.30706
threshold=1418.4698292398286 2455.1263949550666 -279.6606431122072 1256.768544723923 62.500000000000007 -17.804257321561519 246.5159348164714 1520.9178845582057 -373.70307998744767 -98.668163198807392 -101.03076841528149 1580.0539712914681 -11.676377663469678 1624.5599696722354 1669.1722797050531 1545.6178629484409 1716.3933887997316 659.22562054953914 197.71135635693193 1473.5751290792398 -5274.2432103079545 1719.8784571608533 1415.9335408036493 -250.91604497099385 1577.592681513416 1436.8557582299889 52.500000000000007 1538.849268887114 -40.328918323097348 296.48210591864444
decision_type=2 2 2 2 2 2 2 2 2 2 2 2 2 2 2 2 2 2 2 2 2 2 2 2 2 2 2 2 2 2
left_child=1 2 5 12 9 7 -7 25 -8 19 -4 13 -3 20 -2 16 17 18 -10 -5 24 -22 -23 26 -12 -1 27 -24 -28 -9
right_child=14 3 10 4 -6 6 8 29 15 -11 11 -13 -14 -15 -16 -17 -18 -19 -20 -21 21 22 23 -25 -26 -27 28 -29 -30 -31
leaf_value=0.027230639139420327 0.038026685415046904 -0.026517228034125553 0.055743861462144495 -0.052238763466925131 0.042931515642376607 0.080552269739681936 -0.028915219702573894 -0.0017929681970482716 0.011810733127569929 -0.057658062567159413 0.0035124871310374464 0.0074076878481739959 -0.0010199832051331723 -0.040681691143847495 0.0064644692111888117 0.03990181220465841 -0.047201089033365319 0.0036861869762256495 0.070120807003100069 0.0010007707105245216 -0.019873379438137974 0.037886578322326975 0.095181998162935363 -0.013628557829518856 -0.058112163550582324 -0.025225243663501835 -0.019753298141992497 -0.0011043857490474099 0.017940668831829612 0.0086786835968748043
leaf_weight=7.6959531456232062 26.822945013642311 97.759358301758766 5.7081430405378333 7.197539046406745 14.900105118751524 9.4256360530853254 12.85709825158119 296.12853595614433 17.593628421425823 7.6064462214708319 7.6024772673845318 82.055071964859962 49.569365277886391 22.512075826525688 83.684932813048363 27.229629650712013 8.2016215026378614 61.975612536072731 12.939536660909651 149.11353771388531 101.85812883079052 14.985276535153387 7.4378595054149654 94.570577964186668 14.952997341752051 58.208232462406158 28.96131394803524 11.892968013882635 33.545194759964943 380.83548505604267
leaf_count=31 109 410 23 29 60 38 52 1195 71 31 31 333 203 93 340 110 33 250 52 604 416 61 30 390 61 235 117 48 136 1532
internal_value=0 -0.000957555 0.000828575 -0.00818197 -0.000143447 0.00441826 0.016179 0.00204 0.0118695 -0.00405896 -0.00669559 -0.00754344 -0.0179386 -0.0111697 0.0141254 0.0159681 0.00949706 0.0145238 0.0365217 -0.00145071 -0.00906591 -0.00689111 1.79626e-05 -0.00319885 -0.0373412 -0.0190997 0.00885363 0.0359434 0.000475819 0.004098
internal_weight=0 1645.32 1319.17 326.146 178.818 893.091 150.223 742.868 140.797 163.918 426.082 420.374 147.329 338.319 110.508 127.94 100.71 92.5088 30.5332 156.311 315.807 293.251 191.393 176.408 22.5555 65.9042 81.8373 19.3308 62.5065 676.964
internal_count=7124 6675 5338 1337 724 3599 606 2993 568 664 1739 1716 613 1383 449 516 406 373 123 633 1290 1198 782 721 92 266 331 78 253 2727
is_linear=0
shrinkage=0.05


end of trees

feature_importances:
b_ace_glicko_rating=26
a_ace_glicko_rating=21
service_glicko_rating_diff_low=18
first_won_glicko_rating_diff_high=18
a_first_won_glicko_rating=16
service_glicko_rating_diff_high=14
point_glicko_rating_diff_low=13
b_player_rank=12
point_glicko_rating_diff_high=12
b_return_glicko_rating=12
ace_glicko_rating_diff_low=12
return_first_won_glicko_rating_diff_high=12
b_first_won_glicko_rating=12
a_return_glicko_rating=11
b_service_glicko_rating=11
a_return_ace_glicko_rating=11
game_glicko_rating_diff_low=10
b_return_ace_glicko_rating=10
first_won_glicko_rating_diff_low=10
glicko_rating_diff_high=9
b_tiebreak_glicko_rating=9
glicko_rating_diff_low=8
game_glicko_rating_diff_high=8
tiebreak_glicko_rating_diff_high=8
return_ace_glicko_rating_diff_high=8
a_glicko_rating=7
a_glicko_rd=7
a_service_glicko_rating=7
return_glicko_rating_diff_low=7
a_tiebreak_glicko_rating=7
b_return_first_won_glicko_rating=7
second_won_glicko_rating_diff_high=7
a_player_rank=6
b_glicko_rd=6
a_point_glicko_rating=6
b_set_glicko_rating=6
return_glicko_rating_diff_high=6
tiebreak_glicko_rating_diff_low=6
return_first_won_glicko_rating_diff_low=6
a_game_glicko_rating=5
return_ace_glicko_rating_diff_low=5
second_won_glicko_rating_diff_low=5
b_return_second_won_glicko_rating=5
surface_return_second_won_glicko_rating_diff_high=5
b_point_glicko_rating=4
b_game_glicko_rating=4
a_return_first_won_glicko_rating=4
a_second_won_glicko_rating=4
surface_service_glicko_rating_diff_low=4
surface_first_won_glicko_rating_diff_low=4
surface_return_first_won_glicko_rating_diff_low=4
surface_return_second_won_glicko_rating_diff_low=4
set_glicko_rating_diff_high=3
set_glicko_rating_diff_low=3
a_set_glicko_rating=3
ace_glicko_rating_diff_high=3
b_glicko_rating=2
b_surface_glicko_rd=2
surface_point_glicko_rating_diff_low=2
surface_return_glicko_rating_diff_high=2
b_surface_service_glicko_rating=2
a_surface_tiebreak_glicko_rating=2
surface_ace_glicko_rating_diff_high=2
b_surface_return_ace_glicko_rating=2
a_surface_return_first_won_glicko_rating=2
return_second_won_glicko_rating_diff_low=1
b_second_won_glicko_rating=1
surface_glicko_rating_diff_high=1
surface_glicko_rating_diff_low=1
b_surface_point_glicko_rating=1
surface_game_glicko_rating_diff_high=1
a_surface_game_glicko_rating=1
b_surface_set_glicko_rating=1
surface_service_glicko_rating_diff_high=1
a_surface_service_glicko_rating=1
surface_tiebreak_glicko_rating_diff_high=1
surface_ace_glicko_rating_diff_low=1
surface_return_ace_glicko_rating_diff_high=1
a_surface_return_ace_glicko_rating=1
b_surface_ace_glicko_rating=1
a_surface_first_won_glicko_rating=1
surface_return_first_won_glicko_rating_diff_high=1
surface_second_won_glicko_rating_diff_high=1
a_surface_return_second_won_glicko_rating=1
surface_Clay=1
surface_Hard=1

parameters:
[boosting: gbdt]
[objective: binary]
[metric: binary_logloss]
[tree_learner: serial]
[device_type: cpu]
[data_sample_strategy: bagging]
[data: ]
[valid: ]
[num_iterations: 300]
[learning_rate: 0.05]
[num_leaves: 31]
[num_threads: 0]
[seed: 0]
[deterministic: 0]
[force_col_wise: 0]
[force_row_wise: 0]
[histogram_pool_size: -1]
[max_depth: -1]
[min_data_in_leaf: 20]
[min_sum_hessian_in_leaf: 0.001]
[bagging_fraction: 1]
[pos_bagging_fraction: 1]
[neg_bagging_fraction: 1]
[bagging_freq: 10]
[bagging_seed: 3]
[feature_fraction: 0.9]
[feature_fraction_bynode: 1]
[feature_fraction_seed: 2]
[extra_trees: 0]
[extra_seed: 6]
[early_stopping_round: 0]
[early_stopping_min_delta: 0]
[first_metric_only: 0]
[max_delta_step: 0]
[lambda_l1: 0]
[lambda_l2: 0]
[linear_lambda: 0]
[min_gain_to_split: 0]
[drop_rate: 0.1]
[max_drop: 50]
[skip_drop: 0.5]
[xgboost_dart_mode: 0]
[uniform_drop: 0]
[drop_seed: 4]
[top_rate: 0.2]
[other_rate: 0.1]
[min_data_per_group: 100]
[max_cat_threshold: 32]
[cat_l2: 10]
[cat_smooth: 10]
[max_cat_to_onehot: 4]
[top_k: 20]
[monotone_constraints: ]
[monotone_constraints_method: basic]
[monotone_penalty: 0]
[feature_contri: ]
[forcedsplits_filename: ]
[refit_decay_rate: 0.9]
[cegb_tradeoff: 1]
[cegb_penalty_split: 0]
[cegb_penalty_feature_lazy: ]
[cegb_penalty_feature_coupled: ]
[path_smooth: 0]
[interaction_constraints: ]
[verbosity: -1]
[saved_feature_importance_type: 0]
[use_quantized_grad: 0]
[num_grad_quant_bins: 4]
[quant_train_renew_leaf: 0]
[stochastic_rounding: 1]
[linear_tree: 0]
[max_bin: 255]
[max_bin_by_feature: ]
[min_data_in_bin: 3]
[bin_construct_sample_cnt: 200000]
[data_random_seed: 1]
[is_enable_sparse: 1]
[enable_bundle: 1]
[use_missing: 1]
[zero_as_missing: 0]
[feature_pre_filter: 0]
[pre_partition: 0]
[two_round: 0]
[header: 0]
[label_column: ]
[weight_column: ]
[group_column: ]
[ignore_column: ]
[categorical_feature: ]
[forcedbins_filename: ]
[precise_float_parser: 0]
[parser_config_file: ]
[objective_seed: 5]
[num_class: 1]
[is_unbalance: 0]
[scale_pos_weight: 1]
[sigmoid: 1]
[boost_from_average: 1]
[reg_sqrt: 0]
[alpha: 0.9]
[fair_c: 1]
[poisson_max_delta_step: 0.7]
[tweedie_variance_power: 1.5]
[lambdarank_truncation_level: 30]
[lambdarank_norm: 1]
[label_gain: ]
[lambdarank_position_bias_regularization: 0]
[eval_at: ]
[multi_error_top_k: 1]
[auc_mu_weights: ]
[num_machines: 1]
[local_listen_port: 12400]
[time_out: 120]
[machine_list_filename: ]
[machines: ]
[gpu_platform_id: -1]
[gpu_device_id: -1]
[gpu_use_dp: 0]
[num_gpu: 1]

end of parameters

pandas_categorical:[]
