tree
version=v4
num_class=1
num_tree_per_iteration=1
label_index=0
max_feature_idx=161
objective=binary sigmoid:1
feature_names=best_of a_player_rank b_player_rank a_glicko_rating a_glicko_rd a_glicko_vol a_point_glicko_rating a_point_glicko_rd a_point_glicko_vol a_game_glicko_rating a_game_glicko_rd a_game_glicko_vol a_set_glicko_rating a_set_glicko_rd a_set_glicko_vol a_service_game_glicko_rating a_service_game_glicko_rd a_service_game_glicko_vol a_return_game_glicko_rating a_return_game_glicko_rd a_return_game_glicko_vol a_tie_break_glicko_rating a_tie_break_glicko_rd a_tie_break_glicko_vol a_ace_glicko_rating a_ace_glicko_rd a_ace_glicko_vol a_return_ace_glicko_rating a_return_ace_glicko_rd a_return_ace_glicko_vol a_first_won_glicko_rating a_first_won_glicko_rd a_first_won_glicko_vol a_return_first_won_glicko_rating a_return_first_won_glicko_rd a_return_first_won_glicko_vol a_second_won_glicko_rating a_second_won_glicko_rd a_second_won_glicko_vol a_return_second_won_glicko_rating a_return_second_won_glicko_rd a_return_second_won_glicko_vol a_surface_glicko_rating a_surface_glicko_rd a_surface_glicko_vol a_surface_point_glicko_rating a_surface_point_glicko_rd a_surface_point_glicko_vol a_surface_game_glicko_rating a_surface_game_glicko_rd a_surface_game_glicko_vol a_surface_set_glicko_rating a_surface_set_glicko_rd a_surface_set_glicko_vol a_surface_service_game_glicko_rating a_surface_service_game_glicko_rd a_surface_service_game_glicko_vol a_surface_return_game_glicko_rating a_surface_return_game_glicko_rd a_surface_return_game_glicko_vol a_surface_tie_break_glicko_rating a_surface_tie_break_glicko_rd a_surface_tie_break_glicko_vol a_surface_ace_glicko_rating a_surface_ace_glicko_rd a_surface_ace_glicko_vol a_surface_return_ace_glicko_rating a_surface_return_ace_glicko_rd a_surface_return_ace_glicko_vol a_surface_first_won_glicko_rating a_surface_first_won_glicko_rd a_surface_first_won_glicko_vol a_surface_return_first_won_glicko_rating a_surface_return_first_won_glicko_rd a_surface_return_first_won_glicko_vol a_surface_second_won_glicko_rating a_surface_second_won_glicko_rd a_surface_second_won_glicko_vol a_surface_return_second_won_glicko_rating a_surface_return_second_won_glicko_rd a_surface_return_second_won_glicko_vol b_glicko_rating b_glicko_rd b_glicko_vol b_point_glicko_rating b_point_glicko_rd b_point_glicko_vol b_game_glicko_rating b_game_glicko_rd b_game_glicko_vol b_set_glicko_rating b_set_glicko_rd b_set_glicko_vol b_service_game_glicko_rating b_service_game_glicko_rd b_service_game_glicko_vol b_return_game_glicko_rating b_return_game_glicko_rd b_return_game_glicko_vol b_tie_break_glicko_rating b_tie_break_glicko_rd b_tie_break_glicko_vol b_ace_glicko_rating b_ace_glicko_rd b_ace_glicko_vol b_return_ace_glicko_rating b_return_ace_glicko_rd b_return_ace_glicko_vol b_first_won_glicko_rating b_first_won_glicko_rd b_first_won_glicko_vol b_return_first_won_glicko_rating b_return_first_won_glicko_rd b_return_first_won_glicko_vol b_second_won_glicko_rating b_second_won_glicko_rd b_second_won_glicko_vol b_return_second_won_glicko_rating b_return_second_won_glicko_rd b_return_second_won_glicko_vol b_surface_glicko_rating b_surface_glicko_rd b_surface_glicko_vol b_surface_point_glicko_rating b_surface_point_glicko_rd b_surface_point_glicko_vol b_surface_game_glicko_rating b_surface_game_glicko_rd b_surface_game_glicko_vol b_surface_set_glicko_rating b_surface_set_glicko_rd b_surface_set_glicko_vol b_surface_service_game_glicko_rating b_surface_service_game_glicko_rd b_surface_service_game_glicko_vol b_surface_return_game_glicko_rating b_surface_return_game_glicko_rd b_surface_return_game_glicko_vol b_surface_tie_break_glicko_rating b_surface_tie_break_glicko_rd b_surface_tie_break_glicko_vol b_surface_ace_glicko_rating b_surface_ace_glicko_rd b_surface_ace_glicko_vol b_surface_return_ace_glicko_rating b_surface_return_ace_glicko_rd b_surface_return_ace_glicko_vol b_surface_first_won_glicko_rating b_surface_first_won_glicko_rd b_surface_first_won_glicko_vol b_surface_return_first_won_glicko_rating b_surface_return_first_won_glicko_rd b_surface_return_first_won_glicko_vol b_surface_second_won_glicko_rating b_surface_second_won_glicko_rd b_surface_second_won_glicko_vol b_surface_return_second_won_glicko_rating b_surface_return_second_won_glicko_rd b_surface_return_second_won_glicko_vol surface_Clay surface_Grass surface_Hard
feature_infos=[3:5] [1:1085] [1:1753] [1251.9899095111366:2749.2341541975647] [62.919016416745592:149.50296659821674] [0.0593386282672256:0.060071573111041797] [1469.2074718111587:1618.3942313028467] [60.162250531245967:142.26960626079142] [0.056023546489515699:0.059981623986386699] [1436.6231276761296:1755.6407535644626] [60.633674413954772:142.56809379963082] [0.056897676196293302:0.0599850065734873] [1306.068584108207:2400.22209957832] [62.454248614080456:148.1941798910639] [0.058871077232003799:0.060019122063966597] [-17999.889263107681:2759.9125200262238] [66.915289642419992:369.99893090799873] [0.059964416650968001:0.062738447946372497] [830.81484554173437:10203.258803930559] [68.533885905665983:352.56754704581886] [0.059962820299183497:0.062767504522556306] [1025.0822221319049:2066.7168449129763] [63.263672974302231:350.1590443715483] [0.059443346285376598:0.060046945103045403] [921.32074810987604:1545.2947012627155] [65.269046797609221:186.09411739173572] [0.057917395182206899:0.0599926019111039] [1524.734116901833:1878.5927805893305] [74.473447705625006:210.78216274449869] [0.059050286826044997:0.059994222795776202] [1484.8741061822368:1776.7854765638192] [63.000001170485092:150.74255253268643] [0.057725518076171101:0.059986430049255503] [1350.8919591976637:1541.6488437443004] [63.048434568597649:152.85283374007037] [0.057321770329228298:0.059987338765675101] [1420.1518107413815:1619.6592438445509] [58.719575902183415:114.92217650083931] [0.054283260385486302:0.059966912675436003] [1420.1518107413815:1619.6592438445509] [58.719575902183415:114.92217650083931] [0.054283260385486302:0.059966912675436003] [1251.9899095111366:2749.2341541975647] [62.919016416745592:149.50296659821674] [0.0593386282672256:0.060071573111041797] [1469.2074718111587:1618.3942313028467] [60.162250531245967:142.26960626079142] [0.056023546489515699:0.059981623986386699] [1436.6231276761296:1755.6407535644626] [60.633674413954772:142.56809379963082] [0.056897676196293302:0.0599850065734873] [1306.068584108207:2400.22209957832] [62.454248614080456:148.1941798910639] [0.058871077232003799:0.060019122063966597] [-17999.889263107681:2759.9125200262238] [66.915289642419992:369.99893090799873] [0.059964416650968001:0.062738447946372497] [830.81484554173437:10203.258803930559] [68.533885905665983:352.56754704581886] [0.059962820299183497:0.062767504522556306] [1025.0822221319049:2066.7168449129763] [63.263672974302231:350.1590443715483] [0.059443346285376598:0.060046945103045403] [921.32074810987604:1545.2947012627155] [65.269046797609221:186.09411739173572] [0.057917395182206899:0.0599926019111039] [1524.734116901833:1878.5927805893305] [74.473447705625006:210.78216274449869] [0.059050286826044997:0.059994222795776202] [1484.8741061822368:1776.7854765638192] [63.000001170485092:150.74255253268643] [0.057725518076171101:0.059986430049255503] [1350.8919591976637:1541.6488437443004] [63.048434568597649:152.85283374007037] [0.057321770329228298:0.059987338765675101] [1420.1518107413815:1619.6592438445509] [58.719575902183415:114.92217650083931] [0.054283260385486302:0.059966912675436003] [1420.1518107413815:1619.6592438445509] [58.719575902183415:350.1590443715483] [0.054283260385486302:0.059999999999999998] [1227.7963498960689:2749.0036526047816] [63.08338114263713:149.80177509640703] [0.059340376239730999:0.060065404540519701] [1446.5642759604991:1619.6678865096796] [60.256959504922726:137.80298763597605] [0.056071447656677702:0.059981510131135299] [1375.1375155306462:1756.8886308022429] [60.678780498085892:138.69357153191902] [0.056892604136981002:0.059984689304644803] [1243.8235048270169:2399.2699379845581] [62.362948677208415:160.00891645514918] [0.058875524066260301:0.060015807394470197] [-18569.298674879043:2755.1772666947813] [66.445319460935011:373.03582133483678] [0.059963945891276703:0.062770129852438294] [849.45232649912202:10203.258803930559] [68.550466172005159:352.42069473091232] [0.059961180975365:0.062800110883134405] [1025.0822221319049:2073.1377706282278] [63.175830543477538:350.1590443715483] [0.059441167521182302:0.060052309668173001] [918.48235789497801:1546.026659559898] [65.436204369265695:207.0153173264481] [0.057913315674715297:0.059995378990475502] [1550.3249945793796:1875.2824860281853] [73.732603877560706:207.59534585147003] [0.059037588305246899:0.059994544063688399] [1458.9030317273384:1772.8045645617592] [63.097091772850781:162.57523704040909] [0.057720724142487398:0.059988745902537999] [1311.7268953644077:1563.5340319579941] [62.907759364457114:166.45970339781201] [0.057313681654297302:0.059989404097313001] [1443.442339698001:1622.9632930592177] [58.694425068118541:120.66391389771576] [0.054273758266027601:0.059975156657053601] [1443.442339698001:1622.9632930592177] [58.694425068118541:120.66391389771576] [0.054273758266027601:0.059975156657053601] [1227.7963498960689:2749.0036526047816] [63.08338114263713:149.80177509640703] [0.059340376239730999:0.060065404540519701] [1446.5642759604991:1619.6678865096796] [60.256959504922726:137.80298763597605] [0.056071447656677702:0.059981510131135299] [1375.1375155306462:1756.8886308022429] [60.678780498085892:138.69357153191902] [0.056892604136981002:0.059984689304644803] [1243.8235048270169:2399.2699379845581] [62.362948677208415:160.00891645514918] [0.058875524066260301:0.060015807394470197] [-18569.298674879043:2755.1772666947813] [66.445319460935011:373.03582133483678] [0.059963945891276703:0.062770129852438294] [849.45232649912202:10203.258803930559] [68.550466172005159:352.42069473091232] [0.059961180975365:0.062800110883134405] [1025.0822221319049:2073.1377706282278] [63.175830543477538:350.1590443715483] [0.059441167521182302:0.060052309668173001] [918.48235789497801:1546.026659559898] [65.436204369265695:207.0153173264481] [0.057913315674715297:0.059995378990475502] [1550.3249945793796:1875.2824860281853] [73.732603877560706:207.59534585147003] [0.059037588305246899:0.059994544063688399] [1458.9030317273384:1772.8045645617592] [63.097091772850781:162.57523704040909] [0.057720724142487398:0.059988745902537999] [1311.7268953644077:1563.5340319579941] [62.907759364457114:166.45970339781201] [0.057313681654297302:0.059989404097313001] [1443.442339698001:1622.9632930592177] [58.694425068118541:120.66391389771576] [0.054273758266027601:0.059975156657053601] [1443.442339698001:1622.9632930592177] [58.694425068118541:350.1590443715483] [0.054273758266027601:0.059999999999999998] [0:1] [0:1] [0:1]
tree_sizes=3367 3389 3393 3405 3408 3398 3408 3411 3413 3424 3440 3427 3385 3407 3422 3439 3448 3433 3410 3377 3412 3419 3409 3381

Tree=0
num_leaves=31
num_cat=0
split_feature=2 6 1 84 84 6 6 6 87 1 87 85 84 12 84 104 6 112 28 16 3 84 115 99 3 83 4 29 6 9
split_gain=510.752 375.788 221.893 127.683 82.6629 70.4553 64.0683 50.0721 72.0544 40.2701 38.2992 32.2722 31.5709 26.4887 26.4641 23.7467 20.184 18.8799 16.5322 14.6063 13.4732 13.2507 12.0524 16.6488 11.8171 11.7608 11.5785 11.5393 12.1961 11.5113
threshold=29.500000000000004 1548.3323783951732 11.500000000000002 1538.5558041766456 1564.6560692589289 1546.1476293345243 1530.5583288766682 1592.2992727236367 1643.7472099395407 10.500000000000002 1595.4970444087264 62.951665710863629 1530.601818403074 1791.5869060023736 1532.0386474078637 0.059749166435149055 1527.730238123286 82.328324922459728 88.264530483164734 80.343277429233751 2012.10059601938 1546.0439934463316 61.394016506728398 1622.4972175215378 1745.212628005105 0.05971941104331336 72.5792479580726 0.05968110138005981 1540.345208032988 1622.0869192017888
decision_type=2 2 2 2 2 2 2 2 2 2 2 2 2 2 2 2 2 2 2 2 2 2 2 2 2 2 2 2 2 2
left_child=2 3 7 6 5 10 11 8 -1 -3 16 -2 22 24 -11 -6 -4 18 -13 -12 21 -16 23 -8 -5 -10 -24 -14 -29 -7
right_child=1 9 4 13 15 29 12 -9 25 14 19 17 27 -15 20 -17 -18 -19 -20 -21 -22 -23 26 -25 -26 -27 -28 28 -30 -31
leaf_value=0.075683855147793161 -0.047961717427769446 0.13657324304094631 -0.081353308172183211 -0.10150143036654714 -0.10158432490087642 -0.021688512586666507 -0.070829820445026004 0.14690671892298821 -0.0012935713078989837 0.11014739898185444 -0.053761867921353124 0.032758542490085821 -0.036572582180819255 -0.0078946511803310616 0.047150192687241986 -0.16283981680572326 0.022602123705110659 0.058769802083812189 -0.016543539963428885 -0.11714169108231337 0.071642815667157134 -0.049254753585673182 0.075761724545392317 0.071535957464905278 -0.052887722163639371 -0.1107111474230433 -0.0072279820467390172 -0.0014360081448118438 0.065596939174222546 0.040108582607482374
leaf_weight=71.999961376190186 132.74992878735065 184.49990102648735 32.999982297420502 71.749961510300636 136.99992650747299 83.249955341219902 14.999991953372954 35.999980688095093 12.249993428587912 151.99991846084595 48.499973982572556 99.749946489930153 40.999978005886078 113.49993911385536 43.249976798892021 131.74992932379246 41.749977603554726 63.999965667724609 212.99988573789597 202.74989123642445 139.74992503225803 20.749988868832588 263.99985837936401 17.749990478157997 200.4998924434185 35.999980688095093 16.7499910145998 69.499962717294693 44.749975994229317 46.99997478723526
leaf_count=288 531 738 132 287 548 333 60 144 49 608 194 399 164 454 173 527 167 256 852 811 559 83 1056 71 802 144 67 278 179 188
internal_value=-0.00143601 0.0276939 -0.0643775 -0.000302755 -0.0876944 -0.0615532 0.0189457 0.0434789 0.012002 0.0982727 -0.0863891 -0.00551143 0.0456309 -0.0489794 0.0782355 -0.131849 -0.0226687 0.00932186 -0.000972812 -0.105132 0.0541405 0.015088 0.063918 0.00479544 -0.0659152 -0.0819546 0.0706321 0.00836312 0.0249427 0.000241813
internal_weight=0 1904.25 881.25 1364 725 456.25 978.249 156.25 120.25 540.25 326 509.5 468.75 385.75 355.75 268.75 74.75 376.75 312.75 251.25 203.75 64 313.5 32.75 272.25 48.25 280.75 155.25 114.25 130.25
internal_count=11142 7617 3525 5456 2900 1825 3913 625 481 2161 1304 2038 1875 1543 1423 1075 299 1507 1251 1005 815 256 1254 131 1089 193 1123 621 457 521
is_linear=0
shrinkage=1


Tree=1
num_leaves=31
num_cat=0
split_feature=2 6 1 84 87 6 6 6 87 82 1 84 104 90 25 12 6 1 95 6 93 90 107 3 97 27 2 22 93 16
split_gain=414.884 305.769 182.079 104.73 79.8856 76.4866 42.4231 35.3441 34.216 33.0393 32.9719 25.6933 23.5345 23.2038 20.1553 20.0622 17.4264 17.3587 16.2712 16.2284 16.0848 15.5289 15.4802 14.6197 13.3201 12.7948 14.405 12.753 12.1889 13.5573
threshold=29.500000000000004 1548.3323783951732 8.5000000000000018 1526.2003338401291 1644.7220205534311 1541.7536048489835 1533.3235047540281 1524.2709510873071 1595.4970444087264 74.413332201022243 10.500000000000002 1542.7528379401922 0.059878675036023454 1762.0848577830127 81.375069783966367 1937.6565663791891 1592.2992727236367 80.500000000000014 0.060439617939432554 1527.730238123286 2008.3159190655738 1855.4592912767732 0.059850560116359856 1973.6441804279273 93.134103018284137 1711.8546968251524 78.500000000000014 71.159585476757385 1711.141209393599 86.802010942751409
decision_type=2 2 2 2 2 2 2 2 2 2 2 2 2 2 2 2 2 2 2 2 2 2 2 2 2 2 2 2 2 2
left_child=2 3 9 7 5 8 11 24 19 16 -3 17 18 -8 -10 28 20 -5 -12 -4 -1 -14 -6 -20 -2 26 -19 -27 -7 -30
right_child=1 10 4 6 22 15 13 -9 14 -11 12 -13 21 -15 -16 -17 -18 25 23 -21 -22 -23 -24 -25 -26 27 -28 -29 29 -31
leaf_value=0.082133769368238685 -0.016289155785749836 0.12481681864633982 -0.072072903131287266 -0.0005366484883508162 -0.098328171055301686 0.017757438778521251 0.033738622778766381 0.056372140806073723 -0.02209634126125052 -0.054181742095447551 0.014070995904733211 -0.082327485530969136 0.10951325633580858 -0.016225752948592891 -0.11400266400031843 0.053591031420488634 0.1449932549701809 -0.09596985019158491 -0.010404901000109164 0.025609014188075298 -0.02412768748333283 -0.0071440607570943948 -0.15346091667286829 0.088289047174911151 0.036423499862806581 -0.093972991981781578 -0.01690744308488238 0.0059488369866769301 -0.01997388399436513 -0.093799277310783469
leaf_weight=49.925953805446625 128.7232735902071 183.64232853055 32.945458352565765 139.67080333828926 113.38390924036503 50.212675482034683 150.12700794637203 324.40840440988541 28.449772402644157 21.42743381857872 83.872457101941109 118.58768971264362 147.40826563537121 242.9062360227108 215.55491748452187 40.963222414255142 30.584686741232872 71.693212151527405 16.728777706623077 33.995657086372375 18.965864837169647 11.48832258582115 108.80468595027924 95.576297730207443 75.96173483133316 15.990292355418203 36.484361261129379 58.465695157647133 99.148826077580452 34.440366193652153
leaf_count=200 515 738 132 559 455 201 601 1299 114 86 336 475 591 972 865 164 123 287 67 136 76 46 438 383 304 64 146 234 397 138
internal_value=0 0.0262543 -0.0568238 0.00100672 -0.0750318 -0.0539422 -0.0210341 0.035838 -0.0860793 0.0568699 0.090029 -0.0423329 0.0718661 0.0027357 -0.103505 -0.00924199 0.0813232 -0.0274413 0.0481647 -0.0217557 0.0521628 0.100765 -0.125608 0.0731468 0.00303739 -0.0477317 -0.069807 -0.0149372 -0.0235388 -0.0394366
internal_weight=0 1901.74 878.803 1363.02 757.899 535.711 833.925 529.093 310.946 120.904 538.716 440.892 355.074 393.033 244.005 224.765 99.4765 322.304 196.178 66.9411 68.8918 158.897 222.189 112.305 204.685 182.634 108.178 74.456 183.802 133.589
internal_count=11142 7617 3525 5456 3040 2147 3338 2118 1247 485 2161 1765 1423 1573 979 900 399 1290 786 268 276 637 893 450 819 731 433 298 736 535
is_linear=0
shrinkage=0.1


Tree=2
num_leaves=31
num_cat=0
split_feature=84 6 9 84 12 87 6 81 84 84 3 84 4 6 30 103 1 3 85 1 18 6 0 88 37 34 91 99 94 16
split_gain=342.384 256.39 190.638 76.178 67.8488 69.3926 51.1725 44.9035 36.4409 26.9733 25.2498 22.0445 21.8562 20.5737 15.6494 15.4413 12.7046 12.6634 12.4971 15.0019 12.2053 11.6078 10.7576 10.5833 10.335 10.3186 10.0075 9.58703 9.4804 9.46303
threshold=1549.5909845123003 1541.3510903125209 1614.3454723631746 1526.2003338401291 2121.8144220089803 1666.1805539049046 1556.7286773590738 2223.3088676725833 1532.4268331463284 1543.2788882549096 1806.4851247317913 1557.7161218655731 68.435913963038715 1525.6477249243687 1620.2926657729884 74.555271281738428 21.500000000000004 2238.3730020722264 62.935203348447864 102.50000000000001 2179.8606085673923 1533.5147452675451 4.0000000000000009 62.395533435148515 61.384363895272777 64.687147624154917 66.094015819135421 1797.836147391685 72.61511007549187 86.043707056456086
decision_type=2 2 2 2 2 2 2 2 2 2 2 2 2 2 2 2 2 2 2 2 2 2 2 2 2 2 2 2 2 2
left_child=1 3 7 12 5 11 8 10 -3 13 -2 20 -1 18 -14 -8 -10 22 -5 -20 -4 24 -17 -23 -11 -13 -16 28 -27 -12
right_child=2 6 4 9 -6 -7 15 -9 16 21 29 25 14 -15 26 17 -18 -19 19 -21 -22 23 -24 -25 -26 27 -28 -29 -30 -31
leaf_value=0.046820976798191236 -0.11067771167911798 0.075542531865727652 -0.01495401813407736 -0.062341902317823432 0.11349105697984128 -0.10946338235417459 -0.019428732569384148 -0.14938509377786155 0.062472670013568023 -0.0070050521817229304 -0.040900927247007779 -0.05395103411901303 -0.012010670427009765 -2.3222706357904838e-05 -0.036785882856315899 0.077750806476797288 0.006578239996920851 0.13842468980111558 0.022532678257406263 -0.05288167208218697 0.076491555149265006 -0.076154200689028187 0.13308249463804223 0.016079355628664884 -0.096794003905714451 -0.076085414617145186 0.071074590461595519 0.074186849038297628 0.014653144592503149 -0.076769770055905198
leaf_weight=228.37852102518082 135.90365789830685 222.82662868499756 17.674312904477119 118.81829841434956 52.972514405846596 55.574141249060631 9.9298980534076673 99.056909278035164 52.797833129763603 16.401109859347343 163.23223832249641 38.019708350300789 170.0842911452055 308.14176058769226 9.9899603873491269 175.70353753864765 187.93074242770672 79.970304727554321 52.940443307161331 51.396420508623123 64.892274081707001 21.411649778485298 48.932662576436996 27.93003211915493 89.544410318136215 15.655740723013876 43.422908946871758 17.630885303020477 41.054857268929482 150.44312061369419
leaf_count=916 550 897 71 477 215 226 40 404 212 66 656 153 681 1234 40 710 753 325 212 206 261 86 198 112 361 63 174 71 165 607
internal_value=0 0.0234325 -0.0527512 -0.00676573 0.0106979 -0.0108764 0.0676763 -0.0879344 0.0463319 -0.0277842 -0.0742534 0.0170162 0.0250584 -0.0169343 0.0025858 0.0989494 0.0190658 0.102978 -0.0400513 -0.0141528 0.0563173 -0.0645493 0.0900801 -0.0230069 -0.0833853 -0.0114434 0.0499357 0.00966752 -0.0096062 -0.0582825
internal_weight=0 1916.55 852.11 1138.46 303.474 250.502 778.092 548.636 463.555 686.584 449.579 194.928 451.876 531.297 223.497 314.536 240.729 304.607 223.155 104.337 82.5666 155.287 224.636 49.3417 105.946 112.361 53.4129 74.3415 56.7106 313.675
internal_count=11142 7700 3442 4565 1225 1010 3135 2217 1862 2754 1813 784 1811 2129 895 1273 965 1233 895 418 332 625 908 198 427 452 214 299 228 1263
is_linear=0
shrinkage=0.1


Tree=3
num_leaves=31
num_cat=0
split_feature=2 6 9 84 84 84 4 10 158 6 12 9 30 1 108 87 84 97 5 35 83 93 156 84 28 111 111 27 9 94
split_gain=283.798 189.765 153.403 62.7074 58.5902 57.0927 36.5387 31.2342 30.4793 26.7135 26.4943 22.8617 20.3436 20.2669 16.3509 14.4197 14.3098 14.3053 13.4751 13.4266 12.948 11.6273 11.4683 10.8865 10.8349 11.6143 10.5048 10.1838 10.2915 10.8656
threshold=34.500000000000007 1548.3323783951732 1616.7867609393227 1570.5164108345923 1550.3686916233739 1525.9200072985852 72.980174553969377 63.428358629744373 0.058707227950464756 1530.7386239514724 2004.2499804671122 1578.0803595674831 1602.8576140470752 10.500000000000002 1672.7519054640395 1581.8068012484066 1557.7161218655731 95.41273409744575 0.059991789860529506 0.059144514877360957 0.059629978640549704 1698.3217009692901 1522.6436133377485 1542.3222461157386 85.369056056646357 1422.7531298925485 1513.4423832907978 1812.2116375488699 1546.5972491019245 75.894800701654276
decision_type=2 2 2 2 2 2 2 2 2 2 2 2 2 2 2 2 2 2 2 2 2 2 2 2 2 2 2 2 2 2
left_child=2 5 4 10 12 9 26 15 11 17 16 -6 -1 -3 22 27 -4 24 -19 -12 -14 -13 -15 -9 -2 -26 -5 28 -7 -30
right_child=1 13 3 6 8 7 -8 23 -10 -11 19 21 20 14 -16 -17 -18 18 -20 -21 -22 -23 -24 -25 25 -27 -28 -29 29 -31
leaf_value=-0.067395679209394502 0.043893835256533294 0.10705317653112421 0.045010772718832082 -0.024173678746885655 -0.10179198384095051 -0.062753906515081545 0.06395126211904055 -0.024735684321090991 -0.14040320013743834 0.055677964672651806 0.034722313542616817 0.016815156499076254 -0.078414354554443746 0.096717854417097737 -0.0072900520312990718 -0.012946035599456038 -0.024494606548933168 0.069710581128905727 -0.0084105893345303075 0.11957869205993264 0.006100431383746753 -0.059848301713990998 0.054420864817971773 -0.065722127788540141 0.024882929888493145 -0.03349734312215441 -0.10749287330587805 -0.065196490881438945 -0.049278420502491406 0.04481368547042288
leaf_weight=82.733067810535431 35.918908819556236 159.34896264970303 72.941749542951584 23.742653712630272 178.01005157828331 10.462868094444273 21.54935359954834 272.10800059139729 95.26914070546627 221.91708704829216 31.129109427332878 21.328501775860786 20.859230443835258 105.98879833519459 29.10975493490696 198.97003649175167 48.758928686380386 60.803482234477997 32.941930875182152 55.515085533261299 130.01000624895096 164.60171237587929 191.36250579357147 88.695235773921013 46.951951250433922 117.3812313824892 52.522635743021965 11.230022251605986 12.731044307351111 157.36316275596619
leaf_count=335 144 659 294 96 730 42 88 1092 397 895 126 86 84 432 117 798 196 244 132 228 523 668 775 359 188 470 217 45 51 631
internal_value=0 0.0242154 -0.0425618 0.0162516 -0.0686227 0.0038042 -0.0495168 -0.0137343 -0.0894105 0.0294481 0.0473776 -0.0758899 -0.0275238 0.0773534 0.0626752 0.00574508 0.0167559 0.00946694 0.0417465 0.0897435 -0.00529762 -0.050781 0.0696929 -0.0349652 -0.00540803 -0.0165083 -0.0822746 0.0253934 0.0313375 0.0374526
internal_weight=0 1753.28 998.971 306.16 692.812 1267.47 97.8146 751.56 459.209 515.915 208.345 363.94 233.602 485.81 326.461 390.757 121.701 293.998 93.7454 86.6442 150.869 185.93 297.351 360.803 200.252 164.333 76.2653 191.787 180.557 170.094
internal_count=11142 7074 4068 1245 2823 5091 401 3018 1881 2073 844 1484 942 1983 1324 1567 490 1178 376 354 607 754 1207 1451 802 658 313 769 724 682
is_linear=0
shrinkage=0.1


Tree=4
num_leaves=31
num_cat=0
split_feature=2 6 1 81 87 16 9 87 84 85 81 6 3 1 84 32 93 1 34 84 156 20 107 88 104 24 85 99 15 112
split_gain=233.02 180.654 101.257 56.3711 49.0227 42.1073 39.9714 32.071 28.9504 25.8445 20.6572 19.1312 18.3467 17.6971 16.9706 14.1873 15.8896 13.7358 12.838 12.123 11.5917 11.5374 11.1029 12.3298 10.6857 10.5046 9.9235 9.77388 9.55791 9.38454
threshold=28.500000000000004 1541.3510903125209 8.5000000000000018 1814.3046286794274 1644.7220205534311 86.043707056456086 1619.4934410191111 1583.3783771510655 1538.7494527132694 62.684988078131347 2263.1391482669028 1592.2992727236367 1772.6239620662473 34.500000000000007 1543.0558288153411 0.059655977499028102 1923.199195335676 126.50000000000001 64.56446770327689 1549.5909845123003 1521.3449950071943 0.060353221124289001 0.059673647409441359 63.482081921299248 0.059719713405874057 1326.7277590677547 63.118456856283181 1592.3700511557856 1390.6083203780211 82.328324922459728
decision_type=2 2 2 2 2 2 2 2 2 2 2 2 2 2 2 2 2 2 2 2 2 2 2 2 2 2 2 2 2 2
left_child=2 3 10 9 5 13 8 -7 -3 27 18 -12 29 -4 17 16 20 22 -1 25 -8 -16 -5 -24 -6 -15 -14 -2 -10 -11
right_child=1 6 4 14 24 7 15 -9 28 12 11 -13 26 19 21 -17 -18 -19 -20 -21 -22 -23 23 -25 -26 -27 -28 -29 -30 -31
leaf_value=-0.0036391083470343152 -0.10068578407233036 0.055121693386039262 0.014529209007690858 0.025891608987359777 -0.069111921869054335 0.040656363176706276 0.11021270470707077 -0.080830794900197261 -0.060845479572500562 -0.0044308277988327309 -0.083913469992729653 0.083746346283075424 0.096554612208500451 -0.0303076779143816 -0.066689193708727085 0.12048193161623294 -0.023458375550878232 -0.063248057558340898 0.088353783217547721 -0.06016216725969508 0.061970193989691738 -0.00034971930386602557 -0.037530654473703282 0.0096488867495552744 -0.11747951748738467 0.078529344898066095 0.034234297185060318 -0.015068436975244057 0.011305015509252815 0.045689250928456687
leaf_weight=18.294272050261497 21.426884293556213 277.65582717955112 125.84987498819828 70.765325754880905 82.471298649907112 23.329791381955147 74.83374360203743 233.08247773349285 20.942886233329773 217.94225692749023 20.307067349553112 9.8948840200901014 30.315275296568871 25.050833880901337 149.56335780024529 75.337318539619446 16.237768590450287 54.583501935005188 66.619174256920815 83.531595721840858 184.75930878520012 33.628392994403839 141.87387536466122 88.465927511453629 128.68740637600422 13.454971566796301 216.99754457175732 39.798690363764763 141.79824641346931 44.750620305538177
leaf_count=74 86 1130 507 284 340 94 312 964 84 874 83 41 122 101 609 318 66 220 276 340 764 136 570 355 553 54 875 160 570 180
internal_value=0 0.01927 -0.044216 -0.00671674 -0.0582505 -0.0411282 0.0557738 -0.0695708 0.0354921 0.0151109 0.0425513 -0.0272389 0.0225483 -0.0114897 -0.0299461 0.0810492 0.070058 -0.0169978 0.0679652 -0.0387208 0.0761068 -0.0547909 -0.00842945 -0.0191972 -0.0988671 0.00653269 0.0421115 -0.0459623 0.00168138 0.00393117
internal_weight=0 1901.68 830.574 1110.11 715.458 504.3 791.565 256.412 440.397 571.231 115.115 30.202 510.006 247.887 538.88 351.168 275.831 355.689 84.9134 122.037 259.593 183.192 301.105 230.34 211.159 38.5058 247.313 61.2256 162.741 262.693
internal_count=11142 7715 3427 4471 2953 2060 3244 1058 1784 2297 474 124 2051 1002 2174 1460 1142 1429 350 495 1076 745 1209 925 893 155 997 246 654 1054
is_linear=0
shrinkage=0.1


Tree=5
num_leaves=31
num_cat=0
split_feature=84 9 9 84 12 87 12 81 3 3 103 107 3 93 105 3 90 2 17 85 13 9 84 7 17 90 27 31 18 96
split_gain=193.903 159.803 97.7918 62.0627 38.7323 34.8678 29.1062 27.7393 25.087 23.2035 21.0596 19.0274 18.7317 16.5607 14.4803 11.8916 12.8255 11.592 11.3797 12.8807 13.8848 12.4215 10.6058 10.1674 9.77063 9.67933 9.58337 9.40806 8.62339 8.59864
threshold=1552.6976428025662 1604.5250327954043 1614.3454723631746 1538.5558041766456 2121.8144220089803 1666.1805539049046 1672.9797973534094 2223.3088676725833 2211.7875452952112 1905.016052796434 74.047928654857301 0.059976986653365809 1759.4512348919243 1711.141209393599 1679.1240263297275 1997.3483851656936 1671.491723269151 84.500000000000014 0.060924953410582607 62.599366134392163 64.802624573762444 1557.6713858230553 1557.7161218655731 62.898176204365072 0.060754212405024953 1831.4967288315231 1829.4690161014025 65.683288586480089 1725.6197957578895 1745.924713898756
decision_type=2 2 2 2 2 2 2 2 2 2 2 2 2 2 2 2 2 2 2 2 2 2 2 2 2 2 2 2 2 2
left_child=1 3 7 6 5 22 17 9 10 -2 -3 18 28 -11 -12 25 -17 -1 19 -8 -21 -20 -4 27 -15 -16 29 -23 -5 -18
right_child=2 8 4 12 -6 -7 11 -9 -10 13 14 -13 -14 24 15 16 26 -19 21 20 -22 23 -24 -25 -26 -27 -28 -29 -30 -31
leaf_value=-0.03010085594029982 -0.082986531573197631 -0.054874894802898172 0.047541811720920722 -0.030874978659137849 0.086404880397594377 -0.085607452308383514 -0.0019712433922194936 -0.12405858056490611 0.10676506659373626 0.050094720155758492 0.098351129819527747 0.090967114947341277 -0.020421559011472946 -0.030306804068911897 0.03132024766820049 0.11002156624453081 -0.024965369137155777 0.0070309453769775562 -0.10719861773822417 0.064843422642824597 0.022807431862161869 -0.019716654423825017 -0.008389345113472578 -0.075031241885076955 -0.10658344899480088 -0.053742575815305227 -0.040319174046852695 0.061475469485333147 -0.091027910554635091 0.056967631694889179
leaf_weight=169.38280417025089 203.26705749332905 17.362382739782333 48.076168611645699 42.015620619058609 45.891317337751389 52.348730280995369 131.093451410532 91.113128438591957 103.68915785849094 21.455587580800056 69.288125976920128 40.566417440772057 351.37277245521545 99.533883348107338 56.367735326290131 40.212826281785965 12.691372916102408 163.44316308200359 12.201841965317724 107.49648801982403 320.08062621951103 27.226029723882675 111.37404018640518 13.656757593154905 21.250656366348267 17.171296715736389 11.101380884647368 28.41983725130558 66.769362702965736 214.28846469521523
leaf_count=682 857 70 196 174 196 226 527 404 449 87 289 165 1423 408 231 171 53 656 49 436 1294 110 452 55 88 69 46 115 276 888
internal_value=0 0.0156658 -0.0456053 -0.00137937 0.00306086 -0.0147939 0.0124123 -0.0744364 0.0620815 -0.0611738 0.0513791 0.0242842 -0.0318624 -0.0296149 0.0558906 0.047361 0.0568529 -0.0117195 0.019967 0.0250922 0.0335052 -0.0145388 0.00818042 0.00118592 -0.0442175 0.0107332 0.0476202 0.0208893 -0.0683042 0.0521573
internal_weight=0 2015.9 694.311 1473.73 257.69 211.799 1013.57 436.62 542.173 345.507 438.484 680.741 460.158 142.24 421.121 351.833 278.294 332.826 640.175 558.671 427.577 81.5045 159.45 69.3026 120.785 73.539 238.081 55.6459 108.785 226.98
internal_count=11142 8228 2914 5962 1070 874 4089 1844 2266 1440 1817 2751 1873 583 1747 1458 1158 1338 2586 2257 1730 329 648 280 496 300 987 225 450 941
is_linear=0
shrinkage=0.1


Tree=6
num_leaves=31
num_cat=0
split_feature=2 6 9 81 84 84 6 6 30 84 81 16 6 12 38 101 88 113 16 15 36 101 37 84 108 1 29 83 1 110
split_gain=161.53 112.93 90.334 39.9062 37.1011 33.8586 32.735 25.3997 22.3265 16.0724 14.1581 13.6058 13.0248 12.6066 11.971 11.8278 11.5428 12.5283 12.0434 11.5 11.0941 10.0495 9.6628 9.65402 9.58344 9.51763 9.43744 9.37328 9.41145 14.6798
threshold=34.500000000000007 1541.3510903125209 1616.7867609393227 2146.5516528412149 1566.5392355272454 1525.9200072985852 1592.2992727236367 1557.4256132875792 1623.2074968712388 1530.601818403074 1899.5584447381759 173.47006755931122 1536.8638135096387 1994.5463518588178 0.057501707973055809 0.059997054322677858 62.528605019469531 0.058918603391426662 77.417312728715004 1622.9442805857459 1501.0485183244575 0.059891922841121159 60.813445944415768 1551.1855338114717 1599.9097058027003 19.500000000000004 0.059395646009949309 0.059685929161121802 70.500000000000014 0.059415443989370355
decision_type=2 2 2 2 2 2 2 2 2 2 2 2 2 2 2 2 2 2 2 2 2 2 2 2 2 2 2 2 2 2
left_child=2 5 3 8 13 11 -6 9 12 -3 19 -2 23 -4 -9 -13 17 -7 -18 -10 -17 22 -15 -1 -16 -11 -27 -12 29 -29
right_child=1 7 4 -5 6 16 -8 14 10 25 27 15 -14 21 24 20 18 -19 -20 -21 -22 -23 -24 -25 -26 26 -28 28 -30 -31
leaf_value=-0.048897341043746934 0.029271052898858292 0.056300573982839421 0.017981135707870691 -0.095516131252063666 -0.05258400549301126 -0.0097788932075323024 0.095023534631277107 0.046736859589335766 0.12887092365189834 0.058356015705598778 -0.057808611260381594 -0.035781929545215418 -0.017753887913847233 -0.053822145047144443 0.1303313487620959 -0.061333909379603493 0.046757694378706985 -0.065579575432950885 -0.014772106299816293 -0.0044971427169790291 0.052794703632767309 0.099246580641830895 0.068124557549386747 -0.093551475266228867 0.074115922333376438 -0.076208686244857327 0.013366199000715999 0.036290813818918737 -0.056261664754593037 -0.038103112503891118
leaf_weight=110.21699123084545 312.32990470528603 188.78150153160095 101.64742928743362 168.55438469350338 100.48172163963318 75.316865146160126 17.375190004706383 106.041817471385 11.416182100772859 46.19945453107357 58.910473018884659 72.628538981080055 64.586257472634315 10.049246340990068 47.976707220077515 10.472821503877638 34.289824292063713 92.657882004976273 383.24956303834915 13.168888315558432 38.710571363568306 50.075897574424744 16.900956928730011 98.915954992175102 110.183983117342 12.319715455174444 191.99122400581837 62.040536388754845 33.274052977561951 45.937190115451813
leaf_count=456 1265 788 413 751 427 306 76 454 46 190 242 292 266 41 211 42 138 377 1549 53 156 215 73 429 480 50 776 253 139 188
internal_value=0 0.0182941 -0.032829 -0.0532565 0.0129549 -0.00292433 -0.0303368 0.0491156 -0.03885 0.0341541 -0.0151818 0.0181772 -0.0580884 0.0417917 0.0737807 -0.00985832 -0.0186563 -0.0408777 -0.00958935 0.0556786 0.0274031 0.0725009 0.0207735 -0.0702915 0.0915559 0.0172494 0.00768569 -0.0241584 -0.0097396 0.00417265
internal_weight=0 1723.15 963.551 667.021 296.53 1019.66 117.857 703.494 498.467 439.292 224.747 434.142 273.719 178.674 264.203 121.812 585.514 167.975 417.539 24.5851 49.1834 77.0261 26.9502 209.133 158.161 250.51 204.311 200.162 141.252 107.978
internal_count=11142 7074 4068 2823 1245 4125 503 2949 2072 1804 921 1755 1151 742 1145 490 2370 683 1687 99 198 329 114 885 691 1016 826 822 580 441
is_linear=0
shrinkage=0.1


Tree=7
num_leaves=31
num_cat=0
split_feature=84 9 15 84 12 107 7 1 104 95 1 104 37 0 34 9 24 21 17 112 96 97 106 109 33 95 111 10 16 2
split_gain=134.33 114.679 66.6941 47.0014 31.3512 26.9938 22.6384 20.062 17.4141 14.7431 14.4997 13.7332 13.2184 12.8543 11.744 11.1146 10.7129 10.4833 10.1451 9.91937 9.6986 15.6697 10.6635 9.57958 9.33231 9.23503 14.5882 13.2338 10.4395 9.1046
threshold=1553.781083444949 1604.5250327954043 1731.476086831575 1538.5558041766456 2121.8144220089803 0.059849358530524858 62.681683913484726 11.500000000000002 0.059730146952363755 0.060044658001181604 83.500000000000014 0.059878675036023454 61.623904308604367 4.0000000000000009 65.954004073708418 1564.9177241888908 1286.0594720079223 1638.7677699600715 0.060632757660826306 64.42342829872662 1631.3506622737561 80.248029056061171 96.444543177392049 65.393942853174835 1408.3797761885207 0.060445952578556457 1466.2387915791319 61.764920831634036 77.058819784174275 63.500000000000007
decision_type=2 2 2 2 2 2 2 2 2 2 2 2 2 2 2 2 2 2 2 2 2 2 2 2 2 2 2 2 2 2
left_child=1 3 8 6 5 23 12 -3 14 -8 15 25 13 24 18 -5 -11 -15 -2 -20 -18 -22 -23 -4 -1 -9 -27 -28 -29 -14
right_child=2 7 4 10 -6 -7 9 11 -10 16 -12 -13 29 17 -16 -17 20 -19 19 -21 21 22 -24 -25 -26 26 27 28 -30 -31
leaf_value=0.11236969678587592 0.025050095063944573 0.077743099032321433 0.067505715858626705 -0.046915272958948935 0.073008477062238161 -0.072703162128259613 0.044093674052882545 -0.00240606915811796 -0.097596747971029407 -0.013497513253179317 -0.052889941896650583 0.061524191636713146 0.0060230823348836754 0.14092418854668876 -0.068060976638711676 -0.0043763101813219935 0.083682500726745934 0.034572367571576383 0.012225488419678472 -0.1017125311625483 -0.044173779441941341 0.049368563690515177 -0.020982115934240986 -0.0071712896572655588 0.012392310228461587 0.066442970053884026 0.085410808362255383 -0.097698363506992986 0.017838127695102637 0.12614864427941855
leaf_weight=9.7658586353063566 31.411079034209251 195.19313561916351 19.02898633480072 83.512273281812668 42.795938864350319 68.96798500418663 67.116704598069191 93.347475230693817 144.92840269207954 437.17683398723602 154.6334695070982 139.74728190898895 9.8993123918771726 15.961948260664938 125.67993465065956 244.01128850877285 19.009003072977066 26.299741789698601 11.81077763438225 18.311729073524475 41.365555688738823 72.458040088415146 29.415503486990929 167.75065407156944 256.86943958699703 72.788868680596352 10.866632610559462 16.072748526930813 13.921875432133673 23.205959305167198
leaf_count=40 132 876 78 348 191 310 273 383 657 1764 647 597 40 65 550 989 77 108 51 78 167 293 119 691 1048 307 45 66 57 95
internal_value=0 0.0124699 -0.0403542 -0.00182013 -0.0058668 -0.0192843 0.0104213 0.0518627 -0.0711913 -0.000237205 -0.0275265 0.0371314 0.0313343 0.0246581 -0.0504418 -0.0153866 -0.00529079 0.0761589 -0.0135922 -0.0554914 0.0165089 0.00719342 0.0285642 0.000201254 0.0162823 0.0204003 0.0395577 -0.0071594 -0.0425301 0.0918602
internal_weight=0 2032.64 630.685 1490.7 298.544 255.748 1008.54 541.938 332.142 666.542 482.157 346.745 342.002 308.897 187.214 327.524 599.425 42.2617 61.5336 30.1225 162.248 143.239 101.874 186.78 266.635 206.998 113.65 40.8613 29.9946 33.1053
internal_count=11142 8404 2738 6073 1270 1079 4089 2331 1468 2693 1984 1455 1396 1261 811 1337 2420 173 261 129 656 579 412 769 1088 858 475 168 123 135
is_linear=0
shrinkage=0.1


Tree=8
num_leaves=31
num_cat=0
split_feature=2 6 1 81 90 32 84 9 6 103 81 16 28 15 107 32 6 87 81 91 23 27 85 111 96 96 31 7 96 15
split_gain=112.908 79.8423 64.3048 30.588 26.0492 25.8542 23.9374 21.1399 19.2668 15.6604 13.1557 12.4772 12.1093 11.548 10.5568 10.3312 11.9123 9.89579 9.75442 9.54882 11.3179 9.96627 12.6318 9.11057 12.7851 11.5255 9.51237 8.97464 11.9865 9.01456
threshold=34.500000000000007 1541.3510903125209 15.500000000000002 2152.44791777818 1914.2255008208015 0.059647242726281156 1525.9200072985852 1555.1141438171596 1569.3777128160821 95.460955974307936 1921.9745775884485 75.223906940164923 87.812371032605043 1831.1881322173026 0.05982780783515796 0.058968059485667156 1532.9172460873212 1600.6239555035802 1640.4267405976475 64.11255473029837 0.059853911798622955 1713.7311903428003 62.370750119080242 1421.3926414832138 2050.12265449291 1641.1188533084257 68.436124837261573 63.25161613643639 2047.33235394947 1497.7838147129116
decision_type=2 2 2 2 2 2 2 2 2 2 2 2 2 2 2 2 2 2 2 2 2 2 2 2 2 2 2 2 2 2
left_child=2 6 4 7 -1 14 12 17 9 -3 -9 -12 -2 -5 -6 -14 23 -4 -11 -8 -21 22 -22 -17 25 -25 -27 28 29 -24
right_child=1 8 3 13 5 -7 19 10 -10 18 11 -13 15 -15 -16 16 -18 -19 -20 20 21 -23 27 24 -26 26 -28 -29 -30 -31
leaf_value=0.064139894715905532 0.036836131623046491 0.020408501573900489 -0.031948765372572081 -0.090809305013640262 -0.010955454973357745 0.056558674608946514 -0.054156712133702267 0.024002123568218903 0.082155363764318964 0.10654411337744008 0.0096257440921399349 -0.03566750468227619 -0.078779005167153499 -0.030631706196771524 -0.086121265288402915 0.032690120565311356 0.054167442048648651 -0.091251559033271049 0.045730671611912715 0.065186986023511126 -0.06655954782757828 -2.563613737746205e-05 0.020274630164706705 0.044301077562982315 0.046668949752041111 -0.079355178717436942 -0.017495895684460562 -0.029911886540240479 0.075112305699760962 -0.079298655710564686
leaf_weight=84.02376115322113 163.0465979129076 340.94416062533855 52.67624905705452 143.07946978509426 50.270721286535263 40.856452628970146 58.712564334273338 60.218288347125053 101.76384343206882 32.024221003055573 75.169054478406906 285.70958852767944 14.727831050753592 44.773917689919472 31.522043317556381 53.284378468990326 44.223112463951111 70.17397266626358 212.61060628294945 18.331295013427734 64.733342096209526 254.0552753508091 23.085939630866051 18.066567718982697 27.060792207717896 40.747753843665123 71.082535400986671 127.01114131510258 22.225522831082344 14.396425545215605
leaf_count=364 666 1426 221 676 206 183 241 244 475 141 306 1207 60 201 141 215 182 319 907 74 266 1031 93 73 109 164 286 517 90 58
internal_value=0 0.015328 -0.0278723 -0.0418051 0.0212163 -0.00781041 -0.00245053 -0.0296308 0.0416455 0.0345074 -0.0188079 -0.0260946 0.0153191 -0.0767562 -0.0406039 0.00209204 0.00699818 -0.0662768 0.0539361 -0.0157214 -0.0113085 -0.0141937 -0.0283041 -0.00270691 -0.0150551 -0.0283244 -0.0405331 -0.0147451 0.0166777 -0.0167488
internal_weight=0 1702.13 938.474 731.801 206.673 122.649 1014.79 543.947 687.343 585.579 421.097 360.879 432.24 187.853 81.7928 269.193 254.465 122.85 244.635 582.552 523.839 505.508 251.452 210.242 156.958 129.897 111.83 186.719 59.7079 37.4824
internal_count=11142 7074 4068 3174 894 530 4125 2297 2949 2474 1757 1513 1755 877 347 1089 1029 540 1048 2370 2129 2055 1024 847 632 523 450 758 241 151
is_linear=0
shrinkage=0.1


Tree=9
num_leaves=31
num_cat=0
split_feature=93 6 9 81 93 85 3 4 27 84 29 84 24 84 3 28 20 18 0 6 156 158 83 83 27 82 32 36 96 107
split_gain=95.2851 75.2171 57.8983 31.3442 24.4508 22.4313 21.881 17.5989 16.9912 15.8445 15.4077 17.1028 12.9544 12.3697 11.8658 11.7814 10.4738 12.7742 10.1634 10.0321 9.99224 10.4424 12.054 11.2621 10.7042 9.7513 11.2731 9.20589 14.5254 12.2825
threshold=1723.4559295157483 1541.3510903125209 1614.3454723631746 2223.3088676725833 2143.9837882298057 62.684988078131347 2211.7875452952112 66.468173890465422 1815.6066083484709 1532.4268331463284 0.059861998908515103 1555.9024552592348 1278.5710874465954 1543.4730543095741 1810.394782851761 82.99594606312921 0.060306271739868508 1960.1848923055629 4.0000000000000009 1587.8534946536363 1532.3699302975544 0.059780621257245856 0.05993609812310511 0.059851236208105708 1663.6447740508477 69.16419955868794 0.059238175357554011 1530.4689279899865 2175.4981590927805 0.059730360424919408
decision_type=2 2 2 2 2 2 2 2 2 2 2 2 2 2 2 2 2 2 2 2 2 2 2 2 2 2 2 2 2 2
left_child=1 5 3 8 10 27 9 16 13 18 11 -4 15 -2 -15 -9 -7 -18 -3 -6 21 22 23 -17 -24 -13 -27 -1 29 -29
right_child=2 6 4 -5 19 7 -8 12 -10 -11 -12 25 -14 14 -16 20 17 -19 -20 -21 -22 -23 24 -25 -26 26 -28 28 -30 -31
leaf_value=-0.035173513679796826 -0.0090210764864192289 0.041042899127756466 0.041505706217654828 -0.10316560922229759 -0.060103520516018895 0.057317088197305757 0.090218666838803599 0.047557081845248567 0.062210582002122296 0.017391626827248135 0.069267762715041772 -0.046358410298349029 0.023109396674274363 -0.072563624104198199 -0.034618490291589393 -0.027422697893289018 -0.063568485084209592 0.035713935701356885 0.090741992897382495 0.046079280611066448 -0.045492529076628346 0.037468522346813693 -0.11024664548220704 0.052929536478301203 -0.022441086541314853 0.057638910074222553 -0.045546672882264966 0.08436078526178907 -0.038754165143040205 -0.0034109897738018717
leaf_weight=229.9593560397625 115.49450515210629 229.08627398312092 89.190356761217117 78.637363076210022 58.220737636089325 97.205679044127464 78.409177631139755 30.689893245697021 16.909593403339386 304.56253591179848 57.045428961515427 56.057832330465317 155.44004522264004 125.58299723267555 270.35789135098457 30.179837629199028 18.93525604903698 40.163883060216904 53.281046837568283 9.8813455253839475 89.455577343702316 44.211561843752861 16.163061276078224 39.570132866501808 120.26421338319778 26.493697166442871 17.072208076715469 25.943121239542961 54.70903205871582 38.469380468130112
leaf_count=957 470 997 380 404 261 399 381 125 71 1266 262 230 633 577 1151 122 77 164 240 45 365 180 65 160 485 112 73 105 229 156
internal_value=0 0.0140304 -0.0259207 -0.0439651 0.00880832 -0.00283597 0.040247 0.00765766 -0.0350414 0.0334718 0.0236287 0.00954596 -0.00100707 -0.0383662 -0.0467953 -0.0112624 0.0371166 0.00300578 0.0506266 -0.0439187 -0.0167336 -0.00624537 -0.0158752 0.0174569 -0.0332831 -0.0185783 0.0160467 -0.0234853 -0.000491689 0.0312414
internal_weight=0 1696.7 920.944 606.982 313.962 1031.36 665.339 682.279 528.345 586.93 245.86 188.814 525.974 511.435 395.941 370.534 156.305 59.0991 282.367 68.1021 339.844 250.389 206.177 69.75 136.427 99.6237 43.5659 349.081 119.122 64.4125
internal_count=11142 7106 4036 2673 1363 4222 2884 2775 2269 2503 1057 795 2135 2198 1728 1502 640 241 1237 306 1377 1012 832 282 550 415 185 1447 490 261
is_linear=0
shrinkage=0.1


Tree=10
num_leaves=31
num_cat=0
split_feature=90 9 15 84 10 6 111 101 103 112 97 10 86 116 15 38 106 81 110 80 6 8 9 110 107 12 105 97 2 112
split_gain=78.5372 78.3084 40.3569 38.753 20.8856 19.5867 16.9594 13.4382 13.1671 13.0583 14.4255 12.072 11.3716 13.07 10.8341 11.3084 10.7325 10.3762 10.4674 10.8865 10.8534 10.2187 9.95685 9.76807 9.61072 9.05549 8.95182 8.88685 8.82401 8.72074
threshold=1901.9029330837182 1619.4934410191111 1740.2710501767738 1538.5558041766456 63.409080984644426 1592.2992727236367 1508.2022579123043 0.059993463627902262 74.555271281738428 64.0570337517007 77.983945557096234 63.306108720798882 0.059427897710466408 0.058125395224470307 1580.4110275247579 0.055997608943804456 85.189377050190629 1688.8584540262273 0.05907244196080081 0.05800798794742431 1543.6148337143779 0.058318930111601504 1526.7924444631024 0.058493081071406459 0.059857028599810055 1550.3108689626081 1800.0769974542814 85.850495219811251 52.500000000000007 68.022652594872639
decision_type=2 2 2 2 2 2 2 2 2 2 2 2 2 2 2 2 2 2 2 2 2 2 2 2 2 2 2 2 2 2
left_child=1 3 9 4 17 6 23 26 -3 -2 -11 29 13 16 -10 -16 -13 -1 -19 21 -21 24 25 -4 -20 -9 -6 -24 -14 -5
right_child=2 8 5 11 7 -7 -8 22 14 10 -12 12 28 -15 15 -17 -18 18 19 20 -22 -23 27 -25 -26 -27 -28 -29 -30 -31
leaf_value=0.051833773147076115 0.002885817741396535 -0.028676775088731093 0.074160290234165496 -0.0025512826891190658 -0.012504339516292241 0.077905714994722139 -0.054656294305816006 0.0227177317134378 -0.042865153951243989 -0.0060077089746680577 -0.078450798203763494 -0.065232802649835997 0.046772762817900562 -0.08003855409743442 0.012845752810619469 0.067056899720628962 -0.0035380362304455594 0.053644464425359022 0.064302456290682208 0.010414404206664511 0.060419008795644852 -0.030858840884702407 -0.0042424969791260859 -0.0053828146420088624 -0.010059790599576589 -0.062086305083153104 -0.10757858968891224 0.043103091473226364 -0.038518078136088818 -0.051983184252814466
leaf_weight=114.33412678539753 26.943440407514572 18.509127900004387 17.125456914305687 313.76137284934521 315.44556610286236 24.851599603891373 74.304938271641731 22.19993568956852 10.072561025619505 33.389252260327339 209.97569799423218 45.879208132624626 25.39150382578373 78.239206701517105 47.436110988259315 278.83645555377007 77.817706704139709 68.661201804876328 28.717104658484459 146.16936546564102 63.778694361448288 90.85696879029274 56.940235063433647 144.5350801050663 41.5057073533535 27.194228082895279 10.311491355299948 117.87942361831665 22.747975215315819 40.604733049869537
leaf_count=487 122 78 71 1291 1280 122 349 90 44 151 1011 199 108 340 211 1301 336 282 120 598 272 377 231 604 174 110 42 481 94 166
internal_value=0 0.00880401 -0.0343125 -4.65041e-05 0.0110681 -0.00603228 -0.0151136 -0.00265502 0.0515434 -0.0614025 -0.0687236 -0.0204281 -0.0373055 -0.0477399 0.0561138 0.0593348 -0.0268587 0.024779 0.01762 0.0108061 0.0258645 -0.00851447 0.0160725 0.0027751 0.0196873 -0.0229925 -0.0156993 0.0274028 0.00543638 -0.00836952
internal_weight=0 2063.29 531.125 1708.44 1103.99 260.817 235.965 549.971 354.854 270.308 243.365 604.442 250.076 201.936 336.345 326.273 123.697 554.023 439.689 371.028 209.948 161.08 224.214 161.661 70.2228 49.3942 325.757 174.82 48.1395 354.366
internal_count=11142 8712 2430 7078 4544 1146 1024 2234 1634 1284 1162 2534 1077 875 1556 1512 535 2310 1823 1541 870 671 912 675 294 200 1322 712 202 1457
is_linear=0
shrinkage=0.1


Tree=11
num_leaves=31
num_cat=0
split_feature=93 6 9 81 87 10 101 15 114 81 19 13 96 13 111 105 33 10 23 11 29 19 4 107 84 103 16 100 97 37
split_gain=66.4905 53.8526 41.529 23.2058 21.7355 17.6571 19.8124 13.7733 14.3397 12.4191 11.9641 11.6805 10.9723 11.921 10.7483 13.5883 10.6966 10.2548 14.5311 10.0741 9.75492 10.2784 10.0311 16.1601 9.82168 13.4931 9.49761 10.7523 8.92579 8.43198
threshold=1723.4559295157483 1549.356819581091 1602.6600366990376 2223.3088676725833 1666.1805539049046 63.428358629744373 0.059993463627902262 1981.7361360215966 1521.4207977389249 1688.8584540262273 274.47444770636207 70.429870558746913 1939.273919880864 73.105295591069932 1450.5699560033229 1678.0783205824189 1415.0132684545285 62.021489296876105 0.059894371244251905 0.058725042606422209 0.059439517644092506 74.486360138135666 67.67466724866199 0.059646413849677012 1555.9024552592348 74.555271281738428 76.281155694751391 65.913070865130337 75.202039059881614 63.553618904413483
decision_type=2 2 2 2 2 2 2 2 2 2 2 2 2 2 2 2 2 2 2 2 2 2 2 2 2 2 2 2 2 2
left_child=1 5 3 12 10 9 14 8 -3 -1 20 -6 -2 -14 15 -7 -17 -10 -19 -16 22 -22 23 -4 25 -23 27 -26 -11 -8
right_child=2 7 4 -5 11 6 29 -9 17 28 -12 -13 13 -15 19 16 -18 18 -20 -21 21 24 -24 -25 26 -27 -28 -29 -30 -31
leaf_value=0.046094948207999038 -0.010046109736259448 0.066404424453466435 0.07883798647675147 -0.099823857032747598 -0.066658001867674746 -0.048194263520943116 0.02949353494862483 0.068977948585402321 0.043700414506261345 -0.046339517587229616 0.066127602418446382 0.049946230393855852 -0.036277683406926518 -0.099019962282989232 -0.11156040193058483 0.075868008516082386 -0.00097314704280322792 -0.083151397897472668 0.011616447306925711 -0.031815787302571071 -0.060631222162258941 -0.025317698606282316 -0.13162737612697711 -0.10018842701732647 -0.021408524880534088 0.056772173631476568 -0.036294581539984792 0.053390632802287487 0.010692600684268326 -0.0077301436470227558
leaf_weight=100.16901126503944 146.60763344168663 74.742194533348083 10.349720492959028 59.767925009131432 57.585186287760735 55.215305909514427 134.8892859518528 143.57834978401661 69.284068912267685 28.681176155805588 37.708086311817169 9.5182254463434202 263.47822268307209 35.605035215616226 17.8904989361763 20.987138241529465 120.23620536923409 19.629545539617538 87.983054280281067 195.24491345882416 17.570440843701363 24.639140635728836 9.6103868782520276 9.574129641056059 33.228271052241325 91.224293544888496 48.176443949341774 43.330900087952614 498.86524946987629 107.70530666410923
leaf_count=427 616 349 43 336 286 224 554 696 305 117 184 45 1179 170 74 85 488 86 384 821 74 101 40 40 138 397 207 180 2056 440
internal_value=0 0.0117368 -0.0219867 -0.0409401 0.00229716 0.0017314 -0.00974639 0.0440033 0.0295331 0.0137356 0.0131076 -0.0493247 -0.0329109 -0.0439447 -0.0232019 -0.00601992 0.010138 0.0136431 -0.00526705 -0.0387932 0.00596423 0.0123518 -0.0480375 -0.00476436 0.0179122 0.0388773 -0.00117658 0.0202884 0.00748897 0.0127649
internal_weight=0 1675.1 897.974 505.459 392.515 1279.88 652.169 395.217 251.639 627.715 325.412 67.1034 445.691 299.083 409.574 196.439 141.223 176.897 107.613 213.135 287.704 258.169 29.5342 19.9239 240.599 115.863 124.736 76.5592 527.546 242.595
internal_count=11142 7106 4036 2301 1735 5286 2686 1820 1124 2600 1404 331 1965 1349 1692 797 573 775 470 895 1220 1097 123 83 1023 498 525 318 2173 994
is_linear=0
shrinkage=0.1


Tree=12
num_leaves=31
num_cat=0
split_feature=2 6 3 97 2 87 84 6 3 97 7 94 32 102 104 100 32 82 38 84 28 88 99 93 30 27 96 29 37 81
split_gain=55.7449 40.6972 33.7699 24.4847 14.4177 14.3905 14.3296 12.7603 12.3887 13.7662 12.3301 10.4125 10.2656 10.8312 10.907 12.8298 10.1376 10.0379 9.48979 9.32587 9.27288 9.22994 9.16715 11.0348 9.14433 9.04382 8.97056 12.953 12.5779 8.91761
threshold=34.500000000000007 1553.9442228234896 2098.214144074102 256.17478510031418 84.500000000000014 1595.4970444087264 1570.5164108345923 1533.7331667091792 1783.0065525221748 89.952385065288226 62.705349577584499 73.509057306836681 0.059238175357554011 1323.1851500127266 0.059928146473099651 93.447767419705187 0.05834653093221976 65.590827275423436 0.055997608943804456 1519.6289956486405 84.561521153633649 61.477209769230313 1708.8948308779488 992.09272576368721 1601.4661503005307 1775.1744801763341 2169.86626145125 0.059656380158721302 60.932452325059252 1814.3046286794274
decision_type=2 2 2 2 2 2 2 2 2 2 2 2 2 2 2 2 2 2 2 2 2 2 2 2 2 2 2 2 2 2
left_child=2 4 3 5 8 20 18 21 9 11 -6 -2 13 14 26 -16 -3 -14 -4 -18 -1 -7 29 -24 -21 -9 28 -28 -10 -12
right_child=1 16 6 -5 10 7 -8 25 12 -11 22 -13 17 -15 15 -17 19 -19 -20 24 -22 -23 23 -25 -26 -27 27 -29 -30 -31
leaf_value=0.050124464924829026 -0.13598843655953161 -0.035673940540788478 -0.040330587875106634 -0.087150535287805336 0.035465643371296929 0.031645837218893302 -0.021785055430002032 -0.028173109380842144 0.057227300890860838 0.011176944344847395 0.0058926979713705757 -0.031446768253211611 -0.01760784023555978 -0.05756044252855378 -0.10081035611814844 0.03028028525611522 0.093575602456027238 0.023830335921556201 0.044626879424771393 -0.077321360364255451 -0.010231519347844458 -0.059849363640565117 0.10868948706475264 0 0.04386082354038872 0.015502640152454972 -0.075159285068234272 0.034663347809643134 -0.01497856310947838 -0.040764312806327627
leaf_weight=32.784844353795052 10.369686171412466 14.321960479021071 14.09825263917446 69.544326066970825 204.87657389044762 11.005581647157667 65.137457668781281 245.1039277613163 57.35045762360096 81.83607292175293 250.67301747202873 176.25614756345749 73.719176456332207 43.978945150971413 20.935850247740749 10.75648260116577 40.881673857569695 262.40048950910568 118.08688668906689 6.0145293772220603 110.76463207602501 167.39035005867481 17.435958608984947 20.545334920287132 237.18837080895901 57.116151854395866 24.69048672914505 18.156020775437355 39.997741311788559 48.756760567426682
leaf_count=134 45 64 59 396 875 52 305 1064 238 339 1026 728 304 180 86 45 211 1083 537 26 459 817 72 85 1129 245 101 74 164 199
internal_value=0 0.0107815 -0.0202203 -0.0306272 0.00341591 -0.0242363 0.01611 -0.0325429 -0.00489978 -0.0225415 0.0160878 -0.037593 0.00359236 -0.0133002 -0.00165819 -0.0547898 0.0442378 0.0145907 0.0351641 0.0484536 0.00323024 -0.0539102 0.00416638 0.0504206 0.0406279 -0.0197511 0.0100268 -0.0274858 0.0270618 -0.0015487
internal_weight=0 1661.14 891.032 693.71 1362.74 624.165 197.323 480.616 820.448 268.462 542.288 186.626 551.986 215.866 171.887 31.6923 298.407 336.12 132.185 284.085 143.549 178.396 337.411 37.9813 243.203 302.22 140.195 42.8465 97.3482 299.43
internal_count=11142 7074 4068 3167 5644 2771 901 2178 3387 1112 2257 773 2275 888 708 131 1430 1387 596 1366 593 869 1382 157 1155 1309 577 175 402 1225
is_linear=0
shrinkage=0.1


Tree=13
num_leaves=31
num_cat=0
split_feature=93 6 33 90 90 3 111 16 0 90 103 14 78 15 16 34 25 110 15 114 30 13 7 97 102 105 3 81 94 7
split_gain=46.1091 39.7846 30.9451 17.7564 16.9171 15.4452 13.7442 11.2609 10.9214 10.731 10.6029 11.895 10.7391 10.5826 10.031 9.92916 11.6144 11.0146 10.7679 9.85094 9.35784 9.29824 9.16074 9.13593 10.9314 11.8644 8.74302 8.68507 8.46533 10.988
threshold=1723.4559295157483 1541.3510903125209 1475.4946407546038 2104.4885260517453 2042.0628868020879 2211.7875452952112 1450.5699560033229 76.191048438861571 4.0000000000000009 1770.6595085022802 116.86151089500895 0.059979501726920355 1516.236764036179 2247.4091382566417 83.986960214203791 66.94824352213665 73.284959018181084 0.059452573756222711 1807.3441137919824 1505.123883731558 1659.4417439509007 68.73333762673245 63.016044991834605 80.946398514822491 1393.3431671581277 1760.2474149543661 1852.6833955578493 1640.4267405976475 94.457886537613774 70.016182791718407
decision_type=2 2 2 2 2 2 2 2 2 2 2 2 2 2 2 2 2 2 2 2 2 2 2 2 2 2 2 2 2 2
left_child=1 6 4 13 7 8 -1 15 27 -10 11 12 28 23 22 17 -17 18 -2 -9 -6 -5 26 24 -4 -26 -14 -3 29 -8
right_child=2 5 3 21 20 -7 10 19 9 -11 -12 -13 14 -15 -16 16 -18 -19 -20 -21 -22 -23 -24 -25 25 -27 -28 -29 -30 -31
leaf_value=0.0092449740583340524 -0.051711574522230103 0.075649744628800086 0.067255266327782587 -0.085260587547449543 -0.10693634116095957 0.074229571955196819 -0.085559197297504511 0.07162723420610155 0.079797771100257972 0.0046494485872951288 0.026839884835592714 -0.08000201114115367 0.040675387706749271 0.070653864408516232 0.0072109532382739934 -0.013728728912290936 0.091354495200077379 -0.076983251096463048 0.036559854364579217 -0.037407763921281777 -0.02455110668247398 0.017264933233986767 -0.088424421327504665 -0.0061121895315729884 -0.030409290716616869 0.096701677266959218 -0.043741458878308916 0.014272899594093284 -0.015231781322230154 0.025882400098926912
leaf_weight=504.51205952465534 21.920299604535103 24.721932157874107 46.691576197743416 29.201265260577202 44.688370645046234 69.423886999487877 49.732713848352432 8.0835475474596006 61.145967870950699 29.685561001300812 55.727620169520378 30.144551977515221 19.423245698213577 31.044790342450142 216.5301471054554 19.187955915927887 21.374559566378593 23.911987945437431 36.721643030643463 361.5304219275713 22.576977461576462 11.57199092209339 22.690576404333115 155.00516699254513 33.550912693142891 9.2710713446140272 31.813801094889641 451.36509138345718 79.425278797745705 9.9272208362817747
leaf_count=2067 93 120 203 158 270 381 214 33 293 127 230 129 80 161 905 80 90 102 153 1648 120 55 95 687 143 40 130 1963 329 43
internal_value=0 0.00976926 -0.0185939 0.00627493 -0.0327299 0.0293946 -0.00242787 -0.0261462 0.0238039 0.0558198 -0.0139504 -0.0190088 -0.0145945 0.0155347 -0.00345878 0 0.0405041 -0.0198542 0.00268104 -0.0348692 -0.0801042 -0.0549681 -0.0353528 0.00830617 0.0338105 -0.00156335 -0.0107494 0.0175803 -0.0374712 -0.0661667
internal_weight=0 1656.27 876.333 316.337 559.996 636.342 1019.93 492.73 566.919 90.8315 515.415 459.688 429.543 275.564 290.458 123.116 40.5625 82.5539 58.6419 369.614 67.2653 40.7733 73.9276 244.519 89.5136 42.822 51.237 476.087 139.085 59.6599
internal_count=11142 7106 4036 1447 2589 2884 4222 2199 2503 420 2155 1925 1796 1234 1210 518 170 348 246 1681 390 213 305 1073 386 183 210 2083 586 257
is_linear=0
shrinkage=0.1


Tree=14
num_leaves=31
num_cat=0
split_feature=90 9 12 84 6 6 87 97 29 25 19 114 1 103 156 105 3 11 101 105 101 104 84 10 85 15 2 22 24 28
split_gain=39.8125 40.6199 24.8997 20.0536 13.1234 12.569 12.4453 9.25557 9.05843 8.96272 9.75163 8.78136 8.77596 9.32674 9.00337 9.69572 8.58679 8.48475 11.4671 12.7611 8.07818 11.3917 8.28958 12.7931 7.96203 7.91848 9.79168 7.8781 7.8539 7.64519
threshold=1901.9029330837182 1619.4934410191111 1817.4440852091072 1538.5558041766456 1592.2992727236367 1530.5583288766682 1666.1805539049046 71.605083240707728 0.059812761629469753 92.614853419923563 88.7420939317132 1488.9937756360566 2.5000000000000004 74.047928654857301 1521.3449950071943 1776.764418046027 1756.9658577089265 0.059646186189625812 0.059996091377741707 1689.7625750561695 0.059938650284110509 0.059642331175038109 1530.601818403074 62.784444412367776 62.459556786490324 1420.5759239295592 21.500000000000004 66.366972634238394 1379.0890610610459 88.203167926189209
decision_type=2 2 2 2 2 2 2 2 2 2 2 2 2 2 2 2 2 2 2 2 2 2 2 2 2 2 2 2 2 2
left_child=1 3 7 5 6 11 -4 -2 9 20 -11 16 -3 -14 -15 -16 -1 -10 19 -19 21 -7 24 -24 -22 26 -5 -28 -8 -27
right_child=2 12 4 25 -6 8 28 -9 17 10 -12 -13 13 14 15 -17 -18 18 -20 -21 22 -23 23 -25 -26 29 27 -29 -30 -31
leaf_value=0.0061504639013931937 0.092326107821155953 0.09304148626939962 -0.0014761184333161449 -0.070038918869367681 0.065735010133246327 0.0038961114145187256 -0.072008239072636496 -0.055692346135464171 0.046616608104393942 -0.058947556583639295 0.0083419871986587235 -0.0063758281075502179 -0.042530551887306062 0.068227092579729698 0.017490087480263091 0.078472129861053855 0.12761290333548378 -0.10570310436533698 0.059749483062708664 0.0064859617615602924 -0.057279387267548346 0.10802482714937403 0.0050603092859236847 -0.09293124734091901 0.030172767774399992 -0.017745280341902921 0.051260401713166703 -0.024007056211368932 0.014077670381152853 0.012696095993205418
leaf_weight=16.871778666973118 3.9795234799385062 27.711397081613541 215.17966502904892 46.348545208573341 22.745361477136612 22.483478352427483 47.359006270766258 197.62867325544357 158.19193705916405 37.131517261266708 48.55814816057682 490.50411659479141 14.834150567650793 71.839125245809555 185.48674499988556 31.225044786930084 9.6366011351346952 13.040742829442022 27.008526235818863 41.440670073032379 10.903923794627188 21.521865218877792 50.327200829982758 17.630370706319809 125.50164513289928 190.94449824094772 14.4831365942955 197.70110678672791 12.429878979921339 143.58307182788849
leaf_count=69 19 164 920 218 122 93 258 1044 673 155 207 1998 61 375 887 147 40 54 113 170 46 91 209 72 554 791 59 861 67 605
internal_value=0 0.00622547 -0.0253141 -4.17759e-05 -0.0067394 0.00797529 -0.012938 -0.0524784 0.0181775 0.00733727 -0.0202682 -0.00325095 0.0382393 0.0330399 0.0371115 0.0265395 0.0524985 0.0330683 0.00612985 -0.0195962 0.017067 0.0560859 0.00839723 -0.0197264 0.0227789 -0.0148699 -0.0280486 -0.0186122 -0.0532828 -0.00453018
internal_weight=0 2014.91 499.322 1683.81 297.714 1090.75 274.969 201.608 573.74 334.058 85.6897 517.012 331.096 303.385 288.551 216.712 26.5084 239.682 81.4899 54.4814 248.368 44.0053 204.363 67.9576 136.406 593.06 258.533 212.184 59.7889 334.528
internal_count=11142 8712 2430 7078 1367 4544 1245 1063 2437 1427 362 2107 1634 1470 1409 1034 109 1010 337 224 1065 184 881 281 600 2534 1138 920 325 1396
is_linear=0
shrinkage=0.1


Tree=15
num_leaves=31
num_cat=0
split_feature=81 12 84 37 33 25 3 14 82 81 101 115 22 109 5 98 106 115 112 21 6 31 31 20 22 6 113 88 21 83
split_gain=32.985 36.5286 25.3116 18.9856 13.0357 11.1709 10.9791 11.5643 11.8991 10.9592 10.3829 11.2029 10.1509 9.69845 9.62505 12.4165 9.17194 12.0515 9.49486 8.6023 8.53214 8.50389 10.9486 8.47931 9.24806 8.61915 8.43927 8.24468 10.9743 10.358
threshold=2152.44791777818 1937.6565663791891 1538.5558041766456 79.364371724568329 1488.5942004506153 90.30504510816526 1817.1040504426894 0.059744812629031009 67.958418923810129 1665.539652339535 0.059945632406319303 61.259673766051733 66.9088046661916 88.270398710925107 0.059621770100202053 0.060185968813403254 83.716897516817085 59.852354104320973 68.113929731561882 1740.1517289328299 1545.2936860395912 66.404470175634472 64.699570368875285 0.060208546929099556 70.782114688306891 1520.0239833629005 0.059220182612397858 61.957736356426111 1622.6247036884142 0.059823290542953905
decision_type=2 2 2 2 2 2 2 2 2 2 2 2 2 2 2 2 2 2 2 2 2 2 2 2 2 2 2 2 2 2
left_child=1 2 4 20 5 9 7 8 -4 -1 -11 12 -12 21 15 -3 17 -8 -19 26 -2 22 -7 25 -25 -13 -16 -18 29 -29
right_child=3 14 6 -5 -6 13 16 -9 -10 10 11 23 -14 -15 19 -17 27 18 -20 -21 -22 -23 -24 24 -26 -27 -28 28 -30 -31
leaf_value=0.055116431559587037 -0.069260863975799392 -0.058425287271812044 0.030972979448362744 0.051192422664711926 0.045733945655395972 -0.045182616142058575 0.044956488719346988 -0.044892768631563648 -0.069543671607374014 0.042993174861773648 0.0059107956216259052 -0.057399033565311924 -0.095460798040660655 0.043767962641393751 -0.019029404821216889 0.043004931751298492 -0.023385664180720057 -0.029857933614964152 -0.12216197349931684 0.060816588367893804 -0.027433371331264802 -0.015219841205718971 0.020504268542869183 -0.015297717227634233 0.083269461832195357 0.037005073667368729 0.048299788487069395 0.077441809797429539 -0.0028087900932573227 0.0084085210289194592
leaf_weight=66.979409500956535 88.163446232676506 21.675487324595451 45.923708602786064 22.096183359622955 87.819941744208336 29.514741256833076 18.83561398088932 181.27415499091148 15.639130547642706 79.252268612384796 17.091365277767181 10.104211658239363 20.757856711745262 40.901680245995522 32.533581495285034 26.887991651892662 111.05055758357048 116.62937322258949 12.808318689465521 149.26103942096233 123.29081238806248 381.87783633172512 166.06880666315556 123.73132038116455 10.120497435331343 112.40856179594994 41.1593297123909 38.108274862170219 248.80948668718338 54.866282045841217
leaf_count=302 527 101 206 111 399 123 81 865 74 333 72 41 86 173 151 122 474 493 54 789 609 1562 689 532 42 481 210 161 1047 232
internal_value=0 0.00367728 -0.000992183 -0.0357883 0.00865473 0.00552805 -0.0141577 -0.0321542 0.00455598 0.0177137 0.0108589 0.00202132 -0.0484725 -0.00307211 0.0380823 -0.0012663 -0.00680012 -0.0283806 -0.039465 0.0468741 -0.0451337 -0.00648337 0.0103182 0.00968709 -0.00741521 0.0287709 0.0179126 0.000160374 0.00796167 0.0372938
internal_weight=0 2262.09 1990.57 233.55 1146.63 1058.81 843.945 242.837 61.5628 440.445 373.466 294.214 37.8492 618.363 271.517 48.5635 601.108 148.273 129.438 222.954 211.454 577.461 195.584 256.365 133.852 122.513 73.6929 452.835 341.784 92.9746
internal_count=11142 9895 8522 1247 4835 4436 3687 1145 280 1889 1587 1254 158 2547 1373 223 2542 628 547 1150 1136 2374 812 1096 574 522 361 1914 1440 393
is_linear=0
shrinkage=0.1


Tree=16
num_leaves=31
num_cat=0
split_feature=90 1 7 14 87 3 1 116 31 29 12 17 109 96 104 104 97 99 100 95 95 89 27 4 5 108 17 36 104 23
split_gain=28.0905 29.0677 19.5923 13.6219 13.6423 12.565 11.8391 9.44993 9.8883 9.60447 9.44023 10.8114 10.0276 12.2694 11.5718 9.64076 9.68147 9.11835 8.19331 7.81846 8.89385 7.77099 7.75509 7.59475 10.5301 8.91967 7.72703 7.61323 7.48646 7.46885
threshold=1901.9029330837182 15.500000000000002 61.297522608583371 0.059989581623391609 1561.9135418724516 1810.394782851761 54.500000000000007 0.058824247675508659 69.966314898197155 0.059439517644092506 1651.7756681320186 0.060785388464126601 68.075375992974685 2169.86626145125 0.059584536986518707 0.059964907391188559 119.96624278947412 1729.2378284152894 68.835058845817926 0.060279157468732254 0.060500170960572558 0.05923278520653761 1700.8813563817389 67.701299862428982 0.059621770100202053 1653.4865725100492 0.060247275660247859 1568.4177533276884 0.059956121169213054 0.059973314126239609
decision_type=2 2 2 2 2 2 2 2 2 2 2 2 2 2 2 2 2 2 2 2 2 2 2 2 2 2 2 2 2 2
left_child=1 23 19 4 6 -4 -3 9 -9 -7 22 15 13 14 -13 16 28 -8 -11 -2 -21 -18 -6 25 -25 27 -26 -1 -12 -16
right_child=2 3 5 -5 10 7 17 8 -10 18 11 12 -14 -15 29 -17 21 -19 -20 20 -22 -23 -24 24 26 -27 -28 -29 -30 -31
leaf_value=0.0032610758606134993 0.075711426727048531 0.030671844999479267 -0.069253618351391599 -0.054780634563889263 -0.053250421967314637 -0.096103426052578655 -0.0019824037910372979 -0.073249727470795431 0.012928305334256349 -0.012878358453860584 0.0069717051290784458 0.092098273045733911 -0.064006828666197224 -0.051493920453319769 0.013904476532450123 0.070104403284730915 -0.015534468478334663 0.055011883471475037 0.066865656657513636 -0.027900794973969929 0.047660127181903066 -0.10037208963695184 -0.0066516273148748903 -0.01787385372818277 0.081984134269509623 -0.058161155506091272 0.036867430872552724 0.092871741974971792 -0.075787640882710103 -0.082442068391567813
leaf_weight=37.813779234886169 20.518288150429726 248.64809404313564 71.057739078998566 43.219303444027901 67.853920951485634 13.205197736620901 349.70501087605953 58.184747412800789 16.013111352920532 230.23303054273129 660.47100771963596 16.049717202782631 46.782715946435928 40.111204773187637 39.251348465681076 21.254055500030518 54.489547371864319 30.328634172677994 13.401585906744002 35.97755865752697 27.089213564991951 14.113398909568785 81.323932260274887 21.254880219697952 67.353030577301979 15.683170199394224 103.17981025576591 13.163868650794027 10.930790439248083 9.926795542240141
leaf_count=175 96 1117 422 184 304 59 1444 347 82 1063 2783 66 196 169 163 90 232 127 59 174 128 60 359 101 368 68 554 65 46 41
internal_value=0 0.00524257 -0.0215753 0.00055053 0.00199722 -0.0307839 0.0136932 -0.0223569 -0.0539858 -0.0130077 -0.0048765 -0.0010092 -0.0253811 -0.00770816 0.0184897 0.00379804 0.00181685 0.00244778 -0.00826111 0.0221101 0.00378757 -0.0338362 -0.0282036 0.0365253 0.0466734 0.00655341 0.0550172 0.0275165 0.00553879 -0.00465663
internal_weight=0 1992.91 485.68 1734.46 1691.24 402.095 628.682 331.038 74.1979 256.84 1062.56 913.381 152.122 105.339 65.2279 761.259 740.005 380.034 243.635 83.5851 63.0668 68.6029 149.178 258.449 191.788 66.6608 170.533 50.9776 671.402 49.1781
internal_count=11142 8712 2430 7381 7197 2032 2688 1610 429 1181 4509 3846 635 439 270 3211 3121 1571 1122 398 302 292 663 1331 1023 308 922 240 2829 204
is_linear=0
shrinkage=0.1


Tree=17
num_leaves=31
num_cat=0
split_feature=87 9 84 1 7 108 1 33 14 14 112 82 28 88 116 17 22 109 14 20 22 4 12 5 102 24 35 37 13 97
split_gain=24.0948 28.051 17.8481 14.1079 10.076 9.50109 8.92318 8.73744 8.30327 8.48665 8.88075 11.2953 9.61792 8.83937 8.34881 8.23374 8.98032 8.74791 8.61684 7.79066 7.57115 7.54524 7.47279 7.4522 7.35945 7.51241 7.15706 6.90354 13.4667 7.38957
threshold=1644.7220205534311 1620.7244430486908 1538.5558041766456 5.5000000000000009 61.215440140386328 1581.5308171877318 2.5000000000000004 1489.3337841309558 0.059234962749222658 0.059758478538542763 68.347981533952279 68.697022345177444 89.772415132415105 63.482081921299248 0.057938957049990907 0.061172717703161156 67.737105412215058 93.816662789177386 0.059989581623391609 0.060206701945697209 66.983673309295938 65.1120583756434 1836.4333610247434 0.060029569169982012 1245.9001998079736 1268.2364889486641 0.059601057316846458 62.800261130062516 70.116698209382363 76.349898853726003
decision_type=2 2 2 2 2 2 2 2 2 2 2 2 2 2 2 2 2 2 2 2 2 2 2 2 2 2 2 2 2 2
left_child=1 2 7 20 21 -3 -7 15 -6 10 11 12 19 26 -14 17 -17 18 23 -10 -2 -4 -9 -1 -15 -26 -11 28 -28 -29
right_child=3 5 4 -5 8 6 -8 22 9 13 -12 -13 14 24 -16 16 -18 -19 -20 -21 -22 -23 -24 -25 25 -27 27 29 -30 -31
leaf_value=0.0066831924207417168 -0.011324834464854276 0.077653584760537769 -0.005331602309239649 -0.044693309577001725 -0.065420240061890331 0.073959898554437548 0.017119646167078704 0.0083133044827753393 0.026680284509986558 -0.058199650884569736 -0.050822919359432089 -0.04087026158644811 0.004896120037530172 -0.034528741605869329 0.070238579842313756 -0.0064946456009228508 -0.10626235141984604 0.048479666275325461 -0.050379208686933435 -0.014877061396183097 0.087991992345875625 0.095618520120712924 0.080526949872808645 -0.063889361266500994 0.0072418458323462893 0.11845161291427807 -0.014889848380997434 0.015517496649009234 0.11027931124866402 -0.052005450495007904
leaf_weight=893.89199931919575 17.602759703993801 34.974056780338287 13.434560716152193 169.15094922482967 32.701735749840736 30.958260864019394 321.30043403804302 32.291577279567719 65.751856565475464 74.518553331494331 35.054777428507805 51.879411563277245 40.210053578019142 16.984013885259628 41.567400589585304 30.81637792289257 13.433058753609656 46.005480870604515 28.279019266366959 142.18900263309479 12.576529175043104 14.289108693599699 28.474382773041725 15.004263773560522 18.629833862185482 9.7813527435064298 113.35617159307003 18.384025350213051 9.1609945893287641 90.701450169086456
leaf_count=3743 84 197 56 971 140 200 1550 139 276 337 148 239 172 74 176 129 55 203 116 613 63 59 133 61 82 42 508 89 42 445
internal_value=0 0.00291525 -0.00211652 -0.0333421 -0.0135909 0.0274259 0.0222765 0.00615331 -0.0157993 -0.0134935 -0.00291161 0.00187216 0.00970997 -0.0246859 0.0387655 0.00391846 -0.0380804 0.00586321 0.0037129 -0.00148959 0.0285658 0.0450589 0.0430502 0.00545626 0.0157426 0.0475638 -0.0308475 -0.0218098 -0.00504048 -0.0401642
internal_weight=0 2264.02 1876.79 199.33 788.594 387.233 352.259 1088.2 760.871 728.169 376.653 341.598 289.718 351.516 81.7775 1027.43 44.2494 983.181 937.175 207.941 30.1793 27.7237 60.766 908.896 45.3952 28.4112 306.121 231.603 122.517 109.085
internal_count=11142 10024 8077 1118 3498 1947 1750 4579 3383 3243 1624 1476 1237 1619 348 4307 184 4123 3920 889 147 115 272 3804 198 124 1421 1084 550 534
is_linear=0
shrinkage=0.1


Tree=18
num_leaves=31
num_cat=0
split_feature=93 7 27 17 21 31 28 97 15 97 19 111 96 100 21 3 97 81 88 93 23 98 1 85 16 99 93 24 31 105
split_gain=20.5351 19.8664 16.8242 13.682 13.0886 12.0842 12.266 11.4559 10.7918 10.7588 9.67518 9.37691 10.3331 9.63054 12.7874 9.85031 9.32411 8.81972 11.6076 10.3022 8.75176 8.64157 12.9571 8.74286 8.24145 8.2033 8.5432 8.07329 9.76254 9.66572
threshold=1723.4559295157483 62.587209653531211 1775.1744801763341 0.061172717703161156 1642.9136584382443 67.291529725200093 95.664087799602029 80.946398514822491 2028.6554146998876 74.565750647404698 91.651947184123159 1450.5699560033229 1818.9539848529205 70.391769263776055 1708.0993830464688 1856.3840040700916 269.75146938778897 2120.9362579731655 62.179321071420098 1939.2916099521942 0.059955407363265205 0.060249506088437661 53.500000000000007 61.687982954776579 76.08105110826547 1758.3069424099699 1765.0963978364587 1278.5710874465954 65.867614665640943 1694.5092248068092
decision_type=2 2 2 2 2 2 2 2 2 2 2 2 2 2 2 2 2 2 2 2 2 2 2 2 2 2 2 2 2 2
left_child=1 5 7 11 -4 6 9 21 16 -1 -11 20 -13 -14 15 -15 -9 -6 19 -19 -3 22 -2 -23 -7 26 -24 28 29 -22
right_child=2 3 4 -5 17 24 -8 8 -10 10 -12 12 13 14 -16 -17 -18 18 -20 -21 27 23 25 -25 -26 -27 -28 -29 -30 -31
leaf_value=-0.066596272308099239 0.0099154424748748235 0.037910941444099809 -0.034012898722601881 -0.09308621281549026 0.053116528756299367 0.02212614408935772 -0.046276859200630842 -0.030477572795465757 0.007504098065300723 0.004661046285738513 0.036253929267053904 -0.078900398146931894 -0.021276609428674886 0.0076298404174754385 -0.057335893258309213 0.073700013222130822 -0.080198002643843039 -0.05457760544599758 -0.053286222240054228 0.070603273677797562 0.097324936550003002 -0.0076295745696963917 0.013855906502561261 0.069635344446200037 0.059591138719471005 0.016202081015933501 -0.075625643417819466 0.02627752764414807 -0.015665366698833293 -0.0037222681765781275
leaf_weight=15.739918157458304 105.06922747194767 82.03842256963253 40.703175380825996 16.664008632302284 74.394278168678284 171.23208895325661 36.648590281605721 308.70550782233477 62.41345489025116 258.50999239087105 159.37258069217205 22.209971889853477 241.16690829396248 108.55878400802612 23.477368742227554 29.199188724160194 44.883148789405823 8.3204375058412534 23.306649960577488 25.48850180208683 16.212980642914772 27.298760280013084 12.107463568449019 29.073813542723656 95.460283413529396 17.497282519936562 54.503238812088966 96.528958722949028 221.14995640516281 20.412261262536049
leaf_count=68 459 356 200 70 342 838 160 1500 307 1108 733 93 1049 450 101 125 311 41 116 122 68 125 51 126 487 86 250 406 909 85
internal_value=0 0.0065634 -0.0127612 -0.00355361 0.0149081 0.018678 0.0088896 -0.0200407 -0.0301611 0.013677 0.0168354 -0.00175201 -0.0123779 -0.00856336 0.0101439 0.0220401 -0.0369511 0.0304437 0 0.0382514 0.00847411 -0.00268618 -0.0131149 0.0313867 0.0357411 -0.0424562 -0.0586152 0.00150821 -0.00757984 0.0397903
internal_weight=0 1614.58 833.765 877.619 172.213 736.963 470.271 661.552 416.002 433.622 417.883 860.955 424.612 402.402 161.235 137.758 353.589 131.51 57.1156 33.8089 436.343 245.55 189.177 56.3726 266.692 84.108 66.6107 354.304 257.775 36.6252
internal_count=11142 7106 4036 3712 821 3394 2069 3215 2118 1909 1841 3642 1818 1725 676 575 1811 621 279 163 1824 1097 846 251 1325 387 301 1468 1062 153
is_linear=0
shrinkage=0.1


Tree=19
num_leaves=31
num_cat=0
split_feature=81 1 85 7 15 109 18 13 95 34 13 28 111 20 6 98 90 93 78 108 4 16 33 17 107 36 91 91 5 91
split_gain=17.2838 19.6736 13.4857 12.7098 12.2633 11.3759 10.0962 9.70135 9.62855 9.5232 9.40177 9.75754 9.15196 10.7751 10.4619 9.59175 9.23061 9.13375 9.09264 8.54708 8.3025 9.52114 8.11717 7.97792 8.29327 7.79802 7.77795 9.99633 7.73287 7.00668
threshold=2234.4166482966607 11.500000000000002 62.935203348447864 62.811859680259431 1886.4040437869623 65.168533851588123 2317.2882634234834 64.918696884854313 0.060832831088026708 65.001138158449166 64.683438103717933 86.813758715064438 1429.0935330533375 0.060235682575636856 1541.5650102452653 0.060314269805978059 1745.5397995216313 1755.8110706662685 1592.026248129818 1599.1998824038717 70.31946986257914 73.978342920545899 1484.4552104725465 0.060994138321738757 0.059512722147049057 1574.3374679233498 63.956874801892795 63.708282371098058 0.059917907115235806 64.991579236252406
decision_type=2 2 2 2 2 2 2 2 2 2 2 2 2 2 2 2 2 2 2 2 2 2 2 2 2 2 2 2 2 2
left_child=1 9 3 5 -2 7 23 22 26 18 11 -10 15 14 17 -5 -15 29 19 -1 21 -21 -3 24 -4 -22 27 -7 -19 -14
right_child=4 2 6 12 -6 8 -8 -9 10 -11 -12 -13 13 16 -16 -17 -18 28 -20 20 25 -23 -24 -25 -26 -27 -28 -29 -30 -31
leaf_value=0.066646917357639432 -0.065893067958278859 -0.019764915753238743 -0.072990264503629138 -0.012639152951201575 0 -0.0050342301306302989 0.033459561708753353 0.063225061044595812 0.034620420773339745 0.045556008661745431 0.059223914919394507 -0.06775965909414236 0.0052880945162696001 -0.12841265189504369 0.032974035203243872 0.088638793782223474 -0.040907814514764093 0.028256593518793439 0.1012989963639136 0.056339115495511842 -0.11819880597339996 -0.03665355327306645 0.071041775692108025 -0.032575804002530143 0.0076884427955922208 0 -0.0058282340005514251 -0.089634430331446871 -0.061249838277149561 -0.031168836406298996
leaf_weight=12.910987243056296 66.075535424053669 41.545548215508461 12.76636455953121 24.023726224899292 50.576046749949455 31.773143500089645 131.2223848849535 48.46505007147789 21.122352108359337 142.68257722258568 42.334111228585243 16.209039553999901 107.56401075422764 15.893008902668951 35.50590018928051 14.546778321266173 65.596652969717979 10.101780131459234 8.5031694620847684 19.321205243468285 13.637554690241815 25.123930364847183 12.765926897525786 56.621456608176231 736.25936149060726 9.3592044562101346 455.12403354048729 26.884678021073341 80.014742806553841 99.786935672163963
leaf_count=75 465 176 56 106 266 135 610 210 90 815 184 69 469 66 150 64 307 51 43 92 68 118 56 237 3137 46 1992 114 433 442
internal_value=0 0.0018744 -0.00117253 -0.00845232 -0.0375585 0 0.00770418 0.0307303 -0.00528958 0.0295313 0.0268631 -0.00855881 -0.0214871 -0.0258825 -0.0176799 0.0243951 -0.0587233 -0.023903 0.00321484 -0.00665623 -0.0215075 0.00268552 0.000751634 0.0034435 0.00623705 -0.0702385 -0.0103766 -0.0447466 -0.050642 -0.0120222
internal_weight=0 2317.67 2086.13 1149.26 116.652 696.224 936.87 102.777 593.447 231.539 79.6655 37.3314 453.034 414.463 332.973 38.5705 81.4897 297.467 88.8561 80.3529 67.4419 44.4451 54.3115 805.647 749.026 22.9968 513.782 58.6578 90.1165 207.351
internal_count=11142 10411 9154 5114 731 3026 4040 442 2584 1257 343 159 2088 1918 1545 170 373 1395 442 399 324 210 232 3430 3193 114 2241 249 484 911
is_linear=0
shrinkage=0.1


Tree=20
num_leaves=31
num_cat=0
split_feature=2 12 30 112 99 111 4 22 98 103 94 99 6 96 106 35 21 2 114 29 109 78 99 1 98 24 98 115 97 101
split_gain=14.9043 12.5623 12.1891 10.7642 10.0373 9.94212 12.36 9.63961 11.0966 10.9323 13.0772 9.7775 9.26803 9.40187 9.00353 8.69163 8.59028 7.64172 7.50903 7.42766 7.1168 8.44456 9.15597 6.55997 6.52455 6.31104 6.17808 8.54708 12.1915 8.95915
threshold=34.500000000000007 1897.8481349207866 1623.2074968712388 64.166143580115531 1583.1809018758379 1469.0314189532037 65.145945077673034 65.129682177966743 0.060212229230269809 92.913758704618033 105.17604976306453 1660.9887458649443 1592.2992727236367 2415.7290547634807 89.819986289424278 0.058367731927459206 1690.3158240936298 26.500000000000004 1480.2027449410373 0.059711904181945358 68.847715610388462 1539.5240934624783 1673.6466390553137 300.00000000000006 0.060146807608762357 1138.841553102325 0.060065867518571757 60.718706608157035 82.21909956604965 0.059918464339711555
decision_type=2 2 2 2 2 2 2 2 2 2 2 2 2 2 2 2 2 2 2 2 2 2 2 2 2 2 2 2 2 2
left_child=2 18 3 19 -4 6 -5 11 9 10 24 -3 13 14 26 -11 -17 -16 -2 -1 21 -8 -23 -20 -9 -22 -6 -28 -29 -30
right_child=1 7 4 5 12 -7 20 8 -10 15 -12 -13 -14 -15 17 16 -18 -19 23 -21 25 22 -24 -25 -26 -27 27 28 29 -31
leaf_value=0.10964720839768426 0.066898911439862777 0.022247436700518691 0.07225178347516574 0.097207909778271137 -0.078721832265673905 -0.050487854531586121 -0.061381704211242762 0.029170699825865173 0.062001316743450052 -0.024679082258715873 -0.13199391425937354 -0.080068940425192595 0.057774274615869738 -0.021812901026190636 0.059069666038890412 -0.0069662019364074221 0.089885908195034392 -0.016702004158069206 0.0018758578470717828 -0.00022082517367847358 -0.06512142735690829 0.076788072083978851 -0.041988735518554719 -0.054072680087117846 -0.050479417323041835 0.032192309900702924 -0.023661851928268921 0.0600349285277628 0.062503934684574936 -0.039677156124659947
leaf_weight=8.4306331276893633 17.43429146707058 21.943466380238533 17.656729936599731 9.349493056535719 10.610230743885039 148.77079564332962 53.492719903588295 31.606040000915527 88.981029868125916 13.091025635600088 8.3350650668144208 15.561289250850676 22.745476081967354 230.71751409024 47.610328525304794 11.172252148389815 34.528793536126614 17.139335915446281 1320.3494909852743 18.921053290367126 8.0344450920820218 11.039311453700067 15.161699056625364 21.162745758891106 15.021533042192457 33.118545398116112 81.730920985341072 42.333382934331894 11.064505979418753 34.587577655911446
leaf_count=42 77 117 79 41 48 837 253 160 487 67 46 77 143 1169 211 64 211 77 5602 99 41 46 67 89 77 164 361 186 49 155
internal_value=0 0.00560662 -0.0109576 -0.0267668 -0.00147601 -0.032727 -0.0120253 0.0266968 0.0353976 0.0141123 -0.0172861 -0.0189756 -0.00420146 -0.00728081 0.00619924 0.0442941 0.0651539 0.0382469 0.00183972 0.0320986 -0.020963 -0.0385377 0.00625629 0.00095202 0.00238748 0.0118696 -0.00504578 -0.000101668 0.0212181 -0.0137366
internal_weight=0 1599.19 822.515 306.319 516.196 278.967 130.196 240.24 202.736 113.755 54.9626 37.5048 498.539 475.794 245.076 58.7921 45.701 64.7497 1358.95 27.3517 120.847 79.6937 26.201 1341.51 46.6276 41.153 180.327 169.716 87.9855 45.6521
internal_count=11142 7074 4068 1590 2478 1449 612 1306 1112 625 283 194 2399 2256 1087 342 275 288 5768 141 571 366 113 5691 237 205 799 751 390 204
is_linear=0
shrinkage=0.1


Tree=21
num_leaves=31
num_cat=0
split_feature=97 1 81 84 10 29 15 100 3 80 5 22 5 1 93 0 78 101 21 21 94 109 21 34 4 31 14 21 7 99
split_gain=13.7164 14.9646 10.8805 11.6134 10.2902 11.383 9.51042 9.57204 9.07937 9.2286 9.72371 8.43305 8.38602 7.73304 7.72332 7.64859 14.6021 11.606 7.25641 8.7889 6.69269 7.88044 6.4999 6.33831 7.66029 6.23018 6.20157 11.3274 11.2105 8.51993
threshold=269.75146938778897 11.500000000000002 1913.1249458840368 1529.9975413565078 61.576641896338671 0.059425448552460056 1886.4040437869623 69.249512191940866 1817.1040504426894 0.059700005575954208 0.060004618051805056 65.295307173045657 0.059725840376735458 308.50000000000006 1043.3874243986118 4.0000000000000009 1509.4526937488647 0.059992398340410459 1537.1791345788122 1623.8696618292176 82.590856550678254 65.634603393996954 1709.989315339267 65.001138158449166 68.465715357530527 68.238558888225512 0.059643866257204504 1808.0754820999043 62.632242710368338 1620.2619856979848
decision_type=2 2 2 2 2 2 2 2 2 2 2 2 2 2 2 2 2 2 2 2 2 2 2 2 2 2 2 2 2 2
left_child=1 14 13 -4 11 -6 7 -2 12 10 -10 -5 -7 15 -1 26 18 -18 -17 -20 22 -22 -14 -16 25 -25 27 29 -28 -3
right_child=6 2 3 4 5 8 -8 -9 9 -11 -12 -13 20 -15 23 16 17 -19 19 -21 21 -23 -24 24 -26 -27 28 -29 -30 -31
leaf_value=0.073284010296992927 -0.092940465201312258 -0.028703139123882615 0.10622227409446723 -0.028588401138742815 -0.072411350275866843 0.054514083209123959 -0.0023097201057206414 0.045706634320700018 -0.0041173992954397359 -0.068631385373089548 0.093644167643547341 0.058622189439802901 -0.055148703742163643 -0.060037875478985737 -0.0038111610674933997 -0.10951710812452996 0.015575486881951685 0.075264027925643781 0.064211426018797507 -0.065293413858308572 -0.054831809755857192 0.016800785899918329 0.021128329278096908 -0.080899915825916435 0.043322452834796486 0.021810776575972746 0.028874190522383339 0.094801455562096515 0.00018020866247595713 0.00360371861400216
leaf_weight=29.757366478443146 36.071049489080906 159.38367632031441 8.3361122757196409 15.043708831071852 32.249276325106621 10.688765317201613 35.826052069664001 5.1962624788284293 531.6180959418416 21.740757599473 10.24863341450691 36.078403860330582 116.13057686388493 17.972149968147278 78.658839762210846 9.4201841652393359 88.269231751561165 54.371975719928741 9.8425750732421893 10.910259231925009 23.421167239546776 42.864124551415443 11.302547074854372 9.6406167298555392 105.38670768588781 13.782513722777365 184.78044670820236 10.015040576457976 530.27261286973953 162.29389481246471
leaf_count=196 291 697 36 66 142 51 195 30 2366 101 46 156 646 76 381 40 390 251 41 46 113 197 65 45 627 64 821 48 2218 700
internal_value=0 0.00135554 -0.00131499 -0.0099746 -0.0111834 -0.0140066 -0.0414888 -0.0742054 -0.01148 -0.00482372 -0.00215919 0.0319769 -0.0295774 0.00466082 0.0251663 0.0056601 0.0251748 0.0387146 -0.0370988 -0.00146122 -0.034501 -0.00780108 -0.0479801 0.0179919 0.0316866 -0.0185021 0.00238842 -0.00884149 0.00766808 -0.0122521
internal_weight=0 2334.48 2097.25 859.722 851.386 800.264 77.0934 41.2673 768.015 563.607 541.867 51.1221 204.407 1237.53 237.226 1219.56 172.814 142.641 30.173 20.7528 193.718 66.2853 127.433 207.469 128.81 23.4231 1046.75 331.693 715.053 321.678
internal_count=11142 10626 9313 3985 3949 3727 516 321 3585 2513 2412 222 1072 5328 1313 5252 768 641 127 87 1021 310 711 1117 736 109 4484 1445 3039 1397
is_linear=0
shrinkage=0.1


Tree=22
num_leaves=31
num_cat=0
split_feature=90 33 157 16 15 2 29 78 36 30 97 101 24 27 19 20 95 31 4 104 22 101 3 82 2 82 37 111 5 13
split_gain=12.1334 12.358 11.6459 9.56406 9.17507 9.08857 8.8309 8.56792 8.44864 15.8124 13.1673 15.5587 10.3164 10.8178 8.44496 8.43902 13.0298 8.71682 12.4931 8.021 7.9745 7.89373 8.07827 7.81922 7.72784 7.48164 8.3886 7.54481 7.44767 9.48338
threshold=2053.8361123002524 1468.9373134752955 81.256079938210078 88.501354606233079 1886.4040437869623 84.500000000000014 0.05980506270458686 1516.236764036179 1511.1066178347635 1628.3252458739669 75.991613342206776 0.060005163118986508 1356.5028702896577 1703.1001815230795 91.874107000283004 0.060226367155748257 0.060409826508848803 70.234586818619078 69.162928709905358 0.059671730693984758 67.506731898947578 0.060003427826165558 2037.0183124251469 64.772402560904411 86.500000000000014 65.615844534823466 60.911146869150478 1479.7777460896712 0.059968394388671707 69.368971682388903
decision_type=2 2 2 2 2 2 2 2 2 2 2 2 2 2 2 2 2 2 2 2 2 2 2 2 2 2 2 2 2 2
left_child=1 5 3 21 -2 7 14 8 9 10 -1 -12 -11 -14 -5 28 17 18 -17 -16 -6 -3 -23 -18 -7 26 -25 -27 29 -9
right_child=4 2 -4 6 20 24 -8 15 -10 12 11 -13 13 -15 19 16 23 -19 -20 -21 -22 22 -24 25 -26 27 -28 -29 -30 -31
leaf_value=0.053135673795879496 -0.063961644196225867 0.022514731237610844 0.098727643480213859 -0.06580838740284152 -0.022002114694018967 0.068149770547347638 0.0089647712401433773 0.010788199102878831 -0.05072503962149514 0.074344055185281629 -0.053858391832214775 0.044058712111239656 0.066358102105023187 -0.07693335328399202 -0.05533046520285987 -0.038719656710594762 -0.072552358907863143 -0.11239759534642146 0.058389145562336688 0.017102328164137821 0.085265471603609408 -0.062170489137934305 0.013569071162115559 0.10664055800660047 0.0051259299545453746 0.018365898235912875 -0.0035056628968449174 -0.03977146527057332 -0.010740794459052794 0.10506861500806371
leaf_weight=16.729628756642342 50.795386843383312 447.01034580916166 15.064687587320803 37.737428747117519 37.295517884194851 20.528258889913559 168.03097791224718 287.8396530225873 83.353328578174114 29.225976705551147 112.95220332592726 18.303949534893036 8.7351752519607562 12.472549825906752 22.496431261301041 128.62430433183908 11.648461267352102 14.147186577320097 14.300503596663473 46.039187625050545 8.3860096633434278 23.239404410123825 33.610118925571442 15.590612798929216 419.76469874382019 71.466747984290123 10.838659629225729 32.337181329727173 189.67076713591814 11.157031223177908
leaf_count=77 400 2213 79 161 199 87 747 1271 379 132 536 78 39 55 101 572 50 62 65 202 46 105 197 67 1800 307 46 152 866 51
internal_value=0 0.00144574 0.0115667 0.00980261 -0.0347347 -0.00383937 -0.00507991 -0.00884029 -0.0238321 -0.012263 -0.0289272 -0.0397999 0.0356049 -0.0155325 -0.0277439 -0.00341112 -0.0166787 -0.0365503 -0.0286197 -0.00599082 -0.00107504 0.0180033 -0.0165692 0.00497841 0.0081927 0.012347 0.0597419 0 0.0046051 0.0145074
internal_weight=0 2302.92 793.229 778.164 96.4769 1509.69 274.304 1069.39 281.773 198.419 147.986 131.256 50.4337 21.2077 106.273 787.621 298.954 157.072 142.925 68.5356 45.6815 503.86 56.8495 141.882 440.293 130.233 26.4293 103.804 488.667 298.997
internal_count=11142 10497 3805 3726 645 6692 1211 4805 1296 917 691 614 226 94 464 3509 1321 699 637 303 245 2515 302 622 1887 572 113 459 2188 1322
is_linear=0
shrinkage=0.1


Tree=23
num_leaves=31
num_cat=0
split_feature=108 7 0 33 37 35 28 90 93 12 3 15 99 88 22 102 101 11 85 115 34 97 27 21 91 109 109 6 5 27
split_gain=11.2611 15.3428 10.4871 9.98929 8.96377 8.76049 12.3643 8.24394 7.68065 7.51458 7.45372 10.675 8.54914 7.95081 12.3939 7.12208 7.09473 6.70348 6.62277 6.69099 6.34016 7.92816 6.27509 8.36691 13.6487 8.18286 8.18846 6.78055 6.10907 7.07466
threshold=1627.7889183169907 62.005239581868658 4.0000000000000009 1489.3337841309558 85.366749396808316 0.059230392303516358 96.008834411846536 2042.0628868020879 2270.5730827665498 1946.3774941952749 1914.853075477891 1489.9655722715372 1653.6445903737274 62.179321071420098 66.317465242132428 1326.7122786713874 0.060014309328825857 0.059269350941709008 61.820854026154016 61.561386828071058 64.592876560904827 81.689968595433342 1760.8098925248451 1652.5730850229577 65.071800907203041 71.6725767001778 69.135949151522013 1563.7520553445304 0.059668088554316157 1775.1744801763341
decision_type=2 2 2 2 2 2 2 2 2 2 2 2 2 2 2 2 2 2 2 2 2 2 2 2 2 2 2 2 2 2
left_child=1 2 5 7 -3 6 16 8 20 -9 -5 -12 -13 28 15 -15 -1 -7 -16 -20 21 -2 -22 24 -24 26 27 -25 -14 -30
right_child=3 4 -4 10 -6 17 -8 9 -10 -11 11 12 13 14 18 -17 -18 -19 19 -21 22 -23 23 25 -26 -27 -28 -29 29 -31
leaf_value=0.019053665411147672 0 0.0016266049189723011 0.069984762504402637 0.07530604800087437 -0.091096238508961258 0.072616729379981065 -0.10242649475519774 -0.062388680878732838 0.059948525479873595 0.027660668135419737 -0.057757843529420962 0.04779725659634812 -0.020456142969245313 -0.11961040526437516 -0.068670808442808859 -0.017060008432294708 -0.06559079730558974 -0.0049410445527133329 -0.0030645444757920704 0.084048461043825407 -0.01290307291357163 -0.093192479257327362 0.040772172575474767 0.046162999415461412 -0.048128730846272942 0.11999319610016967 -0.04453649748477586 -0.036384914325682291 0.0069967359810376665 0.078668847260677008
leaf_weight=158.18114329874516 15.847462832927702 901.30289061367512 48.306489177048206 16.801644518971443 10.441720336675642 42.143023476004601 9.5600869506597501 52.437367759644985 15.561104014515875 10.346256770193575 23.211343750357628 53.557377390563488 21.992064535617828 15.484051793813707 8.0001166015863401 14.349673368036745 10.248646229505537 13.530715651810167 20.689601927995682 14.036719977855681 662.45850495994091 20.094130545854568 26.148015901446342 61.31797593832016 48.651314288377762 8.8494310230016691 16.33645398914814 11.111781060695646 32.389918260276318 26.328683525323868
leaf_count=745 69 3918 268 78 47 235 42 406 76 56 108 292 103 83 43 69 48 65 105 74 3037 91 114 274 226 40 73 52 171 134
internal_value=0 0.00686157 0.0272469 -0.00686714 0.000499992 0.0181714 0.00700551 -0.0115533 -0.00899998 -0.0467337 0.010947 0.00599842 0.0134196 0.00105763 -0.0226026 -0.072177 0.0135707 0.0528959 0.0109329 0.0308519 -0.0102962 -0.0516372 -0.00845062 0.00836447 -0.0163706 0.0278271 0.0179514 0.0327769 0.0229489 0.0400628
internal_weight=0 1193.71 281.97 1196 911.745 233.664 177.99 949.16 886.376 62.7836 246.841 230.04 206.828 153.271 72.5602 29.8337 168.43 55.6737 42.7264 34.7263 870.815 35.9416 834.873 172.415 74.7993 97.6156 88.7662 72.4298 80.7107 58.7186
internal_count=11142 5368 1403 5774 3965 1135 835 4514 4052 462 1260 1182 1074 782 374 152 793 300 222 179 3976 160 3816 779 340 439 399 326 408 305
is_linear=0
shrinkage=0.1


end of trees

feature_importances:
a_point_glicko_rating=42
b_point_glicko_rating=42
a_player_rank=26
a_glicko_rating=23
b_glicko_rating=20
a_game_glicko_rating=19
b_return_game_glicko_rd=19
b_player_rank=17
a_service_game_glicko_rating=16
b_service_game_glicko_rating=16
a_set_glicko_rating=15
b_game_glicko_rating=15
a_service_game_glicko_rd=14
b_set_glicko_rating=14
a_point_glicko_rd=12
a_return_ace_glicko_rating=12
b_tie_break_glicko_vol=12
a_glicko_rd=11
a_tie_break_glicko_rating=11
b_point_glicko_rd=11
b_return_game_glicko_rating=11
b_tie_break_glicko_rating=11
b_ace_glicko_vol=11
b_return_first_won_glicko_rating=11
a_tie_break_glicko_rd=10
a_return_ace_glicko_rd=10
a_return_ace_glicko_vol=10
a_glicko_vol=9
a_first_won_glicko_rd=9
a_second_won_glicko_rd=9
b_return_ace_glicko_vol=9
b_first_won_glicko_rd=9
a_game_glicko_rd=8
a_set_glicko_rd=8
a_service_game_glicko_vol=8
a_ace_glicko_rating=8
a_return_first_won_glicko_rating=8
b_game_glicko_rd=8
b_ace_glicko_rd=8
b_return_first_won_glicko_rd=8
a_set_glicko_vol=7
a_first_won_glicko_rating=7
a_return_first_won_glicko_rd=7
b_glicko_rd=7
b_service_game_glicko_vol=7
b_return_ace_glicko_rating=7
best_of=6
a_return_game_glicko_vol=6
a_first_won_glicko_vol=6
b_glicko_vol=6
b_set_glicko_rd=6
b_service_game_glicko_rd=6
b_return_game_glicko_vol=6
b_first_won_glicko_rating=6
a_return_game_glicko_rd=5
a_second_won_glicko_rating=5
a_surface_return_second_won_glicko_rating=5
b_tie_break_glicko_rd=5
b_second_won_glicko_rd=5
a_return_game_glicko_rating=4
a_tie_break_glicko_vol=4
a_ace_glicko_rd=4
a_return_first_won_glicko_vol=4
b_ace_glicko_rating=4
b_return_ace_glicko_rd=4
b_first_won_glicko_vol=4
b_second_won_glicko_rating=4
b_surface_return_second_won_glicko_rating=4
a_game_glicko_vol=3
a_second_won_glicko_vol=3
b_second_won_glicko_vol=3
a_surface_return_second_won_glicko_vol=2
b_return_first_won_glicko_vol=2
b_surface_return_second_won_glicko_vol=2
a_point_glicko_vol=1
b_point_glicko_vol=1
b_game_glicko_vol=1
b_surface_return_second_won_glicko_rd=1

parameters:
[boosting: gbdt]
[objective: binary]
[metric: auc]
[tree_learner: serial]
[device_type: cpu]
[data_sample_strategy: bagging]
[data: ]
[valid: ]
[num_iterations: 300]
[learning_rate: 0.1]
[num_leaves: 31]
[num_threads: 0]
[seed: 0]
[deterministic: 0]
[force_col_wise: 0]
[force_row_wise: 0]
[histogram_pool_size: -1]
[max_depth: 10]
[min_data_in_leaf: 40]
[min_sum_hessian_in_leaf: 0.001]
[bagging_fraction: 0.8]
[pos_bagging_fraction: 1]
[neg_bagging_fraction: 1]
[bagging_freq: 0]
[bagging_seed: 3]
[feature_fraction: 1]
[feature_fraction_bynode: 1]
[feature_fraction_seed: 2]
[extra_trees: 0]
[extra_seed: 6]
[early_stopping_round: 0]
[early_stopping_min_delta: 0]
[first_metric_only: 0]
[max_delta_step: 0]
[lambda_l1: 0.5]
[lambda_l2: 0.1]
[linear_lambda: 0]
[min_gain_to_split: 0]
[drop_rate: 0.1]
[max_drop: 50]
[skip_drop: 0.5]
[xgboost_dart_mode: 0]
[uniform_drop: 0]
[drop_seed: 4]
[top_rate: 0.2]
[other_rate: 0.1]
[min_data_per_group: 100]
[max_cat_threshold: 32]
[cat_l2: 10]
[cat_smooth: 10]
[max_cat_to_onehot: 4]
[top_k: 20]
[monotone_constraints: ]
[monotone_constraints_method: basic]
[monotone_penalty: 0]
[feature_contri: ]
[forcedsplits_filename: ]
[refit_decay_rate: 0.9]
[cegb_tradeoff: 1]
[cegb_penalty_split: 0]
[cegb_penalty_feature_lazy: ]
[cegb_penalty_feature_coupled: ]
[path_smooth: 0]
[interaction_constraints: ]
[verbosity: -1]
[saved_feature_importance_type: 0]
[use_quantized_grad: 0]
[num_grad_quant_bins: 4]
[quant_train_renew_leaf: 0]
[stochastic_rounding: 1]
[linear_tree: 0]
[max_bin: 255]
[max_bin_by_feature: ]
[min_data_in_bin: 3]
[bin_construct_sample_cnt: 200000]
[data_random_seed: 1]
[is_enable_sparse: 1]
[enable_bundle: 1]
[use_missing: 1]
[zero_as_missing: 0]
[feature_pre_filter: 0]
[pre_partition: 0]
[two_round: 0]
[header: 0]
[label_column: ]
[weight_column: ]
[group_column: ]
[ignore_column: ]
[categorical_feature: ]
[forcedbins_filename: ]
[precise_float_parser: 0]
[parser_config_file: ]
[objective_seed: 5]
[num_class: 1]
[is_unbalance: 0]
[scale_pos_weight: 1]
[sigmoid: 1]
[boost_from_average: 1]
[reg_sqrt: 0]
[alpha: 0.9]
[fair_c: 1]
[poisson_max_delta_step: 0.7]
[tweedie_variance_power: 1.5]
[lambdarank_truncation_level: 30]
[lambdarank_norm: 1]
[label_gain: ]
[lambdarank_position_bias_regularization: 0]
[eval_at: ]
[multi_error_top_k: 1]
[auc_mu_weights: ]
[num_machines: 1]
[local_listen_port: 12400]
[time_out: 120]
[machine_list_filename: ]
[machines: ]
[gpu_platform_id: -1]
[gpu_device_id: -1]
[gpu_use_dp: 0]
[num_gpu: 1]

end of parameters

pandas_categorical:[]
