tree
version=v4
num_class=1
num_tree_per_iteration=1
label_index=0
max_feature_idx=113
objective=binary sigmoid:1
feature_names=best_of a_player_rank b_player_rank glicko_rating_diff_high glicko_rating_diff_low a_glicko_rating b_glicko_rating a_glicko_rd b_glicko_rd point_glicko_rating_diff_high point_glicko_rating_diff_low a_point_glicko_rating b_point_glicko_rating game_glicko_rating_diff_high game_glicko_rating_diff_low a_game_glicko_rating b_game_glicko_rating set_glicko_rating_diff_high set_glicko_rating_diff_low a_set_glicko_rating b_set_glicko_rating service_glicko_rating_diff_high service_glicko_rating_diff_low a_service_glicko_rating b_return_glicko_rating return_glicko_rating_diff_high return_glicko_rating_diff_low a_return_glicko_rating b_service_glicko_rating tiebreak_glicko_rating_diff_high tiebreak_glicko_rating_diff_low a_tiebreak_glicko_rating b_tiebreak_glicko_rating ace_glicko_rating_diff_high ace_glicko_rating_diff_low a_ace_glicko_rating b_return_ace_glicko_rating return_ace_glicko_rating_diff_high return_ace_glicko_rating_diff_low a_return_ace_glicko_rating b_ace_glicko_rating first_won_glicko_rating_diff_high first_won_glicko_rating_diff_low a_first_won_glicko_rating b_return_first_won_glicko_rating return_first_won_glicko_rating_diff_high return_first_won_glicko_rating_diff_low a_return_first_won_glicko_rating b_first_won_glicko_rating second_won_glicko_rating_diff_high second_won_glicko_rating_diff_low a_second_won_glicko_rating b_return_second_won_glicko_rating return_second_won_glicko_rating_diff_high return_second_won_glicko_rating_diff_low a_return_second_won_glicko_rating b_second_won_glicko_rating surface_glicko_rating_diff_high surface_glicko_rating_diff_low a_surface_glicko_rating b_surface_glicko_rating a_surface_glicko_rd b_surface_glicko_rd surface_point_glicko_rating_diff_high surface_point_glicko_rating_diff_low a_surface_point_glicko_rating b_surface_point_glicko_rating surface_game_glicko_rating_diff_high surface_game_glicko_rating_diff_low a_surface_game_glicko_rating b_surface_game_glicko_rating surface_set_glicko_rating_diff_high surface_set_glicko_rating_diff_low a_surface_set_glicko_rating b_surface_set_glicko_rating surface_service_glicko_rating_diff_high surface_service_glicko_rating_diff_low a_surface_service_glicko_rating b_surface_return_glicko_rating surface_return_glicko_rating_diff_high surface_return_glicko_rating_diff_low a_surface_return_glicko_rating b_surface_service_glicko_rating surface_tiebreak_glicko_rating_diff_high surface_tiebreak_glicko_rating_diff_low a_surface_tiebreak_glicko_rating b_surface_tiebreak_glicko_rating surface_ace_glicko_rating_diff_high surface_ace_glicko_rating_diff_low a_surface_ace_glicko_rating b_surface_return_ace_glicko_rating surface_return_ace_glicko_rating_diff_high surface_return_ace_glicko_rating_diff_low a_surface_return_ace_glicko_rating b_surface_ace_glicko_rating surface_first_won_glicko_rating_diff_high surface_first_won_glicko_rating_diff_low a_surface_first_won_glicko_rating b_surface_return_first_won_glicko_rating surface_return_first_won_glicko_rating_diff_high surface_return_first_won_glicko_rating_diff_low a_surface_return_first_won_glicko_rating b_surface_first_won_glicko_rating surface_second_won_glicko_rating_diff_high surface_second_won_glicko_rating_diff_low a_surface_second_won_glicko_rating b_surface_return_second_won_glicko_rating surface_return_second_won_glicko_rating_diff_high surface_return_second_won_glicko_rating_diff_low a_surface_return_second_won_glicko_rating b_surface_second_won_glicko_rating surface_Clay surface_Grass surface_Hard
feature_infos=[3:5] [1:1751] [1:1753] [-1203.3132534917663:827.08370495897611] [-895.87797562871174:1215.3359077524242] [1245.9217164110216:2717.531432504265] [1227.7963498960689:2749.2341541975647] [62.979949405679506:149.80177509640703] [62.919016416745592:149.50296659821674] [-282.7816866611106:-29.361097468609387] [20.750962814096283:260.11291219514419] [1446.5642759604991:1616.8967179976937] [1465.5539420690741:1619.6678865096796] [-404.62674410734098:70.646926030449094] [-85.62587898722245:346.79997850928407] [1375.1375155306462:1752.1166745355636] [1433.7625234188265:1756.8886308022429] [-900.50968682269081:599.58136304634922] [-612.67203279471391:916.57965476557115] [1243.8235048270169:2396.7564588583709] [1302.3375206477758:2400.22209957832] [-20328.49416805974:963.28807519630402] [-19446.646754104124:1308.183915966089] [-17999.889263107681:2742.1420084338456] [849.45232649912202:10203.258803930559] [-1250.0510621750036:20155.375770123643] [-908.535972625216:21023.925854341294] [830.81484554173437:10203.258803930559] [-18569.298674879043:2759.9125200262238] [-1225.8881081710042:450.75739322894719] [-548.01318977678693:1073.7524737813951] [1025.0822221319049:2073.1377706282278] [1025.0822221319049:2066.7168449129763] [-1155.4108044702805:-257.83020333419881] [-666.20621301689744:146.3905553560312] [921.53926012250486:1541.7922614489669] [1549.610512239964:1875.2824860281853] [-164.93757025813011:636.20080415889652] [221.56242190655553:1089.4907981878778] [1524.734116901833:1878.5927805893305] [918.48235789497801:1546.026659559898] [-190.36807918097929:233.28774573905616] [114.85597560229394:558.0980255414413] [1461.6021794560984:1772.8045645617592] [1350.8919591976637:1563.5340319579941] [-546.62025850318901:-138.23356710602343] [-238.54275811702539:223.62628436622504] [1311.7268953644077:1541.030393503172] [1458.9030317273384:1776.7854765638192] [-272.87876901703703:-9.3037294426071639] [8.1770781697321127:283.09033378608797] [1420.1518107413815:1622.9632930592177] [1450.7808304451255:1619.6592438445509] [-272.87876901703703:-9.3037294426071639] [8.1770781697321127:283.09033378608797] [1420.1518107413815:1622.9632930592177] [1450.7808304451255:1619.6592438445509] [-1203.3132534917663:827.08370495897611] [-895.87797562871174:1215.3359077524242] [1245.9217164110216:2717.531432504265] [1227.7963498960689:2749.2341541975647] [62.979949405679506:149.80177509640703] [62.919016416745592:149.50296659821674] [-282.7816866611106:-29.361097468609387] [20.750962814096283:260.11291219514419] [1446.5642759604991:1616.8967179976937] [1465.5539420690741:1619.6678865096796] [-404.62674410734098:70.646926030449094] [-85.62587898722245:346.79997850928407] [1375.1375155306462:1752.1166745355636] [1433.7625234188265:1756.8886308022429] [-900.50968682269081:599.58136304634922] [-612.67203279471391:916.57965476557115] [1243.8235048270169:2396.7564588583709] [1302.3375206477758:2400.22209957832] [-20328.49416805974:963.28807519630402] [-19446.646754104124:1308.183915966089] [-17999.889263107681:2742.1420084338456] [849.45232649912202:10203.258803930559] [-1250.0510621750036:20155.375770123643] [-908.535972625216:21023.925854341294] [830.81484554173437:10203.258803930559] [-18569.298674879043:2759.9125200262238] [-1225.8881081710042:450.75739322894719] [-548.01318977678693:1073.7524737813951] [1025.0822221319049:2073.1377706282278] [1025.0822221319049:2066.7168449129763] [-1155.4108044702805:-257.83020333419881] [-666.20621301689744:146.3905553560312] [921.53926012250486:1541.7922614489669] [1549.610512239964:1875.2824860281853] [-164.93757025813011:636.20080415889652] [221.56242190655553:1089.4907981878778] [1524.734116901833:1878.5927805893305] [918.48235789497801:1546.026659559898] [-190.36807918097929:233.28774573905616] [114.85597560229394:558.0980255414413] [1461.6021794560984:1772.8045645617592] [1350.8919591976637:1563.5340319579941] [-546.62025850318901:-138.23356710602343] [-238.54275811702539:223.62628436622504] [1311.7268953644077:1541.030393503172] [1458.9030317273384:1776.7854765638192] [-457.03452431318624:-9.3037294426071639] [8.1770781697321127:516.4983900790628] [1420.1518107413815:1622.9632930592177] [1450.7808304451255:1619.6592438445509] [-536.13719856418925:-9.3037294426071639] [8.1770781697321127:445.36297489639333] [1420.1518107413815:1622.9632930592177] [1450.7808304451255:1619.6592438445509] [0:1] [0:1] [0:1]
tree_sizes=3498 3512 3508 3501 3483 3495 3459 3496 3490 3499 3517 3500 3494 3500 3511 3493 3508 3486 3486 3490 3508 3486 3502 3481 3503 3487 3494 3505 3487 3500 3485 3501 3492 3504 3500 3502 3500 3509 3498 3502 3502 3506 3497 3505 3499 3513 3505 3501 3509 3503 3493 3508 3499 3502 3497 3503 3502 3501 3512 3500 3500 3497 3503 3505 3498 3509 3498 3502 3505 3502 3513 3489 3504 3502 3501 3505 3493 3504 3505 3504 3498 3508 3496 3491 3505 3505 3496 3505 3498 3502 3494 3501 3501 3500 3498 3513 3495 3508 3507 3492 3504 3502 3497 3502 3512 3500 3492 3502 3496 3500 3489 3499 3515 3490 3502 3488 3503 3489 3511 3494 3503 3498 3507 3493 3502 3494 3505 3494 3503 3502 3502 3500 3504 3494 3505 3489 3495 3494 3505 3497 3508 3504 3509 3519 3497 3516 3500 3516 3490 3506 3507 3497 3510 3506 3506 3503 3494 3515 3503 3500 3511 3492 3522 3500 3518 3513 3500 3520 3489 3522 3503 3509 3521 3495 3517 3499 3506 3502 3505 3523 3494 3516 3510 3500 3509 3506 3489 3497 3506 3501 3491 3508 3509 3502 3510 3492 3505 3510 3495 3509 3493 3515 3514 3495 3509 3508 3500 3511 3494 3507 3505 3496 3503 3503 3506 3504 3512 3508 3505 3503 3508 3492 3516 3509 3495 3511 3485 3505 3510 3496 3509 3490 3507 3509 3497 3500 3496 3510 3499 3494 3510 3496 3500 3496 3503 3491 3496 3503 3498 3500 3504 3495 3502 3491 3493 3497 3495 3502 3506 3499 3496 3489 3507 3497 3490 3501 3499 3494 3491 3498 3503 3500 3490 3493 3493 3496 3501 3502 3494 3498 3506 3489 3500 3494 3497 3483 3506 3495 3505 3507 3505 3505 3508 3507 3510 3512 3504 3498 3506 3504

Tree=0
num_leaves=31
num_cat=0
split_feature=14 18 9 9 4 14 5 3 46 15 1 25 12 2 51 23 1 39 22 31 6 41 4 29 41 18 46 106 10 8
split_gain=1194.57 243.8 174.792 60.2458 46.7886 40.4096 24.1211 19.478 16.7483 14.5569 14.5449 13.6719 13.5045 13.1578 11.9632 11.1791 10.7091 10.142 9.75878 9.71535 9.47552 9.96566 9.41102 9.2561 8.84192 11.2201 11.1134 11.2913 10.9018 9.51277
threshold=135.7140609907847 -2.6435316867721208 -110.91199354361935 -89.010899417168375 -224.33138230225663 101.27098579856897 2021.6259110163871 38.815070302687566 -37.825661785981303 1582.1905559873737 80.500000000000014 -265.14870001086109 1525.2815688467206 33.500000000000007 1525.7614567451767 2251.3283809235404 11.500000000000002 1731.2488388016079 -650.79951342577078 1740.9443933667887 1790.8599294416219 -53.34652051326065 230.57485215566729 -54.266684118562686 71.836082788637114 84.975604374034006 -23.53578132670361 1560.663052764676 113.41467659243348 67.846279663206118
decision_type=2 2 2 2 2 2 2 2 2 2 2 2 2 2 2 2 2 2 2 2 2 2 2 2 2 2 2 2 2 2
left_child=1 4 6 9 -1 20 7 11 17 -4 22 -2 -6 -12 -9 -11 -5 23 -14 -19 -3 -22 24 -8 26 -26 28 -28 -7 -30
right_child=2 5 3 16 12 10 8 14 -10 15 13 -13 18 -15 -16 -17 -18 19 -20 -21 21 -23 -24 -25 25 -27 27 -29 29 -31
leaf_value=-0.0083718366950413983 -0.0080142567706912998 -0.0068534589305278733 -0.0064468915678672131 -0.0050847144368694596 -0.0066237643772136812 -0.0077199137181562343 -0.0075897620282597764 -0.0066181620710352865 -0.0056931534903693626 -0.0059221801977912001 -0.0079253668459941008 -0.0066516793166198213 -0.0078635971203615904 -0.0071103187449185722 -0.0057373071611399613 -0.0053752016283092029 -0.0056342290369237862 -0.0052713676657491475 -0.0075121431913712892 -0.0067142416219947588 -0.0084984729394365719 -0.0074531086291615596 -0.0064191764552915557 -0.0060942343972317931 -0.0060316249720102875 -0.0068575333350212511 -0.0065898012691845585 -0.0072782481941984891 -0.0071903455881727951 -0.0067452764663933499
leaf_weight=164.99808222055435 7.4999128282070151 25.499703615903854 48.999430477619171 121.99858200550079 10.499877959489821 26.499691992998123 12.249857619404795 25.499703615903854 55.749352023005486 421.4951009452343 22.499738484621048 405.99528110027313 303.99646663665771 165.49807640910149 38.999546706676483 40.999523460865021 49.99941885471344 8.7498982995748538 106.74875925481319 9.9998837709426862 9.4998895823955518 227.74735288321972 40.499529272317886 6.2499273568391791 22.999732673168182 57.749328777194023 100.24883480370045 31.2496367841959 142.24834664165974 72.499157339334488
leaf_count=660 30 102 196 488 42 106 49 102 223 1686 90 1624 1216 662 156 164 200 35 427 40 38 911 162 25 92 231 401 125 569 290
internal_value=-0.00682106 -0.00741386 -0.00609761 -0.00575644 -0.00792044 -0.00709951 -0.00650601 -0.00659667 -0.00604004 -0.0059286 -0.00697114 -0.00667639 -0.00774363 -0.00720786 -0.00608555 -0.00587369 -0.00524446 -0.00655921 -0.00777226 -0.0060409 -0.00743271 -0.00749497 -0.00688105 -0.00708452 -0.00692229 -0.00662229 -0.00698728 -0.00675341 -0.00711476 -0.00704009
internal_weight=0 1530.98 1254.49 683.492 586.243 944.739 570.993 477.994 92.9989 511.494 681.992 413.495 421.245 187.998 64.4993 462.495 171.998 37.2496 410.745 18.7498 262.747 237.247 493.994 18.4998 453.495 80.7491 372.746 131.498 241.247 214.748
internal_count=11142 6124 5018 2734 2345 3779 2284 1912 372 2046 2728 1654 1685 752 258 1850 688 149 1643 75 1051 949 1976 74 1814 323 1491 526 965 859
is_linear=0
shrinkage=1


Tree=1
num_leaves=31
num_cat=0
split_feature=14 18 9 9 4 14 5 3 46 15 1 25 12 2 51 23 1 39 22 31 6 41 4 29 41 18 46 106 10 8
split_gain=1192.18 243.315 174.441 60.1248 46.6958 40.329 24.0728 19.439 16.7147 14.5277 14.5158 13.6446 13.4776 13.1316 11.9392 11.1566 10.6876 10.1217 9.73937 9.69586 9.45663 9.94585 9.3922 9.23761 8.82425 11.1976 11.0912 11.2688 10.8801 9.49377
threshold=135.7140609907847 -2.6435316867721208 -110.91199354361935 -89.010899417168375 -224.33138230225663 101.27098579856897 2021.6259110163871 38.815070302687566 -37.825661785981303 1582.1905559873737 80.500000000000014 -265.14870001086109 1525.2815688467206 33.500000000000007 1525.7614567451767 2251.3283809235404 11.500000000000002 1731.2488388016079 -650.79951342577078 1740.9443933667887 1790.8599294416219 -53.34652051326065 230.57485215566729 -54.266684118562686 71.836082788637114 84.975604374034006 -23.53578132670361 1560.663052764676 113.41467659243348 67.846279663206118
decision_type=2 2 2 2 2 2 2 2 2 2 2 2 2 2 2 2 2 2 2 2 2 2 2 2 2 2 2 2 2 2
left_child=1 4 6 9 -1 20 7 11 17 -4 22 -2 -6 -12 -9 -11 -5 23 -14 -19 -3 -22 24 -8 26 -26 28 -28 -7 -30
right_child=2 5 3 16 12 10 8 14 -10 15 13 -13 18 -15 -16 -17 -18 19 -20 -21 21 -23 -24 -25 25 -27 27 -29 29 -31
leaf_value=-0.0015492310759513649 -0.0011920049100709444 -3.2362663450988713e-05 0.00037379765388770623 0.0017346041159277232 0.00019710209710967891 -0.00089795385091768641 -0.00076793154664462921 0.00020269873110090124 0.0011267785643623281 0.00089798217466357394 -0.0011032031329593112 0.00016921509229005107 -0.0010414946618683433 -0.00028896587012272194 0.0010826692870428973 0.0014444099544283586 0.0011856436825162038 0.0015481393603438654 -0.0006903899317282845 0.00010671536440872391 -0.0016757423603182351 -0.00063141412294368839 0.00040148505017345934 0.00072610096882290464 0.00078864743722607681 -3.643301502378851e-05 0.00023103124559109434 -0.00045672783956410783 -0.00036891289155192646 7.5711660070429854e-05
leaf_weight=164.99710857868195 7.4998797476291648 25.499700576066971 48.999491810798645 121.99921464920044 10.499884843826292 26.499605119228363 12.249823302030565 25.499720335006714 55.749548077583313 421.49630686640739 22.499647289514542 405.99549889564514 303.99530696868896 165.49790871143341 38.999679207801819 40.999704301357269 49.999603629112244 8.749938979744913 106.74849201738834 9.9998873472213727 9.4998284280300123 227.74683703482151 40.499582380056381 6.2499418854713431 22.999790251255035 57.749321892857552 100.24891248345375 31.249586492776871 142.24816010892391 72.499174624681473
leaf_count=660 30 102 196 488 42 106 49 102 223 1686 90 1624 1216 662 156 164 200 35 427 40 38 911 162 25 92 231 401 125 569 290
internal_value=0 -0.000592202 0.000722725 0.00106356 -0.00109828 -0.000278165 0.000314741 0.000224172 0.000780241 0.000891567 -0.000149922 0.000144526 -0.000921647 -0.000386414 0.000734775 0.000946422 0.00157502 0.000261596 -0.000950246 0.000779381 -0.000611034 -0.000673231 -5.99213e-05 -0.000263189 -0.000101127 0.000198575 -0.000166053 6.75907e-05 -0.000293407 -0.000218807
internal_weight=0 1530.98 1254.49 683.494 586.241 944.738 570.994 477.995 92.9991 511.496 681.992 413.495 421.244 187.998 64.4994 462.496 171.999 37.2496 410.744 18.7498 262.746 237.247 493.994 18.4998 453.495 80.7491 372.745 131.498 241.247 214.747
internal_count=11142 6124 5018 2734 2345 3779 2284 1912 372 2046 2728 1654 1685 752 258 1850 688 149 1643 75 1051 949 1976 74 1814 323 1491 526 965 859
is_linear=0
shrinkage=0.001


Tree=2
num_leaves=31
num_cat=0
split_feature=14 18 9 9 4 14 5 3 46 15 1 25 12 2 51 23 1 39 22 31 6 41 4 29 41 18 46 106 10 8
split_gain=1189.79 242.83 174.092 60.0042 46.6032 40.2486 24.0246 19.4001 16.6812 14.4986 14.4869 13.6174 13.4507 13.1055 11.9153 11.1342 10.6662 10.1014 9.72002 9.67642 9.43777 9.92612 9.37342 9.21916 8.80661 11.1752 11.0691 11.2462 10.8584 9.47481
threshold=135.7140609907847 -2.6435316867721208 -110.91199354361935 -89.010899417168375 -224.33138230225663 101.27098579856897 2021.6259110163871 38.815070302687566 -37.825661785981303 1582.1905559873737 80.500000000000014 -265.14870001086109 1525.2815688467206 33.500000000000007 1525.7614567451767 2251.3283809235404 11.500000000000002 1731.2488388016079 -650.79951342577078 1740.9443933667887 1790.8599294416219 -53.34652051326065 230.57485215566729 -54.266684118562686 71.836082788637114 84.975604374034006 -23.53578132670361 1560.663052764676 113.41467659243348 67.846279663206118
decision_type=2 2 2 2 2 2 2 2 2 2 2 2 2 2 2 2 2 2 2 2 2 2 2 2 2 2 2 2 2 2
left_child=1 4 6 9 -1 20 7 11 17 -4 22 -2 -6 -12 -9 -11 -5 23 -14 -19 -3 -22 24 -8 26 -26 28 -28 -7 -30
right_child=2 5 3 16 12 10 8 14 -10 15 13 -13 18 -15 -16 -17 -18 19 -20 -21 21 -23 -24 -25 25 -27 27 -29 29 -31
leaf_value=-0.0015476928888060498 -0.0011908189976658923 -3.2330302771683807e-05 0.00037342343543377715 0.0017328630787118993 0.00019690484760860987 -0.00089705921482031959 -0.00076716592141698036 0.00020249594031792229 0.0011256484752027623 0.00089708205710798392 -0.0011021050498177167 0.00016904576722247592 -0.0010404577318220364 -0.00028867721287437366 0.0010815835893767901 0.0014429607878232869 0.0011844544875456373 0.0015465856476662234 -0.00068970139212343553 0.0001066086953515559 -0.0016740796862812202 -0.00063078416352726065 0.00040108304710629249 0.00072537342609075054 0.00078785712273766074 -3.6396540891708296e-05 0.00023080005039886878 -0.00045627188564797028 -0.00036854446169275065 7.5635881615889494e-05
leaf_weight=164.99593824148178 7.4998413026332846 25.499697536230087 48.999547302722931 121.99965822696686 10.499891728162764 26.499508768320084 12.249786064028742 25.499737054109573 55.749710902571678 421.49733692407608 22.499541342258453 405.99574089050293 303.9939661026001 165.49773114919662 38.999788463115692 40.999841153621674 49.999752640724182 8.7499697506427783 106.748205691576 9.9998909235000593 9.4997542500495893 227.74628046154976 40.499633073806763 6.2499549239873877 22.999842345714569 57.74931500852108 100.24898418784142 31.249532476067543 142.24796509742737 72.499191910028458
leaf_count=660 30 102 196 488 42 106 49 102 223 1686 90 1624 1216 662 156 164 200 35 427 40 38 911 162 25 92 231 401 125 569 290
internal_value=0 -0.000591612 0.000722 0.00106249 -0.00109719 -0.000277887 0.000314425 0.000223948 0.000779459 0.000890673 -0.000149772 0.000144381 -0.000920729 -0.000386028 0.000734038 0.000945474 0.00157344 0.000261334 -0.000949299 0.000778601 -0.000610425 -0.00067256 -5.98614e-05 -0.000262926 -0.000101026 0.000198376 -0.000165887 6.75231e-05 -0.000293114 -0.000218588
internal_weight=0 1530.97 1254.49 683.496 586.238 944.737 570.994 477.995 92.9993 511.497 681.991 413.496 421.242 187.997 64.4995 462.497 171.999 37.2496 410.742 18.7499 262.746 237.246 493.994 18.4997 453.494 80.7492 372.745 131.499 241.247 214.747
internal_count=11142 6124 5018 2734 2345 3779 2284 1912 372 2046 2728 1654 1685 752 258 1850 688 149 1643 75 1051 949 1976 74 1814 323 1491 526 965 859
is_linear=0
shrinkage=0.001


Tree=3
num_leaves=31
num_cat=0
split_feature=14 18 9 9 4 14 5 3 46 15 1 25 12 2 51 23 1 39 22 31 6 41 4 29 41 18 46 106 10 8
split_gain=1187.42 242.347 173.743 59.8841 46.5111 40.1683 23.9766 19.3612 16.6478 14.4696 14.4579 13.5902 13.424 13.0794 11.8915 11.1119 10.6448 10.0812 9.70072 9.65705 9.41896 9.90645 9.35468 9.20075 8.78902 11.1528 11.047 11.2238 10.8368 9.45589
threshold=135.7140609907847 -2.6435316867721208 -110.91199354361935 -89.010899417168375 -224.33138230225663 101.27098579856897 2021.6259110163871 38.815070302687566 -37.825661785981303 1582.1905559873737 80.500000000000014 -265.14870001086109 1525.2815688467206 33.500000000000007 1525.7614567451767 2251.3283809235404 11.500000000000002 1731.2488388016079 -650.79951342577078 1740.9443933667887 1790.8599294416219 -53.34652051326065 230.57485215566729 -54.266684118562686 71.836082788637114 84.975604374034006 -23.53578132670361 1560.663052764676 113.41467659243348 67.846279663206118
decision_type=2 2 2 2 2 2 2 2 2 2 2 2 2 2 2 2 2 2 2 2 2 2 2 2 2 2 2 2 2 2
left_child=1 4 6 9 -1 20 7 11 17 -4 22 -2 -6 -12 -9 -11 -5 23 -14 -19 -3 -22 24 -8 26 -26 28 -28 -7 -30
right_child=2 5 3 16 12 10 8 14 -10 15 13 -13 18 -15 -16 -17 -18 19 -20 -21 21 -23 -24 -25 25 -27 27 -29 29 -31
leaf_value=-0.0015461579799900696 -0.0011896351638274916 -3.2297942084663419e-05 0.00037304959735398 0.0017311265249583547 0.0001967077945833571 -0.00089616586664999925 -0.00076640139092010618 0.00020229333446017587 0.0011245202292242808 0.00089618304575068237 -0.0011010086861161076 0.00016887663608314952 -0.0010394223328525911 -0.00028838889499222263 0.0010804995230100025 0.0014415145053434119 0.0011832673380988965 0.0015450355215155479 -0.00068901376664884406 0.00010650202637068435 -0.0016724210289394694 -0.00063015514767636525 0.00040068149793779111 0.00072464661229819697 0.00078706767899108766 -3.6360127646450034e-05 0.00023056896137005887 -0.00045581645229000412 -0.0003681764847782707 7.5560279564930547e-05
leaf_weight=164.99457120895386 7.4997974932193747 25.499694496393204 48.999602794647217 121.99992001056671 10.499897986650465 26.499399781227112 12.249745175242426 25.499753773212433 55.749833852052689 421.49821624159813 22.499423325061798 405.99595868587494 303.99248027801514 165.49755358695984 38.999874472618103 40.999936461448669 49.999865889549255 8.7499895691871661 106.74788755178452 9.9998944997787458 9.4996664822101575 227.74566958844662 40.499681353569031 6.249966472387313 22.999886214733124 57.749308124184608 100.24905589222908 31.249476596713066 142.2477616071701 72.499213516712189
leaf_count=660 30 102 196 488 42 106 49 102 223 1686 90 1624 1216 662 156 164 200 35 427 40 38 911 162 25 92 231 401 125 569 290
internal_value=0 -0.000591022 0.000721277 0.00106142 -0.0010961 -0.000277609 0.000314111 0.000223724 0.000778679 0.000889781 -0.000149623 0.000144237 -0.000919812 -0.000385643 0.000733303 0.000944526 0.00157187 0.000261073 -0.000948354 0.000777821 -0.000609816 -0.000671889 -5.98016e-05 -0.000262664 -0.000100925 0.000198178 -0.000165721 6.74555e-05 -0.000292821 -0.00021837
internal_weight=0 1530.97 1254.49 683.498 586.235 944.736 570.995 477.995 92.9994 511.498 681.991 413.496 421.24 187.997 64.4996 462.498 172 37.2496 410.74 18.7499 262.745 237.245 493.994 18.4997 453.494 80.7492 372.745 131.499 241.246 214.747
internal_count=11142 6124 5018 2734 2345 3779 2284 1912 372 2046 2728 1654 1685 752 258 1850 688 149 1643 75 1051 949 1976 74 1814 323 1491 526 965 859
is_linear=0
shrinkage=0.001


Tree=4
num_leaves=31
num_cat=0
split_feature=14 18 9 9 4 14 5 3 46 15 1 25 12 2 51 23 1 39 22 31 6 41 4 29 41 18 46 106 10 8
split_gain=1185.04 241.866 173.395 59.7644 46.4192 40.0882 23.9286 19.3225 16.6145 14.4406 14.4291 13.5631 13.3972 13.0534 11.8677 11.0897 10.6236 10.0611 9.68149 9.63773 9.40019 9.88685 9.33597 9.18237 8.77145 11.1305 11.0249 11.2013 10.8152 9.43701
threshold=135.7140609907847 -2.6435316867721208 -110.91199354361935 -89.010899417168375 -224.33138230225663 101.27098579856897 2021.6259110163871 38.815070302687566 -37.825661785981303 1582.1905559873737 80.500000000000014 -265.14870001086109 1525.2815688467206 33.500000000000007 1525.7614567451767 2251.3283809235404 11.500000000000002 1731.2488388016079 -650.79951342577078 1740.9443933667887 1790.8599294416219 -53.34652051326065 230.57485215566729 -54.266684118562686 71.836082788637114 84.975604374034006 -23.53578132670361 1560.663052764676 113.41467659243348 67.846279663206118
decision_type=2 2 2 2 2 2 2 2 2 2 2 2 2 2 2 2 2 2 2 2 2 2 2 2 2 2 2 2 2 2
left_child=1 4 6 9 -1 20 7 11 17 -4 22 -2 -6 -12 -9 -11 -5 23 -14 -19 -3 -22 24 -8 26 -26 28 -28 -7 -30
right_child=2 5 3 16 12 10 8 14 -10 15 13 -13 18 -15 -16 -17 -18 19 -20 -21 21 -23 -24 -25 25 -27 27 -29 29 -31
leaf_value=-0.0015446263316814671 -0.0011884533106812187 -3.2265698263194183e-05 0.00037267614028231707 0.0017293943437885068 0.00019651098021376538 -0.0008952736331872944 -0.0007656377257886115 0.00020209097933450378 0.0011233940097483488 0.00089528555808768165 -0.0010999142242247631 0.00016870768878565932 -0.0010383885253959053 -0.00028810079895195083 0.0010794173884532878 0.0014400712218438714 0.0011820821855949963 0.0015434888976713973 -0.00068832689781942293 0.00010639547071608856 -0.0016707664291456246 -0.00062952675899147746 0.00040028033152670136 0.00072392089432103863 0.00078627938998226054 -3.6323833188018536e-05 0.0002303382436805257 -0.00045536155745560175 -0.00036780881199233905 7.548468205831953e-05
leaf_weight=164.99301731586456 7.499748319387435 25.49969145655632 48.999652445316315 122 10.499904245138167 26.499281316995621 12.249700635671617 25.499768972396851 55.749923571944237 421.498894572258 22.499290555715561 405.99617648124695 303.99083137512207 165.49736616015434 38.999939560890198 40.999987781047821 49.999946355819702 8.7499989569187182 106.74755032360554 9.9998980760574323 9.4995656907558423 227.74503156542778 40.499724805355072 6.249976158142089 22.999923229217529 57.749297797679901 100.24912759661674 31.249415129423141 142.24754963815212 72.499230802059174
leaf_count=660 30 102 196 488 42 106 49 102 223 1686 90 1624 1216 662 156 164 200 35 427 40 38 911 162 25 92 231 401 125 569 290
internal_value=0 -0.000590433 0.000720555 0.00106036 -0.00109501 -0.000277332 0.000313797 0.0002235 0.000777899 0.00088889 -0.000149473 0.000144092 -0.000918897 -0.000385258 0.000732569 0.00094358 0.00157029 0.000260812 -0.00094741 0.000777043 -0.000609208 -0.000671219 -5.97418e-05 -0.000262402 -0.000100825 0.000197979 -0.000165556 6.7388e-05 -0.000292529 -0.000218151
internal_weight=0 1530.97 1254.49 683.498 586.231 944.734 570.995 477.996 92.9995 511.499 681.99 413.496 421.238 187.997 64.4997 462.499 172 37.2496 410.738 18.7499 262.744 237.245 493.994 18.4997 453.494 80.7492 372.745 131.499 241.246 214.747
internal_count=11142 6124 5018 2734 2345 3779 2284 1912 372 2046 2728 1654 1685 752 258 1850 688 149 1643 75 1051 949 1976 74 1814 323 1491 526 965 859
is_linear=0
shrinkage=0.001


Tree=5
num_leaves=31
num_cat=0
split_feature=14 18 9 9 4 14 5 3 46 15 1 25 12 2 51 23 1 39 22 31 6 41 4 29 41 18 46 106 10 8
split_gain=1182.68 241.385 173.048 59.6452 46.3278 40.0082 23.8808 19.2839 16.5812 14.4117 14.4003 13.5361 13.3706 13.0274 11.8439 11.0676 10.6025 10.041 9.66231 9.61847 9.38146 9.86731 9.3173 9.16404 8.75392 11.1083 11.0029 11.1789 10.7937 9.41816
threshold=135.7140609907847 -2.6435316867721208 -110.91199354361935 -89.010899417168375 -224.33138230225663 101.27098579856897 2021.6259110163871 38.815070302687566 -37.825661785981303 1582.1905559873737 80.500000000000014 -265.14870001086109 1525.2815688467206 33.500000000000007 1525.7614567451767 2251.3283809235404 11.500000000000002 1731.2488388016079 -650.79951342577078 1740.9443933667887 1790.8599294416219 -53.34652051326065 230.57485215566729 -54.266684118562686 71.836082788637114 84.975604374034006 -23.53578132670361 1560.663052764676 113.41467659243348 67.846279663206118
decision_type=2 2 2 2 2 2 2 2 2 2 2 2 2 2 2 2 2 2 2 2 2 2 2 2 2 2 2 2 2 2
left_child=1 4 6 9 -1 20 7 11 17 -4 22 -2 -6 -12 -9 -11 -5 23 -14 -19 -3 -22 24 -8 26 -26 28 -28 -7 -30
right_child=2 5 3 16 12 10 8 14 -10 15 13 -13 18 -15 -16 -17 -18 19 -20 -21 21 -23 -24 -25 25 -27 27 -29 29 -31
leaf_value=-0.0015430982551313001 -0.0011872735311012747 -3.2233337560756766e-05 0.00037230313434153067 0.0017276664243634865 0.00019631435057093633 -0.00089438266531786416 -0.00076487507132384661 0.00020188873197307417 0.0011222694426899305 0.00089438900208758585 -0.0010988214110834232 0.00016853886123605687 -0.0010373563644797571 -0.00028781304224550494 0.0010783366980324186 0.0014386307109912127 0.0011808990492044181 0.001541945573098804 -0.00068764090387524602 0.00010628910326904909 -0.0016691156417912051 -0.00062889907222559956 0.00039987961881997048 0.00072319598540230819 0.0007854920996819896 -3.6287419923240609e-05 0.00023010777845712475 -0.00045490709135936457 -0.00036744159202309047 7.5409142137665647e-05
leaf_weight=164.99125689268112 7.4996937811374655 25.499688416719437 48.999699175357819 121.99989819526672 10.499910503625868 26.49915337562561 12.249652445316316 25.499784171581268 55.749980062246323 421.49942216277122 22.499144375324249 405.99637007713318 303.9890193939209 165.49717873334885 38.99998140335083 40.999997556209564 49.999991059303284 8.7499984353780764 106.74718764424324 9.9999010562896711 9.4994518756866437 227.74433924257755 40.499765843153 6.2499839812517157 22.999952018260956 57.74929091334343 100.24919332563877 31.249351799488068 142.24732919037342 72.499248087406158
leaf_count=660 30 102 196 488 42 106 49 102 223 1686 90 1624 1216 662 156 164 200 35 427 40 38 911 162 25 92 231 401 125 569 290
internal_value=0 -0.000589844 0.000719834 0.0010593 -0.00109392 -0.000277055 0.000313483 0.000223276 0.000777121 0.000888 -0.000149324 0.000143948 -0.000917983 -0.000384873 0.000731836 0.000942635 0.00156872 0.000260551 -0.000946468 0.000776266 -0.000608601 -0.00067055 -5.96821e-05 -0.00026214 -0.000100724 0.000197782 -0.00016539 6.73206e-05 -0.000292237 -0.000217934
internal_weight=0 1530.96 1254.49 683.499 586.227 944.733 570.995 477.996 92.9995 511.499 681.99 413.496 421.236 187.996 64.4998 462.499 172 37.2495 410.736 18.7499 262.743 237.244 493.993 18.4996 453.494 80.7492 372.744 131.499 241.246 214.747
internal_count=11142 6124 5018 2734 2345 3779 2284 1912 372 2046 2728 1654 1685 752 258 1850 688 149 1643 75 1051 949 1976 74 1814 323 1491 526 965 859
is_linear=0
shrinkage=0.001


Tree=6
num_leaves=31
num_cat=0
split_feature=14 18 9 9 4 14 5 3 46 15 1 25 12 2 51 23 1 24 22 6 41 4 41 18 46 106 10 8 9 13
split_gain=1180.31 240.906 172.703 59.5265 46.2366 39.9285 23.8331 19.2453 16.548 14.3829 14.3715 13.5091 13.344 13.0015 11.8202 11.0455 10.5814 10.0309 9.64318 9.36278 9.84784 9.29868 8.73643 11.086 10.9809 11.1566 10.7722 9.39936 9.71274 13.6729
threshold=135.7140609907847 -2.6435316867721208 -110.91199354361935 -89.010899417168375 -224.33138230225663 101.27098579856897 2021.6259110163871 38.815070302687566 -37.825661785981303 1582.1905559873737 80.500000000000014 -265.14870001086109 1525.2815688467206 33.500000000000007 1525.7614567451767 2251.3283809235404 11.500000000000002 1945.8288343276122 -650.79951342577078 1790.8599294416219 -53.34652051326065 230.57485215566729 71.836082788637114 84.975604374034006 -23.53578132670361 1560.663052764676 113.41467659243348 67.846279663206118 -127.97389119514104 -135.64670653902917
decision_type=2 2 2 2 2 2 2 2 2 2 2 2 2 2 2 2 2 2 2 2 2 2 2 2 2 2 2 2 2 2
left_child=1 4 6 9 -1 19 7 11 17 -4 21 -2 -6 -12 -9 -11 -5 -8 -14 -3 -21 22 24 -24 26 -26 -7 -28 29 -29
right_child=2 5 3 16 12 10 8 14 -10 15 13 -13 18 -15 -16 -17 -18 -19 -20 20 -22 -23 23 -25 25 -27 27 28 -30 -31
leaf_value=-0.0015415734143905031 -0.001186095561156811 -3.2201152578649556e-05 0.00037193057946363113 0.0017259427267242997 0.00019611801351141855 -0.00089349301536241119 -0.00051622522843235651 0.00020168666951172394 0.0011211468050832704 0.000893493914161453 -0.0010977304302150744 0.00016837020747193223 -0.0010363257009250461 -0.00028752552445223295 0.0010772578441179716 0.0014371932068233094 0.0011797178560495377 0.00060708399307461453 -0.00068695582528154064 -0.0016674687512055111 -0.00062827224671512937 0.00039947943138662922 0.00078470574997865764 -3.6251184175772393e-05 0.00022987749904004152 -0.00045445312735723127 -0.00036707477284825404 0.0001576295464207766 0.00052361412997422706 -0.0010481886306282569
leaf_weight=164.98929977416992 7.4996343255043021 25.499686896800995 48.999742984771729 121.99961459636688 10.499916762113569 26.499014377593994 11.499824628233908 25.499799370765686 55.75 421.49977388978004 22.498984783887863 405.99658787250519 303.98704433441162 165.49697157740593 39 40.999965786933899 50 25.74965788424015 106.74679315090179 9.4993250370025617 227.74359261989594 40.499802052974701 22.999975323677063 57.749284029006958 100.2492590546608 31.249286606907845 142.247100263834 29.749698549509048 28.999706149101257 13.749860674142836
leaf_count=660 30 102 196 488 42 106 46 102 223 1686 90 1624 1216 662 156 164 200 103 427 38 911 162 92 231 401 125 569 119 116 55
internal_value=0 -0.000589257 0.000719114 0.00105824 -0.00109283 -0.000276779 0.000313169 0.000223053 0.000776345 0.000887111 -0.000149175 0.000143804 -0.00091707 -0.000384489 0.000731103 0.000941692 0.00156716 0.000260291 -0.000945527 -0.000607994 -0.000669882 -5.96225e-05 -0.000100623 0.000197584 -0.000165225 6.72533e-05 -0.000291945 -0.000217716 7.53337e-05 -0.00022352
internal_weight=0 1530.95 1254.49 683.499 586.223 944.732 570.996 477.996 92.9995 511.499 681.989 413.496 421.234 187.996 64.4998 462.5 172 37.2495 410.734 262.743 237.243 493.993 453.493 80.7493 372.744 131.499 241.245 214.746 72.4993 43.4996
internal_count=11142 6124 5018 2734 2345 3779 2284 1912 372 2046 2728 1654 1685 752 258 1850 688 149 1643 1051 949 1976 1814 323 1491 526 965 859 290 174
is_linear=0
shrinkage=0.001


Tree=7
num_leaves=31
num_cat=0
split_feature=14 18 9 9 4 14 5 3 46 15 1 25 12 2 51 23 1 39 22 31 6 41 4 29 8 9 48 48 18 2
split_gain=1177.96 240.428 172.358 59.4082 46.1458 39.8489 23.7854 19.2068 16.5149 14.3542 14.3428 13.4822 13.3174 12.9757 11.7966 11.0236 10.5605 10.019 9.62412 9.60062 9.34413 9.82844 9.28009 9.1451 8.72033 15.7483 11.2403 15.2873 10.4854 10.3732
threshold=135.7140609907847 -2.6435316867721208 -110.91199354361935 -89.010899417168375 -224.33138230225663 101.27098579856897 2021.6259110163871 38.815070302687566 -37.825661785981303 1582.1905559873737 80.500000000000014 -265.14870001086109 1525.2815688467206 33.500000000000007 1525.7614567451767 2251.3283809235404 11.500000000000002 1731.2488388016079 -650.79951342577078 1740.9443933667887 1790.8599294416219 -53.34652051326065 230.57485215566729 -49.141844082304367 85.295987240875093 -124.74204501370239 1614.5276363167347 1580.8944627093445 205.40427701455408 146.50000000000003
decision_type=2 2 2 2 2 2 2 2 2 2 2 2 2 2 2 2 2 2 2 2 2 2 2 2 2 2 2 2 2 2
left_child=1 4 6 9 -1 20 7 11 17 -4 22 -2 -6 -12 -9 -11 -5 23 -14 -19 -3 -22 -7 -8 25 -13 27 28 -27 -28
right_child=2 5 3 16 12 10 8 14 -10 15 13 24 18 -15 -16 -17 -18 19 -20 -21 21 -23 -24 -25 -26 26 29 -29 -30 -31
leaf_value=-0.0015400518447240264 -0.001184919684692423 -3.2168908736032449e-05 0.00037155833447529449 0.0017242234893613921 0.00019592168836388276 -0.0001005226077474161 -0.00073426032742147083 0.00020148485772108622 0.0011200259493148203 0.00089259992824201342 -0.0010966410686314878 -0.00027164938348861456 -0.0010352966806506316 -0.0002872383459263951 0.0010761807697584997 0.0014357586713458687 0.0011785387931376181 0.0015401521693795273 -0.00068627150200889356 0.00010582828752616231 -0.0016658259975260571 -0.00062764612854996737 0.00039907969746396402 0.00078486440729668913 0.00048791225447659297 0.00043701489798234143 -6.7088904982631807e-05 0.00068013107251990441 -0.00047436484876423393 0.001405649998870483
leaf_weight=164.98715579509735 7.4995699524879447 25.499683856964111 48.999783873558044 121.99914193153381 10.499922394752501 453.49280746281147 12.749612346291544 25.499813050031662 55.749983385205269 421.49997487664223 22.49881312251091 84.749328151345253 303.98490619659424 165.49676442146301 38.999995350837708 40.999890029430389 49.999973177909851 8.7499834299087542 106.74637956917286 9.999914735555647 9.4991846084594709 227.74281884729862 40.499835848808289 5.7499922364950171 70.499441117048264 25.499797850847244 109.99912798404694 85.249324187636375 24.999801814556122 4.9999603629112235
leaf_count=660 30 102 196 488 42 1814 51 102 223 1686 90 339 1216 662 156 164 200 35 427 40 38 911 162 23 282 102 440 341 100 20
internal_value=0 -0.00058867 0.000718395 0.00105718 -0.00109175 -0.000276502 0.000312856 0.00022283 0.000775568 0.000886224 -0.000149026 0.00014366 -0.000916158 -0.000384106 0.000730372 0.00094075 0.00156559 0.000260031 -0.000944587 0.000775182 -0.000607388 -0.000669215 -5.95629e-05 -0.00026209 0.000168202 0.00010102 0.000226977 0.000421848 -1.41632e-05 -3.05678e-06
internal_weight=0 1530.95 1254.49 683.499 586.218 944.73 570.996 477.996 92.9995 511.5 681.988 413.496 421.231 187.996 64.4998 462.5 171.999 37.2495 410.731 18.7499 262.742 237.242 493.993 18.4996 405.997 335.497 250.748 135.749 50.4996 114.999
internal_count=11142 6124 5018 2734 2345 3779 2284 1912 372 2046 2728 1654 1685 752 258 1850 688 149 1643 75 1051 949 1976 74 1624 1342 1003 543 202 460
is_linear=0
shrinkage=0.001


Tree=8
num_leaves=31
num_cat=0
split_feature=14 18 9 9 4 14 5 3 46 15 1 25 12 2 51 23 1 24 22 6 41 4 41 18 46 106 10 8 9 13
split_gain=1175.61 239.951 172.013 59.2903 46.0554 39.7695 23.7379 19.1684 16.4819 14.3255 14.3142 13.4553 13.291 12.9499 11.7731 11.0017 10.5396 10.0103 9.60511 9.32553 9.8091 9.26153 8.71897 11.0639 10.959 11.1343 10.7508 9.38059 9.69332 13.6456
threshold=135.7140609907847 -2.6435316867721208 -110.91199354361935 -89.010899417168375 -224.33138230225663 101.27098579856897 2021.6259110163871 38.815070302687566 -37.825661785981303 1582.1905559873737 80.500000000000014 -265.14870001086109 1525.2815688467206 33.500000000000007 1525.7614567451767 2251.3283809235404 11.500000000000002 1945.8288343276122 -650.79951342577078 1790.8599294416219 -53.34652051326065 230.57485215566729 71.836082788637114 84.975604374034006 -23.53578132670361 1560.663052764676 113.41467659243348 67.846279663206118 -127.97389119514104 -135.64670653902917
decision_type=2 2 2 2 2 2 2 2 2 2 2 2 2 2 2 2 2 2 2 2 2 2 2 2 2 2 2 2 2 2
left_child=1 4 6 9 -1 19 7 11 17 -4 21 -2 -6 -12 -9 -11 -5 -8 -14 -3 -21 22 24 -24 26 -26 -7 -28 29 -29
right_child=2 5 3 16 12 10 8 14 -10 15 13 -13 18 -15 -16 -17 -18 -19 -20 20 -22 -23 23 -25 25 -27 27 28 -30 -31
leaf_value=-0.0015385337124624351 -0.0011837458498243066 -3.2136786433975733e-05 0.00037118642143369737 0.0017225083717197763 0.00019572566744181625 -0.00089250465047238767 -0.00051594902719797405 0.00020128328456716968 0.0011189069112653755 0.00089170735508804506 -0.0010955534552245891 0.00016803357171172079 -0.0010342692453681967 -0.00028695150666926543 0.0010751053171394775 0.0014343270144650212 0.00117736164411829 0.00060620732578961804 -0.00068558804938747707 -0.0016641869370359629 -0.00062702079226272119 0.0003986802742220897 0.00078402122274664435 -3.6114408331133608e-05 0.000229748140133898 -0.00045389939420462333 -0.00036660791436098967 0.00015757248052924899 0.00052319029083072776 -0.0010470440996991934
leaf_weight=164.98481512069702 7.4994997680187216 25.499680817127228 48.999818921089172 121.99849474430084 10.499927401542662 26.49884694814682 11.499784067273138 25.499826729297638 55.749933540821075 421.5 22.498626708984375 405.99694132804871 303.98260498046875 165.4965572655201 38.999967455863953 40.999772727489471 49.999913573265076 25.749650254845619 106.7459405362606 9.499031722545622 227.74199077486992 40.499867230653763 22.999989032745361 57.749256491661072 100.24929490685463 31.24920092523098 142.2467950284481 29.749703869223595 28.999744176864624 13.749805763363836
leaf_count=660 30 102 196 488 42 106 46 102 223 1686 90 1624 1216 662 156 164 200 103 427 38 911 162 92 231 401 125 569 119 116 55
internal_value=0 -0.000588084 0.000717678 0.00105613 -0.00109067 -0.000276226 0.000312543 0.000222607 0.000774794 0.000885338 -0.000148877 0.000143517 -0.000915248 -0.000383722 0.000729642 0.00093981 0.00156403 0.000259771 -0.000943649 -0.000606783 -0.000668548 -5.95033e-05 -0.000100422 0.000197487 -0.00016496 6.72867e-05 -0.000291553 -0.000217398 7.53589e-05 -0.000223196
internal_weight=0 1530.94 1254.49 683.498 586.213 944.728 570.996 477.996 92.9994 511.5 681.988 413.496 421.228 187.995 64.4998 462.5 171.998 37.2494 410.729 262.741 237.241 493.993 453.493 80.7492 372.743 131.498 241.245 214.746 72.4993 43.4995
internal_count=11142 6124 5018 2734 2345 3779 2284 1912 372 2046 2728 1654 1685 752 258 1850 688 149 1643 1051 949 1976 1814 323 1491 526 965 859 290 174
is_linear=0
shrinkage=0.001


Tree=9
num_leaves=31
num_cat=0
split_feature=14 18 9 9 4 14 5 3 46 15 1 25 12 2 51 23 1 39 22 31 6 41 4 29 18 8 9 48 48 18
split_gain=1173.26 239.475 171.67 59.173 45.9653 39.6903 23.6905 19.1301 16.449 14.2969 14.2856 13.4286 13.2646 12.9243 11.7496 10.9798 10.5189 9.9972 9.58615 9.58282 9.30696 9.78983 9.24301 9.12726 8.7125 8.77556 13.4848 10.9427 15.1056 10.9713
threshold=135.7140609907847 -2.6435316867721208 -110.91199354361935 -89.010899417168375 -224.33138230225663 101.27098579856897 2021.6259110163871 38.815070302687566 -37.825661785981303 1582.1905559873737 80.500000000000014 -265.14870001086109 1525.2815688467206 33.500000000000007 1525.7614567451767 2251.3283809235404 11.500000000000002 1731.2488388016079 -650.79951342577078 1740.9443933667887 1790.8599294416219 -53.34652051326065 230.57485215566729 -54.266684118562686 78.525064328117324 85.295987240875093 -124.74204501370239 1614.5276363167347 1580.8944627093445 205.40427701455408
decision_type=2 2 2 2 2 2 2 2 2 2 2 2 2 2 2 2 2 2 2 2 2 2 2 2 2 2 2 2 2 2
left_child=1 4 6 9 -1 20 7 11 17 -4 22 -2 -6 -12 -9 -11 -5 23 -14 -19 -3 -22 -7 -8 -13 26 -26 28 29 -28
right_child=2 5 3 16 12 10 8 14 -10 15 13 24 18 -15 -16 -17 -18 19 -20 -21 21 -23 -24 -25 25 -27 27 -29 -30 -31
leaf_value=-0.0015370187086280727 -0.0011825739605836434 -3.2104720223458444e-05 0.00037081493710570908 0.0017207975963468766 0.0001955299501072733 -0.00010032179549293997 -0.00076376938815156967 0.00020108195004959025 0.0011177896771782209 0.00089081598818282841 -0.0010944676683689156 -0.00069012947522403129 -0.0010332433934601526 -0.00028666490615732811 0.0010740316312331062 0.0014328982318534298 0.0011761865745413926 0.0015383638127828721 -0.00068490546973107498 0.00010536857011820893 -0.0016625518526665229 -0.00062639611894352179 0.00039828120941987186 0.00072131338651198345 -0.00024101267929257524 0.00051969205216642069 0.00046048237777248258 9.8499772931786818e-06 0.00068714765599536397 -0.0004740589762168217
leaf_weight=164.98228758573532 7.4994246661663047 25.499677777290344 48.9998539686203 121.99766576290131 10.499933034181593 453.49220933020115 12.249572575092317 25.499840408563614 55.74985046684742 421.49984925985336 22.498426884412766 11.499911978840826 303.98014068603516 165.49633038043976 38.999918639659882 40.999613881111145 49.999818205833435 8.7499531656503695 106.74547605216503 9.9999258369207364 9.4988652467727643 227.74112197756767 40.499896198511124 6.2499955743551245 76.999366641044617 67.999578475952148 25.249840468168259 114.24913941323757 84.999513626098633 24.999779462814331
leaf_count=660 30 102 196 488 42 1814 49 102 223 1686 90 46 1216 662 156 164 200 35 427 40 38 911 162 25 308 272 101 457 340 100
internal_value=0 -0.000587498 0.000716961 0.00105507 -0.00108959 -0.000275951 0.00031223 0.000222385 0.000774019 0.000884453 -0.000148728 0.000143373 -0.000914339 -0.000383339 0.000728913 0.00093887 0.00156248 0.000259511 -0.000942712 0.0007741 -0.000606179 -0.000667883 -5.94439e-05 -0.000262041 0.000167865 0.000192877 0.000124811 0.00023771 0.000430191 -4.46298e-06
internal_weight=0 1530.93 1254.49 683.497 586.208 944.727 570.996 477.996 92.9993 511.499 681.987 413.497 421.226 187.995 64.4998 462.499 171.997 37.2494 410.726 18.7499 262.74 237.24 493.992 18.4996 405.997 394.497 326.498 249.498 135.249 50.2496
internal_count=11142 6124 5018 2734 2345 3779 2284 1912 372 2046 2728 1654 1685 752 258 1850 688 149 1643 75 1051 949 1976 74 1624 1578 1306 998 541 201
is_linear=0
shrinkage=0.001


Tree=10
num_leaves=31
num_cat=0
split_feature=14 18 9 9 4 14 5 3 46 15 1 25 12 2 51 23 1 24 22 6 41 4 41 18 46 106 10 8 9 13
split_gain=1170.92 239.001 171.328 59.056 45.8755 39.6112 23.6433 19.0919 16.4162 14.2684 14.2571 13.4018 13.2382 12.8986 11.7261 10.9581 10.4983 9.98918 9.56726 9.28845 9.77063 9.22453 8.70155 11.0417 10.9371 11.1121 10.7294 9.36187 9.67394 13.6184
threshold=135.7140609907847 -2.6435316867721208 -110.91199354361935 -89.010899417168375 -224.33138230225663 101.27098579856897 2021.6259110163871 38.815070302687566 -37.825661785981303 1582.1905559873737 80.500000000000014 -265.14870001086109 1525.2815688467206 33.500000000000007 1525.7614567451767 2251.3283809235404 11.500000000000002 1945.8288343276122 -650.79951342577078 1790.8599294416219 -53.34652051326065 230.57485215566729 71.836082788637114 84.975604374034006 -23.53578132670361 1560.663052764676 113.41467659243348 67.846279663206118 -127.97389119514104 -135.64670653902917
decision_type=2 2 2 2 2 2 2 2 2 2 2 2 2 2 2 2 2 2 2 2 2 2 2 2 2 2 2 2 2 2
left_child=1 4 6 9 -1 19 7 11 17 -4 21 -2 -6 -12 -9 -11 -5 -8 -14 -3 -21 22 24 -24 26 -26 -7 -28 29 -29
right_child=2 5 3 16 12 10 8 14 -10 15 13 -13 18 -15 -16 -17 -18 -19 -20 20 -22 -23 23 -25 25 -27 27 28 -30 -31
leaf_value=-0.0015355070521625516 -0.0011814040374590726 -3.2072597906091107e-05 0.00037044392565086697 0.0017190909098175548 0.00019533422191894443 -0.00089151789037492167 -0.00051565023627956491 0.00020088068148287056 0.0011166743116229347 0.0008899257933924796 -0.0010933834555441405 0.00016769754232866008 -0.0010322190324297568 -0.00028637871327804796 0.0010729595358522201 0.0014314724379620313 0.0011750134382492909 0.00060532239676595954 -0.00068422364416270362 -0.0016609206870476982 -0.00062577226804617816 0.00039788276438406164 0.0007833371577923952 -3.5977987408374931e-05 0.00022961864873250403 -0.00045334651889142465 -0.00036614186059587338 0.00015751510310811769 0.00052276690357871329 -0.0010459015848907104
leaf_weight=164.97956335544586 7.4993441998958579 25.499674737453461 48.99988317489624 121.99666225910187 10.499938040971754 26.498666882514954 11.499737545847891 25.499852567911148 55.749730840325356 421.49952265620232 22.498214989900589 405.99725538492203 303.97751331329346 165.49610349535942 38.999846577644348 40.999411046504974 49.999687075614929 25.749621987342834 106.74499247968197 9.4986863136291486 227.74021245539188 40.499920338392258 22.99999725818634 57.749228954315186 100.24933075904846 31.249111518263817 142.24646435678005 29.749709188938141 28.999778747558594 13.749741837382315
leaf_count=660 30 102 196 488 42 106 46 102 223 1686 90 1624 1216 662 156 164 200 103 427 38 911 162 92 231 401 125 569 119 116 55
internal_value=0 -0.000586914 0.000716245 0.00105402 -0.00108851 -0.000275675 0.000311918 0.000222162 0.000773247 0.000883569 -0.000148579 0.00014323 -0.000913431 -0.000382957 0.000728185 0.000937933 0.00156093 0.000259252 -0.000941777 -0.000605575 -0.000667218 -5.93844e-05 -0.000100222 0.00019739 -0.000164695 6.73197e-05 -0.000291162 -0.000217081 7.53839e-05 -0.000222873
internal_weight=0 1530.93 1254.49 683.495 586.202 944.725 570.995 477.996 92.9991 511.499 681.986 413.497 421.222 187.994 64.4997 462.499 171.996 37.2494 410.723 262.739 237.239 493.992 453.492 80.7492 372.743 131.498 241.244 214.746 72.4992 43.4995
internal_count=11142 6124 5018 2734 2345 3779 2284 1912 372 2046 2728 1654 1685 752 258 1850 688 149 1643 1051 949 1976 1814 323 1491 526 965 859 290 174
is_linear=0
shrinkage=0.001


Tree=11
num_leaves=31
num_cat=0
split_feature=14 18 9 9 4 14 5 3 46 15 1 25 12 2 51 23 1 39 31 22 6 41 4 29 18 8 9 48 48 18
split_gain=1168.58 238.528 170.987 58.9395 45.7861 39.5323 23.5961 19.0538 16.3835 14.24 14.2287 13.3751 13.2119 12.8731 11.7027 10.9364 10.4777 9.9754 9.56509 9.54841 9.26997 9.75149 9.20609 9.10957 8.69509 8.758 13.4578 10.9208 15.0754 10.9494
threshold=135.7140609907847 -2.6435316867721208 -110.91199354361935 -89.010899417168375 -224.33138230225663 101.27098579856897 2021.6259110163871 38.815070302687566 -37.825661785981303 1582.1905559873737 80.500000000000014 -265.14870001086109 1525.2815688467206 33.500000000000007 1525.7614567451767 2251.3283809235404 11.500000000000002 1731.2488388016079 1740.9443933667887 -650.79951342577078 1790.8599294416219 -53.34652051326065 230.57485215566729 -49.141844082304367 78.525064328117324 85.295987240875093 -124.74204501370239 1614.5276363167347 1580.8944627093445 205.40427701455408
decision_type=2 2 2 2 2 2 2 2 2 2 2 2 2 2 2 2 2 2 2 2 2 2 2 2 2 2 2 2 2 2
left_child=1 4 6 9 -1 20 7 11 17 -4 22 -2 -6 -12 -9 -11 -5 23 -19 -14 -3 -22 -7 -8 -13 26 -26 28 29 -28
right_child=2 5 3 16 12 10 8 14 -10 15 13 24 19 -15 -16 -17 -18 18 -20 -21 21 -23 -24 -25 25 -27 27 -29 -30 -31
leaf_value=-0.0015339987378248249 -0.0011802361030256044 -3.2040475581065114e-05 0.00037007327242931642 0.0017173886530428457 0.00019513880897210878 -0.00010012138736659278 -0.00073324538313497751 0.00020067978242510959 0.001115560731162274 0.00088903693488266201 -0.0010923010656149932 -0.0006896081386443527 -0.0010311962467511751 -0.00028609268960858199 0.0010718891758086293 0.0014300493908924433 0.0011738422575450662 0.001536580408896427 0.00010490999509711355 -0.00068354273143135795 -0.0016592932756184827 -0.00062514911672741254 0.00039748465345702295 0.00078292637825109047 -0.00024093947467263338 0.0005190038518907116 0.00045985350163944697 9.6723495520945059e-06 0.00068629145324951009 -0.00047375305745014088
leaf_weight=164.97664242982864 7.4992588162422171 25.499671697616577 48.999909460544586 121.9954696893692 10.499943047761915 453.49155269563198 12.749525621533396 25.499864727258682 55.749574661254883 421.49904531240463 22.497989684343338 11.499894291162489 303.97474098205566 165.49587661027908 38.999751269817352 40.999169111251831 49.999523162841797 8.7499078363180178 9.9999349564313871 106.74447709321976 9.4984943568706495 227.7392486333847 40.499939650297165 5.7499962300062171 76.999348282814026 67.999687910079956 25.249878093600273 114.24919329583645 84.999670684337616 24.999755620956421
leaf_count=660 30 102 196 488 42 1814 51 102 223 1686 90 46 1216 662 156 164 200 35 40 427 38 911 162 23 308 272 101 457 340 100
internal_value=0 -0.00058633 0.00071553 0.00105297 -0.00108743 -0.0002754 0.000311606 0.00022194 0.000772475 0.000882687 -0.000148431 0.000143086 -0.000912525 -0.000382575 0.000727457 0.000936996 0.00155938 0.000258993 0.000773021 -0.000940842 -0.000604972 -0.000666554 -5.93251e-05 -0.000261991 0.00016753 0.000192516 0.000124518 0.000237305 0.000429592 -4.62622e-06
internal_weight=0 1530.92 1254.49 683.493 586.196 944.723 570.995 477.996 92.9989 511.498 681.985 413.497 421.219 187.994 64.4996 462.498 171.995 37.2494 18.7498 410.719 262.737 237.238 493.991 18.4995 405.997 394.498 326.498 249.498 135.249 50.2496
internal_count=11142 6124 5018 2734 2345 3779 2284 1912 372 2046 2728 1654 1685 752 258 1850 688 149 75 1643 1051 949 1976 74 1624 1578 1306 998 541 201
is_linear=0
shrinkage=0.001


Tree=12
num_leaves=31
num_cat=0
split_feature=14 18 9 9 4 14 5 3 46 15 1 25 12 2 51 23 1 24 22 6 41 4 41 18 46 106 10 8 9 13
split_gain=1166.25 238.056 170.646 58.8235 45.697 39.4536 23.5491 19.0158 16.3508 14.2116 14.2003 13.3485 13.1857 12.8476 11.6794 10.9149 10.4573 9.96868 9.52963 9.25153 9.73242 9.18769 8.68417 11.0197 10.9153 11.0899 10.7081 9.34318 9.65459 13.5912
threshold=135.7140609907847 -2.6435316867721208 -110.91199354361935 -89.010899417168375 -224.33138230225663 101.27098579856897 2021.6259110163871 38.815070302687566 -37.825661785981303 1582.1905559873737 80.500000000000014 -265.14870001086109 1525.2815688467206 33.500000000000007 1525.7614567451767 2251.3283809235404 11.500000000000002 1945.8288343276122 -650.79951342577078 1790.8599294416219 -53.34652051326065 230.57485215566729 71.836082788637114 84.975604374034006 -23.53578132670361 1560.663052764676 113.41467659243348 67.846279663206118 -127.97389119514104 -135.64670653902917
decision_type=2 2 2 2 2 2 2 2 2 2 2 2 2 2 2 2 2 2 2 2 2 2 2 2 2 2 2 2 2 2
left_child=1 4 6 9 -1 19 7 11 17 -4 21 -2 -6 -12 -9 -11 -5 -8 -14 -3 -21 22 24 -24 26 -26 -7 -28 29 -29
right_child=2 5 3 16 12 10 8 14 -10 15 13 -13 18 -15 -16 -17 -18 -19 -20 20 -22 -23 23 -25 25 -27 27 28 -30 -31
leaf_value=-0.0015324936426642257 -0.0011790701073646367 -3.2008470121751596e-05 0.00036970302116543039 0.0017156903841572524 0.00019494364625099724 -0.00089053273369107554 -0.00051537409536650373 0.0002004789373202535 0.001114449041465795 0.00088814924637392741 -0.0010912204160340821 0.00016736219355986239 -0.001030175005527275 -0.00028580707451165564 0.0010708205220547342 0.0014286292903699725 0.0011726730760404577 0.0006044494198566146 -0.00068286256912522352 -0.0016576697593818175 -0.00062452667123169797 0.00039708701974729415 0.0007826539589011151 -3.5841928705025722e-05 0.00022948906527007362 -0.00045279434510554171 -0.00036567642314440911 0.00015745774373933664 0.00052234359266037855 -0.0010447611186635024
leaf_weight=164.97353464365005 7.4991685152053824 25.499668657779694 48.999932825565338 121.9941098690033 10.499947428703306 26.498474180698395 11.499686583876608 25.499876886606216 55.749385252594948 421.49839210510254 22.497749626636505 405.99751496315002 303.97180557250977 165.49562999606133 38.99963504076004 40.998883187770844 49.999326467514038 25.749575898051262 106.74394261837006 9.4982893764972669 227.73825766146183 40.499958962202072 23 57.749197974801064 100.24936063587666 31.249016523361206 142.246133685112 29.749714508652687 28.999811589717865 13.749668896198271
leaf_count=660 30 102 196 488 42 106 46 102 223 1686 90 1624 1216 662 156 164 200 103 427 38 911 162 92 231 401 125 569 119 116 55
internal_value=0 -0.000585747 0.000714816 0.00105192 -0.00108635 -0.000275125 0.000311295 0.000221718 0.000771705 0.000881806 -0.000148283 0.000142943 -0.00091162 -0.000382193 0.000726731 0.000936061 0.00155783 0.000258735 -0.000939909 -0.00060437 -0.000665891 -5.92658e-05 -0.000100021 0.000197292 -0.00016443 6.73526e-05 -0.000290771 -0.000216764 7.54087e-05 -0.00022255
internal_weight=0 1530.91 1254.49 683.491 586.189 944.721 570.995 477.996 92.9986 511.497 681.985 413.497 421.216 187.993 64.4995 462.497 171.993 37.2493 410.716 262.736 237.237 493.991 453.491 80.7492 372.742 131.498 241.244 214.745 72.4992 43.4994
internal_count=11142 6124 5018 2734 2345 3779 2284 1912 372 2046 2728 1654 1685 752 258 1850 688 149 1643 1051 949 1976 1814 323 1491 526 965 859 290 174
is_linear=0
shrinkage=0.001


Tree=13
num_leaves=31
num_cat=0
split_feature=14 18 9 9 4 14 5 3 46 15 1 25 12 2 51 23 1 39 31 22 6 41 4 29 18 8 9 48 48 18
split_gain=1163.92 237.586 170.307 58.7079 45.6082 39.375 23.5021 18.9778 16.3182 14.1833 14.172 13.322 13.1595 12.8221 11.6562 10.8933 10.4369 9.95366 9.54742 9.51088 9.23313 9.71341 9.16932 9.09132 8.67772 8.74048 13.4309 10.8989 15.0452 10.9275
threshold=135.7140609907847 -2.6435316867721208 -110.91199354361935 -89.010899417168375 -224.33138230225663 101.27098579856897 2021.6259110163871 38.815070302687566 -37.825661785981303 1582.1905559873737 80.500000000000014 -265.14870001086109 1525.2815688467206 33.500000000000007 1525.7614567451767 2251.3283809235404 11.500000000000002 1731.2488388016079 1740.9443933667887 -650.79951342577078 1790.8599294416219 -53.34652051326065 230.57485215566729 -49.141844082304367 78.525064328117324 85.295987240875093 -124.74204501370239 1614.5276363167347 1580.8944627093445 205.40427701455408
decision_type=2 2 2 2 2 2 2 2 2 2 2 2 2 2 2 2 2 2 2 2 2 2 2 2 2 2 2 2 2 2
left_child=1 4 6 9 -1 20 7 11 17 -4 22 -2 -6 -12 -9 -11 -5 23 -19 -14 -3 -22 -7 -8 -13 26 -26 28 29 -28
right_child=2 5 3 16 12 10 8 14 -10 15 13 24 19 -15 -16 -17 -18 18 -20 -21 21 -23 -24 -25 25 -27 27 -29 -30 -31
leaf_value=-0.0015309916557051113 -0.0011779060230905944 -3.1976464654807279e-05 0.00036933329112022689 0.0017139964189378267 0.00019474859154926182 -9.992141761420695e-05 -0.00073272413854415296 0.00020027839652541628 0.0011133389615147319 0.0008872628261048875 -0.0010901413747618448 -0.00068908697601114766 -0.0010291552847070352 -0.00028552162855853433 0.0010697534445050687 0.0014272120642368879 0.0011715058694949346 0.0015348019096155326 0.00010445253861049798 -0.00068218339624322741 -0.0016560501130851262 -0.00062390500572507147 0.00039668971995552416 0.00078192897898139344 -0.00024086591273771922 0.00051831676197813695 0.00045922564451494181 9.4953777891656817e-06 0.0006854368507758959 -0.00047344713809996001
leaf_weight=164.9702399969101 7.4990728497505179 25.49966561794281 48.999950349330902 121.99256098270416 10.499951809644697 453.49086014926434 12.749477669596674 25.499887526035309 55.749162614345551 421.49758815765381 22.497497498989105 11.499875620007513 303.96870708465576 165.49538338184357 38.999497890472412 40.998558163642883 49.999094009399414 8.7498476058244723 9.9999414980411512 106.74337632954121 9.4980713725090009 227.73721238970757 40.499973446130753 5.7499928027391425 76.999334514141083 67.99977707862854 25.249909698963165 114.2492468804121 84.999797344207764 24.999731779098511
leaf_count=660 30 102 196 488 42 1814 51 102 223 1686 90 46 1216 662 156 164 200 35 40 427 38 911 162 23 308 272 101 457 340 100
internal_value=0 -0.000585165 0.000714103 0.00105087 -0.00108528 -0.000274851 0.000310984 0.000221496 0.000770935 0.000880926 -0.000148135 0.0001428 -0.000910716 -0.000381812 0.000726006 0.000935127 0.00155629 0.000258476 0.000771945 -0.000938978 -0.000603768 -0.000665228 -5.92066e-05 -0.000261941 0.000167195 0.000192156 0.000124226 0.0002369 0.000428995 -4.789e-06
internal_weight=0 1530.9 1254.48 683.488 586.182 944.719 570.995 477.996 92.9984 511.496 681.984 413.497 421.212 187.993 64.4994 462.496 171.992 37.2493 18.7498 410.712 262.735 237.235 493.991 18.4995 405.998 394.498 326.498 249.499 135.249 50.2496
internal_count=11142 6124 5018 2734 2345 3779 2284 1912 372 2046 2728 1654 1685 752 258 1850 688 149 75 1643 1051 949 1976 74 1624 1578 1306 998 541 201
is_linear=0
shrinkage=0.001


Tree=14
num_leaves=31
num_cat=0
split_feature=14 18 9 9 4 14 5 3 46 15 1 25 12 2 51 23 1 24 22 6 41 4 41 18 46 106 10 8 9 13
split_gain=1161.6 237.116 169.968 58.5927 45.5197 39.2967 23.4553 18.94 16.2857 14.1551 14.1437 13.2955 13.1334 12.7968 11.633 10.8719 10.4167 9.94822 9.49221 9.21478 9.69446 9.151 8.66682 10.9976 10.8935 11.0677 10.6868 9.32453 9.63529 13.5642
threshold=135.7140609907847 -2.6435316867721208 -110.91199354361935 -89.010899417168375 -224.33138230225663 101.27098579856897 2021.6259110163871 38.815070302687566 -37.825661785981303 1582.1905559873737 80.500000000000014 -265.14870001086109 1525.2815688467206 33.500000000000007 1525.7614567451767 2251.3283809235404 11.500000000000002 1945.8288343276122 -650.79951342577078 1790.8599294416219 -53.34652051326065 230.57485215566729 71.836082788637114 84.975604374034006 -23.53578132670361 1560.663052764676 113.41467659243348 67.846279663206118 -127.97389119514104 -135.64670653902917
decision_type=2 2 2 2 2 2 2 2 2 2 2 2 2 2 2 2 2 2 2 2 2 2 2 2 2 2 2 2 2 2
left_child=1 4 6 9 -1 19 7 11 17 -4 21 -2 -6 -12 -9 -11 -5 -8 -14 -3 -21 22 24 -24 26 -26 -7 -28 29 -29
right_child=2 5 3 16 12 10 8 14 -10 15 13 -13 18 -15 -16 -17 -18 -19 -20 20 -22 -23 23 -25 25 -27 27 28 -30 -31
leaf_value=-0.0015294931016796172 -0.0011767439908491942 -3.1944519954399649e-05 0.00036896384841509532 0.0017123066244429789 0.00019455372150163028 -0.00088954923207119029 -0.00051509799152434121 0.00020007804055618842 0.0011122308464509999 0.00088637757373448498 -0.0010890641507550374 0.00016702755279395881 -0.0010281371960358368 -0.00028523659017555927 0.0010686881972400838 0.0014257976734916153 0.0011703406324511281 0.00060357836721114887 -0.00068150489809587836 -0.0016544342128710365 -0.00062328408013430023 0.00039629301583208107 0.00078197125758989441 -3.5706222780114235e-05 0.0002293593356262199 -0.00045224302871225373 -0.00036521179009230402 0.00015740012793841757 0.00052192062752870493 -0.0010436226019201302
leaf_weight=164.96674865484238 7.4989718198776236 25.499662578105927 48.999967873096466 121.99083757400513 10.499956190586088 26.498267263174057 11.49963068962097 25.499898165464401 55.748903423547745 421.49660834670067 22.497231960296631 405.99771542847157 303.96544551849365 165.49513676762581 38.999335169792175 40.998189151287079 49.998825788497925 25.749509945511818 106.74279095232487 9.4978409111499769 227.73612639307976 40.49998551607132 22.99999725818634 57.749170437455177 100.24939648807049 31.248917803168297 142.24577757716179 29.749719828367233 28.999840974807739 13.74958775937557
leaf_count=660 30 102 196 488 42 106 46 102 223 1686 90 1624 1216 662 156 164 200 103 427 38 911 162 92 231 401 125 569 119 116 55
internal_value=0 -0.000584583 0.000713391 0.00104983 -0.00108421 -0.000274576 0.000310673 0.000221275 0.000770167 0.000880047 -0.000147987 0.000142658 -0.000909814 -0.000381431 0.000725281 0.000934195 0.00155475 0.000258218 -0.000938048 -0.000603168 -0.000664567 -5.91474e-05 -9.98216e-05 0.000197195 -0.000164166 6.73851e-05 -0.000290381 -0.000216447 7.54332e-05 -0.000222228
internal_weight=0 1530.89 1254.48 683.484 586.175 944.717 570.994 477.996 92.998 511.495 681.983 413.497 421.208 187.992 64.4992 462.495 171.99 37.2491 410.708 262.734 237.234 493.991 453.491 80.7492 372.742 131.498 241.243 214.745 72.4991 43.4993
internal_count=11142 6124 5018 2734 2345 3779 2284 1912 372 2046 2728 1654 1685 752 258 1850 688 149 1643 1051 949 1976 1814 323 1491 526 965 859 290 174
is_linear=0
shrinkage=0.001


Tree=15
num_leaves=31
num_cat=0
split_feature=14 18 9 9 4 14 5 3 46 15 1 25 12 2 51 23 1 39 31 22 6 41 4 29 18 8 9 48 48 18
split_gain=1159.28 236.648 169.63 58.4779 45.4316 39.2185 23.4086 18.9022 16.2534 14.127 14.1155 13.269 13.1074 12.7714 11.6098 10.8506 10.3965 9.93198 9.5298 9.47358 9.19646 9.67558 9.1327 9.0731 8.66038 8.72299 13.404 10.8771 15.0151 10.9057
threshold=135.7140609907847 -2.6435316867721208 -110.91199354361935 -89.010899417168375 -224.33138230225663 101.27098579856897 2021.6259110163871 38.815070302687566 -37.825661785981303 1582.1905559873737 80.500000000000014 -265.14870001086109 1525.2815688467206 33.500000000000007 1525.7614567451767 2251.3283809235404 11.500000000000002 1731.2488388016079 1740.9443933667887 -650.79951342577078 1790.8599294416219 -53.34652051326065 230.57485215566729 -49.141844082304367 78.525064328117324 85.295987240875093 -124.74204501370239 1614.5276363167347 1580.8944627093445 205.40427701455408
decision_type=2 2 2 2 2 2 2 2 2 2 2 2 2 2 2 2 2 2 2 2 2 2 2 2 2 2 2 2 2 2
left_child=1 4 6 9 -1 20 7 11 17 -4 22 -2 -6 -12 -9 -11 -5 23 -19 -14 -3 -22 -7 -8 -13 26 -26 28 29 -28
right_child=2 5 3 16 12 10 8 14 -10 15 13 24 19 -15 -16 -17 -18 18 -20 -21 21 -23 -24 -25 25 -27 27 -29 -30 -31
leaf_value=-0.0015279976458771462 -0.0011755838427668273 -3.1912575246375696e-05 0.00036859473698965721 0.0017106210258450653 0.00019435909003608602 -9.972185243554239e-05 -0.00073220311365979713 0.00019987788132603125 0.0011111244300963706 0.00088549364039313414 -0.001087988491831783 -0.00068856621023743602 -0.0010271205291392375 -0.0002849517217738304 0.0010676244038741365 0.0014243860463452533 0.0011691772260397472 0.0015330283482980075 0.00010399613565524052 -0.00068082726735642211 -0.0016528221888491934 -0.00062266393373938103 0.0003958965504632039 0.00078093347401619157 -0.00024079212670827046 0.00051763091425727225 0.00045859887067422386 9.3188222291606657e-06 0.00068458352788868882 -0.00047314120065913981
leaf_weight=164.96307045221329 7.4988658726215354 25.499659538269043 48.999979555606842 121.98893964290619 10.499960571527479 453.4901067763567 12.749426230788233 25.499907284975052 55.748611003160477 421.49545267224312 22.496954351663589 11.499854966998099 303.96203899383545 165.49487042427063 38.999153852462769 40.997781038284302 49.998527765274048 8.7497723102569598 9.9999465197324735 106.74218012392521 9.4975974261760694 227.73498609662056 40.49999275803566 5.7499857991933814 76.999316155910492 67.99985408782959 25.249936789274216 114.24930076301098 84.999893605709076 24.999704957008362
leaf_count=660 30 102 196 488 42 1814 51 102 223 1686 90 46 1216 662 156 164 200 35 40 427 38 911 162 23 308 272 101 457 340 100
internal_value=0 -0.000584002 0.00071268 0.00104878 -0.00108314 -0.000274303 0.000310363 0.000221054 0.0007694 0.00087917 -0.000147839 0.000142515 -0.000908913 -0.000381051 0.000724558 0.000933264 0.00155322 0.00025796 0.00077087 -0.000937119 -0.000602568 -0.000663906 -5.90884e-05 -0.00026189 0.00016686 0.000191797 0.000123935 0.000236496 0.000428399 -4.95124e-06
internal_weight=0 1530.88 1254.47 683.481 586.167 944.714 570.994 477.996 92.9977 511.493 681.982 413.497 421.204 187.992 64.4991 462.493 171.987 37.2491 18.7497 410.704 262.732 237.233 493.99 18.4994 405.998 394.498 326.498 249.499 135.25 50.2496
internal_count=11142 6124 5018 2734 2345 3779 2284 1912 372 2046 2728 1654 1685 752 258 1850 688 149 75 1643 1051 949 1976 74 1624 1578 1306 998 541 201
is_linear=0
shrinkage=0.001


Tree=16
num_leaves=31
num_cat=0
split_feature=14 18 9 9 4 14 5 3 46 15 1 25 12 2 51 23 1 24 22 6 41 4 41 18 46 106 10 8 9 13
split_gain=1156.97 236.181 169.293 58.3636 45.3438 39.1404 23.362 18.8645 16.221 14.0989 14.0873 13.2427 13.0814 12.7462 11.5868 10.8293 10.3764 9.92782 9.45501 9.17819 9.65676 9.11445 8.64951 10.9757 10.8717 11.0456 10.6656 9.30592 9.61602 13.5371
threshold=135.7140609907847 -2.6435316867721208 -110.91199354361935 -89.010899417168375 -224.33138230225663 101.27098579856897 2021.6259110163871 38.815070302687566 -37.825661785981303 1582.1905559873737 80.500000000000014 -265.14870001086109 1525.2815688467206 33.500000000000007 1525.7614567451767 2251.3283809235404 11.500000000000002 1945.8288343276122 -650.79951342577078 1790.8599294416219 -53.34652051326065 230.57485215566729 71.836082788637114 84.975604374034006 -23.53578132670361 1560.663052764676 113.41467659243348 67.846279663206118 -127.97389119514104 -135.64670653902917
decision_type=2 2 2 2 2 2 2 2 2 2 2 2 2 2 2 2 2 2 2 2 2 2 2 2 2 2 2 2 2 2
left_child=1 4 6 9 -1 19 7 11 17 -4 21 -2 -6 -12 -9 -11 -5 -8 -14 -3 -21 22 24 -24 26 -26 -7 -28 29 -29
right_child=2 5 3 16 12 10 8 14 -10 15 13 -13 18 -15 -16 -17 -18 -19 -20 20 -22 -23 23 -25 25 -27 27 28 -30 -31
leaf_value=-0.0015265054158502334 -0.0011744256243326526 -3.1880691304917404e-05 0.00036822605392060711 0.0017089393776611027 0.00019416470872548748 -0.00088856727803786296 -0.00051482188834637622 0.00019967800251785323 0.001110019762888638 0.00088461088606652492 -0.0010869145935878464 0.00016669359885310947 -0.0010261054913407468 -0.00028466724390931771 0.0010665624553712501 0.0014229773484845244 0.0011680159488726238 0.00060270910513993603 -0.0006801505462135216 -0.0016512138985829074 -0.00062204449194966382 0.00039550068057286533 0.00078128921930573384 -3.5570818163809054e-05 0.00022922961973838399 -0.00045169257832601036 -0.00036474781668009872 0.00015734240196362475 0.00052149803860778864 -0.0010424861569377725
leaf_weight=164.95920538902283 7.4987550079822531 25.499656498432159 48.999991238117218 121.98686718940735 10.4999643266201 26.498049288988113 11.499569684267042 25.499917924404144 55.748285353183746 421.49414625763893 22.496663331985474 405.99785758554935 303.95846939086914 165.49461394548416 38.998946964740753 40.99732893705368 49.998190999031067 25.749425008893013 106.74155020713806 9.4973414838314039 227.73381865024567 40.499997586011887 22.999990403652191 57.749139457941055 100.24942636489868 31.24881349503994 142.24540451169014 29.749725148081779 28.999868631362915 13.749496787786482
leaf_count=660 30 102 196 488 42 106 46 102 223 1686 90 1624 1216 662 156 164 200 103 427 38 911 162 92 231 401 125 569 119 116 55
internal_value=0 -0.000583422 0.00071197 0.00104774 -0.00108207 -0.000274029 0.000310053 0.000220833 0.000768634 0.000878294 -0.000147691 0.000142372 -0.000908013 -0.000380671 0.000723836 0.000932334 0.00155169 0.000257703 -0.000936191 -0.000601968 -0.000663246 -5.90293e-05 -9.96222e-05 0.000197098 -0.000163902 6.74175e-05 -0.000289992 -0.000216132 7.54576e-05 -0.000221907
internal_weight=0 1530.87 1254.47 683.477 586.159 944.712 570.993 477.995 92.9973 511.491 681.981 413.497 421.2 187.991 64.4989 462.491 171.985 37.249 410.7 262.731 237.231 493.99 453.49 80.7491 372.741 131.498 241.243 214.744 72.4991 43.4992
internal_count=11142 6124 5018 2734 2345 3779 2284 1912 372 2046 2728 1654 1685 752 258 1850 688 149 1643 1051 949 1976 1814 323 1491 526 965 859 290 174
is_linear=0
shrinkage=0.001


Tree=17
num_leaves=31
num_cat=0
split_feature=14 18 9 9 4 14 5 3 46 15 1 25 12 2 51 23 1 39 31 22 6 41 4 29 18 8 9 48 48 18
split_gain=1154.67 235.715 168.957 58.2497 45.2564 39.0626 23.3154 18.8269 16.1888 14.0709 14.0592 13.2164 13.0555 12.721 11.5637 10.8081 10.3565 9.91035 9.51224 9.4365 9.15996 9.63801 9.09623 9.05527 8.64307 8.70554 13.3772 10.8554 14.9851 10.8839
threshold=135.7140609907847 -2.6435316867721208 -110.91199354361935 -89.010899417168375 -224.33138230225663 101.27098579856897 2021.6259110163871 38.815070302687566 -37.825661785981303 1582.1905559873737 80.500000000000014 -265.14870001086109 1525.2815688467206 33.500000000000007 1525.7614567451767 2251.3283809235404 11.500000000000002 1731.2488388016079 1740.9443933667887 -650.79951342577078 1790.8599294416219 -53.34652051326065 230.57485215566729 -54.266684118562686 78.525064328117324 85.295987240875093 -124.74204501370239 1614.5276363167347 1580.8944627093445 205.40427701455408
decision_type=2 2 2 2 2 2 2 2 2 2 2 2 2 2 2 2 2 2 2 2 2 2 2 2 2 2 2 2 2 2
left_child=1 4 6 9 -1 20 7 11 17 -4 22 -2 -6 -12 -9 -11 -5 23 -19 -14 -3 -22 -7 -8 -13 26 -26 28 29 -28
right_child=2 5 3 16 12 10 8 14 -10 15 13 24 19 -15 -16 -17 -18 18 -20 -21 21 -23 -24 -25 25 -27 27 -29 -30 -31
leaf_value=-0.0015250164864295864 -0.0011732694032986785 -3.1848746581668074e-05 0.00036785784305970806 0.0017072619969722884 0.00019397051204504969 -9.9522667382478871e-05 -0.00076159144457269457 0.00019947818952753026 0.0011089168835119747 0.00088372936249379961 -0.0010858423216947625 -0.00068804562479445974 -0.001025091967719862 -0.00028438303749201614 0.0010655020857770318 0.0014215714059942724 0.0011668564489607659 0.0015312596729085963 0.00010354086413322669 -0.00067947457688791158 -0.0016496094532282436 -0.00062142574750326078 0.00039510512057645819 0.0007176287659024131 -0.0002407181397664118 0.00051694603939174226 0.00045797323407100528 9.1428057818806471e-06 0.00068373180342956596 -0.00047283524587232522
leaf_weight=164.955153465271 7.4986387789249411 25.499653458595276 48.999997079372406 121.98461294174194 10.499968081712721 453.48930659890175 12.249370992183687 25.499927043914795 55.747926473617554 421.49266397953033 22.496358901262283 11.499832957983015 303.95473670959473 165.49433773756027 38.998721480369568 40.996837735176086 49.997824430465698 8.7496815919876116 9.99994909763336 106.74088847637177 9.4970725178718549 227.73259690403938 40.5 6.2499749511480323 76.999297797679901 67.999914884567261 25.249959364533424 114.24934783577919 84.999959468841553 24.999678134918213
leaf_count=660 30 102 196 488 42 1814 49 102 223 1686 90 46 1216 662 156 164 200 35 40 427 38 911 162 25 308 272 101 457 340 100
internal_value=0 -0.000582843 0.000711261 0.0010467 -0.00108101 -0.000273756 0.000309743 0.000220612 0.000767869 0.000877419 -0.000147544 0.00014223 -0.000907114 -0.000380292 0.000723114 0.000931406 0.00155016 0.000257446 0.000769799 -0.000935265 -0.00060137 -0.000662587 -5.89703e-05 -0.000261839 0.000166527 0.000191438 0.000123644 0.000236092 0.000427804 -5.11294e-06
internal_weight=0 1530.86 1254.46 683.472 586.151 944.709 570.992 477.995 92.9969 511.489 681.98 413.497 421.196 187.991 64.4986 462.49 171.982 37.249 18.7496 410.696 262.729 237.23 493.989 18.4993 405.998 394.498 326.498 249.499 135.25 50.2496
internal_count=11142 6124 5018 2734 2345 3779 2284 1912 372 2046 2728 1654 1685 752 258 1850 688 149 75 1643 1051 949 1976 74 1624 1578 1306 998 541 201
is_linear=0
shrinkage=0.001


Tree=18
num_leaves=31
num_cat=0
split_feature=14 18 9 9 4 14 5 3 46 15 1 25 12 2 51 23 1 24 22 6 41 4 41 18 46 106 10 8 9 13
split_gain=1152.36 235.251 168.622 58.1363 45.1692 38.9849 23.2691 18.7894 16.1566 14.043 14.0312 13.1901 13.0296 12.6959 11.5408 10.7869 10.3366 9.90688 9.41804 9.14177 9.61932 9.07805 8.63224 10.9537 10.85 11.0236 10.6444 9.28735 9.5968 13.5102
threshold=135.7140609907847 -2.6435316867721208 -110.91199354361935 -89.010899417168375 -224.33138230225663 101.27098579856897 2021.6259110163871 38.815070302687566 -37.825661785981303 1582.1905559873737 80.500000000000014 -265.14870001086109 1525.2815688467206 33.500000000000007 1525.7614567451767 2251.3283809235404 11.500000000000002 1945.8288343276122 -650.79951342577078 1790.8599294416219 -53.34652051326065 230.57485215566729 71.836082788637114 84.975604374034006 -23.53578132670361 1560.663052764676 113.41467659243348 67.846279663206118 -127.97389119514104 -135.64670653902917
decision_type=2 2 2 2 2 2 2 2 2 2 2 2 2 2 2 2 2 2 2 2 2 2 2 2 2 2 2 2 2 2
left_child=1 4 6 9 -1 19 7 11 17 -4 21 -2 -6 -12 -9 -11 -5 -8 -14 -3 -21 22 24 -24 26 -26 -7 -28 29 -29
right_child=2 5 3 16 12 10 8 14 -10 15 13 -13 18 -15 -16 -17 -18 -19 -20 20 -22 -23 23 -25 25 -27 27 28 -30 -31
leaf_value=-0.0015235306254681622 -0.0011721151073989949 -3.1816862624998879e-05 0.0003674899412661183 0.0017055887748397762 0.00019377643490983226 -0.00088758692330872982 -0.00051452332016760881 0.00019927870411288285 0.0011078158154334303 0.00088284910215319997 -0.0010847718597701548 0.00016636033421059903 -0.0010240799747774172 -0.0002840991369839222 0.0010644434105842578 0.0014201682996069938 0.0011656989580153634 0.000601831662388849 -0.00067879943310012022 -0.001648008657242597 -0.00062080778574424866 0.00039471008451744127 0.0007806079626542418 -3.543565182448801e-05 0.00022909985101173395 -0.00045114296676885515 -0.00036428448103323959 0.00015728462091224688 0.00052107560098979099 -0.0010413516918552389
leaf_weight=164.95090484619141 7.4985176324844351 25.499650418758392 49 121.98218417167664 10.499971210956572 26.497818678617477 11.499501913785933 25.499934643507004 55.747531041502953 421.4910309612751 22.496041059494019 405.99794113636017 303.95085906982422 165.49406152963638 38.998470425605774 40.996304988861084 49.997422099113464 25.74932037293911 106.74020765721798 9.4967910945415479 227.7313480079174 40.499997586011887 22.999976694583893 57.749108478426933 100.24945624172688 31.248705461621284 142.24502296745777 29.749730467796326 28.999892830848694 13.749397620558737
leaf_count=660 30 102 196 488 42 106 46 102 223 1686 90 1624 1216 662 156 164 200 103 427 38 911 162 92 231 401 125 569 119 116 55
internal_value=0 -0.000582265 0.000710553 0.00104566 -0.00107994 -0.000273483 0.000309434 0.000220392 0.000767105 0.000876545 -0.000147397 0.000142088 -0.000906217 -0.000379913 0.000722394 0.000930479 0.00154863 0.000257189 -0.00093434 -0.000600772 -0.000661929 -5.89114e-05 -9.94232e-05 0.000197 -0.000163639 6.74496e-05 -0.000289603 -0.000215816 7.54818e-05 -0.000221586
internal_weight=0 1530.85 1254.46 683.467 586.142 944.707 570.991 477.995 92.9964 511.487 681.979 413.496 421.191 187.99 64.4984 462.487 171.98 37.2488 410.691 262.728 237.228 493.989 453.489 80.7491 372.74 131.498 241.242 214.744 72.499 43.4991
internal_count=11142 6124 5018 2734 2345 3779 2284 1912 372 2046 2728 1654 1685 752 258 1850 688 149 1643 1051 949 1976 1814 323 1491 526 965 859 290 174
is_linear=0
shrinkage=0.001


Tree=19
num_leaves=31
num_cat=0
split_feature=14 18 9 9 4 14 5 3 46 15 1 25 12 2 51 23 1 39 31 22 6 41 4 29 18 8 9 48 48 18
split_gain=1150.07 234.787 168.288 58.0233 45.0824 38.9073 23.2228 18.7519 16.1246 14.0152 14.0032 13.1639 13.0038 12.6708 11.5179 10.7659 10.3175 9.88879 9.49473 9.39963 9.12361 9.60069 9.05991 9.03788 8.62581 8.68813 13.3505 10.8337 14.9551 10.8621
threshold=135.7140609907847 -2.6435316867721208 -110.91199354361935 -89.010899417168375 -224.33138230225663 101.27098579856897 2021.6259110163871 38.815070302687566 -37.825661785981303 1582.1905559873737 80.500000000000014 -265.14870001086109 1525.2815688467206 33.500000000000007 1525.7614567451767 2251.3283809235404 10.500000000000002 1731.2488388016079 1740.9443933667887 -650.79951342577078 1790.8599294416219 -53.34652051326065 230.57485215566729 -49.141844082304367 78.525064328117324 85.295987240875093 -124.74204501370239 1614.5276363167347 1580.8944627093445 205.40427701455408
decision_type=2 2 2 2 2 2 2 2 2 2 2 2 2 2 2 2 2 2 2 2 2 2 2 2 2 2 2 2 2 2
left_child=1 4 6 9 -1 20 7 11 17 -4 22 -2 -6 -12 -9 -11 -5 23 -19 -14 -3 -22 -7 -8 -13 26 -26 28 29 -28
right_child=2 5 3 16 12 10 8 14 -10 15 13 24 19 -15 -16 -17 -18 18 -20 -21 21 -23 -24 -25 25 -27 27 -29 -30 -31
leaf_value=-0.0015220479909407391 -0.0011709626867620331 -3.1785095534196508e-05 0.00036712234847399657 0.0017122562323931868 0.00019358253084286595 -9.9323881929300474e-05 -0.00073119015975310348 0.00019907938010066005 0.0011067165835769656 0.00088197003807444707 -0.0010837029956421624 -0.00068752538195795813 -0.0010230694929871948 -0.00028381559243887436 0.0010633863292897909 0.0014187679405936314 0.0011838315203348004 0.0015294959010864315 0.00010308674119207105 -0.00067812516051123778 -0.0016464117848388245 -0.00062019044196397395 0.00039431535820835025 0.00077901070384313233 -0.000240643809865835 0.00051626239240031631 0.00045734853371713928 8.9673250113022314e-06 0.00068288135671960284 -0.00047252933528386303
leaf_weight=164.94647920131683 7.4983915686607352 25.499647378921509 49 118.23020851612091 10.499974966049193 453.48846134543419 12.749309882521631 25.499942243099213 55.747102379798889 421.48924720287323 22.495711147785187 11.499809086322783 303.94681835174561 165.49377545714378 38.99820077419281 40.995733141899109 53.746359348297119 8.7495763301849383 9.999949559569357 106.73950138688087 9.4964966475963575 227.73004481196404 40.499995172023773 5.7499612569808951 76.99927943944931 67.999959468841553 25.249977424740791 114.2493949085474 84.999994933605194 24.999649822711945
leaf_count=660 30 102 196 473 42 1814 51 102 223 1686 90 46 1216 662 156 164 215 35 40 427 38 911 162 23 308 272 101 457 340 100
internal_value=0 -0.000581687 0.000709846 0.00104462 -0.00107888 -0.00027321 0.000309125 0.000220171 0.000766342 0.000875672 -0.000147249 0.000141946 -0.000905321 -0.000379534 0.000721675 0.000929553 0.00154711 0.000256932 0.000768729 -0.000933417 -0.000600175 -0.000661271 -5.88525e-05 -0.000261788 0.000166194 0.00019108 0.000123354 0.00023569 0.000427209 -5.27422e-06
internal_weight=0 1530.84 1254.45 683.462 586.133 944.704 570.99 477.995 92.9959 511.485 681.978 413.496 421.186 187.989 64.4981 462.485 171.977 37.2488 18.7495 410.686 262.726 237.227 493.988 18.4993 405.998 394.498 326.498 249.499 135.25 50.2496
internal_count=11142 6124 5018 2734 2345 3779 2284 1912 372 2046 2728 1654 1685 752 258 1850 688 149 75 1643 1051 949 1976 74 1624 1578 1306 998 541 201
is_linear=0
shrinkage=0.001


Tree=20
num_leaves=31
num_cat=0
split_feature=14 18 9 9 4 14 5 3 46 15 1 25 12 2 51 23 1 24 22 6 41 4 41 18 46 106 10 8 9 13
split_gain=1147.78 234.325 167.955 57.9107 44.9959 38.83 23.1767 18.7146 16.0925 13.9874 13.9753 13.1378 12.9781 12.6459 11.495 10.7449 10.2981 9.88657 9.38127 9.1055 9.58212 9.0418 8.615 10.9318 10.8284 11.0016 10.6233 9.26882 9.57761 13.4833
threshold=135.7140609907847 -2.6435316867721208 -110.91199354361935 -89.010899417168375 -224.33138230225663 101.27098579856897 2021.6259110163871 38.815070302687566 -37.825661785981303 1582.1905559873737 80.500000000000014 -265.14870001086109 1525.2815688467206 33.500000000000007 1525.7614567451767 2251.3283809235404 11.500000000000002 1945.8288343276122 -650.79951342577078 1790.8599294416219 -53.34652051326065 230.57485215566729 71.836082788637114 84.975604374034006 -23.53578132670361 1560.663052764676 113.41467659243348 67.846279663206118 -127.97389119514104 -135.64670653902917
decision_type=2 2 2 2 2 2 2 2 2 2 2 2 2 2 2 2 2 2 2 2 2 2 2 2 2 2 2 2 2 2
left_child=1 4 6 9 -1 19 7 11 17 -4 21 -2 -6 -12 -9 -11 -5 -8 -14 -3 -21 22 24 -24 26 -26 -7 -28 29 -29
right_child=2 5 3 16 12 10 8 14 -10 15 13 -13 18 -15 -16 -17 -18 -19 -20 20 -22 -23 23 -25 25 -27 27 28 -30 -31
leaf_value=-0.0015205686272218308 -0.0011698121392150931 -3.1753328435820172e-05 0.00036675527627493475 0.0017022621801865848 0.00019338894231557958 -0.00088660816652301065 -0.00051424734150704997 0.00019888024086513401 0.0011056189475862944 0.00088109211550422162 -0.0010826357922039858 0.00016602777086427212 -0.0010220604823059241 -0.00028353220067602595 0.0010623309120383212 0.0014173704095541313 0.0011633706800381139 0.00060096610764333433 -0.00067745167545223454 -0.0016448184328013403 -0.00061957391723939869 0.00039392108427009398 0.00077992724892834422 -3.530096218492225e-05 0.00022897002944631702 -0.00045059416539603711 -0.00036382192753583466 0.00015722665655805657 0.0005206534335295271 -0.0010402191409736735
leaf_weight=164.9418568611145 7.4982605874538413 25.499644339084625 48.999997079372406 121.97681556642056 10.499977469444273 26.497575432062149 11.499430626630781 25.499949842691422 55.746640488505363 421.48728758096695 22.495367825031281 405.99796618521214 303.9426326751709 165.49347952008247 38.997907876968384 40.995119750499725 49.996510148048401 25.749197170138359 106.73876966536045 9.4961903095245344 227.72870089113712 40.499987930059433 22.999958872795105 57.749077498912811 100.24948611855507 31.248591840267181 142.24462446570396 29.749735787510872 28.999915301799774 13.74928943812847
leaf_count=660 30 102 196 488 42 106 46 102 223 1686 90 1624 1216 662 156 164 200 103 427 38 911 162 92 231 401 125 569 119 116 55
internal_value=0 -0.00058111 0.00070914 0.00104359 -0.00107782 -0.000272937 0.000308816 0.000219951 0.000765581 0.000874801 -0.000147102 0.000141804 -0.000904426 -0.000379156 0.000720956 0.000928629 0.00154559 0.000256676 -0.000932494 -0.000599578 -0.000660615 -5.87937e-05 -9.92246e-05 0.000196903 -0.000163377 6.74816e-05 -0.000289215 -0.000215502 7.55057e-05 -0.000221265
internal_weight=0 1530.82 1254.45 683.456 586.123 944.702 570.989 477.994 92.9953 511.482 681.977 413.496 421.181 187.989 64.4979 462.482 171.973 37.2486 410.681 262.725 237.225 493.988 453.488 80.749 372.739 131.498 241.241 214.744 72.4989 43.499
internal_count=11142 6124 5018 2734 2345 3779 2284 1912 372 2046 2728 1654 1685 752 258 1850 688 149 1643 1051 949 1976 1814 323 1491 526 965 859 290 174
is_linear=0
shrinkage=0.001


Tree=21
num_leaves=31
num_cat=0
split_feature=14 18 9 9 4 14 5 3 46 15 1 25 12 2 51 23 1 39 31 22 6 41 4 29 18 8 9 48 48 18
split_gain=1145.49 233.864 167.622 57.7985 44.9097 38.7528 23.1306 18.6773 16.0607 13.9597 13.9474 13.1117 12.9524 12.6209 11.4723 10.724 10.2792 9.86727 9.47729 9.36297 9.08743 9.56362 9.02373 9.01978 8.60857 8.67076 13.3238 10.812 14.9252 10.8404
threshold=135.7140609907847 -2.6435316867721208 -110.91199354361935 -89.010899417168375 -224.33138230225663 101.27098579856897 2021.6259110163871 38.815070302687566 -37.825661785981303 1582.1905559873737 80.500000000000014 -265.14870001086109 1525.2815688467206 33.500000000000007 1525.7614567451767 2251.3283809235404 10.500000000000002 1731.2488388016079 1740.9443933667887 -650.79951342577078 1790.8599294416219 -53.34652051326065 230.57485215566729 -49.141844082304367 78.525064328117324 85.295987240875093 -124.74204501370239 1614.5276363167347 1580.8944627093445 205.40427701455408
decision_type=2 2 2 2 2 2 2 2 2 2 2 2 2 2 2 2 2 2 2 2 2 2 2 2 2 2 2 2 2 2
left_child=1 4 6 9 -1 20 7 11 17 -4 22 -2 -6 -12 -9 -11 -5 23 -19 -14 -3 -22 -7 -8 -13 26 -26 28 29 -28
right_child=2 5 3 16 12 10 8 14 -10 15 13 24 19 -15 -16 -17 -18 18 -20 -21 21 -23 -24 -25 25 -27 27 -29 -30 -31
leaf_value=-0.0015190922684508686 -0.0011686635799635367 -3.1721622104088048e-05 0.00036638858344136737 0.0017089223393323915 0.00019319547292803832 -9.912554658547386e-05 -0.00073066992608774824 0.00019868128640613953 0.0011045231439732873 0.00088021543970416745 -0.0010815703006165865 -0.00068700535201959834 -0.0010210530364433415 -0.00028324921632533477 0.0010612771487421087 0.0014159755998618447 0.0011814715990530068 0.0015277369211261259 0.0001026336238758099 -0.00067677893711384004 -0.0016432289013041256 -0.00061895813260231906 0.00039352733394035623 0.00077802103305269334 -0.00024056924150894757 0.00051557997279159679 0.00045672489682312177 8.7923212477483309e-06 0.00068203250660615812 -0.00047222333340207843
leaf_weight=164.93705749511719 7.4981242418289176 25.499641299247742 48.999988317489624 118.22464039921761 10.499980598688124 453.48755043745041 12.749247550964357 25.49995744228363 55.746145367622375 421.48515209555626 22.4950110912323 11.499784260988234 303.93828392028809 165.49318358302116 38.997594058513641 40.994464814662933 53.745231106877327 8.749456003308298 9.9999475777149183 106.73801885545254 9.4958709478378278 227.72731624543667 40.499975860118866 5.7499436289072028 76.999261081218719 67.999987840652466 25.249989464879036 114.24944168329239 85 24.999621510505676
leaf_count=660 30 102 196 473 42 1814 51 102 223 1686 90 46 1216 662 156 164 215 35 40 427 38 911 162 23 308 272 101 457 340 100
internal_value=0 -0.000580534 0.000708435 0.00104255 -0.00107676 -0.000272665 0.000308508 0.000219732 0.00076482 0.000873931 -0.000146956 0.000141662 -0.000903533 -0.000378778 0.000720239 0.000927706 0.00154408 0.00025642 0.000767662 -0.000931573 -0.000598983 -0.000659959 -5.8735e-05 -0.000261737 0.000165862 0.000190723 0.000123065 0.000235288 0.000426616 -5.43498e-06
internal_weight=0 1530.81 1254.44 683.449 586.113 944.699 570.989 477.994 92.9947 511.48 681.976 413.496 421.176 187.988 64.4976 462.48 171.97 37.2486 18.7494 410.676 262.723 237.223 493.988 18.4992 405.998 394.498 326.498 249.499 135.25 50.2496
internal_count=11142 6124 5018 2734 2345 3779 2284 1912 372 2046 2728 1654 1685 752 258 1850 688 149 75 1643 1051 949 1976 74 1624 1578 1306 998 541 201
is_linear=0
shrinkage=0.001


Tree=22
num_leaves=31
num_cat=0
split_feature=14 18 9 9 4 14 5 3 46 15 1 25 12 2 51 23 1 24 22 6 41 4 41 18 46 106 10 8 9 13
split_gain=1143.21 233.404 167.29 57.6867 44.8239 38.6758 23.0847 18.6401 16.0288 13.9321 13.9196 13.0857 12.9268 12.5961 11.4495 10.7031 10.26 9.86631 9.34472 9.0694 9.54518 9.0057 8.59779 10.91 10.8068 10.9796 10.6022 9.25032 9.55847 13.4564
threshold=135.7140609907847 -2.6435316867721208 -110.91199354361935 -89.010899417168375 -224.33138230225663 101.27098579856897 2021.6259110163871 38.815070302687566 -37.825661785981303 1582.1905559873737 80.500000000000014 -265.14870001086109 1525.2815688467206 33.500000000000007 1525.7614567451767 2251.3283809235404 11.500000000000002 1945.8288343276122 -650.79951342577078 1790.8599294416219 -53.34652051326065 230.57485215566729 71.836082788637114 84.975604374034006 -23.53578132670361 1560.663052764676 113.41467659243348 67.846279663206118 -127.97389119514104 -135.64670653902917
decision_type=2 2 2 2 2 2 2 2 2 2 2 2 2 2 2 2 2 2 2 2 2 2 2 2 2 2 2 2 2 2
left_child=1 4 6 9 -1 19 7 11 17 -4 21 -2 -6 -12 -9 -11 -5 -8 -14 -3 -21 22 24 -24 26 -26 -7 -28 29 -29
right_child=2 5 3 16 12 10 8 14 -10 15 13 -13 18 -15 -16 -17 -18 -19 -20 20 -22 -23 23 -25 25 -27 27 28 -30 -31
leaf_value=-0.0015176190803170126 -0.001167516984739014 -3.1689798891285991e-05 0.00036602227000027114 0.0016989516915845563 0.00019300230750670988 -0.00088563105911751319 -0.00051397135957188063 0.00019848250517960427 0.0011034291708271653 0.00087934002322249787 -0.0010805065473775794 0.00016569588348240097 -0.0010200470930321619 -0.00028296648625823648 0.0010602250459203556 0.0014145837124195529 0.001161050269577537 0.00060010241391157064 -0.00067610706866000066 -0.0016416430862967689 -0.00061834312210937484 0.00039313394088920795 0.00077924726933577303 -3.5166510823363361e-05 0.00022884020795828011 -0.00045004611085443436 -0.00036335994077817189 0.00015716845380394219 0.00052023153615087946 -0.001039088718867663
leaf_weight=164.9320712685585 7.4979829788207999 25.499638259410858 48.999979555606842 121.97075513005257 10.499983102083204 26.497317969799042 11.499353885650633 25.499963521957397 55.745617017149925 421.48286586999893 22.494642287492752 405.99794138967991 303.93379020690918 165.49287778139114 38.997256994247437 40.993768334388733 49.995461106300354 25.749055340886116 106.73724259436131 9.4955391287803632 227.72587729990482 40.499961376190186 22.999935567378998 57.749046519398689 100.24951599538326 31.24847449362278 142.24421748518944 29.749741107225418 28.999936044216156 13.74917224049568
leaf_count=660 30 102 196 488 42 106 46 102 223 1686 90 1624 1216 662 156 164 200 103 427 38 911 162 92 231 401 125 569 119 116 55
internal_value=0 -0.000579958 0.000707731 0.00104152 -0.0010757 -0.000272393 0.0003082 0.000219512 0.000764061 0.000873062 -0.000146809 0.000141521 -0.000902641 -0.0003784 0.000719522 0.000926784 0.00154257 0.000256165 -0.000930654 -0.000598388 -0.000659304 -5.86763e-05 -9.90264e-05 0.000196805 -0.000163115 6.75133e-05 -0.000288828 -0.000215188 7.55294e-05 -0.000220945
internal_weight=0 1530.8 1254.43 683.443 586.103 944.696 570.987 477.993 92.994 511.477 681.975 413.496 421.171 187.988 64.4972 462.477 171.966 37.2484 410.671 262.721 237.221 493.987 453.487 80.749 372.738 131.498 241.24 214.743 72.4988 43.4989
internal_count=11142 6124 5018 2734 2345 3779 2284 1912 372 2046 2728 1654 1685 752 258 1850 688 149 1643 1051 949 1976 1814 323 1491 526 965 859 290 174
is_linear=0
shrinkage=0.001


Tree=23
num_leaves=31
num_cat=0
split_feature=14 18 9 9 4 14 5 3 46 15 1 25 12 2 51 23 1 24 22 6 41 4 18 8 9 48 48 18 2 36
split_gain=1140.93 232.945 166.96 57.5754 44.7383 38.5989 23.0388 18.603 15.9971 13.9045 13.8919 13.0597 12.9012 12.5712 11.4269 10.6824 10.2413 9.8466 9.32652 9.0514 9.5268 8.9877 8.59138 8.65342 13.2972 10.7904 14.8954 10.8187 10.164 10.0114
threshold=135.7140609907847 -2.6435316867721208 -110.91199354361935 -89.010899417168375 -224.33138230225663 101.27098579856897 2021.6259110163871 38.815070302687566 -37.825661785981303 1582.1905559873737 80.500000000000014 -265.14870001086109 1525.2815688467206 33.500000000000007 1525.7614567451767 2251.3283809235404 10.500000000000002 1945.8288343276122 -650.79951342577078 1790.8599294416219 -53.34652051326065 230.57485215566729 78.525064328117324 85.295987240875093 -124.74204501370239 1614.5276363167347 1580.8944627093445 205.40427701455408 146.50000000000003 1688.2592682860911
decision_type=2 2 2 2 2 2 2 2 2 2 2 2 2 2 2 2 2 2 2 2 2 2 2 2 2 2 2 2 2 2
left_child=1 4 6 9 -1 19 7 11 17 -4 21 -2 -6 -12 -9 -11 -5 -8 -14 -3 -21 -7 -13 24 -24 26 27 -26 29 -27
right_child=2 5 3 16 12 10 8 14 -10 15 13 22 18 -15 -16 -17 -18 -19 -20 20 -22 -23 23 -25 25 28 -28 -29 -30 -31
leaf_value=-0.0015161489520294997 -0.0011663720910654412 -3.1658209417945354e-05 0.00036565633575031401 0.0017056044857272892 0.0001928091961055759 -9.8927582942889838e-05 -0.000513458454840431 0.00019828403960223337 0.0011023367878038989 0.00087846577894656809 -0.0010794442923807031 -0.00068648562303440957 -0.0010190426772316897 -0.00028268409514209755 0.0010591745385979156 0.0014131945229463195 0.0011791196016510022 0.00059950269339634806 -0.00067543606404479395 -0.0016400608720737004 -0.00061772873552159231 0.0003927410235202804 -0.00024049442036085339 0.00051489852456485517 0.00045610244211152833 -0.00066236390656539081 0.00068118493374958898 -0.00047191740377462141 0.0014028359709038144 9.5734856054028488e-05
leaf_weight=164.92689818143845 7.4978372454643241 25.499635219573975 48.999964952468872 118.21840269863605 10.499985605478285 453.48660093545914 11.499330058693884 25.499969601631165 55.745055437088013 421.48042890429497 22.494261413812637 11.499757438898085 303.92913341522217 165.49257197976112 38.996899008750916 40.99303275346756 53.743953332304955 25.749038413167 106.73644088208675 9.4951948523521406 227.72441120445728 40.499944478273392 76.999247312545776 68 25.249996989965439 21.749898880720139 84.999969601631165 24.999590218067169 4.9999898672103873 87.499593198299408
leaf_count=660 30 102 196 473 42 1814 46 102 223 1686 90 46 1216 662 156 164 215 103 427 38 911 162 308 272 101 87 340 100 20 350
internal_value=0 -0.000579383 0.000707028 0.00104049 -0.00107464 -0.000272122 0.000307893 0.000219293 0.000763301 0.000872195 -0.000146662 0.000141379 -0.00090175 -0.000378023 0.000718806 0.000925863 0.00154106 0.000255909 -0.000929736 -0.000597794 -0.00065865 -5.86177e-05 0.00016553 0.000190367 0.000122776 0.000234887 0.000426024 -5.5952e-06 8.61779e-06 -5.5191e-05
internal_weight=0 1530.79 1254.42 683.436 586.092 944.693 570.986 477.993 92.9934 511.473 681.973 413.496 421.166 187.987 64.4969 462.473 171.962 37.2484 410.666 262.719 237.22 493.987 405.998 394.498 326.498 249.499 135.25 50.2496 114.249 109.249
internal_count=11142 6124 5018 2734 2345 3779 2284 1912 372 2046 2728 1654 1685 752 258 1850 688 149 1643 1051 949 1976 1624 1578 1306 998 541 201 457 437
is_linear=0
shrinkage=0.001


Tree=24
num_leaves=31
num_cat=0
split_feature=14 18 9 9 4 14 5 3 46 15 1 25 12 2 51 23 1 39 31 22 6 41 29 4 41 18 46 106 10 8
split_gain=1138.66 232.488 166.63 57.4644 44.6531 38.5222 22.993 18.566 15.9655 13.8771 13.8642 13.0338 12.8757 12.5465 11.4043 10.6617 10.2223 9.84403 9.46127 9.30838 9.03345 9.50848 9.00166 8.96974 8.58062 10.8882 10.7852 10.9577 10.5812 9.23186
threshold=135.7140609907847 -2.6435316867721208 -110.91199354361935 -89.010899417168375 -224.33138230225663 101.27098579856897 2021.6259110163871 38.815070302687566 -37.825661785981303 1582.1905559873737 80.500000000000014 -265.14870001086109 1525.2815688467206 33.500000000000007 1525.7614567451767 2251.3283809235404 11.500000000000002 1731.2488388016079 1740.9443933667887 -650.79951342577078 1790.8599294416219 -53.34652051326065 -49.141844082304367 230.57485215566729 71.836082788637114 84.975604374034006 -23.53578132670361 1560.663052764676 113.41467659243348 67.846279663206118
decision_type=2 2 2 2 2 2 2 2 2 2 2 2 2 2 2 2 2 2 2 2 2 2 2 2 2 2 2 2 2 2
left_child=1 4 6 9 -1 20 7 11 17 -4 23 -2 -6 -12 -9 -11 -5 22 -19 -14 -3 -22 -8 24 26 -26 28 -28 -7 -30
right_child=2 5 3 16 12 10 8 14 -10 15 13 -13 19 -15 -16 -17 -18 18 -20 -21 21 -23 -24 -25 25 -27 27 -29 29 -31
leaf_value=-0.0015146821174111861 -0.0011652292267368787 -3.1626563837774693e-05 0.00036529089989294043 0.0016956571659045849 0.00019261639985000391 -0.00088465540749167867 -0.00073035654843805022 0.00019808563968743719 0.0011012462970862071 0.00087759275827005391 -0.001078383744026243 0.00016536472278920732 -0.0010180397650399425 -0.00028240192511006261 0.0010581256801525511 0.0014118079919879952 0.0011587375441840192 0.0015257384261511049 0.00010183255334701408 -0.00067476584797771422 -0.0016384823559673781 -0.00061711508558548673 0.00077682246060982831 0.00039234836762830881 0.00077856792467391087 -3.5032536162838309e-05 0.00022871020104404802 -0.00044949893942841255 -0.00036289880237426383 7.5552915288963231e-05
leaf_weight=164.92153823375702 7.4976861476898184 25.499632179737091 48.999947428703308 121.96400991082191 10.499988108873366 26.497049450874329 12.749183446168901 25.49997416138649 55.744457304477692 421.47781607508659 22.493867129087448 405.99785563349724 303.92431354522705 165.49225631356239 38.996520102024078 40.992258071899414 49.994277954101562 8.749290660023691 9.9999371170997602 106.73561371862888 9.4948386847972852 227.7229043841362 5.7499108612537375 40.499925166368484 22.999905407428741 57.749015539884567 100.24954587221146 31.248351559042931 142.24378506839275 72.498744055628777
leaf_count=660 30 102 196 488 42 106 51 102 223 1686 90 1624 1216 662 156 164 200 35 40 427 38 911 23 162 92 231 401 125 569 290
internal_value=0 -0.000578809 0.000706326 0.00103946 -0.00107359 -0.000271851 0.000307585 0.000219074 0.000762543 0.000871328 -0.000146516 0.000141238 -0.00090086 -0.000377647 0.000718092 0.000924944 0.00153956 0.000255653 0.000766295 -0.000928819 -0.0005972 -0.000657996 -0.000261893 -5.85591e-05 -9.88287e-05 0.000196707 -0.000162853 6.75448e-05 -0.000288441 -0.000214874
internal_weight=0 1530.77 1254.41 683.428 586.081 944.69 570.985 477.992 92.9928 511.47 681.972 413.496 421.16 187.986 64.4965 462.47 171.958 37.2483 18.7492 410.66 262.717 237.218 18.4991 493.986 453.486 80.7489 372.737 131.498 241.24 214.743
internal_count=11142 6124 5018 2734 2345 3779 2284 1912 372 2046 2728 1654 1685 752 258 1850 688 149 75 1643 1051 949 74 1976 1814 323 1491 526 965 859
is_linear=0
shrinkage=0.001


Tree=25
num_leaves=31
num_cat=0
split_feature=14 18 9 9 4 14 5 3 46 15 1 25 12 2 51 23 1 24 22 6 41 4 18 8 9 48 48 18 2 36
split_gain=1136.39 232.032 166.301 57.3539 44.5682 38.4457 22.9474 18.5291 15.9339 13.8497 13.8365 13.008 12.8503 12.5218 11.3817 10.6411 10.2037 9.82643 9.29029 9.01554 9.49022 8.95182 8.57422 8.63612 13.2706 10.7689 14.8656 10.7971 10.1437 9.99141
threshold=135.7140609907847 -2.6435316867721208 -110.91199354361935 -89.010899417168375 -224.33138230225663 101.27098579856897 2021.6259110163871 38.815070302687566 -37.825661785981303 1582.1905559873737 80.500000000000014 -265.14870001086109 1525.2815688467206 33.500000000000007 1525.7614567451767 2251.3283809235404 10.500000000000002 1945.8288343276122 -650.79951342577078 1790.8599294416219 -53.34652051326065 230.57485215566729 78.525064328117324 85.295987240875093 -124.74204501370239 1614.5276363167347 1580.8944627093445 205.40427701455408 146.50000000000003 1688.2592682860911
decision_type=2 2 2 2 2 2 2 2 2 2 2 2 2 2 2 2 2 2 2 2 2 2 2 2 2 2 2 2 2 2
left_child=1 4 6 9 -1 19 7 11 17 -4 21 -2 -6 -12 -9 -11 -5 -8 -14 -3 -21 -7 -13 24 -24 26 27 -26 29 -27
right_child=2 5 3 16 12 10 8 14 -10 15 13 22 18 -15 -16 -17 -18 -19 -20 20 -22 -23 23 -25 25 28 -28 -29 -30 -31
leaf_value=-0.001513218333257127 -0.0011640882723155347 -3.1594857475811861e-05 0.000364925697183097 0.0017023030279681535 0.00019242377693990599 -9.8730025753140883e-05 -0.00051318276762929221 0.00019788753202346947 0.001100157472400669 0.00087672092801538372 -0.0010773249402549706 -0.0006859661756174843 -0.0010170383127758227 -0.00028212000924825382 0.0010570783222104815 0.0014104242688815398 0.0011767756244198658 0.00059864186052047878 -0.00067409645464319831 -0.0016369075456543023 -0.00061650221122403512 0.00039195630722460584 -0.0002404193750953026 0.00051421834700848032 0.00045548083050416248 -0.00066186763055087108 0.00068033883507785848 -0.00047161145669169312 0.0014012656157528943 9.5473735279816727e-05
leaf_weight=164.91599142551422 7.4975301325321189 25.499629139900208 48.99992698431015 118.21148131787777 10.499989986419676 453.48571561276913 11.499247819185255 25.499978721141815 55.743829265236855 421.47505250573158 22.493459433317184 11.499729201197622 303.91936683654785 165.49193078279495 38.996120274066925 40.99144184589386 53.742523491382599 25.748870581388474 106.73476746678352 9.4944694936275464 227.72134326398373 40.499903440475464 76.999228954315186 67.999995946884155 25.25 21.749874249100685 84.9999138712883 24.999558925628662 4.999997913837432 87.499640136957169
leaf_count=660 30 102 196 473 42 1814 46 102 223 1686 90 46 1216 662 156 164 215 103 427 38 911 162 308 272 101 87 340 100 20 350
internal_value=0 -0.000578236 0.000705625 0.00103843 -0.00107253 -0.00027158 0.000307279 0.000218855 0.000761788 0.000870463 -0.00014637 0.000141097 -0.000899972 -0.000377271 0.000717378 0.000924027 0.00153805 0.000255399 -0.000927903 -0.000596607 -0.000657344 -5.85006e-05 0.000165199 0.000190011 0.000122488 0.000234487 0.000425433 -5.75502e-06 8.44384e-06 -5.53011e-05
