tree
version=v4
num_class=1
num_tree_per_iteration=1
label_index=0
max_feature_idx=113
objective=binary sigmoid:1
feature_names=best_of a_player_rank b_player_rank glicko_rating_diff_high glicko_rating_diff_low a_glicko_rating b_glicko_rating a_glicko_rd b_glicko_rd point_glicko_rating_diff_high point_glicko_rating_diff_low a_point_glicko_rating b_point_glicko_rating game_glicko_rating_diff_high game_glicko_rating_diff_low a_game_glicko_rating b_game_glicko_rating set_glicko_rating_diff_high set_glicko_rating_diff_low a_set_glicko_rating b_set_glicko_rating service_glicko_rating_diff_high service_glicko_rating_diff_low a_service_glicko_rating b_return_glicko_rating return_glicko_rating_diff_high return_glicko_rating_diff_low a_return_glicko_rating b_service_glicko_rating tiebreak_glicko_rating_diff_high tiebreak_glicko_rating_diff_low a_tiebreak_glicko_rating b_tiebreak_glicko_rating ace_glicko_rating_diff_high ace_glicko_rating_diff_low a_ace_glicko_rating b_return_ace_glicko_rating return_ace_glicko_rating_diff_high return_ace_glicko_rating_diff_low a_return_ace_glicko_rating b_ace_glicko_rating first_won_glicko_rating_diff_high first_won_glicko_rating_diff_low a_first_won_glicko_rating b_return_first_won_glicko_rating return_first_won_glicko_rating_diff_high return_first_won_glicko_rating_diff_low a_return_first_won_glicko_rating b_first_won_glicko_rating second_won_glicko_rating_diff_high second_won_glicko_rating_diff_low a_second_won_glicko_rating b_return_second_won_glicko_rating return_second_won_glicko_rating_diff_high return_second_won_glicko_rating_diff_low a_return_second_won_glicko_rating b_second_won_glicko_rating surface_glicko_rating_diff_high surface_glicko_rating_diff_low a_surface_glicko_rating b_surface_glicko_rating a_surface_glicko_rd b_surface_glicko_rd surface_point_glicko_rating_diff_high surface_point_glicko_rating_diff_low a_surface_point_glicko_rating b_surface_point_glicko_rating surface_game_glicko_rating_diff_high surface_game_glicko_rating_diff_low a_surface_game_glicko_rating b_surface_game_glicko_rating surface_set_glicko_rating_diff_high surface_set_glicko_rating_diff_low a_surface_set_glicko_rating b_surface_set_glicko_rating surface_service_glicko_rating_diff_high surface_service_glicko_rating_diff_low a_surface_service_glicko_rating b_surface_return_glicko_rating surface_return_glicko_rating_diff_high surface_return_glicko_rating_diff_low a_surface_return_glicko_rating b_surface_service_glicko_rating surface_tiebreak_glicko_rating_diff_high surface_tiebreak_glicko_rating_diff_low a_surface_tiebreak_glicko_rating b_surface_tiebreak_glicko_rating surface_ace_glicko_rating_diff_high surface_ace_glicko_rating_diff_low a_surface_ace_glicko_rating b_surface_return_ace_glicko_rating surface_return_ace_glicko_rating_diff_high surface_return_ace_glicko_rating_diff_low a_surface_return_ace_glicko_rating b_surface_ace_glicko_rating surface_first_won_glicko_rating_diff_high surface_first_won_glicko_rating_diff_low a_surface_first_won_glicko_rating b_surface_return_first_won_glicko_rating surface_return_first_won_glicko_rating_diff_high surface_return_first_won_glicko_rating_diff_low a_surface_return_first_won_glicko_rating b_surface_first_won_glicko_rating surface_second_won_glicko_rating_diff_high surface_second_won_glicko_rating_diff_low a_surface_second_won_glicko_rating b_surface_return_second_won_glicko_rating surface_return_second_won_glicko_rating_diff_high surface_return_second_won_glicko_rating_diff_low a_surface_return_second_won_glicko_rating b_surface_second_won_glicko_rating surface_Clay surface_Grass surface_Hard
feature_infos=[3:5] [1:1751] [1:1753] [-1203.3132534917663:827.08370495897611] [-895.87797562871174:1215.3359077524242] [1245.9217164110216:2717.531432504265] [1227.7963498960689:2749.2341541975647] [62.979949405679506:149.80177509640703] [62.919016416745592:149.50296659821674] [-282.7816866611106:-29.361097468609387] [20.750962814096283:260.11291219514419] [1446.5642759604991:1616.8967179976937] [1465.5539420690741:1619.6678865096796] [-404.62674410734098:70.646926030449094] [-85.62587898722245:346.79997850928407] [1375.1375155306462:1752.1166745355636] [1433.7625234188265:1756.8886308022429] [-900.50968682269081:599.58136304634922] [-612.67203279471391:916.57965476557115] [1243.8235048270169:2396.7564588583709] [1302.3375206477758:2400.22209957832] [-20328.49416805974:963.28807519630402] [-19446.646754104124:1308.183915966089] [-17999.889263107681:2742.1420084338456] [849.45232649912202:10203.258803930559] [-1250.0510621750036:20155.375770123643] [-908.535972625216:21023.925854341294] [830.81484554173437:10203.258803930559] [-18569.298674879043:2759.9125200262238] [-1225.8881081710042:450.75739322894719] [-548.01318977678693:1073.7524737813951] [1025.0822221319049:2073.1377706282278] [1025.0822221319049:2066.7168449129763] [-1155.4108044702805:-257.83020333419881] [-666.20621301689744:146.3905553560312] [921.53926012250486:1541.7922614489669] [1549.610512239964:1875.2824860281853] [-164.93757025813011:636.20080415889652] [221.56242190655553:1089.4907981878778] [1524.734116901833:1878.5927805893305] [918.48235789497801:1546.026659559898] [-190.36807918097929:233.28774573905616] [114.85597560229394:558.0980255414413] [1461.6021794560984:1772.8045645617592] [1350.8919591976637:1563.5340319579941] [-546.62025850318901:-138.23356710602343] [-238.54275811702539:223.62628436622504] [1311.7268953644077:1541.030393503172] [1458.9030317273384:1776.7854765638192] [-272.87876901703703:-9.3037294426071639] [8.1770781697321127:283.09033378608797] [1420.1518107413815:1622.9632930592177] [1450.7808304451255:1619.6592438445509] [-272.87876901703703:-9.3037294426071639] [8.1770781697321127:283.09033378608797] [1420.1518107413815:1622.9632930592177] [1450.7808304451255:1619.6592438445509] [-1203.3132534917663:827.08370495897611] [-895.87797562871174:1215.3359077524242] [1245.9217164110216:2717.531432504265] [1227.7963498960689:2749.2341541975647] [62.979949405679506:149.80177509640703] [62.919016416745592:149.50296659821674] [-282.7816866611106:-29.361097468609387] [20.750962814096283:260.11291219514419] [1446.5642759604991:1616.8967179976937] [1465.5539420690741:1619.6678865096796] [-404.62674410734098:70.646926030449094] [-85.62587898722245:346.79997850928407] [1375.1375155306462:1752.1166745355636] [1433.7625234188265:1756.8886308022429] [-900.50968682269081:599.58136304634922] [-612.67203279471391:916.57965476557115] [1243.8235048270169:2396.7564588583709] [1302.3375206477758:2400.22209957832] [-20328.49416805974:963.28807519630402] [-19446.646754104124:1308.183915966089] [-17999.889263107681:2742.1420084338456] [849.45232649912202:10203.258803930559] [-1250.0510621750036:20155.375770123643] [-908.535972625216:21023.925854341294] [830.81484554173437:10203.258803930559] [-18569.298674879043:2759.9125200262238] [-1225.8881081710042:450.75739322894719] [-548.01318977678693:1073.7524737813951] [1025.0822221319049:2073.1377706282278] [1025.0822221319049:2066.7168449129763] [-1155.4108044702805:-257.83020333419881] [-666.20621301689744:146.3905553560312] [921.53926012250486:1541.7922614489669] [1549.610512239964:1875.2824860281853] [-164.93757025813011:636.20080415889652] [221.56242190655553:1089.4907981878778] [1524.734116901833:1878.5927805893305] [918.48235789497801:1546.026659559898] [-190.36807918097929:233.28774573905616] [114.85597560229394:558.0980255414413] [1461.6021794560984:1772.8045645617592] [1350.8919591976637:1563.5340319579941] [-546.62025850318901:-138.23356710602343] [-238.54275811702539:223.62628436622504] [1311.7268953644077:1541.030393503172] [1458.9030317273384:1776.7854765638192] [-457.03452431318624:-9.3037294426071639] [8.1770781697321127:516.4983900790628] [1420.1518107413815:1622.9632930592177] [1450.7808304451255:1619.6592438445509] [-536.13719856418925:-9.3037294426071639] [8.1770781697321127:445.36297489639333] [1420.1518107413815:1622.9632930592177] [1450.7808304451255:1619.6592438445509] [0:1] [0:1] [0:1]
tree_sizes=3397 3380 3389 3390 3387 3392 3400 3389 3382 3391 3393 3381 3371 3405 3395 3389 3382 3365 3379 3359 3390 3373 3397 3379

Tree=0
num_leaves=31
num_cat=0
split_feature=14 18 9 9 4 14 5 3 46 15 1 25 12 2 51 23 1 39 22 31 60 41 4 29 41 18 46 106 64 8
split_gain=1194.57 243.8 174.792 60.2458 46.7886 40.4096 24.1211 19.478 16.7483 14.5569 14.5449 13.6719 13.5045 13.1578 11.9632 11.1791 10.7091 10.142 9.75878 9.71535 9.47552 9.96566 9.41102 9.2561 8.84192 11.2201 11.1134 11.2913 10.9018 9.51277
threshold=135.7140609907847 -2.6435316867721208 -110.91199354361935 -89.010899417168375 -224.33138230225663 101.27098579856897 2021.6259110163871 38.815070302687566 -37.825661785981303 1582.1905559873737 80.500000000000014 -265.14870001086109 1525.2815688467206 33.500000000000007 1525.7614567451767 2251.3283809235404 11.500000000000002 1731.2488388016079 -650.79951342577078 1740.9443933667887 1790.8599294416219 -53.34652051326065 230.57485215566729 -54.266684118562686 71.836082788637114 84.975604374034006 -23.53578132670361 1560.663052764676 113.41467659243348 67.846279663206118
decision_type=2 2 2 2 2 2 2 2 2 2 2 2 2 2 2 2 2 2 2 2 2 2 2 2 2 2 2 2 2 2
left_child=1 4 6 9 -1 20 7 11 17 -4 22 -2 -6 -12 -9 -11 -5 23 -14 -19 -3 -22 24 -8 26 -26 28 -28 -7 -30
right_child=2 5 3 16 12 10 8 14 -10 15 13 -13 18 -15 -16 -17 -18 19 -20 -21 21 -23 -24 -25 25 -27 27 -29 29 -31
leaf_value=-0.16189833721620067 -0.12614034478119091 -0.010060560764848125 0.030596175501217879 0.16681388860099319 0.012908894566571055 -0.096706039527684307 -0.083690870538038503 0.013469125184410544 0.10596998325100293 0.083067312508819199 -0.11725135231147098 0.010117400625957031 -0.11107437974821986 -0.035746542203918014 0.101554616173943 0.13776516945701886 0.11186242859556055 0.14814856571302443 -0.075928986849189736 0.0038611700884632547 -0.17456196165571797 -0.070025530628216828 0.033367686758783613 0.065861892564759855 0.07212283508691042 -0.010468001214185939 0.016305205369483284 -0.052539487131909784 -0.043749226529340324 0.00075768564860413667
leaf_weight=164.99808222055435 7.4999128282070151 25.499703615903854 48.999430477619171 121.99858200550079 10.499877959489821 26.499691992998123 12.249857619404795 25.499703615903854 55.749352023005486 421.4951009452343 22.499738484621048 405.99528110027313 303.99646663665771 165.49807640910149 38.999546706676483 40.999523460865021 49.99941885471344 8.7498982995748538 106.74875925481319 9.9998837709426862 9.4998895823955518 227.74735288321972 40.499529272317886 6.2499273568391791 22.999732673168182 57.749328777194023 100.24883480370045 31.2496367841959 142.24834664165974 72.499157339334488
leaf_count=660 30 102 196 488 42 106 49 102 223 1686 90 1624 1216 662 156 164 200 35 427 40 38 911 162 25 92 231 401 125 569 290
internal_value=-0.00682106 -0.0661005 0.0655239 0.0996414 -0.116759 -0.0346653 0.0246845 0.0156186 0.0712813 0.0824251 -0.0218283 0.00764598 -0.0990777 -0.0455011 0.0667301 0.0879162 0.15084 0.0193647 -0.10194 0.0711953 -0.0679855 -0.0742114 -0.0128192 -0.0331663 -0.0169439 0.0130563 -0.023443 -5.52254e-05 -0.0361911 -0.0287236
internal_weight=0 1530.98 1254.49 683.492 586.243 944.739 570.993 477.994 92.9989 511.494 681.992 413.495 421.245 187.998 64.4993 462.495 171.998 37.2496 410.745 18.7498 262.747 237.247 493.994 18.4998 453.495 80.7491 372.746 131.498 241.247 214.748
internal_count=11142 6124 5018 2734 2345 3779 2284 1912 372 2046 2728 1654 1685 752 258 1850 688 149 1643 75 1051 949 1976 74 1814 323 1491 526 965 859
is_linear=0
shrinkage=1


Tree=1
num_leaves=31
num_cat=0
split_feature=14 18 9 9 4 14 7 10 45 5 1 16 9 34 12 18 51 29 4 27 9 48 48 2 39 7 46 5 1 21
split_gain=969.618 198.914 142.453 49.9809 38.7609 32.8062 20.2616 26.0228 12.9558 13.1607 11.7927 11.5392 11.5618 12.4369 11.5266 12.0239 11.9592 11.9725 11.185 11.0557 10.8098 13.3659 12.2161 10.7577 10.5985 10.3829 10.1303 9.7115 9.49247 9.51599
threshold=135.7140609907847 -2.6435316867721208 -110.91199354361935 -92.253892420335646 -234.65338554974628 101.27098579856897 74.410659227532747 151.64361620644073 -388.97898662336428 2021.6259110163871 80.500000000000014 1609.0915123815087 -146.56750823178092 -281.14000285040828 1516.5142872874674 353.1418959617161 1548.6669134289175 2.7612996951826294 552.71939300658119 1625.9227951559399 -124.74204501370239 1614.5276363167347 1580.3904369158015 28.500000000000004 1725.3537132447661 65.490710580089072 -15.711931599978923 1992.9968854251563 86.500000000000014 -3997.9245728193046
decision_type=2 2 2 2 2 2 2 2 2 2 2 2 2 2 2 2 2 2 2 2 2 2 2 2 2 2 2 2 2 2
left_child=1 4 6 14 -1 -3 7 8 -2 19 -7 12 -6 -14 16 -16 17 25 -5 -10 -21 22 -22 -12 26 -4 -11 -9 29 -23
right_child=2 5 3 18 11 10 -8 27 9 24 23 -13 13 -15 15 -17 -18 -19 -20 20 21 28 -24 -25 -26 -27 -28 -29 -30 -31
leaf_value=-0.14256779567584585 -0.095407766290213566 -0.055125156651551405 0.14651074038421444 0.11561953703569934 -0.076779839876701117 -0.0054009417501738374 -0.015913628472137925 0.069714806567448273 0.11099520562378651 -0.025686559630321338 -0.11851926090544947 -0.096757861733298811 -0.051995520657370536 0.077775720122491454 0.077610289269579621 0.12835911443526818 0.12052157635698948 -0.064724562172228842 0.16162162680861941 -0.031394655652458477 0.0035866718272008729 0.10566030909843921 0.066140144044980406 -0.027994862130531664 0.092874733615432525 0.022621732670375636 0.13264172647608738 0.15762463768797597 0.082316760217014437 -0.019273609775917369
leaf_weight=152.9952632188797 8.731607183814047 262.39838391542435 8.2432300448417646 118.49111454188824 128.91562603414059 493.79913122951984 87.464279472827911 78.45084011554718 12.495778441429136 17.716780692338947 14.201135113835333 267.75109691917896 23.691918894648552 10.729716137051581 339.60753959417343 54.127959728240967 15.227073818445204 12.736965358257292 95.415486767888069 42.995332062244415 48.241076692938805 6.4979225397109976 88.481740653514862 173.66885544359684 48.619637861847878 37.718086034059525 5.2352887988090506 14.96326859295368 11.999688208103178 98.732792302966118
leaf_count=616 35 1051 33 476 517 1976 350 314 50 71 57 1074 95 43 1361 217 61 51 384 172 193 26 354 695 195 151 21 60 48 395
internal_value=0 -0.0534577 0.0652369 0.0960987 -0.099326 -0.0250794 0.0283749 0.0363923 0.0250305 0.0277906 -0.0135138 -0.0839793 -0.0630321 -0.011544 0.0777842 0.0845869 0.0415523 0.0210666 0.136139 0.0188524 0.014975 0.0228256 0.0440689 -0.0348376 0.0664351 0.0448414 0.0104276 0.0837964 -0.00194992 -0.011559
internal_weight=0 1528.15 1252.19 681.567 584.084 944.068 570.626 483.162 389.748 381.016 681.669 431.088 163.337 34.4216 467.661 393.735 73.9254 58.6983 213.907 309.444 296.949 253.953 136.723 187.87 71.5717 45.9613 22.9521 93.4141 117.23 105.231
internal_count=11142 6124 5018 2734 2345 3779 2284 1934 1560 1525 2728 1729 655 138 1874 1578 296 235 860 1238 1188 1016 547 752 287 184 92 374 469 421
is_linear=0
shrinkage=0.1


Tree=2
num_leaves=31
num_cat=0
split_feature=14 3 9 14 9 13 1 58 7 2 39 47 34 28 37 43 58 84 62 49 9 50 62 46 44 25 47 12 25 47
split_gain=789.735 165.175 118.547 50.0948 31.7742 19.528 19.1456 17.0122 13.1893 10.0466 10.8046 9.77595 13.6461 12.1315 10.7743 9.66191 9.50394 9.36624 9.28311 9.81208 9.19181 9.1646 9.09564 8.94135 8.66611 12.9218 8.70386 8.66527 9.05712 10.5696
threshold=135.7140609907847 -384.33128188538154 -105.86988659450252 101.27098579856897 -87.307200038062874 -100.50612500553505 82.500000000000014 -234.65338554974628 97.607270358432473 38.500000000000007 1708.3958187677724 1480.5971022943374 -270.82633900082618 1807.3838110872889 333.54126733892707 1620.8509477708396 230.57485215566729 445.34319809097116 66.089073169223795 -102.35962946358335 -117.68043470843712 133.15807310088886 65.322584102202214 -106.44688541530807 1469.2901505831508 -63.235428621247699 1435.0867189847058 1525.2815688467206 -405.72147057489559 1436.5231485689421
decision_type=2 2 2 2 2 2 2 2 2 2 2 2 2 2 2 2 2 2 2 2 2 2 2 2 2 2 2 2 2 2
left_child=1 7 5 9 6 8 -4 -1 11 10 24 12 13 14 18 17 20 -10 -2 -20 -5 22 -18 -14 25 -3 -27 -9 29 -29
right_child=2 3 4 16 -6 -7 -8 27 15 -11 -12 -13 23 -15 -16 -17 21 -19 19 -21 -22 -23 -24 -25 -26 26 -28 28 -30 -31
leaf_value=-0.13055816861414346 0.094758200703556825 -0.10761370691779458 0.083900916129470246 -0.017251005501695706 0.13514231848086394 0.053739907942274234 -0.058481958393796607 0.018110555575902045 0.014412693401372439 -0.036154844424176762 -0.052086981137388938 0.059059639783075983 -0.061677158842418214 -0.13803723924968533 -0.03527943841088426 -0.16077390343790399 -0.056523706567819958 -0.12189769496557115 0.030862990584027639 -0.046757911923277856 0.055744628304844494 -0.032554297301936201 0.084475550610376579 0.040650118835342086 -0.11975705028692454 -0.099000141332421174 0.049610016970318749 -0.0055487319342073758 -0.099501644937988229 -0.11893713212608462
leaf_weight=150.48549115657806 14.723852485418318 24.345512926578522 355.97662089765072 621.09022505581379 147.2284699678421 284.30136680603027 9.7013112008571607 7.4917407780885688 22.492095351219181 170.69037149846554 172.887017801404 70.669466733932495 8.9563231915235502 6.488987833261489 50.946064308285713 5.4938132613897315 5.4985149502754203 6.4969850778579703 55.936725780367851 22.97444212436676 17.743543803691864 15.493486553430555 27.242213845252991 183.38063398003578 55.349534675478935 5.7179709225893047 12.68220418691635 23.559388995170593 199.06370121240616 12.627194136381148
leaf_count=616 59 98 1436 2487 602 1143 39 30 90 686 696 284 36 26 204 22 22 26 224 92 71 62 109 735 223 23 51 95 804 51
internal_value=0 -0.048327 0.0590427 -0.0288826 0.0959165 0.0332359 0.0801235 -0.104141 0.0202403 -0.055158 -0.067128 0.0251887 0.0182184 -0.00427435 0.0017291 -0.0391805 -0.0119918 -0.016137 0.0218651 0.0082642 -0.0152236 0.0308106 0.060796 0.0358852 -0.0936368 -0.0598148 0.00342847 -0.0877642 -0.0911358 -0.0451153
internal_weight=0 1521.97 1245.77 1128.74 512.906 732.861 365.678 393.228 448.559 441.673 270.982 414.076 343.407 151.07 144.581 34.4829 687.068 28.9891 93.635 78.9112 638.834 48.2342 32.7407 192.337 98.0952 42.7457 18.4002 242.742 235.25 36.1866
internal_count=11142 6124 5018 4528 2077 2941 1475 1596 1798 1777 1091 1660 1376 605 579 138 2751 116 375 316 2558 193 131 771 395 172 74 980 950 146
is_linear=0
shrinkage=0.1


Tree=3
num_leaves=31
num_cat=0
split_feature=14 57 5 10 10 9 10 6 44 2 20 26 44 22 13 43 100 109 42 30 23 12 33 7 57 8 37 30 107 1
split_gain=644.588 138.096 99.6153 46.3222 41.4262 24.9658 15.8633 15.2506 13.9494 13.2475 12.3071 10.971 10.6663 13.0004 12.6996 10.1694 10.8002 9.65511 9.49279 10.6717 9.31254 9.77809 9.4998 9.03422 12.0811 11.7523 9.08176 11.9144 10.9837 8.78551
threshold=135.7140609907847 -384.33128188538154 1997.4011205675943 157.28681278595425 115.49201493522618 -113.33063206829216 90.174753623044367 1821.84155697454 1420.0015538898613 34.500000000000007 1707.1094493361277 297.00348884990655 1478.8873455501728 -38.140219824013677 -173.27375610116414 1701.8257816295707 -46.464181003684637 1537.3835011477843 278.68983993567389 214.9142017268895 1182.7542655415593 1523.8252193680239 -636.34494387188533 74.410659227532747 -208.38991275675218 74.412742556519433 323.61054791380565 79.865838876664967 -109.42016076019807 82.500000000000014
decision_type=2 2 2 2 2 2 2 2 2 2 2 2 2 2 2 2 2 2 2 2 2 2 2 2 2 2 2 2 2 2
left_child=1 6 5 8 9 7 -1 10 -4 -3 11 -2 13 17 -14 16 -10 -11 19 -13 -9 -22 -23 26 25 -25 27 -20 -29 -6
right_child=2 4 3 -5 29 -7 -8 20 15 12 -12 18 14 -15 -16 -17 -18 -19 23 -21 21 22 -24 24 -26 -27 -28 28 -30 -31
leaf_value=-0.11748730516919022 -0.13209124137222131 -0.062232540600247958 -0.027301420854849729 0.12136698401433024 -0.0018088129095712652 0.051223299288952431 -0.076829781608636391 0.052535594147965839 0.019377130605848246 -0.03630086095416616 0.074022510518246487 0.024564198387523259 -0.066125122741217873 0.1141224894280593 0.048618737238610592 0.10322649699653617 0.068356219235619339 -0.10906884062011078 -0.032154872721731682 -0.086343658841673471 0.075172431017396416 -0.077406820444993321 -0.010401364322768739 -0.044487543848538591 -0.045149400662033212 0.12919586129589924 0.002894831340555125 0.093371671927912778 0.0248500681409204 -0.027581329236237868
leaf_weight=175.85499060153961 4.9662269055843344 279.90711599588394 16.544182047247887 210.7818256020546 452.81835396587849 261.8731060475111 211.23826265335083 14.951807111501692 56.164480686187744 134.56485658884048 41.168341770768166 17.474348932504654 13.844472736120222 5.2303587645292273 31.803538501262665 62.431911543011665 226.89389097690582 21.091738924384117 14.212942108511923 17.230596140027046 7.7270551174879065 40.420349583029747 44.402373239398003 6.4929471164941814 33.969868555665016 9.7400851994752866 52.378254055976868 58.261659815907478 39.088395312428474 186.84455434978008
leaf_count=731 20 1133 67 876 1813 1059 865 60 227 542 165 70 56 21 128 254 921 85 57 69 31 162 178 26 136 39 210 234 157 750
internal_value=0 -0.0437745 0.0535391 0.0840982 -0.0260628 0.0271907 -0.0953003 0.0115541 0.0623998 -0.0480569 0.0233051 0.0150789 -0.0288454 -0.0409503 0.0138184 0.0666952 0.0586378 -0.046161 0.0180159 -0.0305002 -0.0206908 -0.0325208 -0.0423313 0.0258786 -0.0112383 0.0597253 0.0372447 0.0533718 0.0658586 -0.00933693
internal_weight=0 1513.2 1237.17 572.816 1126.1 664.358 387.093 402.485 362.034 486.442 294.984 253.815 206.535 160.887 45.648 345.49 283.058 155.657 248.849 34.7049 107.502 92.5498 84.8227 214.144 50.2029 16.233 163.941 111.563 97.3501 639.663
internal_count=11142 6124 5018 2345 4528 2673 1596 1614 1469 1965 1183 1018 832 648 184 1402 1148 627 998 139 431 371 340 859 201 65 658 448 391 2563
is_linear=0
shrinkage=0.1


Tree=4
num_leaves=31
num_cat=0
split_feature=13 17 11 10 62 9 20 10 3 3 24 51 108 28 41 2 1 1 28 14 17 52 48 27 1 43 43 50 79 22
split_gain=529.916 148.021 64.5125 30.7875 29.96 23.2305 18.2147 17.5617 16.4379 11.9342 11.2028 11.1773 10.972 10.799 11.1664 12.4616 13.0044 11.0083 10.2576 10.0234 9.87574 11.9011 9.97191 9.95479 9.79591 8.73785 11.0662 8.81343 8.72258 11.7335
threshold=-113.03439311080136 -263.53741305384204 1565.7316845912476 90.174753623044367 85.295987240875093 -110.91199354361935 1675.3809858390462 114.23366690667103 205.21530007606955 92.031792355530811 3249.9351540785697 1517.1656951483403 116.94614007375253 1177.8896909382845 75.441649450126206 10.500000000000002 17.500000000000004 95.500000000000014 1979.3247141578959 106.05199327750428 -379.21335918988774 1543.7425979677325 1695.6417643360685 2189.2434343116042 82.500000000000014 1616.784023572927 1603.0642208483162 133.74491198418494 -340.00582237046257 -7330.4421467662933
decision_type=2 2 2 2 2 2 2 2 2 2 2 2 2 2 2 2 2 2 2 2 2 2 2 2 2 2 2 2 2 2
left_child=1 3 5 -1 7 9 -5 13 -4 18 24 25 20 17 15 -15 -17 -3 -2 -18 -8 -22 28 -24 -7 26 27 -6 -23 -30
right_child=2 4 8 6 11 10 12 -9 -10 -11 -12 -13 -14 14 -16 16 19 -19 -20 -21 21 22 23 -25 -26 -27 -28 -29 29 -31
leaf_value=-0.1070815891782968 0.020473628684476719 0.078554397957508626 0.078458799178211094 0.043205550368375124 -0.093486117843594119 0.063517092834746033 -0.086737752869362444 -0.0083768914556571726 0.12973495853499403 0.083185061854602546 -0.066843910815566843 0.084550200831751798 -0.090149388924507107 -0.10916437835327644 0.031283033420877161 0.07347681236156095 -0.03982830788591786 -0.083230373352773335 -0.088217582574758965 -0.12365765741369875 -0.011411309127711785 0.012212617947015673 -0.046302870033251224 0.087910209928631786 -0.0077009995550844715 -0.095027107836594821 0.15576762389896151 0.070040782085183953 0.041356555217006721 -0.083558104634632646
leaf_weight=185.74219086766243 310.73081359267235 14.369977578520777 148.39556993544102 16.919473618268967 6.7214015275239998 396.46073170006275 68.708727285265923 750.19070944190025 108.03486573696136 30.216684758663177 7.0757448673248282 41.892376154661179 107.80336989462376 31.527561217546463 17.830626219511032 9.3941047340631467 160.54423958063126 5.9460579603910437 8.9323212057352048 15.6542472243309 77.499051705002785 12.224877059459685 15.827809274196627 8.4911505281925184 20.302684500813484 6.9490715414285651 5.4801909029483786 6.4668865650892258 8.0005369633436185 125.1146886497736
leaf_count=790 1252 58 614 68 27 1628 287 3008 465 123 29 169 442 128 72 38 650 24 36 63 316 50 65 35 82 28 22 26 33 514
internal_value=0 -0.0343057 0.0565927 -0.0729351 -0.0117562 0.042186 -0.0585397 -0.0160862 0.100062 0.0231147 0.0579293 0.0527313 -0.0626029 -0.0387425 -0.0447907 -0.0510381 -0.0411639 0.0312035 0.0174365 -0.0472761 -0.0532015 -0.0438786 -0.0587094 0.000558652 0.0600477 0.000697733 0.0363299 -0.0133006 -0.0686264 -0.0760504
internal_weight=0 1699.3 1030.15 626.332 1072.97 773.719 440.59 1005.46 256.43 349.88 423.839 67.5099 423.67 255.267 234.951 217.12 185.593 20.316 319.663 176.198 315.867 247.158 169.659 24.319 416.763 25.6176 18.6685 13.1883 145.34 133.115
internal_count=11142 6913 4229 2600 4313 3150 1810 4041 1079 1411 1739 272 1742 1033 951 879 751 82 1288 713 1300 1013 697 100 1710 103 75 53 597 547
is_linear=0
shrinkage=0.1


Tree=5
num_leaves=31
num_cat=0
split_feature=9 17 18 8 4 9 5 20 24 30 28 21 24 34 48 12 31 70 46 109 19 43 26 25 12 11 5 24 14 8
split_gain=437.16 99.349 78.2731 27.6132 26.827 26.2807 15.2558 14.7874 13.7079 11.7383 10.4178 11.685 11.2327 12.8616 11.9419 11.1921 10.3543 10.0194 9.27987 8.94347 8.75127 8.67998 8.54737 12.006 14.8329 8.53918 8.41632 8.38969 11.1603 8.32996
threshold=-124.96362714501161 -263.53741305384204 353.1418959617161 85.295987240875093 -224.33138230225663 -113.64613648837484 1976.7022916722403 1675.3809858390462 1704.8756224709812 152.89046538774917 1737.4247039965232 -574.70086510020769 2086.7554052137634 -473.32259847984966 1578.1010805983726 1517.8345282657865 1736.6154413076599 1630.4836294997947 -158.50364719434342 1514.2804338375333 1606.3549868003427 1578.6943828349326 338.72999440094219 234.00740356022143 1538.6753993614755 1518.9869665271622 1798.7200140603152 1817.8430169959631 151.74479579100537 67.761709648617781
decision_type=2 2 2 2 2 2 2 2 2 2 2 2 2 2 2 2 2 2 2 2 2 2 2 2 2 2 2 2 2 2
left_child=1 4 5 8 -1 29 -4 -6 9 -3 12 -12 15 -14 25 20 19 -13 -9 -11 -10 -5 -17 24 -24 -15 -27 28 -7 -2
right_child=2 3 6 21 7 27 -8 18 10 16 11 17 13 14 -16 22 -18 -19 -20 -21 -22 -23 23 -25 -26 26 -28 -29 -30 -31
leaf_value=-0.1040218136566643 0.0015835492595333669 0.068103126961455207 0.039008894966533765 -0.024994259709223823 0.035722045490071311 -0.094324103866731207 0.10395286182472817 0.029646997325641956 -0.15637121543787091 0.012347455178667971 -0.056035534387154896 -0.025769340552467958 -0.11234198357522361 0.1443257490542311 -0.0038382982363341848 -0.07879219424961241 0.095100363021915893 0.0693217906429653 -0.061131072157650915 -0.1106287711621963 -0.043923352214956406 0.056246568524520917 0.045321647465394889 -0.033352825197809528 -0.054087653876551893 -0.056380121580489231 0.075968947931662367 0.054448418591244246 0.032042448331811031 0.028706219052673093
leaf_weight=149.25439071655273 249.83170093595982 31.113816529512405 43.428087472915649 16.386423379182816 17.186017841100693 7.4348417669534674 216.44893461465836 11.558510154485701 11.464357003569605 11.693440958857542 165.85102736949921 59.361648663878441 9.6407788246870023 9.2076585739851016 183.70168268680573 24.303323373198509 6.2252841442823401 13.623640507459639 437.62616610527039 11.96470834314823 17.463906615972519 66.614670008420944 52.027856677770615 139.98545178771019 21.095737606287003 7.4675352722406414 13.475338220596312 377.35273493826389 116.54037143290043 207.10168325901031
leaf_count=660 1004 125 179 66 69 30 945 48 46 47 673 239 39 37 740 98 25 55 1820 48 70 271 209 562 85 30 54 1556 478 834
internal_value=0 -0.0363603 0.0444239 -0.0146597 -0.0671215 0.0312232 0.0931001 -0.0553121 -0.0204267 0.0251113 -0.0242387 -0.0413624 -0.0158895 0.000641733 0.00573521 -0.0297612 -0.0196507 -0.00801936 -0.0587952 -0.0498457 -0.0884868 0.0402077 -0.0226056 -0.016198 0.0166426 0.0640648 0.0287777 0.0470335 0.0244642 0.0138767
internal_weight=0 1488.29 1218.14 872.668 615.625 958.261 259.877 466.371 789.667 60.9972 728.67 238.836 489.834 223.493 213.852 266.341 29.8834 72.9853 449.185 23.6581 28.9283 83.0011 237.412 213.109 73.1236 30.1505 20.9429 501.328 123.975 456.933
internal_count=11142 6116 5026 3519 2597 3902 1124 1937 3182 245 2937 967 1970 900 861 1070 120 294 1868 95 116 337 954 856 294 121 84 2064 508 1838
is_linear=0
shrinkage=0.1


Tree=6
num_leaves=31
num_cat=0
split_feature=9 17 18 10 8 10 47 19 24 66 10 15 21 47 8 23 40 66 108 30 39 28 43 24 88 48 66 17 17 48
split_gain=358.025 83.1971 67.291 25.2285 22.4617 21.7957 15.0583 13.5251 11.1291 10.5624 10.0173 9.51676 9.12493 9.89104 8.97657 8.97235 9.80592 8.68611 8.9383 8.54024 8.91549 8.52338 9.88051 9.12863 10.5558 9.68007 9.15674 8.35373 8.32178 8.81168
threshold=-124.96362714501161 -263.53741305384204 353.1418959617161 90.174753623044367 85.295987240875093 135.97128997168718 1393.2469006637591 1820.8179270480116 1704.8756224709812 1543.0504503804373 181.71387957908146 1571.6011929925664 -3022.2193665871537 1503.6847086165787 67.324614946321546 1752.7057535245324 1231.1875063430562 1524.3278782403029 119.21641910893335 155.12497380886694 1716.5535908710565 1737.4247039965232 1624.650219438565 2086.7554052137634 -473.32259847984966 1578.1010805983726 1517.8345282657865 -379.21335918988774 -98.770426659061386 1583.4054651846927
decision_type=2 2 2 2 2 2 2 2 2 2 2 2 2 2 2 2 2 2 2 2 2 2 2 2 2 2 2 2 2 2
left_child=1 3 5 -1 8 12 14 -4 9 11 -9 19 -2 -14 -5 -7 -17 -8 27 -3 -21 23 -23 26 -25 -26 -10 -19 29 -27
right_child=2 4 7 6 -6 15 17 10 21 -11 -12 -13 13 -15 -16 16 -18 18 -20 20 -22 22 -24 24 25 28 -28 -29 -30 -31
leaf_value=-0.093435367300001959 0.054239839554606699 0.06957246600431341 0.02025229165593798 -0.035935363179125976 0.036373435539696186 0.028543322798916238 0.005853238764846792 0.08334055398169242 -0.080138429135449177 0.14351401285855545 0.13468591946625494 -0.10548616019279058 -0.00068861075664738492 0.076313934763874824 0.12810189023310448 0.078646884960379221 0.039281940983694086 -0.079231194680981665 -0.083533653051356571 -0.057286422295622377 0.065866353778912409 -0.066396610789846808 -0.023073190908555176 -0.10245665386343981 0.05770651127001325 -0.10429971253668985 -0.020387662195983394 -0.03869858694912006 0.076248388627478805 -0.0037387537835702565
leaf_weight=175.67976786196232 39.771723523736 21.955938696861267 27.636666610836983 5.9906342774629575 82.605961561203003 312.9392483830452 24.564822107553482 176.7630480080843 28.760628491640091 6.4587381333112708 48.4014742821455 6.4801573753356925 307.1835613399744 17.639252945780754 7.5282371938228607 98.171444475650787 178.04932031035423 64.584418758749962 87.880776897072792 17.145088449120525 8.9453900009393674 78.688197627663612 159.03830322623253 9.5199542641639692 30.121251165866852 9.2082631438970548 236.99035914242268 239.06549948453903 12.227490231394766 162.22183065116405
leaf_count=790 161 88 114 25 337 1280 99 789 116 26 221 26 1236 72 31 410 743 281 371 69 36 321 646 39 121 37 954 1000 49 654
internal_value=0 -0.0330369 0.0404037 -0.0615096 -0.0132357 0.0282453 -0.0484544 0.0862743 -0.0184378 0.022594 0.0943778 0.00827085 0.00902867 0.00349295 0.0554119 0.0401374 0.0532726 -0.051829 -0.055448 0.0236136 -0.0150622 -0.0218808 -0.0374134 -0.0143304 0.000574161 0.00516231 -0.0268541 -0.0473196 -0.00345534 -0.00914032
internal_weight=0 1475.66 1206.56 605.294 870.368 953.755 429.614 252.801 787.762 60.9853 225.165 54.5266 364.595 324.823 13.5189 589.16 276.221 416.096 391.531 48.0464 26.0905 726.776 237.727 489.05 223.299 213.779 265.751 303.65 183.658 171.43
internal_count=11142 6116 5026 2597 3519 3902 1807 1124 3182 245 1010 219 1469 1308 56 2433 1153 1751 1652 193 105 2937 967 1970 900 861 1070 1281 740 691
is_linear=0
shrinkage=0.1


Tree=7
num_leaves=31
num_cat=0
split_feature=13 4 11 10 8 4 16 33 18 9 29 24 107 13 1 21 103 9 47 13 47 22 11 10 90 111 27 8 45 41
split_gain=293.649 89.7125 47.2911 28.2214 14.6802 14.1803 12.7982 14.694 10.7149 10.1027 10.3486 13.3675 10.4429 9.74155 9.5203 8.94312 11.5799 8.93795 8.40571 8.3769 11.9404 8.37491 7.96373 9.25797 8.60537 7.92734 11.0611 7.77127 7.61823 9.0565
threshold=-113.03439311080136 23.489798550657614 1569.0696520507606 90.174753623044367 85.295987240875093 392.27281280175879 1616.3481931667957 -447.27151822713921 407.77874905342543 -140.43316712475448 -97.890440066259188 1945.8288343276122 -128.95896003040932 -142.55333391126655 81.500000000000014 -713.85102905562576 -114.79387651913338 -124.49784811225798 1393.2469006637591 -195.03709530487615 1450.7570941039846 -440.01585304153804 1539.6165409189439 175.80728050151222 1669.418197624899 1.0000000180025095e-35 2106.7944499082337 67.41438298989857 -390.57890233682673 102.32187693037453
decision_type=2 2 2 2 2 2 2 2 2 2 2 2 2 2 2 2 2 2 2 2 2 2 2 2 2 2 2 2 2 2
left_child=1 3 5 21 19 17 9 -8 -4 18 11 14 13 -13 -11 16 -14 -2 27 20 -3 -1 23 -7 -24 26 -6 -5 -19 -30
right_child=2 4 8 6 25 22 7 -9 -10 10 -12 12 15 -15 -16 -17 -18 28 -20 -21 -22 -23 24 -25 -26 -27 -28 -29 29 -31
leaf_value=-0.091648437311152103 -0.046055841175490865 -0.13398388334051192 0.067086706725934989 -0.03556712231596288 -0.0017837089494904075 0.04845682109412601 -0.062615254074609175 0.084405602251208675 0.11476031990914222 0.019569384179270989 -0.08562530955913028 0.12931249430487723 -0.049839474459840986 0.015351504477612191 -0.091574945210922423 -0.12501960957270139 0.11655841187658902 -0.072533363603468889 -0.042759689439892876 -0.0065388291609751433 0.046154483404016955 0.016176891229968862 0.11753503261672527 -0.063661280231123718 0.055011349745185983 0.092659044158891368 0.12638338893324352 0.12767918606741521 0.023325120195622856 0.059767076082399589
leaf_weight=162.07954889535904 17.268967375159264 11.700194805860521 110.41388285160065 5.975949898362158 42.74863974750042 22.561207175254822 234.81309506297112 7.0007069855928412 82.274104237556458 14.317914605140688 12.526588574051855 17.444383293390274 9.2635665833950078 13.159355804324148 16.691050171852112 5.1706864237785366 7.6244892925024041 7.6033158600330344 246.26936592161655 808.40617975592613 5.3677802234888068 7.5384555608034125 26.487680152058601 10.934212774038313 130.30698946118355 20.062020659446716 7.9925205111503592 5.6952722519636154 508.71530504524708 78.752936020493507
leaf_count=755 70 48 480 25 174 93 1002 29 398 58 51 71 38 53 68 21 31 31 1035 3261 22 33 117 45 573 82 33 23 2093 329
internal_value=0 -0.0257279 0.0429548 -0.0508675 -0.0042544 0.0322746 -0.0406245 -0.0583589 0.0874424 -0.0285151 -0.000857811 0.0118329 0.0425039 0.0803102 -0.0402558 -0.00994754 0.0252846 0.024865 -0.0388298 -0.00800258 -0.0773314 -0.0868563 0.0561183 0.0118571 0.0655736 0.0394445 0.0184046 0.0440931 0.0269231 0.0282103
internal_weight=0 1661.85 995.319 765.57 896.277 802.631 595.952 241.814 192.688 354.139 96.198 83.6714 52.6625 30.6037 31.009 22.0587 16.8881 612.341 257.941 825.474 17.068 169.618 190.29 33.4954 156.795 70.8032 50.7412 11.6712 595.072 587.468
internal_count=11142 6913 4229 3293 3620 3351 2505 1031 878 1474 391 340 214 124 126 90 69 2523 1083 3331 70 788 828 138 690 289 207 48 2453 2422
is_linear=0
shrinkage=0.1


Tree=8
num_leaves=31
num_cat=0
split_feature=9 3 18 2 9 9 1 4 27 3 107 8 12 8 38 28 70 11 4 4 32 22 1 32 37 38 2 39 12 84
split_gain=243.146 60.3742 50.2992 25.0188 15.4871 14.9634 12.8396 12.0626 10.1132 10.0984 10.0926 16.1687 8.49322 7.92758 9.21306 7.84512 12.2274 14.4534 12.3736 10.8917 10.4629 10.359 12.4803 8.69974 8.55625 8.48906 8.95525 8.76885 8.68903 8.4138
threshold=-124.96362714501161 -384.33128188538154 353.1418959617161 72.500000000000014 -113.64613648837484 -146.56750823178092 7.5000000000000009 -234.65338554974628 2773.2976747226926 -352.20104791848752 -160.38721026237371 69.549129615105997 1525.2815688467206 67.551206139300405 876.09750497528432 1707.4892121276955 1571.9550273738139 1529.5259692331358 53.007669302691745 110.15249090772944 1680.4970164141932 -256.30510985437655 36.500000000000007 1761.7481051445454 314.05793083043403 836.57500086463244 49.500000000000007 1744.5806204727576 1519.4782786762059 225.21379516606865
decision_type=2 2 2 2 2 2 2 2 2 2 2 2 2 2 2 2 2 2 2 2 2 2 2 2 2 2 2 2 2 2
left_child=1 7 4 5 -2 9 -4 -1 13 10 11 -3 -9 -5 -15 16 20 18 -18 24 25 22 -17 -19 -20 26 -7 28 -28 -23
right_child=2 3 6 8 -6 15 -8 12 -10 -11 -12 -13 -14 14 -16 21 17 23 19 -21 -22 29 -24 -25 -26 -27 27 -29 -30 -31
leaf_value=-0.088194335817547209 0.010020886569159435 -0.12929251359358282 0.10224418713790343 -0.02726326944933339 0.035649749011973202 -0.086898507946551698 0.05513905228835228 0.034563537072404955 0.13377575115335458 -0.063216028792583798 0.022560247890042788 0.083713635966036037 -0.054033042499639486 0.0097450900544532957 0.14430906706143609 -0.016519268414523443 0.088617722100187132 -0.016703882875219029 0.021793853360642906 0.091048464492400283 -0.098642122125875351 0.0080682781849122902 -0.067669901836595825 0.060140769563761576 -0.14891115259046217 0.10475949110551 -0.078843798741942583 -0.092407386272686243 0.049928638281623791 -0.094301002800307954
leaf_weight=125.47983708977699 455.35287967324257 13.043166652321817 98.985246866941452 62.359153851866722 488.97166606783867 18.07722145318985 139.29202805459499 11.383888095617293 6.1934307515621176 143.82078133523464 32.06359526515007 4.9032807201147071 218.55255316197872 256.20836153626442 5.1910787522792807 93.171535134315491 33.764052450656891 135.18640644848347 5.4278522431850451 6.4437314420938483 21.28237196803093 82.973046183586121 97.7396599650383 16.534507572650909 6.3964390754699707 5.2065355628728858 6.6604488790035274 8.4416089355945569 24.568741977214813 8.8889753073453885
leaf_count=616 1838 56 491 253 2064 73 633 46 26 604 137 21 966 1040 21 385 138 547 22 26 86 337 406 67 26 21 27 34 99 36
internal_value=0 -0.0274467 0.0336511 -0.0158188 0.0232915 -0.0257506 0.0747075 -0.063256 0.00719592 -0.0497564 -0.0110488 -0.0710955 -0.0496467 0.00477448 0.0124174 -0.0175982 -0.005981 0.00726781 0.0527478 -0.0135491 -0.0380273 -0.0294298 -0.0427066 -0.00832937 -0.0705503 -0.0175359 -0.028562 -0.00197925 0.0224645 -0.00183743
internal_weight=0 1449.96 1182.6 1094.55 944.325 764.594 238.277 355.416 329.952 193.831 50.01 17.9464 229.936 323.759 261.399 570.763 287.99 203.753 52.0321 18.268 84.2369 282.773 190.911 151.721 11.8243 62.9546 57.748 39.6708 31.2292 91.862
internal_count=11142 6116 5026 4488 3902 3148 1124 1628 1340 818 214 77 1012 1314 1061 2330 1166 826 212 74 340 1164 791 614 48 254 233 160 126 373
is_linear=0
shrinkage=0.1


Tree=9
num_leaves=31
num_cat=0
split_feature=9 3 9 2 10 9 4 19 27 3 107 8 44 14 25 33 12 28 11 6 21 36 35 9 31 49 31 4 21 26
split_gain=199.25 51.1904 43.5944 20.4318 15.6155 12.4071 11.3612 8.95903 8.39724 8.36919 8.35841 13.5669 8.35586 8.12974 7.89268 11.2539 9.73462 7.73205 8.42799 10.1137 8.03455 7.71193 11.9255 11.0785 7.47455 10.2707 7.69081 7.3011 7.8054 12.7308
threshold=-124.96362714501161 -384.33128188538154 -92.253892420335646 72.500000000000014 135.97128997168718 -146.56750823178092 -308.82377502083847 2072.9299346217217 2773.2976747226926 -352.20104791848752 -160.38721026237371 69.549129615105997 1480.6595341572304 117.69475773539001 -405.72147057489559 -651.23323833675556 1523.40032877164 2068.0401256573305 1565.7316845912476 2110.6748969905452 -3022.2193665871537 1772.4440522665041 1244.2328859336897 -117.09433635792412 1666.6311298597946 -144.80314137131992 1703.5638139379 283.71027960984571 -503.75071612753055 450.63322773261592
decision_type=2 2 2 2 2 2 2 2 2 2 2 2 2 2 2 2 2 2 2 2 2 2 2 2 2 2 2 2 2 2
left_child=1 6 4 5 13 9 -1 -4 -5 10 11 -3 -6 -2 15 -8 -16 18 19 20 -15 27 -23 -24 25 -12 -26 28 29 -22
right_child=2 3 7 8 12 -7 14 -9 -10 -11 24 -13 -14 17 16 -17 -18 -19 -20 -21 21 22 23 -25 26 -27 -28 -29 -30 -31
leaf_value=-0.094939840656004693 0.080856315386883176 -0.12093065517731212 0.060705309323523353 0.0042991919618764534 0.028288773469261275 -0.015907776219210697 -0.064517104984528617 0.10883758908791566 0.12304906766802576 -0.057700311869276669 0.12826482904359213 0.073847293425728142 0.067072801931913423 0.060164251725946409 0.042569795059819358 0.034742358484971002 -0.061129200689364165 -0.059145526024354071 0.064327403865053645 -0.12396302668624436 -0.15907984407887579 0.033219832155547177 -0.11091914033289113 0.016789513282452918 -0.14054619964113088 -0.0086225467757941911 0.034304644871024463 -0.051395896447890582 0.036865665921582691 0.0038460264424990433
leaf_weight=68.371258467435837 13.970241025090216 12.574862182140352 114.21314460039139 323.5741593837738 573.78716798126698 568.89101149141788 21.405114904046059 58.467756479978561 6.0664857327938071 141.91431164741516 9.921205207705496 4.9970901906490317 61.504624500870705 24.120035260915756 9.4351613372564298 24.492394164204597 223.22294226288795 18.900022655725479 23.507338523864746 6.2250915467739096 4.9938026070594779 16.327240765094757 22.186926886439327 9.789867624640463 4.9267330765724164 12.247594818472864 5.1400770843029022 19.173761680722237 83.124875202775002 121.05744028091431
leaf_count=352 56 56 551 1314 2427 2330 99 309 26 604 42 21 270 98 38 111 1028 77 98 25 20 66 89 40 21 52 22 78 335 487
internal_value=0 -0.0249562 0.0306085 -0.01431 0.0225865 -0.0233221 -0.0584129 0.0770023 0.00648459 -0.0453226 -0.0100554 -0.0655399 0.0320436 0.00605256 -0.0494474 -0.011549 -0.0569238 0.00306169 0.00661902 0.00220021 0.0048114 -1.45364e-05 -0.0363158 -0.0718204 0.0201898 0.0526387 -0.051268 0.00766446 0.0130781 -0.00260865
internal_weight=0 1437.18 1171.35 1090.25 998.668 760.613 346.927 172.681 329.641 191.722 49.8076 17.572 635.292 363.377 278.556 45.8975 232.658 349.406 330.506 306.999 300.774 276.654 48.304 31.9768 32.2356 22.1688 10.0668 228.35 209.176 126.051
internal_count=11142 6116 5026 4488 4166 3148 1628 860 1340 818 214 77 2697 1469 1276 210 1066 1413 1336 1238 1213 1115 195 129 137 94 43 920 842 507
is_linear=0
shrinkage=0.1


Tree=10
num_leaves=31
num_cat=0
split_feature=9 4 27 4 8 43 100 106 108 28 100 13 3 2 1 106 45 37 52 13 42 35 35 84 47 7 38 12 5 32
split_gain=164.598 59.423 30.9415 20.3767 11.4325 9.89181 12.7084 16.0347 11.162 9.85171 12.8119 9.74201 9.64453 14.9293 11.7891 9.61087 10.8675 9.66219 9.26804 8.41586 9.15497 10.4865 16.524 8.28258 12.2997 12.9702 11.7464 9.40006 10.4423 8.92986
threshold=-118.77428000595124 23.489798550657614 8208.4373467946698 -234.65338554974628 74.184197477501471 1634.4873968633476 -39.917412136966838 1504.7655582522113 186.56363530425168 2034.6353764067537 -82.741540888516838 -189.84522794476285 -98.854168465293682 37.500000000000007 93.500000000000014 1506.009643317592 -271.99798280767317 272.02945111593948 1500.4321115673608 -183.73607397629584 364.2171150091562 1311.8845617865138 1364.6417002942578 196.23803374689342 1418.8180852919802 68.825906467106577 800.43154615763467 1552.9368250826453 1744.2268874182607 1591.4968867481923
decision_type=2 2 2 2 2 2 2 2 2 2 2 2 2 2 2 2 2 2 2 2 2 2 2 2 2 2 2 2 2 2
left_child=1 3 5 -1 11 6 7 -2 9 15 -11 -3 -8 -14 -15 16 17 -7 -5 -13 -21 -22 -23 24 25 -20 -25 28 -26 -30
right_child=2 4 -4 18 -6 8 12 -9 -10 10 -12 19 13 14 -16 -17 -18 -19 23 20 21 22 -24 26 27 -27 -28 -29 29 -31
leaf_value=-0.078141010079439729 0.06910699231787952 -0.081044509889950572 0.083318680614486412 0.090023230374320959 0.020133517368437055 0.010434744403043711 0.076267429827693467 -0.094237838042193156 0.097023964097040227 0.016392257757956479 -0.17331301363292034 0.11922939647157751 -0.084639419647753456 0.026444810075272669 -0.076150626969514967 0.039473595653140084 0.05693512513535607 -0.10716786341726366 0.081328288945817423 -0.0096887560497111152 -0.069896310728557912 0.15076921274154459 0.016402210612742746 -0.076907469690068203 -0.03980608885728576 -0.017179012860902367 0.047413551412109393 -0.048226541062749415 0.12234798398178895 -0.0034274445046623943
leaf_weight=116.3110776245594 8.2932817190885562 17.52323842048645 114.85814349353313 6.1125720739364615 188.29341793060303 14.261350631713869 26.74849209189415 21.824920803308487 28.108973026275635 11.193194478750231 5.2204211056232444 5.3603574484586707 14.709434777498243 177.00353318452835 11.95678588747978 424.03859566152096 15.63300861418247 13.694978982210158 18.924139499664307 697.36745288968086 8.6484394967555982 12.141691014170645 37.172880604863167 71.557878419756889 118.16936801373959 45.511409223079681 8.5031590312719327 246.8640016913414 6.0081419646739951 93.357724249362946
leaf_count=616 34 74 580 25 772 61 109 89 137 47 22 22 62 751 49 1855 71 59 80 2825 35 49 150 308 508 196 36 1104 25 391
internal_value=0 -0.0182506 0.0348907 -0.0397576 -0.00197706 0.027692 0.0118284 -0.0492596 0.035762 0.0322044 -0.0439443 -0.00732685 0.0198133 0.012399 0.0199529 0.0348772 -0.00983683 -0.0471753 -0.0324985 -0.00562869 -0.00651477 0.0316722 0.0494846 -0.0337284 -0.0291904 0.0117517 -0.0637035 -0.0348712 -0.0197152 0.00417755
internal_weight=0 1697.83 887.545 731.319 966.507 772.687 260.536 30.1182 512.151 484.042 16.4136 778.214 230.418 203.67 188.96 467.628 43.5893 27.9563 615.008 760.691 755.33 57.963 49.3146 608.896 528.835 64.4355 80.061 464.399 217.535 99.3659
internal_count=11142 7216 3926 3289 3927 3346 1094 123 2252 2115 69 3155 971 862 800 2046 191 120 2673 3081 3059 234 199 2648 2304 276 344 2028 924 416
is_linear=0
shrinkage=0.1


Tree=11
num_leaves=31
num_cat=0
split_feature=9 17 4 2 9 30 1 9 80 44 9 7 35 7 14 46 2 15 6 106 104 47 33 73 22 22 82 12 44 6
split_gain=135.293 38.2096 35.7199 16.1546 15.4821 10.5904 10.4728 10.4481 9.52397 8.44842 7.5967 10.5812 10.6461 9.26404 12.0575 8.09561 8.01681 9.86082 11.1994 7.58322 10.1686 9.95078 11.548 7.51327 10.2373 7.49583 7.35612 7.3562 7.16431 6.975
threshold=-124.96362714501161 -379.21335918988774 552.71939300658119 72.500000000000014 -105.86988659450252 37.732147885491038 82.500000000000014 -140.43316712475448 -29.232172113814155 1472.992913305088 -138.14102913749568 69.37870144227351 1270.6773169331032 65.45965482353769 95.503825047970636 -15.180951450177757 55.500000000000007 1598.9641566531629 1926.9854229145983 1546.5259664632042 122.99913120602845 1437.1856571641247 -702.92445132082707 1759.2652024616402 93.44107334073351 -510.68677961371094 2060.6333253092093 1571.0104260364471 1449.4759290842078 1884.5959238843711
decision_type=2 2 2 2 2 2 2 2 2 2 2 2 2 2 2 2 2 2 2 2 2 2 2 2 2 2 2 2 2 2
left_child=1 5 4 7 26 28 -6 8 -3 -7 11 15 -13 14 -12 -9 17 18 -16 20 -10 -22 -23 29 -25 -20 27 -2 -1 -5
right_child=2 3 -4 23 6 9 -8 10 19 -11 13 12 -14 -15 16 -17 -18 -19 25 -21 21 22 -24 24 -26 -27 -28 -29 -30 -31
leaf_value=-0.0058168320639995314 0.012968089067394887 0.01045611614050149 0.089071417636994027 0.0022851047174211893 0.040215703393859603 0.022682217964787491 -0.068186433085506287 -0.017521574722738738 -0.0055759022657881864 -0.053396209682897801 -0.12726390776309934 0.024803917544106678 0.2051235802280037 -0.022826042209739442 0.0074427315665526825 0.094295190393524755 -0.043162348143323072 -0.0079503460210254961 0.19798257976360537 -0.049668600091530901 -0.1165905909071162 -0.067217855496209428 0.06146216841626017 0.015583211452819471 0.11633085801572185 0.069596656101755278 -0.041470125300959768 0.12499866617072673 -0.085958906180132286 -0.05255186687582343
leaf_weight=12.3291919529438 676.31840018928051 46.593024715781212 82.019029334187508 250.08153446018696 351.07224616408348 21.265857040882111 9.1444080919027311 40.692992076277733 119.14339023828506 46.543611600995064 5.2046374082565299 7.7925056070089322 5.6468254923820496 314.41358253359795 11.377650916576387 7.700168088078498 11.59747178852558 18.419610023498535 9.1157600283622742 219.26431430876255 18.871341392397881 21.155249342322353 10.403745055198668 52.10018216073513 12.507170230150221 9.0748480260372162 24.832082360982895 5.9123511463403693 117.08257879316807 25.566445469856262
leaf_count=57 2792 202 455 1016 1614 102 38 172 509 240 22 32 23 1282 46 32 47 76 37 978 81 92 44 213 53 37 102 25 617 106
internal_value=0 -0.0207188 0.0254768 -0.0141004 0.0205896 -0.0615497 0.0374638 -0.0212798 -0.032268 -0.0295371 -0.0104311 0.0220704 0.100569 -0.0157308 0.0187011 0.000270359 0.0314508 0.0494829 0.0852611 -0.0373875 -0.0215076 -0.0591468 -0.0247972 0.00439304 0.0350867 0.133934 0.011993 0.013939 -0.0783237 -0.00280104
internal_weight=0 1413.94 1149.3 1216.72 1067.28 197.221 360.217 876.467 435.431 67.8095 441.036 61.8325 13.4393 379.204 64.79 48.3932 59.5853 47.9879 29.5683 388.838 169.574 50.4303 31.559 340.255 64.6074 18.1906 707.063 682.231 129.412 275.648
internal_count=11142 6116 5026 5100 4571 1016 1652 3712 1906 342 1806 259 55 1547 265 204 243 196 120 1704 726 217 136 1388 266 74 2919 2817 674 1122
is_linear=0
shrinkage=0.1


Tree=12
num_leaves=31
num_cat=0
split_feature=9 4 27 10 8 23 38 9 35 16 87 47 16 13 8 36 14 45 32 21 44 31 25 24 4 37 109 46 32 9
split_gain=112.48 41.6265 25.6119 16.386 8.96609 8.70657 18.6941 8.59942 8.51703 9.15168 8.01712 8.51901 7.95533 8.23516 12.0471 9.618 8.7348 8.67962 14.0316 8.13495 9.02931 8.19695 7.88514 7.85702 7.66008 7.46936 13.0361 9.49975 9.40247 8.14245
threshold=-118.77428000595124 23.489798550657614 8208.4373467946698 90.174753623044367 107.36223158216646 1534.2911832821603 539.70822018677757 -75.693686561532999 1493.4126680717814 1616.3481931667957 -590.60098097101479 1426.7092575005584 1494.3096835052959 -81.161939798356784 64.878196151833478 1688.9240993862297 142.38381230161033 -373.2889860800488 1646.1025298594216 -385.3416239666854 1436.1475990950623 1705.6422936273691 1017.559436882781 2500.6389824595767 -194.68765791409689 331.21357188607846 1499.986092082507 9.1359161694464337 1608.1352763747975 -149.02195234311748
decision_type=2 2 2 2 2 2 2 2 2 2 2 2 2 2 2 2 2 2 2 2 2 2 2 2 2 2 2 2 2 2
left_child=1 3 7 5 -3 -1 24 10 9 25 11 -2 -12 15 -15 16 -14 18 -17 21 -21 22 -18 -19 -7 -5 -27 28 -28 -30
right_child=2 4 -4 8 -6 6 -8 -9 -10 -11 12 -13 13 14 -16 17 19 23 -20 20 -22 -23 -24 -25 -26 26 27 -29 29 -31
leaf_value=-0.07961176033791463 -0.12032120911033078 -0.0037781819986469757 0.074846743415775852 -0.024456043474611708 0.041278828074474777 0.18531091820947831 -0.062771116931681636 0.10089777337339145 0.087813011882883568 -0.043023380040691353 -0.11708237429178942 0.013527740985187107 0.07554488784497658 -0.086372503880746299 0.058414070288930746 0.079491227753508545 0.044059922417209491 0.053951916578331587 -0.14717813319510262 -0.044702869716019666 0.06689380666638968 -0.185107521824772 -0.12646260498005404 -0.018482004733122889 0.012361254688904356 0.10597507241261646 0.082662384420237239 -0.099025091355361722 -0.097065815476012438 0.011892283859330376
leaf_weight=101.23798005282879 4.8112777620553961 917.25944024324417 107.73232014477253 268.74503126740456 46.399102210998535 4.7179796099662781 33.007917195558548 13.82343779504299 6.5181387513875952 220.44848871231079 3.5034274309873572 407.19559986889362 9.1011172980070096 5.996727153658866 137.87824818491936 4.8154241293668729 5.7059407085180265 101.7823940217495 6.3091001361608505 18.409802868962295 11.960623413324354 5.6910348087549201 5.16761514544487 17.558653101325035 5.6012538671493513 12.229417085647581 13.109585508704184 9.5082505047321302 9.2593527138233096 26.452785804867752
leaf_count=554 20 3731 580 1166 196 26 182 79 27 1009 15 1759 37 28 653 20 24 433 26 78 52 24 22 76 26 52 55 40 42 110
internal_value=0 -0.0151502 0.0292166 -0.033508 -0.00160874 -0.0635571 -0.026044 0.022746 -0.0258367 -0.0271601 0.0212976 0.0119647 0.0328143 0.0344039 0.0523793 0.0205369 -0.014114 0.0354198 -0.0490608 -0.0314997 -0.000753344 -0.0878718 -0.0369802 0.0432947 0.0914343 -0.0168536 0.0121025 -0.00757875 0.0102308 -0.0163581
internal_weight=0 1674.49 867.443 710.836 963.659 144.565 43.3272 759.71 566.271 559.753 745.887 412.007 333.88 330.377 143.875 186.502 56.0361 130.466 11.1245 46.935 30.3704 16.5646 10.8736 119.341 10.3192 339.304 70.5594 58.33 48.8217 35.7121
internal_count=11142 7216 3926 3289 3927 788 234 3346 2501 2474 3267 1779 1488 1473 681 792 237 555 46 200 130 70 46 509 52 1465 299 247 207 152
is_linear=0
shrinkage=0.1


Tree=13
num_leaves=31
num_cat=0
split_feature=3 9 1 2 0 10 41 13 3 41 32 103 6 24 48 51 21 40 27 46 85 30 17 33 24 2 47 23 22 39
split_gain=92.6468 34.9773 24.8433 13.4328 12.3725 11.9536 10.1768 8.84552 10.175 10.6653 11.0091 9.0592 8.41441 7.92487 8.53656 17.8337 8.82475 8.51489 8.40191 8.28875 11.6527 8.29578 7.68683 9.39979 7.36666 7.28135 10.2124 9.60478 8.77909 11.4249
threshold=-57.969923663463526 -146.56750823178092 13.500000000000002 63.500000000000007 4.0000000000000009 181.71387957908146 -49.971985312734311 -101.11755943994727 -91.009058102001958 34.226032663289637 1637.8797023051616 -89.735754322083366 1624.1655000836051 4022.0935298468498 1567.4250546740932 1530.5660784413533 -390.48038226501654 1115.1315563879882 7279.5336926036189 -54.762559110994168 1773.6367418981256 280.94825436126661 -56.269708402665167 -640.9667895605063 2183.9397370778329 11.500000000000002 1487.4320532978329 1820.6080574172404 -2406.8203190820909 1784.5373675821727
decision_type=2 2 2 2 2 2 2 2 2 2 2 2 2 2 2 2 2 2 2 2 2 2 2 2 2 2 2 2 2 2
left_child=1 3 5 6 13 -2 -1 12 -9 10 -10 -11 -3 14 15 16 17 -4 19 20 -16 -22 25 -24 -5 27 -27 -14 -28 -30
right_child=2 7 4 24 -6 -7 -8 8 9 11 -12 -13 22 -15 18 -17 -18 -19 -20 -21 21 -23 23 -25 -26 26 28 -29 29 -31
leaf_value=-0.071343641737412353 0.045347341409990298 0.10245363454463385 -0.011219300725156827 0.0031005141871425115 0.049053190073753992 0.11701462029191215 -0.034395100863783105 0.070822720436892167 -0.19165446762034857 0.00058924390970618032 0.0044657732428265888 0.15845097443374118 -0.066598266034064726 -0.096660635364597458 -0.037214657952147574 0.022923604650531976 0.022293717735401956 -0.14793112285392682 -0.08110271670427277 0.023645760083856899 -0.026446622963596195 0.12509586956297486 -0.12874775452413256 -0.00067549450485429813 -0.063470977659417685 -0.0050945576422996878 0.10945121566983247 -0.0061390270609196522 -0.024520925372416329 0.069819785781823615
leaf_weight=95.422883182764053 228.92388959228992 7.1470886617898932 6.293148070573813 116.08858785033226 93.34440416097641 25.907018691301346 340.70243175327778 33.495535269379616 5.2612031251192075 17.226886406540871 6.2772843986749649 4.6075642406940487 42.443292185664177 6.9343877434730521 51.543088838458061 37.976455420255661 6.4505420327186576 16.502681374549866 8.7493028342723829 373.89658257365227 6.114509090781211 8.8274161666631681 11.278311088681223 11.650548353791235 19.400293245911598 805.61501906812191 13.047288134694098 68.98247230052948 28.687770023941994 23.232325375080109
leaf_count=512 1142 29 26 483 408 166 1640 143 22 74 27 20 186 29 216 170 28 68 38 1615 26 38 46 48 83 3298 54 294 118 95
internal_value=0 -0.0139352 0.0263689 -0.033935 0.0155148 0.0526333 -0.0424793 -0.00333957 0.031886 -0.00719374 -0.0849592 0.0339016 -0.00566692 0.00953222 0.0109583 -0.0222767 -0.0809693 -0.11019 0.0159327 0.0178606 -0.0146739 0.0630819 -0.00643587 -0.063672 -0.00643168 -0.00509947 -0.00201886 -0.0291686 0.0361207 0.0176931
internal_weight=0 1650.57 871.463 571.614 616.633 254.831 436.125 1078.95 66.8685 33.3729 11.5385 21.8345 1012.08 523.288 516.354 67.2228 29.2464 22.7958 449.131 440.382 66.485 14.9419 1004.94 22.9289 135.489 982.008 870.582 111.426 64.9674 51.9201
internal_count=11142 7172 3970 2718 2662 1308 2152 4454 286 143 49 94 4168 2254 2225 292 122 94 1933 1895 280 64 4139 94 566 4045 3565 480 267 213
is_linear=0
shrinkage=0.1


Tree=14
num_leaves=31
num_cat=0
split_feature=9 4 17 96 46 3 52 8 47 9 26 4 28 12 51 4 52 3 104 37 34 33 43 41 7 39 45 37 9 20
split_gain=76.2659 26.5877 25.5875 10.774 11.4421 11.1574 10.5955 10.5168 9.62105 9.06212 10.0023 9.79387 8.56774 9.66637 8.28106 8.31182 8.1162 8.08396 8.05049 8.4404 8.86918 12.3171 8.47066 8.33257 10.2481 8.27411 8.69921 10.5101 10.6741 10.4502
threshold=-124.96362714501161 552.71939300658119 -390.21303884043385 363.63407842940313 -52.708389052406567 241.25238801470667 1505.7163284790447 85.295987240875093 1449.662885388522 -146.56750823178092 -29.232172113814155 303.54439608263402 2139.3091363652675 1569.1673221470207 1592.6066792168024 286.17863330296819 1485.1740530211566 147.8920940576086 109.93821793080828 462.46101068537433 -374.90588847470389 -589.50690845750762 1632.681090158876 69.073918958988557 67.551701403707625 1676.9388058639527 -305.98395384482609 355.90229800907292 -110.91199354361935 1655.5978057767704
decision_type=2 2 2 2 2 2 2 2 2 2 2 2 2 2 2 2 2 2 2 2 2 2 2 2 2 2 2 2 2 2
left_child=2 3 -1 5 17 12 8 9 -6 10 -4 14 13 18 15 16 -11 -5 23 25 -21 22 -22 -2 -25 -20 -27 -28 -29 -30
right_child=1 -3 7 4 6 -7 -8 -9 -10 11 -12 -13 -14 -15 -16 -17 -18 -19 19 20 21 -23 -24 24 -26 26 27 28 29 -31
leaf_value=-0.052740085918221685 -0.0022327166270420542 0.07784282835347163 0.018689091262299791 0.011177703512064062 -0.10029679608108905 -0.098630396843965601 0.05727714033147762 0.022038682032070496 0.028343765023014528 0.20889758731595523 -0.032286831232270961 0.095696087158270285 -0.081131114279473809 0.097906927608575431 -0.12637409339670608 -0.13623507899645082 -0.0070754550174947327 -0.10950763258357005 0.05584760621206717 0.16495801172646332 0.057444349039631651 0.14171318447130829 -0.10748327745235804 -0.14254652698152351 0.025696645043456152 -0.012571853819567325 0.027319184009744979 -0.028477141074954488 -0.036800276143904402 0.038316901379146485
leaf_weight=164.41942337155342 45.387256175279617 72.769454747438431 43.678649574518204 82.239698886871338 8.2568986713886279 9.4502171874046308 153.2153322994709 90.737378180027008 19.64981484413147 1.7441280037164677 324.16082924604416 9.1542487889528257 10.028725594282148 12.848464518785475 5.8998978286981574 4.9766530990600577 738.39330618083477 5.9519769549369803 39.240806952118874 7.0574325621128109 6.2097014039754903 6.8453437685966465 6.246752142906189 10.731274366378786 5.4638988673686972 148.84959335625172 283.0246691852808 88.340117201209068 24.747686818242073 73.599836722016335
leaf_count=928 185 455 195 352 35 51 731 381 92 7 1466 37 43 59 26 20 3056 29 164 31 26 31 27 44 23 617 1220 362 109 340
internal_value=0 0.0193934 -0.0157098 0.0153325 0.0325717 0.00936553 0.0469548 -0.0107141 -0.00971776 -0.0133488 -0.0262338 -0.0071138 0.0106933 0.0119073 -0.00836697 -0.00743258 -0.00656652 0.00303276 0.0104256 0.0135428 0.0690288 0.0339536 -0.0252647 -0.0242056 -0.0857849 0.0113194 0.00849456 0.0151704 -0.00324755 0.0194148
internal_weight=0 1120.15 1383.16 1047.39 269.314 778.072 181.122 1218.75 27.9067 1128.01 367.839 760.168 768.622 758.593 751.014 745.114 740.137 88.1917 745.744 684.162 26.3592 19.3018 12.4565 61.5824 16.1952 657.803 618.562 469.712 186.688 98.3475
internal_count=11142 5026 6116 4571 1239 3332 858 5188 127 4807 1661 3146 3281 3238 3109 3083 3063 381 3179 2927 115 84 53 252 67 2812 2648 2031 811 449
is_linear=0
shrinkage=0.1


Tree=15
num_leaves=31
num_cat=0
split_feature=14 1 41 9 3 0 66 1 30 16 101 39 21 5 1 31 91 30 16 91 3 33 7 100 38 52 23 28 10 10
split_gain=64.013 33.0183 18.5748 11.9227 11.2617 13.2275 10.8386 9.30894 13.725 9.15646 14.7093 8.47312 9.14787 8.37706 8.47846 8.23416 7.72428 7.20566 7.13146 7.11737 7.11523 7.0769 6.93365 7.45995 7.1777 13.2075 6.83609 6.78395 7.68267 8.64999
threshold=101.27098579856897 10.500000000000002 -49.971985312734311 -89.010899417168375 7.4218408438904371 4.0000000000000009 1542.7393770600791 91.500000000000014 225.21379516606865 1586.9300253301631 1441.8071875046542 1812.3574870238051 -522.17812405507061 1637.3607410398829 61.500000000000007 1657.8762015413849 313.02888967261111 33.608539580677423 1589.4831021595135 1.0000000180025095e-35 52.850425131388995 -674.48096001161059 64.643888556550138 0.57463134676800121 865.07462263229343 1559.3116559062489 -7759.1607020661586 1492.8692187985714 109.70543582912968 109.37273622875286
decision_type=2 2 2 2 2 2 2 2 2 2 2 2 2 2 2 2 2 2 2 2 2 2 2 2 2 2 2 2 2 2
left_child=2 3 26 -2 22 7 9 11 -9 13 18 -6 -13 -4 -15 -7 -12 21 -11 -8 -17 -16 23 -3 -24 -26 -1 -21 29 -29
right_child=1 4 6 -5 5 15 19 8 -10 10 16 12 -14 14 17 20 -18 -19 -20 27 -22 -23 24 -25 25 -27 -28 28 -30 -31
leaf_value=0.045187182175825902 0.030146067066556977 0.01903213869996213 0.029939178117583006 0.079417530742196749 0.019327176246668899 0.10757393208744417 0.11953624185142127 0.04752842690427956 -0.11547180905477197 0.090232562037255881 0.19190344640766521 -0.15508500558912078 0.0065867367135289852 0.050161573527485126 -0.054870541928645468 -0.049740901877784675 0.043337240940599694 -0.065910271718690627 -0.049269270341019446 0.015943981921335844 0.054606739950535568 0.088720434531515291 -0.0033299054775160694 0.12323908063145546 0.073556092459641759 -0.066645631827330312 -0.07358358908036268 -0.027087308724346715 -0.062346949162185805 0.11267316894021323
leaf_weight=5.1245101094245902 160.67915497720242 40.813294231891632 36.045273512601852 70.730025708675385 297.41987380385399 23.764661490917206 3.3049362599849692 8.4591920822858828 13.26843601465225 5.1744463294744518 8.1150676906108838 5.8825521916151038 8.6407546252012235 11.077208712697027 6.8175318688154221 8.2059955149888975 6.1531049609184256 42.485769033432007 12.558312088251112 32.975092887878418 32.084446951746941 6.9124384671449643 1080.1620418429375 8.2601411491632444 28.976085171103477 8.7476068884134275 89.184034109115601 352.41379146277905 66.521715104579926 4.4847567975521079
leaf_count=26 751 167 159 473 1351 108 15 35 55 23 35 25 41 46 30 36 26 180 55 147 155 29 4447 35 119 36 505 1722 290 20
internal_value=0 0.00994962 -0.0258973 0.0452058 0.0047354 0.0192674 -0.0193623 0.0112771 -0.0520111 0.00551129 0.0522526 0.0156852 -0.0588971 -0.00896319 -0.0298011 0.0608899 0.127835 -0.0455576 -0.00856242 -0.0266853 0.0333541 0.0174212 -0.000217423 0.0365725 -0.00183244 0.0410452 -0.0671299 -0.0277441 -0.0311465 -0.0253311
internal_weight=0 1796.09 689.348 231.409 1564.69 397.726 595.039 333.671 21.7276 135.339 32.0009 311.943 14.5233 103.338 67.2929 64.0551 14.2682 56.2157 17.7328 459.7 40.2904 13.73 1166.96 49.0734 1117.89 37.7237 94.3085 456.395 423.42 356.899
internal_count=11142 7834 3308 1224 6610 1806 2777 1507 90 583 139 1417 66 444 285 299 61 239 78 2194 191 59 4804 202 4602 155 531 2179 2032 1742
is_linear=0
shrinkage=0.1


Tree=16
num_leaves=31
num_cat=0
split_feature=4 18 4 47 9 3 30 36 33 24 2 20 24 32 7 28 6 28 47 44 35 73 107 47 50 36 85 85 20 48
split_gain=53.7731 27.9942 11.8408 9.34711 8.6653 7.7822 7.52268 7.39575 8.72514 7.26933 10.5362 10.3238 9.4702 9.95909 8.20757 7.52763 7.86797 7.65989 7.58853 7.31773 6.89372 9.679 8.1507 11.2333 11.6868 9.1659 8.67383 9.64302 9.00599 13.8704
threshold=23.489798550657614 353.1418959617161 -308.82377502083847 1511.1834293133763 -118.77428000595124 147.8920940576086 47.427698549861596 1796.666379246449 -833.33926153953814 1817.8430169959631 68.500000000000014 1729.5134124489302 1797.4951034728442 1564.3326411236665 66.677078811989759 1506.8063308285361 1794.7010230801661 1612.1067861849892 1465.6442339772273 1430.4655711772496 1180.5295075090157 1555.7011990455289 -156.55819927213039 1413.9219593969583 93.097911168637111 1694.6289816777755 1623.5993289319256 1631.6545773853502 1863.5667383988309 1695.6417643360685
decision_type=2 2 2 2 2 2 2 2 2 2 2 2 2 2 2 2 2 2 2 2 2 2 2 2 2 2 2 2 2 2
left_child=2 4 7 -3 -2 -5 -6 -1 -9 10 15 12 13 14 -12 16 -8 -17 -19 -15 21 -4 23 24 25 -22 28 -28 -24 -30
right_child=1 3 20 5 6 -7 9 8 -10 -11 11 -13 -14 19 -16 17 -18 18 -20 -21 22 -23 26 -25 -26 -27 27 -29 29 -31
leaf_value=-0.086228141178518264 -0.0016046559612051183 0.030158681938786448 0.044828929074509881 -0.028745354203290413 0.046444233356063763 0.089399107527201246 -0.056901684844533874 -0.12169632983143755 0.087431057817314084 0.016382191855244602 0.035145384597930394 0.1076658884700693 -0.092458421759992554 0.064523495392233621 -0.076629056369388757 0.096372950150886982 -0.21634475691176711 -0.11849995583469718 -0.0052896333293018594 -0.015487736108535662 0.18979976919047567 -0.048093756815413002 0.034567842426833618 -0.039284320263182064 -0.087325574999119013 0.029242187473382326 -0.12083042723444393 -0.013768659690124752 -0.053056786779484916 0.061638244096453826
leaf_weight=43.872425049543381 936.41391585767269 152.53246193379164 12.305202066898344 6.2310010790824881 62.509368702769279 52.989743500947952 9.0806291401386243 3.0669590532779694 5.7081376910209638 434.03134892880917 10.161996871232988 9.5255958586931211 10.215873658657072 32.821240290999413 18.582625970244408 4.6187295317649868 4.6951816678047171 8.8945809751749056 17.709756791591644 17.539140284061432 4.2553326189518001 125.88934920728207 85.446425884962082 178.22584165632725 7.3390300869941703 21.623125791549683 8.977332189679144 133.80061374604702 35.264397606253624 15.040985330939291
leaf_count=293 3827 794 57 35 269 375 39 21 38 1924 44 42 44 143 78 20 20 37 77 76 19 602 365 884 34 102 41 604 168 70
internal_value=0 0.00911046 -0.023912 0.0432499 0.00452577 0.0769684 0.0134901 -0.0694659 0.0143395 0.0099254 -0.009557 0.00870356 -0.00185025 0.00985118 -0.0371138 -0.0496689 -0.111244 -0.0225015 -0.043139 0.0366578 -0.0200941 -0.0398197 -0.0145306 -0.0293336 0.0240561 0.0556435 -0.00329303 -0.0205003 0.0148048 -0.0187637
internal_weight=0 1788.55 680.815 211.753 1576.8 59.2207 640.386 52.6475 8.7751 577.877 143.845 98.8465 89.3209 79.105 28.7446 44.9989 13.7758 31.2231 26.6043 50.3604 628.168 138.195 489.973 211.443 33.2175 25.8785 278.53 142.778 135.752 50.3054
internal_count=11142 7844 3298 1204 6640 410 2813 352 59 2544 620 427 385 341 122 193 59 134 114 219 2946 659 2287 1039 155 121 1248 645 603 238
is_linear=0
shrinkage=0.1


Tree=17
num_leaves=31
num_cat=0
split_feature=4 71 69 4 109 36 29 30 8 106 12 51 6 3 51 41 23 30 31 11 82 29 48 50 44 30 7 24 2 6
split_gain=44.1635 23.6624 13.4848 10.6037 8.70344 11.798 8.34815 7.55048 6.97375 7.43793 9.51132 8.7491 9.00346 8.64033 8.83221 7.03894 10.1825 8.66606 8.2555 10.927 7.66566 6.91709 7.86292 6.8457 9.31729 7.44952 6.83776 6.75568 6.63379 12.3377
threshold=23.489798550657614 3.7831109766821105 1671.4482834240241 -234.65338554974628 1529.7447040521142 1675.0056249752138 -284.89437356336549 39.801430944265469 68.724726238968103 1516.2677175534088 1533.7428718090664 1571.416406776674 1847.425789141558 45.590656551295076 1557.8577128912759 62.016196688169551 1959.3584899527539 140.11897629479679 1700.5273404088023 1558.4950280809178 1487.9621856667579 -50.871049979656497 1597.4023350470432 171.94472570940687 1437.8421642003884 263.60565778586709 67.439067605600528 1876.7968632359136 89.500000000000014 1582.399879307394
decision_type=2 2 2 2 2 2 2 2 2 2 2 2 2 2 2 2 2 2 2 2 2 2 2 2 2 2 2 2 2 2
left_child=3 -2 4 7 21 -6 -7 -1 9 10 11 12 13 -8 -15 16 17 -11 19 -19 -20 22 -3 24 25 -17 -10 -26 -23 -30
right_child=1 2 -4 -5 5 6 8 -9 26 15 -12 -13 -14 14 -16 23 -18 18 20 -21 -22 28 -24 -25 27 -27 -28 -29 29 -31
leaf_value=-0.071223559727684724 0.001709277678796721 -0.019751261067535549 0.074674561428437911 -0.01680052354622695 0.068170311099777878 -0.14134673819807489 0.050117573826394382 -0.0079815384778382237 0.014842639236587183 0.14544119618197104 -0.14981589413892329 0.089141421190768053 0.094768457372860521 -0.045404551677765442 -0.20290956342207911 0.0042471064569638726 -0.10253657406597393 0.0065750293443418194 -0.0079378584205402163 -0.19602891506850631 0.14784579918509511 0.018087984000820401 0.093109617660385835 0.10607632659235362 -0.067124432425862329 -0.16428476760933297 0.066224816558037483 0.052802161979711132 0.020380865006825639 -0.14298974939683848
leaf_weight=66.318721413612366 1346.8292051255703 16.329126030206684 55.330369994044304 580.39517536759377 59.956892170011997 3.2070453390479079 4.9094604104757407 26.390699252486229 50.711809322237968 4.3324709087610271 5.7342553436756125 6.9633735865354529 4.2381020933389655 9.8770768791437131 5.5668577253818503 7.0502468198537809 9.8564205616712552 6.8834676593542117 9.7351410984992963 4.3405992835760117 4.6758023500442496 10.178037330508234 9.925031825900076 12.204480104148386 5.1855601221323004 4.1765172630548477 52.93323277682066 49.875258326530457 7.4229984581470516 12.253133296966551
leaf_count=449 5594 72 386 2682 305 17 22 167 242 21 27 41 21 47 29 34 49 31 47 20 22 46 45 73 25 20 275 248 32 53
internal_value=0 0.00825188 0.0285624 -0.0218169 0.021822 0.0281476 0.0190047 -0.0532211 0.0209883 0.00760275 -0.0313416 -0.00981209 -0.0378319 -0.0654428 -0.102178 0.0198767 -0.0143664 0.0146331 -0.00747425 -0.0717765 0.042608 -0.0145271 0.0229143 0.0372503 0.0245785 -0.0584492 0.0410844 0.0415076 -0.0474535 -0.0813567
internal_weight=0 1780.68 433.853 673.105 378.522 322.414 262.457 92.7094 259.25 155.605 37.2891 31.5549 24.5915 20.3534 15.4439 118.316 39.8239 29.9675 25.635 11.2241 14.4109 56.1083 26.2542 78.4921 66.2876 11.2268 103.645 55.0608 29.8542 19.6761
internal_count=11142 7844 2250 3298 1864 1616 1311 616 1294 777 187 160 119 98 76 590 190 141 120 51 69 248 117 400 327 54 517 273 131 85
is_linear=0
shrinkage=0.1


Tree=18
num_leaves=31
num_cat=0
split_feature=10 1 41 10 15 19 43 1 108 7 107 91 49 86 39 30 25 25 14 29 10 30 40 49 30 104 50 21 1 41
split_gain=37.3353 19.5981 12.0416 11.9086 10.0839 8.51702 9.16343 8.9254 8.14441 7.7387 10.5571 10.4812 7.52611 12.2526 9.45794 8.79812 8.82502 9.14782 7.49146 10.7111 10.3369 9.01213 8.36698 8.7172 7.66528 7.62093 8.43429 7.36325 14.551 7.3952
threshold=119.16096340491937 13.500000000000002 -49.971985312734311 181.71387957908146 1651.2744026145836 1533.7939306333374 1568.2775753250073 126.50000000000001 116.59776964501044 85.314098128598459 -122.73452144971426 178.84799390132801 -129.98558212856048 1765.2822657896729 1741.2508737468825 -51.647697405270826 483.81914353077985 -660.3445602328743 115.63836370064202 -89.119357118589491 135.97128997168718 75.18626017524447 1230.2319110126857 -129.98558212856048 35.72935690136979 98.190330895822299 104.61247634570306 -8497.4047816741895 44.500000000000007 66.546615230410126
decision_type=2 2 2 2 2 2 2 2 2 2 2 2 2 2 2 2 2 2 2 2 2 2 2 2 2 2 2 2 2 2
left_child=2 3 -1 -2 9 6 -4 -8 12 18 -11 -12 15 14 -14 16 17 -7 19 21 -20 24 -23 -24 -3 -22 -27 28 -17 -29
right_child=1 4 5 -5 -6 8 7 -9 -10 10 11 -13 13 -15 -16 27 -18 -19 20 -21 25 22 23 -25 -26 26 -28 29 -30 -31
leaf_value=-0.052436980248780608 0.027620523073171612 0.047666102180841774 0.1757139925870248 0.10751790998014646 0.10165450483668036 0.11588391708156674 0.10832657942528068 -0.068393140621131429 -0.03206365124153434 -0.039053155599506714 0.13649127343669287 -0.01475840482865088 -0.061163208137946512 0.17849455913441203 0.10219986768941183 0.22075740333305541 0.058027677864577493 -0.071323743767256961 -0.0074863747755573489 -0.026968709186036117 -0.087767545269777605 0.13417878809669728 0.10639293864410813 -0.0083967779218305835 -0.064073997790517742 0.099309494723143099 0.011422221273572265 -0.012681412299658155 -0.00070115803411547782 0.028645514585519883
leaf_weight=86.275146678090096 248.54357269406319 16.343495413661007 4.7331859469413784 20.168788753449917 10.49327742308378 2.75719030201435 5.1646221578121168 6.3990354835987091 195.71515335142612 81.848926931619644 7.4097490757703808 12.004129976034163 8.8890372067689913 5.5263804495334616 5.8937203586101523 4.213774472475051 7.0360819250345221 48.95396426320076 502.33360420167446 22.669888809323311 7.596823424100875 17.213085696101189 12.311089023947718 14.300089344382284 9.8326467871665937 11.119651377201079 606.14551444351673 400.26246313750744 10.026879981160162 48.551846727728844
leaf_count=522 1309 67 21 167 51 16 24 32 875 353 31 49 39 24 25 20 33 258 2038 92 32 70 50 58 40 48 2683 1860 49 206
internal_value=0 0.00898266 -0.0170472 0.0336174 0.00401153 -0.0129985 0.0585084 0.0105344 -0.0145779 0.00323599 -0.023328 0.0429695 -0.0082651 0.0514588 0.00396783 -0.0105896 -0.0470453 -0.061342 0.0054411 0.0327722 0.00319412 0.0521195 0.07985 0.0447082 0.00569273 0.0117803 0.0130055 -0.00596454 0.0648279 -0.00821075
internal_weight=0 1600.33 840.398 268.712 1331.62 754.123 16.2968 11.5637 737.826 1321.13 101.263 19.4139 542.111 20.3091 14.7828 521.802 58.7472 51.7112 1219.87 92.6703 1127.2 70.0004 43.8243 26.6112 26.1761 624.862 617.265 463.055 14.2407 448.814
internal_count=11142 7138 4004 1476 5662 3482 77 56 3405 5611 433 80 2530 88 64 2442 307 274 5178 377 4801 285 178 108 107 2763 2731 2135 69 2066
is_linear=0
shrinkage=0.1


Tree=19
num_leaves=31
num_cat=0
split_feature=14 18 95 0 48 36 44 47 35 23 95 26 5 40 22 23 12 16 52 47 44 25 29 34 52 27 8 47 39 47
split_gain=31.2784 17.7341 12.6292 8.67578 8.16438 7.5605 7.25093 12.0218 7.151 9.52661 10.8131 10.3135 8.77055 7.88261 11.0756 7.05068 6.62895 7.27963 11.281 11.4216 6.50006 6.33909 10.6354 16.7642 7.48087 6.90813 6.74954 13.396 10.3706 8.288
threshold=101.27098579856897 353.1418959617161 -53.34652051326065 4.0000000000000009 1592.6399161434949 1651.9522345154191 1420.0015538898613 1486.7540989830275 1138.6014940919151 1674.4765162019883 62.739669860091915 1325.5191190447413 1831.1457242609936 1190.3651823717767 58.103183348231035 -7759.1607020661586 1542.7393770600791 1586.9300253301631 1549.593479061891 1441.8071875046542 1463.2755387381417 -617.32004355538709 -175.87152594073538 -263.37891977851183 1531.6727308631869 1663.2270459523018 78.638248633272198 1492.729326573065 1760.5255720239904 1504.5590885660374
decision_type=2 2 2 2 2 2 2 2 2 2 2 2 2 2 2 2 2 2 2 2 2 2 2 2 2 2 2 2 2 2
left_child=2 -2 15 4 8 -6 7 -7 -3 10 12 -11 -10 14 20 -1 17 -4 19 -19 -13 22 23 -18 -23 -25 27 -26 -29 -30
right_child=1 3 16 -5 5 6 -8 -9 9 11 -12 13 -14 -15 -16 -17 21 18 -20 -21 -22 24 -24 25 26 -27 -28 28 29 -31
leaf_value=0.060645696950211769 0.0033976637902685563 0.14687414636329368 -0.0071741214465776987 0.073241680923780417 0.13582342626377128 0.029533811028382491 0.045197580823187256 -0.18735313377753587 0.075239458692051342 -0.12072679951134538 -0.20206919995679692 -0.1906943740875866 -0.07597962721351649 0.10567787505481321 0.060937453128128642 -0.064883822613554951 -0.059130427328272485 0.016104603058196939 -0.058441401435844448 0.15206428532326455 0.0037348113102385117 -0.081241289107010881 -0.077901699847506944 0.076161898294207497 -0.021073228052321754 0.230764618948025 -0.076469670262976075 -0.030111554256184853 0.16274839908262989 0.0013686833764100692
leaf_weight=4.7758860290050498 1566.030766159296 2.9408060610294333 103.57438482344151 45.882932133972645 7.8903716653585425 8.0581097230315191 73.435332410037518 3.7426547408103934 5.5695852190256181 4.525092050433158 4.5159715563058844 3.6690665334463182 12.318202927708624 11.617843233048914 11.388724222779272 70.891690015792847 6.6575137525796935 13.165157407522203 7.7292415350675574 11.643454059958456 3.2359751686453819 20.490748926997185 6.8081956803798667 7.1392835825681686 362.53528125584126 4.8560640215873718 19.655401915311813 8.4404610842466372 9.6447927057743055 4.7495227456092826
leaf_count=25 6630 14 450 305 45 41 471 22 24 23 21 20 56 71 70 452 39 59 34 49 21 95 32 35 1787 27 117 40 44 23
internal_value=0 0.00696917 -0.0185097 0.0351048 0.0236611 0.0421747 0.0335056 -0.0392527 -0.00517931 -0.0130462 -0.0638026 0.0199747 -0.0288957 0.0412604 0.00035068 -0.0569608 -0.0135539 0.00578795 0.0470488 0.0799147 -0.0995772 -0.0193916 0.0290765 0.0681229 -0.0222918 0.13875 -0.0193094 -0.016394 0.057895 0.1095
internal_weight=0 1764.82 662.757 198.791 152.908 93.1265 85.2361 11.8008 59.7813 56.8405 22.4038 34.4367 17.8878 29.9116 18.2938 75.6676 587.09 136.112 32.5379 24.8086 6.90504 450.977 25.4611 18.6529 425.516 11.9953 405.025 385.37 22.8348 14.3943
internal_count=11142 7834 3308 1204 899 579 534 63 320 306 101 205 80 182 111 477 2831 592 142 108 41 2239 133 101 2106 62 2011 1894 107 67
is_linear=0
shrinkage=0.1


Tree=20
num_leaves=31
num_cat=0
split_feature=57 10 0 48 39 41 104 20 83 83 10 49 33 83 15 19 31 49 83 7 57 47 5 11 23 38 31 20 12 17
split_gain=27.3451 14.4132 12.271 8.4534 10.691 10.4703 9.17194 9.09419 9.05701 8.41087 8.62852 9.38004 9.10011 7.7969 8.27114 9.91279 10.4614 7.75216 13.9679 10.8817 11.1605 8.50236 7.93193 7.54252 7.53574 14.2105 7.4025 7.36046 7.32397 7.15311
threshold=-57.969923663463526 90.174753623044367 4.0000000000000009 1614.1648795661258 1649.1456767873067 71.836082788637114 119.39864834667914 1689.9998539561745 36.848724774092382 -303.3787359007319 155.63003939541696 -92.511500002653392 -439.8606777856881 -334.92686707519016 1599.4999029772425 1813.8090299781072 1622.4612783982773 -121.57224250055047 -342.67845562692474 70.899016032274389 -76.706686966129936 1393.2469006637591 1730.2957677548891 1574.4556376942833 1534.2911832821603 539.70822018677757 1646.955584323011 1921.5929033789496 1507.6492152275785 -54.581356454856056
decision_type=2 2 2 2 2 2 2 2 2 2 2 2 2 2 2 2 2 2 2 2 2 2 2 2 2 2 2 2 2 2
left_child=1 24 23 17 6 8 -5 -7 29 -4 11 12 -11 -9 15 16 -15 21 -19 20 -20 -3 -21 -2 -1 -26 -16 28 -23 -6
right_child=2 3 9 4 5 7 -8 13 -10 10 -12 -13 -14 14 26 -17 -18 18 19 22 -22 27 -24 -25 25 -27 -28 -29 -30 -31
leaf_value=-0.058018794655192808 0.0060325974039571297 0.082402946246682485 -0.14637566063926041 -0.019600759142329685 -0.0094288387653875729 -0.11349644758491716 -0.11075976181927027 -0.1053147659206656 -0.085357812512889597 0.055151009570912561 0.07787592673549415 -0.038661326125226846 -0.070556430151563515 0.090009213163945098 -0.083665759529022166 0.13409592869626374 0.00070930654399342197 0.1110764647681582 0.04280266708301772 0.0042607800994898968 -0.055709330796758251 0.070289739500375356 -0.11668426585874991 0.04246730661936593 0.097328614434677413 -0.041238713143377834 0.01417341677149549 0.11969673246647845 -0.0095167378630320303 -0.077494028991823394
leaf_weight=81.951834425330162 621.02223829180002 11.559569403529165 2.3267710283398619 26.516314536333084 776.09066678583622 5.1553293764591208 18.907362222671509 4.6665415763854972 16.627428755164146 59.80683246254921 50.896609112620354 17.836652457714081 6.3722755312919608 20.62042698264122 8.9447772949933988 11.75659656524658 36.059540435671806 17.027280449867249 81.169673338532448 12.252367749810221 13.398495659232138 11.933393910527228 9.7277721762657148 62.539825528860092 10.124203383922575 27.514680422842503 57.08587957918644 4.6792837232351294 316.09529793262482 15.753308355808256
leaf_count=556 2821 48 12 122 3439 21 82 20 70 271 330 83 30 85 37 48 149 71 336 50 56 49 40 423 52 184 238 22 1329 68
internal_value=0 -0.007617 0.0148447 -0.00491169 -0.0101478 -0.00788805 -0.0575452 0.0169263 -0.0123167 0.0421327 0.0453838 0.0257001 0.0430469 0.0217589 0.0261688 0.0505303 0.033197 0.00602614 0.0264743 0.0141142 0.0288454 -0.00190771 -0.049266 0.00936605 -0.0410069 -0.00396652 0.00091973 -0.00483699 -0.00661345 -0.010783
internal_weight=0 1595.62 820.801 1476.03 998.184 952.76 45.4237 144.289 808.471 137.239 134.912 84.0158 66.1791 139.134 134.467 68.4366 56.68 477.843 133.576 116.548 94.5682 344.268 21.9801 683.562 119.591 37.6389 66.0307 332.708 328.029 791.844
internal_count=11142 7172 3970 6380 4379 4175 204 598 3577 726 714 384 301 577 557 282 234 2001 553 482 392 1448 90 3244 792 236 275 1400 1378 3507
is_linear=0
shrinkage=0.1


Tree=21
num_leaves=31
num_cat=0
split_feature=63 10 13 43 28 41 14 30 17 0 27 37 48 47 45 40 33 5 47 40 5 39 77 62 6 6 15 27 52 47
split_gain=23.0006 13.0577 10.4383 7.58107 20.0817 7.66215 6.90517 10.5474 8.847 6.85527 6.78926 7.04505 6.7026 6.68164 10.0757 10.6491 10.3837 9.95572 8.78847 7.32626 11.5296 13.0143 10.6192 8.93692 9.57236 7.23824 8.00333 12.5306 9.71036 7.02117
threshold=-113.64613648837484 90.982080566408072 -18.323044043662886 1634.4873968633476 1730.7524592806496 154.27566878511462 48.25381911374496 72.502746334051736 -379.21335918988774 4.0000000000000009 1531.1082129909289 194.05026344898184 1646.6025805424083 1458.5464299372754 -268.82051079965612 1209.0544009424564 -644.83697692027249 1816.2305835282814 1450.2380135071573 1156.8881546659202 1856.9682154803272 1733.3078465278347 1510.0139593245019 67.816948105826796 1750.464053423482 1920.2418864610236 1622.4857050681844 2464.5832265216509 1517.9504911792803 1440.8552536794723
decision_type=2 2 2 2 2 2 2 2 2 2 2 2 2 2 2 2 2 2 2 2 2 2 2 2 2 2 2 2 2 2
left_child=1 12 3 4 13 9 7 -3 10 -5 11 -8 -1 14 15 -2 -16 -15 29 -19 -21 23 -23 -22 -25 26 27 28 -24 -17
right_child=2 6 -4 5 -6 -7 8 -9 -10 -11 -12 -13 -14 17 16 18 -18 19 -20 20 21 22 25 24 -26 -27 -28 -29 -30 -31
leaf_value=-0.077408898170128068 0.11229180119945439 -0.048941142709508646 0.081513181395597989 0.018188793802700928 -0.13781085016206449 -0.04147296490776476 -0.042162982163679585 0.1680021847909875 -0.0024818333735253393 0.052628118783313638 -0.058552162964003701 0.12925016163628736 -0.023645289058909839 0.10990105200746235 -0.17049633486022453 0.003292109857085767 0.004577498898789386 0.05899783713611495 0.064710916061239451 -0.13514738699656412 0.12073839948963322 0.024291329116099034 0.077249641201766639 0.095836480613845518 -0.08090074494247404 -0.16029306432188306 0.060488233643500755 -0.19876228857099132 -0.11640827605786533 -0.14690439695248084
leaf_weight=30.778131581842899 6.9729945361614254 3.7068932205438596 23.908541791141033 332.17002475261688 10.491651177406309 18.59765762835741 5.4496893435716611 5.6672934591770172 1601.8904542699456 69.974010780453682 46.775412157177925 4.2813935130834579 94.030403956770897 10.51773154735565 8.2543125301599485 5.5875280946493167 5.7460323721170417 22.265044867992401 6.2413568943738928 6.3421277403831473 13.226739525794985 24.904874786734581 5.6615243107080513 5.791736036539076 6.5080756396055222 6.2503393590450278 5.9661493152379981 5.4185934364795676 4.7712313085794449 7.0259558111429214
leaf_count=215 31 22 225 1671 50 97 26 32 6810 383 261 21 621 46 35 24 25 105 27 27 60 112 27 27 30 27 29 25 21 30
internal_value=0 -0.00570463 0.0167403 0.0141096 -0.00385215 0.0212793 -0.00336985 0.0822149 -0.00385362 0.0241813 -0.0427421 0.0332538 -0.0369035 0.00507403 -0.0303273 0.00670381 -0.0986424 0.0170611 -0.0323453 0.00794434 -0.00545369 0.00502454 -0.0232403 0.0636798 0.00232129 -0.0654157 -0.0382349 -0.0753925 -0.0113163 -0.0803703
internal_weight=0 1792.58 612.594 588.686 167.944 420.742 1667.77 9.37419 1658.4 402.144 56.5065 9.73108 124.809 157.452 39.8282 25.8278 14.0003 117.624 18.8548 107.106 84.8414 78.4993 52.9727 25.5266 12.2998 28.0678 21.8175 15.8513 10.4328 12.6135
internal_count=11142 8008 3134 2909 758 2151 7172 54 7118 2054 308 47 836 708 172 112 60 536 81 490 385 358 241 117 57 129 102 73 48 54
is_linear=0
shrinkage=0.1


Tree=22
num_leaves=31
num_cat=0
split_feature=4 9 7 34 27 10 21 37 32 46 49 57 50 28 52 43 32 23 50 16 51 99 4 36 33 51 99 1 34 32
split_gain=19.7263 12.0724 7.71053 7.34756 9.04557 11.0005 8.57446 11.2696 8.7443 8.3923 8.16404 8.07359 9.01969 7.94787 8.65638 11.5119 7.75261 7.72368 8.06907 7.47879 7.89611 7.14295 7.01404 7.40953 7.98044 7.00356 6.89398 6.93543 7.8969 12.8946
threshold=23.489798550657614 -85.951877616334386 67.172193261379931 -249.89906470524076 2150.3310942925723 164.1066192631321 -157.59319105353993 328.93517501674484 1728.8425587871386 66.808756120373133 -76.793556122685217 45.590656551295076 175.92963803652154 1609.2026738161851 1507.6877621019601 1610.4934800446645 1581.1058808035953 1634.6346154341779 162.86869063757595 1668.6716292852359 1514.049461307583 -238.1479305162454 -308.82377502083847 1796.666379246449 -833.33926153953814 1557.8577128912759 -426.10927511189487 140.50000000000003 -258.6257272017578 1660.5960021179212
decision_type=2 2 2 2 2 2 2 2 2 2 2 2 2 2 2 2 2 2 2 2 2 2 2 2 2 2 2 2 2 2
left_child=22 3 25 6 9 16 8 11 26 13 19 -8 -13 14 15 -5 -6 18 -11 20 -10 -16 23 -1 -25 -3 -2 28 -28 -30
right_child=1 2 -4 4 5 -7 7 -9 10 17 -12 12 -14 -15 21 -17 -18 -19 -20 -21 -22 -23 -24 24 -26 -27 27 -29 29 -31
leaf_value=-0.072802223001233832 0.13044721564682046 0.055220407535249233 0.061199532783160239 0.054007021088833922 -0.031591764281276906 0.093182601830497369 -0.067309996226308483 -0.14561986021019746 -0.067269029855037729 -0.042601838143860565 -0.064051317414861295 0.088258089006201718 -0.049958737894311003 -0.012536649224204988 0.027618589074988809 -0.039236815210739767 0.029714484321489067 0.047902342437197473 -0.20460603593079796 -0.053678297784551167 0.043913970864818061 -0.06687543313563693 -0.012099903342885077 -0.11573772992040277 0.10318217651202582 -0.10214498634341357 0.00026290809722843533 -0.046551772861366893 -0.012353682027237212 -0.14247207553731175
leaf_weight=35.855260074138641 3.8262484073638907 5.2920719385147077 57.965398825705051 17.796362593770027 23.985438004136086 24.180492274463177 18.221258372068405 8.7842186838388425 6.7774213701486579 8.4715794026851672 9.8231567740440351 10.445522233843805 8.6156890690326673 142.26026536524296 242.89293332397938 51.721159979701042 147.32064299285412 4.6862663477659217 4.8258551359176627 9.735297389328478 111.04769629240036 8.2720485478639585 603.26426137983799 2.4190352633595467 5.3431808650493613 6.0743056461215019 738.18053478002548 36.74459944665432 30.228084206581116 10.181312233209608
leaf_count=293 16 31 490 74 111 130 77 43 28 35 44 51 48 599 1050 226 690 22 20 44 479 37 2946 21 38 38 3134 152 130 45
internal_value=0 0.00553965 0.0464322 0.00385108 0.0119049 0.0300431 -0.00158246 -0.0437226 0.000446989 0.00453215 0.0237938 -0.0197144 0.0257839 0.00713577 0.0158628 -0.0153666 0.0211307 -0.0624911 -0.101396 0.0305585 0.0375186 0.0245065 -0.0148998 -0.0536252 0.0349575 -0.0288772 -0.00346856 -0.00409701 -0.00209341 -0.0451375
internal_weight=0 1748.36 69.3318 1679.02 676.413 195.487 1002.61 46.0667 956.544 480.926 137.384 37.2825 19.0612 462.943 320.683 69.5175 171.306 17.9837 13.2974 127.56 117.825 251.165 646.882 43.6175 7.76222 11.3664 819.161 815.335 778.59 40.4094
internal_count=11142 7844 559 7285 2994 931 4291 219 4072 2063 595 176 99 1986 1387 300 801 77 55 551 507 1087 3298 352 59 69 3477 3461 3309 175
is_linear=0
shrinkage=0.1


Tree=23
num_leaves=31
num_cat=0
split_feature=14 47 107 34 33 94 39 50 91 31 33 38 100 50 7 42 41 11 16 31 22 75 27 34 77 109 38 7 52 31
split_gain=17.7867 12.9614 12.0876 9.22398 9.18093 8.45636 9.72089 7.90593 9.33927 11.169 7.8957 7.75757 7.74668 7.39332 6.737 6.68402 9.0868 8.47218 6.59545 6.54003 8.21783 6.47273 6.44686 8.00999 7.37759 6.55525 6.36819 8.68757 8.60325 7.4999
threshold=169.92679388077491 1470.4669398485505 -177.23325980827607 -264.32956956513004 -569.93240901543913 1131.5946984528557 1727.8593014561886 142.82364049444882 352.47426408707366 1582.0594857405715 -595.70712312635135 698.90155264343718 -72.117421652790071 105.5980071805583 65.26864822035833 363.63407842940313 17.993088623701741 1535.242616851853 1720.3441199427471 1662.9139844641884 -7330.4421467662933 -2249.867686371078 1705.5789910742817 -241.97771751337345 2063.3584078288113 1506.7511655558965 861.19354613332746 65.361165244710051 1558.1104907327178 1647.9547343506708
decision_type=2 2 2 2 2 2 2 2 2 2 2 2 2 2 2 2 2 2 2 2 2 2 2 2 2 2 2 2 2 2
left_child=2 4 3 7 5 6 -2 8 -1 -10 14 -12 -3 -14 -7 16 17 -15 26 -11 -21 -16 23 -5 -24 -25 -4 -28 29 -29
right_child=1 12 18 22 -6 10 -8 -9 9 19 11 -13 13 15 21 -17 -18 -19 -20 20 -22 -23 24 25 -26 -27 27 28 -30 -31
leaf_value=-0.077599219671163511 -0.026041564950218171 -0.10682196773294572 -0.0024319824071219764 0.16236018310801903 0.024121197324347116 -0.07548924439181369 -0.20407689981220917 0.080545600839076054 0.09319853146946927 -0.10816704391143098 -0.012378884729380597 -0.15566079824229473 -0.12463685839577368 -0.035614903748736833 -0.072070063099788792 0.059043037086846911 0.01028402107687771 0.087775855612110515 -0.10766008544757531 0.084117975357640859 -0.094718027599599727 0.021700013499654319 -0.03934741020597754 -0.020548322334442395 0.10786512998937897 0.096973892584837421 -0.084788063229746635 0.030015726157640615 -0.022184141633276335 0.12219099419801249
leaf_weight=63.530168972909451 7.8513270914554578 3.8871594965457907 1710.1431155800819 4.1957960501313236 84.566808968782425 9.9758166372776014 5.0327172949910164 4.4153733253478995 7.8227044716477421 9.4424870237708109 8.5189030915498716 6.7909416407346717 2.8506490141153327 6.7330760210752478 8.2310440689325315 89.466800697147846 113.23646645992994 32.062949307262897 5.8557330891489974 5.9294745698571205 4.5344680622220022 69.672659918665886 39.572565644979477 16.939707718789581 3.7246982455253592 6.5936809480190268 5.6925124228000632 19.634821467101574 13.534446865320204 16.037122920155525
leaf_count=409 35 18 7482 22 427 45 23 24 45 57 40 30 14 29 35 625 601 194 41 32 24 306 216 82 18 31 24 84 60 69
internal_value=0 0.0179612 -0.0041306 -0.029874 -0.000939934 -0.0191986 -0.0955851 -0.0501415 -0.0564645 -0.00804287 -0.00966106 -0.075934 0.0332382 0.0354663 0.00188461 0.0373561 0.024594 0.0663613 -0.00170729 -0.0478281 0.00662079 0.0117926 -0.00257299 0.0350736 -0.0266833 0.0123795 -0.00135577 0.0321689 0.0456993 0.0714552
internal_weight=0 448.877 1937.6 166.701 200.64 116.073 12.884 95.6747 91.2593 27.7291 103.189 15.3098 248.237 244.35 87.8795 241.499 152.032 38.796 1770.9 19.9064 10.4639 77.9037 71.0264 27.7292 43.2973 23.5334 1765.04 54.8989 49.2064 35.6719
internal_count=11142 2422 8720 960 941 514 58 591 567 158 456 70 1481 1463 386 1449 824 223 7760 113 56 341 369 135 234 113 7719 237 213 153
is_linear=0
shrinkage=0.1


end of trees

feature_importances:
point_glicko_rating_diff_high=38
glicko_rating_diff_low=26
a_return_first_won_glicko_rating=24
point_glicko_rating_diff_low=23
a_player_rank=22
glicko_rating_diff_high=17
b_glicko_rd=17
game_glicko_rating_diff_low=17
a_glicko_rd=16
tiebreak_glicko_rating_diff_low=16
b_player_rank=15
b_point_glicko_rating=15
b_service_glicko_rating=14
first_won_glicko_rating_diff_high=14
b_return_glicko_rating=13
a_return_glicko_rating=13
ace_glicko_rating_diff_high=13
a_return_ace_glicko_rating=13
a_glicko_rating=12
a_tiebreak_glicko_rating=12
b_first_won_glicko_rating=12
game_glicko_rating_diff_high=11
set_glicko_rating_diff_high=11
service_glicko_rating_diff_high=11
a_service_glicko_rating=11
a_first_won_glicko_rating=11
b_return_first_won_glicko_rating=11
b_glicko_rating=10
set_glicko_rating_diff_low=10
service_glicko_rating_diff_low=10
b_tiebreak_glicko_rating=10
return_first_won_glicko_rating_diff_low=10
b_return_second_won_glicko_rating=10
a_point_glicko_rating=9
b_game_glicko_rating=9
return_glicko_rating_diff_high=9
ace_glicko_rating_diff_low=9
return_ace_glicko_rating_diff_high=9
second_won_glicko_rating_diff_low=9
a_second_won_glicko_rating=9
b_set_glicko_rating=8
return_ace_glicko_rating_diff_low=8
tiebreak_glicko_rating_diff_high=7
a_ace_glicko_rating=7
b_return_ace_glicko_rating=7
second_won_glicko_rating_diff_high=7
surface_return_second_won_glicko_rating_diff_high=7
a_game_glicko_rating=6
b_ace_glicko_rating=6
return_first_won_glicko_rating_diff_high=6
best_of=5
a_set_glicko_rating=5
return_glicko_rating_diff_low=5
surface_glicko_rating_diff_high=5
surface_return_first_won_glicko_rating_diff_low=5
b_surface_return_second_won_glicko_rating=5
a_surface_return_second_won_glicko_rating=5
b_surface_glicko_rd=4
b_surface_point_glicko_rating=4
surface_tiebreak_glicko_rating_diff_high=4
surface_return_ace_glicko_rating_diff_high=4
surface_second_won_glicko_rating_diff_low=4
surface_return_second_won_glicko_rating_diff_low=4
first_won_glicko_rating_diff_low=3
surface_tiebreak_glicko_rating_diff_low=3
a_surface_tiebreak_glicko_rating=3
surface_glicko_rating_diff_low=2
b_surface_game_glicko_rating=2
a_surface_set_glicko_rating=2
a_surface_service_glicko_rating=2
b_surface_service_glicko_rating=2
surface_first_won_glicko_rating_diff_high=2
surface_return_first_won_glicko_rating_diff_high=2
surface_second_won_glicko_rating_diff_high=2
b_surface_glicko_rating=1
surface_point_glicko_rating_diff_high=1
surface_point_glicko_rating_diff_low=1
a_surface_game_glicko_rating=1
surface_set_glicko_rating_diff_high=1
surface_service_glicko_rating_diff_high=1
surface_return_glicko_rating_diff_high=1
surface_return_glicko_rating_diff_low=1
b_surface_tiebreak_glicko_rating=1
surface_ace_glicko_rating_diff_high=1
surface_ace_glicko_rating_diff_low=1
b_surface_return_ace_glicko_rating=1
b_surface_ace_glicko_rating=1
surface_first_won_glicko_rating_diff_low=1
a_surface_return_first_won_glicko_rating=1
surface_Clay=1

parameters:
[boosting: gbdt]
[objective: binary]
[metric: binary_logloss,auc]
[tree_learner: serial]
[device_type: cpu]
[data_sample_strategy: bagging]
[data: ]
[valid: ]
[num_iterations: 300]
[learning_rate: 0.1]
[num_leaves: 31]
[num_threads: 0]
[seed: 0]
[deterministic: 0]
[force_col_wise: 0]
[force_row_wise: 0]
[histogram_pool_size: -1]
[max_depth: -1]
[min_data_in_leaf: 20]
[min_sum_hessian_in_leaf: 0.001]
[bagging_fraction: 1]
[pos_bagging_fraction: 1]
[neg_bagging_fraction: 1]
[bagging_freq: 0]
[bagging_seed: 3]
[feature_fraction: 0.9]
[feature_fraction_bynode: 1]
[feature_fraction_seed: 2]
[extra_trees: 0]
[extra_seed: 6]
[early_stopping_round: 0]
[early_stopping_min_delta: 0]
[first_metric_only: 0]
[max_delta_step: 0]
[lambda_l1: 0]
[lambda_l2: 0]
[linear_lambda: 0]
[min_gain_to_split: 0]
[drop_rate: 0.1]
[max_drop: 50]
[skip_drop: 0.5]
[xgboost_dart_mode: 0]
[uniform_drop: 0]
[drop_seed: 4]
[top_rate: 0.2]
[other_rate: 0.1]
[min_data_per_group: 100]
[max_cat_threshold: 32]
[cat_l2: 10]
[cat_smooth: 10]
[max_cat_to_onehot: 4]
[top_k: 20]
[monotone_constraints: ]
[monotone_constraints_method: basic]
[monotone_penalty: 0]
[feature_contri: ]
[forcedsplits_filename: ]
[refit_decay_rate: 0.9]
[cegb_tradeoff: 1]
[cegb_penalty_split: 0]
[cegb_penalty_feature_lazy: ]
[cegb_penalty_feature_coupled: ]
[path_smooth: 0]
[interaction_constraints: ]
[verbosity: 1]
[saved_feature_importance_type: 0]
[use_quantized_grad: 0]
[num_grad_quant_bins: 4]
[quant_train_renew_leaf: 0]
[stochastic_rounding: 1]
[linear_tree: 0]
[max_bin: 255]
[max_bin_by_feature: ]
[min_data_in_bin: 3]
[bin_construct_sample_cnt: 200000]
[data_random_seed: 1]
[is_enable_sparse: 1]
[enable_bundle: 1]
[use_missing: 1]
[zero_as_missing: 0]
[feature_pre_filter: 1]
[pre_partition: 0]
[two_round: 0]
[header: 0]
[label_column: ]
[weight_column: ]
[group_column: ]
[ignore_column: ]
[categorical_feature: ]
[forcedbins_filename: ]
[precise_float_parser: 0]
[parser_config_file: ]
[objective_seed: 5]
[num_class: 1]
[is_unbalance: 0]
[scale_pos_weight: 1]
[sigmoid: 1]
[boost_from_average: 1]
[reg_sqrt: 0]
[alpha: 0.9]
[fair_c: 1]
[poisson_max_delta_step: 0.7]
[tweedie_variance_power: 1.5]
[lambdarank_truncation_level: 30]
[lambdarank_norm: 1]
[label_gain: ]
[lambdarank_position_bias_regularization: 0]
[eval_at: ]
[multi_error_top_k: 1]
[auc_mu_weights: ]
[num_machines: 1]
[local_listen_port: 12400]
[time_out: 120]
[machine_list_filename: ]
[machines: ]
[gpu_platform_id: -1]
[gpu_device_id: -1]
[gpu_use_dp: 0]
[num_gpu: 1]

end of parameters

pandas_categorical:[]
